-0.676003
-0.055245
-0.384038
-1.02526
-0.933306
-0.94405
1.66853
-1.46406
-1.56919
0.510042
1.12309
-1.93653
0.542696
0.16452
1.66506
-1.62315
1.05714
-0.357776
-0.967377
-0.855954
0.868408
-0.0946714
1.18876
0.264569
-0.485224
1.047
-0.0430208
0.252038
0.724603
2.28676
0.171343
-0.369384
-0.917072
0.846774
1.29841
0.615593
-0.572979
-0.337036
0.203823
-1.11779
-1.27933
0.906065
0.0784008
0.0919005
0.842286
0.823492
0.198663
-0.618151
-0.747495
0.107858
-0.0901669
1.56042
-0.781217
-0.0707688
-0.63702
-0.483667
-1.35791
-1.56573
-0.00517014
-2.57039
0.659577
1.26832
-1.58917
-0.450982
-0.336733
-0.352261
0.974765
-1.91146
-1.75408
0.904176
-1.09452
-0.0829773
-0.864886
-1.27177
-0.727995
1.26611
-0.210452
-0.568304
-0.992583
-0.480969
1.14895
0.664121
1.70347
-0.0463641
-0.166966
-1.16833
0.496168
0.477972
-2.28946
-1.30092
0.264325
-0.937137
-0.61254
-0.196171
-0.100592
0.69515
-0.733608
0.70878
-1.7901
0.706342
1.13563
-0.501301
-0.592717
-0.27522
-0.636322
1.31116
-0.739171
-0.531172
2.2406
-0.185173
1.80412
-0.44293
0.00766469
0.758807
-0.768832
1.37704
-0.234701
0.820185
0.452899
1.68905
-0.400728
0.513258
-0.0725803
0.570273
0.712202
0.0705222
-0.37105
0.343035
-0.124987
0.86537
-0.381309
1.18089
-0.807275
-1.41039
1.54191
2.03812
-0.605807
-0.194429
0.168787
0.317896
0.299599
1.90875
0.632716
1.66615
1.04927
-0.507106
-0.33779
-0.560505
-0.38414
-0.638544
-0.426779
0.0188056
2.14531
-0.68635
0.793318
0.107961
0.551479
1.46055
1.51656
2.2166
-1.12566
0.213408
-1.31918
-1.63308
2.89557
-1.725
-0.337275
0.981729
-0.113361
0.623995
-0.568283
-0.228023
1.0597
-0.102838
-1.26429
-0.222962
0.407204
0.895806
-0.446794
-0.205901
-0.685522
0.079016
-0.869942
-0.704696
0.947815
-0.922474
-1.00985
-0.428438
0.0558314
0.559027
1.98357
0.574319
-0.559838
1.02168
1.69657
-0.0701018
0.477835
0.538029
-1.88486
2.14043
0.128628
-0.0133833
1.04619
0.553449
-0.0894016
1.27459
0.179331
1.94636
-0.740106
-0.238299
0.169494
0.618255
0.287382
-1.39323
-1.29847
0.655502
0.455587
0.547592
1.21572
1.27128
0.980535
0.95307
2.53104
0.808564
1.44158
0.670588
0.377936
-0.411169
0.553859
1.02484
-0.808882
-0.318916
-0.394688
1.02388
-0.402104
0.963031
0.993392
2.11876
-0.698289
0.814341
-0.482056
-0.932261
1.27392
-0.472262
-0.814097
0.0762413
1.07795
0.467042
1.07947
-0.396498
-0.232219
0.718943
0.835386
-0.945015
-0.0504339
-1.32514
-1.17311
-1.73168
-0.0808846
1.17781
-0.0821014
-0.621133
0.508613
0.201911
-0.424476
0.473118
0.006712
-0.653671
0.782183
-0.594574
-1.24852
0.431501
0.359069
-1.5459
-0.703736
-1.86256
-0.726201
0.201744
0.091691
0.639754
-0.145222
-0.484997
0.356125
-1.29983
0.258256
-1.01568
2.19671
-0.363443
0.202292
1.18649
0.832223
3.3886
0.991195
-0.128186
0.310008
-1.0537
-1.40915
-0.0407784
0.846693
1.16075
-1.74202
0.747734
-1.08499
2.06262
-0.874083
-0.818193
-1.17478
3.2465
-2.12473
-0.814482
0.565608
1.48912
1.72932
-0.41619
0.388521
1.05365
1.74341
0.0101501
0.653857
1.55607
0.492524
0.34989
0.265033
-1.04973
-1.09818
-1.20254
-0.176086
0.0436694
0.776992
0.0783912
-1.68958
1.87013
-0.512779
-0.405227
-0.47099
-1.16207
0.693631
1.4128
1.00769
1.23815
-0.242248
-0.133093
-0.532017
0.339627
-1.21001
-1.18972
1.80415
-0.575943
-1.09452
-1.02135
-1.2655
-0.979696
-0.819504
-0.228171
-1.36132
-2.3098
0.69226
1.38519
0.305071
0.0821993
-1.2708
0.762996
0.205655
1.89295
1.06662
0.708569
0.449625
-0.619457
-0.54434
-0.289963
1.50211
0.220342
0.427036
0.135377
0.278534
-0.779472
0.372491
-0.569979
-2.67103
0.417245
-1.02518
-0.140844
-1.0505
0.684296
0.38641
-0.582129
-0.286282
-0.634018
-0.904693
0.522586
0.233073
-0.881864
1.73912
-0.504562
0.0141419
0.00950929
-1.8537
0.907193
-1.19093
-0.85651
-0.0136389
-1.09279
-0.209941
0.117101
-0.796605
-0.0241521
-0.835441
-1.57701
-1.57421
-0.385304
-1.02024
1.76978
-0.512754
1.82973
-0.978136
1.50749
-0.0917623
0.735553
-1.20061
-0.699005
0.46363
-0.727783
-2.30471
-0.739507
-0.523868
0.0576792
-0.266962
2.01051
0.239191
-1.37346
-0.123144
0.469404
-0.557979
0.482536
-0.967551
0.507866
-0.511152
0.244096
-0.483161
-1.78737
0.915095
0.924071
-0.885445
1.30378
0.686518
-1.45772
-0.375931
-0.300453
0.90187
-0.0905432
-0.50461
-0.201171
2.40649
-0.27688
1.02214
1.69261
0.0895134
1.66042
1.88051
-0.515674
0.521224
0.238412
0.322745
-0.392271
1.64878
-0.228284
-0.0292139
0.507129
1.12273
-0.226501
0.404495
-0.360898
2.8556
-0.192951
-0.53224
0.752367
-0.0931101
-1.02763
-1.29737
-0.504061
-0.54092
-0.823529
0.701504
1.1075
0.159021
1.44734
0.913012
2.19749
0.532254
0.680574
1.28359
0.704077
-1.339
-0.151977
-1.24334
-0.0525689
1.14631
0.13566
-0.258659
-1.29325
0.41451
-0.788839
-0.589674
1.41592
-0.886883
0.690945
-1.66474
-0.394662
-1.48773
-0.0184093
-0.464394
0.701314
0.340201
0.853519
0.915446
1.7164
1.07203
-0.0494631
1.04677
0.921551
-0.373819
0.923536
0.351812
0.819284
-0.459231
0.851095
0.193429
1.18742
0.475295
-0.122281
-0.267834
1.15429
-0.56729
2.84362
-0.882557
-1.08289
-0.313188
-0.937365
-1.12025
0.370496
-0.0916119
0.139693
-0.296349
-0.455497
-0.271593
1.9141
-0.368281
-0.61773
1.87495
-1.59096
-0.89113
0.310972
-1.00983
0.567701
0.27384
0.162005
0.373909
-0.892423
0.692235
-1.56376
1.1285
1.10001
0.346632
-0.0287582
-1.95429
0.394769
-1.37309
-0.0319721
0.318295
1.17256
2.43811
1.06797
0.758453
-0.00231665
1.38178
1.10004
0.692249
-1.09172
2.26367
-0.747432
0.921808
-0.723701
1.12618
0.569693
1.6151
0.0253044
-0.134948
-0.31672
1.08883
0.442823
1.28053
-0.294466
0.195366
-0.360542
1.20795
-1.28943
1.09232
-1.36386
-1.66675
-2.66958
1.9625
-0.0876865
-0.710626
-0.0530368
1.47124
0.489848
-1.02353
1.39377
-0.706668
-0.587347
-1.79538
-0.921314
1.19944
1.03677
-0.789201
0.384353
0.782238
-0.91905
0.302158
0.823277
-1.36354
-1.91593
-0.385205
1.35111
1.09819
-0.844144
0.924453
0.733123
-1.17252
-0.317564
2.90868
-0.0814601
0.354397
0.947227
0.916068
-0.631443
0.325133
-2.06032
-0.670894
0.494575
0.0461737
0.449542
2.89382
-0.174284
0.0626011
1.53126
0.401544
0.283434
0.443746
-0.715631
-0.434954
-0.836518
-1.40902
0.837415
-0.696547
-0.181065
1.4361
0.627339
-0.281722
0.166367
0.266206
-0.455865
0.0131556
1.46378
1.51615
1.02502
0.27846
0.983021
-1.80833
0.649741
0.805603
0.0100719
-0.0478435
-1.62753
-0.366789
0.0442346
1.11561
0.32123
0.161476
-0.937832
-1.67998
-0.575938
-0.552714
-0.0698691
-0.825786
-2.08586
0.217116
-0.181244
1.14016
-0.576024
-0.612551
0.196495
-0.637298
-0.0426137
-2.31881
1.39628
0.420579
-0.50663
-0.0677164
-0.0868474
-0.442814
-0.465716
0.834738
-0.53132
0.183861
0.726061
0.701068
0.650662
1.15682
0.133507
-0.665365
1.56618
-1.63962
-0.619979
0.324183
-0.490649
0.654751
1.87779
0.934476
-0.0027949
0.0742408
0.00886096
-0.541785
0.00190715
-0.744285
-0.202177
-1.46863
1.13107
0.274683
1.30519
0.165746
-1.35167
1.011
-1.19604
-0.361277
1.70128
-0.0855387
-0.46361
0.192528
-0.460953
0.34113
0.68438
0.848016
-1.24109
0.547172
1.09236
0.397073
-2.83082
1.28649
0.227086
0.439438
-2.91202
-0.160626
-0.0676937
0.987046
-1.22374
-0.416992
0.695799
0.72928
0.34682
-0.618866
1.06242
1.74763
0.0547151
-0.127094
0.0872001
-0.766362
-0.271905
0.802397
-1.89087
0.395376
0.696535
-0.369987
0.0779155
1.21891
0.625771
0.982782
0.529113
1.27929
-1.13366
-0.980001
0.827177
-1.04981
0.884141
0.649803
0.242224
-1.04549
-1.2653
0.468205
0.0251347
0.0537829
-0.0371945
-0.215367
-0.850566
0.697038
0.0846392
0.662875
1.58794
1.41846
-1.28751
1.62013
-1.56336
-1.15463
0.455215
1.1664
0.897111
-0.325895
-0.588391
1.68114
-1.18011
-1.01163
-2.01386
-0.0570866
-0.541416
-0.175914
0.877797
2.33502
0.560703
-0.331464
0.447373
0.277926
-1.26941
0.676107
1.21136
0.17897
0.71382
-0.171332
1.5205
-0.846024
0.205838
-0.31218
1.18975
-0.690473
0.724837
-0.73348
-0.620793
0.590411
0.381337
1.55184
-1.05439
0.870949
0.860306
1.8508
-0.0960157
-2.47313
1.19073
-0.38202
1.7476
-1.5315
1.00788
0.127348
0.497418
-0.768312
0.679942
0.865872
0.598986
-0.765921
0.253046
-0.174583
-0.797152
-0.92919
1.47872
-0.310365
-1.07062
-0.70768
-0.177786
0.405363
-0.00679241
1.00618
-1.04956
0.531158
-0.451034
0.371446
-0.780738
-1.1409
-1.32505
-0.832604
0.452623
0.214072
1.87757
0.106554
-0.858385
-0.735797
0.753386
-1.14739
0.118003
0.890562
0.329206
-0.293125
0.553351
0.650607
0.529033
0.95174
-0.287048
-0.484391
-0.587212
0.679346
-0.751361
0.16639
1.29553
1.93258
0.0791277
-0.33873
1.28964
-0.595146
-1.04588
0.0746125
0.923954
1.02074
0.852046
-0.32066
0.212178
-0.787106
1.2791
0.0610635
0.526269
1.14951
0.639286
0.324488
1.93581
-0.126634
0.00715262
0.159245
0.716021
-0.522331
-2.92979
-0.294131
1.20202
0.943003
0.95081
-1.13636
0.440662
0.279029
-0.387195
1.34501
1.00164
0.727939
1.37613
0.657594
-0.91131
0.144702
0.784111
2.19012
1.06912
-0.745049
-0.448977
-0.246612
0.533416
-0.398861
0.918051
0.606143
0.0674476
1.09043
-0.314751
-0.912705
-1.06904
0.300359
0.0377564
-1.57834
-0.0601046
0.724421
-0.147013
0.345162
-0.488534
0.279027
0.965463
-1.53129
2.2984
0.832858
-0.104744
-0.577851
-0.477732
0.0809421
-0.777064
-0.20564
0.210808
-0.860147
0.589103
-1.49407
2.07872
1.34995
0.443308
-0.823421
-1.09515
0.419194
0.73376
1.71226
-0.149019
-0.799426
-0.341195
0.796368
0.165525
1.93097
0.527009
1.18723
-0.0496857
0.948796
1.34676
-0.82617
0.286128
-0.193964
-0.303285
0.660944
0.520616
0.0189645
0.359298
-0.482537
-0.496201
-0.128202
-0.733861
-0.133767
-0.197265
-0.239861
0.474503
-1.90388
0.98523
-0.477807
0.512556
-0.0155212
-0.733718
0.725824
-0.803088
0.60069
0.0973642
-1.34745
-1.80361
-0.118927
-0.436024
-1.74701
-0.687103
0.501265
-1.65738
-0.997511
0.878855
-0.862285
0.593202
-0.0537579
1.60579
0.890991
0.798649
1.49832
0.343189
0.964686
0.569061
-0.0508438
-1.10527
0.67665
-1.02596
-0.189242
-1.27872
0.639302
-0.480538
-0.890421
-0.158657
-0.463957
-0.556082
-1.02213
-1.2534
-1.50185
-0.539022
0.654721
-1.3896
-0.347474
1.13226
-0.723753
0.879379
0.0794743
-0.0724752
0.719479
-1.99611
0.445745
0.319943
-2.05007
-0.286967
-0.293631
-0.224566
-1.07899
-0.13029
1.4061
-0.346446
0.768784
0.160069
0.166324
-0.379132
0.567357
0.538849
-0.745747
0.989593
-0.177833
-1.78573
-1.29638
2.54362
0.952139
0.763874
-0.0395684
-0.727653
-1.47414
-1.29252
-2.95607
-1.16821
-0.465779
-1.25632
-1.46027
-0.236874
-1.07868
0.618714
0.294954
0.0957179
-0.675868
-1.45155
1.1183
-0.888072
-1.19695
0.899817
0.347281
0.126492
-0.645574
0.0364243
0.487776
-0.623375
-1.80198
0.264653
0.889982
-0.191964
-1.42049
0.316514
0.611252
2.09445
0.190872
1.06642
-1.44438
-0.711251
2.36356
-1.13257
0.719634
1.61987
-0.513624
0.509422
0.169273
0.555357
-1.53419
-0.60682
0.63866
-0.203621
0.582944
1.23541
-2.57856
-0.565951
0.681417
-0.612434
0.120805
-0.777508
0.92086
-0.559148
1.81198
-1.15826
-1.07459
-1.42717
1.86347
-1.78246
0.540821
0.137735
0.565455
0.295905
-1.67472
0.0618379
1.37114
-0.673183
-0.434356
0.109632
-0.40104
0.308755
-0.717451
0.46132
-1.18695
0.866916
0.546389
-1.45248
-0.975387
-1.30815
-0.254848
-0.351917
-0.526523
-0.534373
0.572493
2.92159
-1.087
-0.100253
-0.0672938
0.852993
-1.44754
-0.218253
-0.47003
-0.0877778
0.43537
2.52249
-0.816689
0.241531
1.04668
-0.636633
0.826655
2.00952
0.00363311
0.701001
0.10352
0.815852
-0.408977
0.810816
-1.0585
-0.688307
-1.91444
-1.17913
-1.33709
0.0187678
-0.0105389
-0.757884
-0.796861
0.211915
0.680913
-1.51708
-0.0532841
0.262563
1.09148
-0.0466626
-0.365205
-0.740003
1.19811
1.07155
-0.97934
1.22322
0.363844
-1.08578
0.676592
-0.0827868
0.950054
-0.082113
-0.634766
-1.72749
-0.0547692
0.572405
-2.60141
-1.11533
0.118068
0.092215
-0.0217991
-0.0663803
0.0796936
-0.676428
1.50895
-2.01625
-0.486211
0.611831
1.6088
-0.30365
1.02082
1.71873
-0.878104
-0.818345
0.695309
-1.64769
0.542012
-0.16312
1.24121
-1.10274
1.67178
-0.568793
-1.02475
-0.00240035
-1.1122
-1.55405
-0.607336
-1.95798
-1.77887
0.716861
0.796366
0.274423
-1.28936
2.13571
-1.24871
0.826556
-0.760587
0.150805
-0.716637
-0.281424
0.566017
1.35272
-0.81905
1.89609
1.1677
-0.261879
-0.563108
-0.312617
-0.126474
0.462952
-0.306014
-0.216496
-2.30539
-1.03409
-3.39972
0.0990721
-2.18645
-1.63315
-0.200422
-0.326474
-0.551834
0.384374
-0.748546
-1.29135
-0.532146
0.880603
0.839652
0.725936
0.948695
-1.96265
-1.11105
-0.570929
-0.113283
-0.406177
-1.02899
-0.485427
0.253447
-0.260143
-1.68643
1.06846
-0.453969
-2.48586
-0.365948
-1.78563
-1.93022
-0.736457
-0.99028
-0.0438657
0.300705
-1.43233
1.08081
-0.843115
2.57272
0.903389
-1.07111
0.044354
0.954037
-1.15097
-2.06843
0.675735
0.963721
1.17613
-1.30701
-0.147261
-0.73884
1.14674
1.03619
-1.29153
1.6244
-0.768598
-1.2184
-1.05905
0.70452
0.51844
0.417654
-0.855544
0.647678
0.332183
0.250743
0.482698
-0.141812
-0.14807
-0.920913
0.168004
0.262334
-0.692209
0.0916126
-0.702297
-0.670825
-0.223645
1.79307
-1.3051
-0.795958
-2.11659
-0.764287
-0.43551
-0.0207931
-1.20587
0.953662
0.468608
-1.3423
0.145055
0.833715
0.140265
1.65764
-0.289909
2.04975
-1.7059
0.369416
-0.370725
-0.459949
-0.425137
-2.42203
0.43696
-1.47142
-0.0355352
-0.74324
1.1749
-1.7102
0.146606
1.02412
-0.764627
1.13603
0.600618
-1.35928
0.738613
-0.541524
0.85672
-0.47018
1.03803
-0.349319
-0.5281
1.44095
0.403119
0.510912
-0.445589
-0.275834
1.13707
-0.0237007
1.22738
0.91198
0.920595
1.04674
-1.10662
-1.2245
-1.14261
0.540805
0.558514
0.53403
0.192875
1.76837
0.546958
0.305404
1.73816
1.75174
0.509107
2.18878
-0.252136
-1.22323
-0.546425
0.408345
0.678377
-0.946661
0.39833
-0.287388
-0.702192
-2.17253
1.55584
2.39296
-0.205945
0.80906
-0.20748
0.21828
0.541758
0.38718
0.609772
2.24904
0.732657
0.714091
0.75968
0.256529
0.0758465
0.47347
-1.09305
1.54928
-1.06082
-2.17708
0.981185
0.899527
-1.57028
-0.571793
0.304515
-1.19022
-0.0365601
-0.755724
-2.28358
1.08835
0.0948402
0.312744
0.823397
1.4295
-0.268844
1.13973
-2.63742
1.98806
0.219682
-1.88138
0.271525
-0.336354
-0.0311294
0.756133
0.180639
0.237827
0.588691
1.04743
-0.785648
-0.814501
-0.694437
-0.578377
-0.723613
0.603097
-0.49604
0.731121
-1.82689
-0.943889
-0.894212
-0.0588963
-0.656016
0.208829
-0.0566803
2.346
0.282431
-1.18058
-0.850782
-0.332525
0.2791
0.0420077
2.1983
0.769796
0.613208
-0.466413
-0.195322
-0.270693
1.35498
-1.17991
-0.680176
0.272781
0.692659
0.109541
1.02804
0.276855
0.100924
-1.05378
0.818647
0.385121
-0.0699384
-0.212835
-0.73964
-1.93086
0.709546
0.417739
-1.03948
0.0840864
0.700203
0.41664
0.144198
-0.240021
0.983269
-0.24114
0.168217
-0.954759
0.468962
0.043304
0.455431
-0.382971
0.95406
1.1327
0.752825
0.454923
0.800189
0.604617
0.677968
-0.407143
-0.360052
-0.296728
0.159719
0.499706
0.852413
1.029
-0.58056
-0.776846
-0.23998
-0.391242
-1.87661
0.0640527
-0.785546
0.483858
-0.339466
0.375034
1.53413
0.349552
0.217464
-0.0881217
2.46353
-0.916192
-0.293668
0.54357
-0.00311452
0.519361
1.94186
0.34378
1.62559
-1.74812
1.34202
-0.75434
0.879236
-1.13428
0.115657
0.926527
-0.328824
-2.21872
0.211351
0.490344
-0.854733
0.486954
0.0236125
0.517764
0.434243
1.23729
-2.07439
0.591938
0.408382
-0.648667
0.186572
0.273315
0.0971567
0.548904
1.46279
0.41924
0.96432
-0.691457
0.011678
0.754583
-0.0242264
-1.24777
0.775468
-0.52985
1.43803
0.441151
1.23591
-0.509993
-0.612429
-0.440152
0.952367
-2.04487
0.0355707
-0.252131
-0.982769
-1.78777
-1.27577
-0.484346
0.591676
-1.06045
0.671664
-0.456102
0.382621
0.88219
1.7975
0.311332
-0.366973
1.61185
-0.665446
-0.582273
1.23715
-1.83762
0.478375
1.91196
0.443539
0.070265
0.357351
1.01532
2.76561
0.601686
0.0698528
0.679372
0.628539
0.416514
1.53924
-0.603312
-0.216293
1.54317
-0.203546
0.918467
0.171113
-0.835401
-0.738861
0.38207
-0.813642
2.25161
0.495727
1.94892
-0.399224
0.308822
-1.54301
-0.358523
-0.979954
-0.09214
1.56753
0.296759
0.385367
0.363484
-0.515875
-0.506622
-0.216723
-0.00976899
-1.5621
0.0882798
0.0674504
-1.76878
-0.112591
1.38326
-0.604565
0.789973
-0.760015
-0.591488
-0.534162
0.0523178
-0.482673
-0.958729
0.617427
-0.119875
2.22415
-0.790981
0.642343
-1.08097
-0.542702
0.0419691
1.21215
0.892117
-0.718054
0.426641
-0.0474487
-0.916186
-0.73163
1.53512
-1.72216
0.187711
0.05924
-0.637406
1.4017
1.70326
1.21424
0.197783
0.0879875
1.12225
-1.02614
0.794132
0.54471
-0.595408
-0.41909
0.160175
-1.14848
-1.16638
1.82553
-1.61311
0.156552
2.69376
-0.447653
-0.679908
0.294597
0.132838
-0.750735
0.766556
0.879267
0.257485
0.574793
-2.06416
-0.371956
2.14104
-0.0483781
-2.49499
1.74132
-1.2733
-0.754719
0.465598
0.182821
0.318511
-0.549015
0.29178
0.897551
0.289137
0.383851
0.854158
0.399116
0.415571
-0.0266422
-0.284881
0.249732
1.26795
1.21297
0.389269
0.819891
-0.751674
0.615286
0.0556256
-1.22375
-1.07064
-0.957485
-0.221951
-0.778016
2.64557
-1.07445
0.330852
-0.126031
-1.25592
0.835759
0.430654
-1.19701
2.19346
0.381566
-0.210022
0.409155
0.929012
0.749313
-0.216471
-0.456819
-0.804478
-1.31877
1.15135
1.25013
-1.02168
0.893943
-1.07211
-0.191532
-0.118046
0.672787
-0.305969
-0.634859
-2.06552
-0.733297
-1.37442
-0.41805
0.426368
0.080167
1.09377
-0.143753
0.794294
0.450851
0.727939
0.604902
1.69637
1.00927
0.420778
0.113282
0.0888008
-0.0810311
1.73002
-0.935743
1.11504
-0.908119
-0.800317
1.80877
-0.338033
0.368367
-1.0908
-1.26901
0.629281
1.43312
-0.930344
0.0511142
-0.5728
0.938598
0.385227
-0.0125631
-0.0383813
1.14747
-0.0403778
-0.120698
0.235447
-0.400594
0.948093
-1.45265
-0.414615
0.973616
0.952964
-0.867727
0.449145
-0.216961
-0.199367
0.45744
-0.214239
-0.605894
0.969571
-1.58975
0.695158
-0.974344
0.943412
-0.393851
-0.49131
-0.00205012
-0.918745
-3.3962
2.27474
0.453157
-1.81869
0.00754444
0.214705
-0.139966
0.660802
-0.579674
1.15191
1.6973
-0.458456
0.914551
0.0983163
-0.0560902
0.954904
-2.18784
-0.800896
-0.114404
-0.0567744
-2.6084
-0.335924
-0.589581
1.43666
0.664661
0.469812
-1.3572
0.828109
0.30971
0.122905
-0.210217
0.457062
1.58861
-0.713261
0.246163
0.570772
0.437136
0.847071
0.539388
-0.0206964
-0.851885
0.833168
0.957448
0.809044
0.908287
1.43339
0.329011
-0.127065
-0.551809
0.359088
-1.81126
-0.452406
1.30888
-0.690605
0.108754
1.67916
0.027069
-0.203765
1.33375
0.455286
0.316435
-0.825495
1.4729
0.143364
0.52249
-1.93189
-0.994662
2.46491
0.158534
0.864186
-0.9779
0.276498
-0.526998
0.0669007
0.853319
1.51326
0.739247
-0.364587
0.0593569
0.520434
1.9137
-1.67991
0.960557
-0.133688
0.997062
0.553868
-0.329695
1.58639
-0.76216
0.659851
0.960968
1.27143
-0.509123
0.552582
-0.951467
-0.73597
-0.0127894
-1.25464
-0.39264
-0.0518055
0.921233
-1.54993
0.204361
0.446313
-1.04333
-0.583227
1.08508
-0.995187
-0.469281
0.0948689
-0.79774
0.175931
0.446715
-1.09446
-2.09331
-1.72275
-0.331674
0.217351
-0.437858
-0.0394585
-0.495457
0.243521
0.229948
1.61043
-0.554412
-0.657701
1.54143
-0.596596
0.455552
-0.455153
0.44611
1.52573
0.0443998
-1.78748
-0.0375094
-0.711244
-0.942927
-0.505124
-0.358837
0.117326
1.94804
-0.937094
-0.951359
0.879312
0.356907
0.490339
0.365195
-0.402195
-0.292414
0.254349
0.0961592
-1.28439
-0.110882
-0.910664
-1.81204
1.40554
-0.737249
-0.247722
0.954641
0.148215
-1.01929
0.517167
1.43635
-0.76924
0.000694413
-0.214919
1.2223
1.34501
1.06005
2.42122
-0.894348
0.603723
0.76694
-0.835605
-1.05339
-0.102632
0.994951
-1.33093
-0.544775
1.35239
-0.0865712
0.263341
-0.469563
-0.944534
1.7135
-1.00135
0.175717
-0.825039
-0.277572
0.599046
-0.147486
1.71665
-0.146226
-0.54591
-0.611785
0.673964
0.337678
-0.626796
0.0471144
1.52085
0.550179
2.48851
0.415011
0.165246
-0.914346
-0.423482
1.9615
-1.62195
0.831186
-0.209758
-1.73663
0.65081
2.81736
0.0796693
1.15368
-0.946333
-2.14753
1.09185
1.15511
-0.143598
-1.45728
1.08168
0.343158
0.126918
1.61073
-1.94408
0.506066
0.468005
-0.769891
0.518949
-0.997017
0.352499
1.0952
-0.171462
-1.37578
-0.023375
-0.78898
-1.60592
1.82452
0.872388
-0.858542
-0.40872
-0.436193
-0.985317
0.100466
-0.143853
0.172484
0.405865
1.11312
-0.312218
-0.0528997
0.180386
-0.346231
1.04594
0.600238
-0.274237
-0.245861
-1.07273
1.06067
-0.0963368
-0.889973
0.111788
0.367289
-2.37547
1.59656
0.271162
-2.05096
0.781224
0.442953
-1.67545
-0.37345
-0.570879
-0.780536
0.450919
-0.323
-1.11912
-0.928664
0.355322
-0.32973
0.584451
-0.0984716
-0.417017
-0.83708
1.1284
1.39453
0.0626099
-1.08947
2.35537
0.0544394
0.582482
1.21565
-0.22242
0.0999553
-0.905009
1.8194
-0.626311
0.428784
-1.2487
-0.193831
-1.43737
-0.220384
0.16564
0.547613
0.935263
0.280243
-0.333595
0.0646161
-0.446481
-1.04919
1.92199
-0.742524
0.214583
-1.37708
1.89434
1.73195
1.57815
0.697546
-0.976107
-0.545671
-1.18107
0.508222
0.609608
-1.41434
1.24139
0.95904
-1.6162
-0.330806
-0.355992
-0.288623
-1.35657
-0.799138
-0.848183
0.311796
-1.1713
0.908117
1.01198
-2.09513
0.616746
-1.19272
-0.071913
-0.167382
0.197334
0.253293
0.955158
-0.737981
1.33117
1.63998
-0.681586
0.535332
1.0151
1.75488
0.356478
-0.997486
-0.0633277
-0.561908
1.65365
-0.527823
-0.665678
0.236353
1.20514
0.894756
-0.929025
-0.828849
0.320476
-0.274265
-0.454418
-0.73089
-0.912266
-0.292335
-2.08015
0.440591
-0.616604
-1.04453
-0.375316
-0.226626
0.857892
0.159417
0.693437
-0.0823652
0.665389
1.97218
-1.83686
0.83242
-0.921474
0.188198
0.967154
0.290085
0.577493
-1.13965
-0.86113
-1.10156
-0.5999
-2.11601
-0.622752
-0.534297
-0.192017
0.386637
1.49639
-0.785621
-1.33866
-1.06581
0.709893
-1.2134
2.01303
-1.1576
-1.12982
-1.01841
0.525667
-1.37997
0.900779
-1.09467
0.0484955
-1.41081
0.987286
-2.77525
-2.88487
-0.623229
-0.121723
-0.231559
-1.73959
-0.524628
-0.69318
-1.14771
-1.22332
-1.11039
0.195123
0.611901
0.981137
0.188204
0.599992
0.235196
-2.15508
0.882009
1.5386
-0.704681
-0.0920294
-1.4755
-0.536905
-0.785318
-1.67038
-0.0709294
-0.390559
-0.152217
0.525795
0.360438
0.510368
0.569308
0.165258
-0.540874
-0.631356
-1.74728
0.109215
0.26047
1.31376
-1.54832
0.971395
-1.8095
0.176137
0.0873684
0.693624
0.538262
1.84176
0.775342
-0.541563
0.0630646
0.562533
-0.153432
-1.06045
2.38447
0.547323
0.936586
-0.621785
0.972534
1.17214
1.01942
-1.26141
0.078203
1.29491
0.273477
-1.38416
-0.345892
-0.626238
1.94852
1.1395
1.62486
1.0056
-1.25364
0.524743
-0.243644
-0.479807
0.616603
0.406181
1.53707
1.4747
-1.77146
0.612087
1.2907
0.42631
-3.24592
0.426629
1.15913
0.206499
0.0463344
-0.696452
0.141191
0.747844
-1.34825
-0.40182
0.22431
1.59636
1.73109
1.00464
0.337335
0.0330892
-0.673494
-1.20227
-2.05098
-0.395679
-1.30629
0.0535804
0.590587
0.705607
0.554602
0.426222
1.13293
0.418717
0.212209
-0.422234
-0.194469
0.68929
-0.376678
1.42478
0.718558
-0.214838
0.045402
0.799566
0.411171
-0.0657735
-1.28616
0.51897
-0.782888
-0.460076
0.0823659
-0.903847
-2.00636
-1.02042
-0.559265
0.60392
-0.190553
0.459821
-0.327766
1.63622
-0.594053
0.162777
0.759793
0.308901
0.962702
0.603259
-0.494242
-0.59086
-1.04833
-0.647167
-1.71861
0.762084
-0.41728
0.278179
0.39022
-0.740015
0.668796
-1.17717
0.867604
-1.05306
-2.27844
0.948475
-1.47316
0.449808
-1.38328
1.28225
-0.287009
-1.8144
-0.074224
-0.482302
-1.08263
1.87566
0.545939
1.65784
-1.50782
-1.37919
0.585309
-1.01416
0.587908
-1.67655
-0.0471451
0.747399
1.68607
-0.262091
-0.737693
0.190297
-0.526819
0.636751
-1.24481
-0.39134
-0.970108
-0.642454
1.09291
-0.565168
0.641589
-1.01811
0.314145
0.131603
-0.721457
-0.813303
0.505591
0.365754
0.0865592
0.704457
-1.94562
-1.60194
-1.7045
-0.542991
0.344756
-1.61127
-1.05434
-0.504061
-0.487249
0.553324
0.854459
-1.32916
-1.26956
-0.186315
-0.719622
0.0650206
0.124537
0.964834
-1.72248
-1.7219
-0.378466
-0.17842
-1.6213
-0.820861
0.152351
-0.110536
0.382065
0.6506
1.07783
1.11678
-0.909371
-0.620895
-0.09619
-1.09034
1.59994
-1.29462
0.0277178
-0.0458245
-1.50999
1.40815
0.271359
1.12504
-1.16971
-0.681379
-0.537907
-1.08529
0.0548772
0.551458
-0.609941
0.577691
0.235153
0.361468
0.674824
0.208077
0.219107
-1.84195
-0.193022
-1.21966
0.827928
0.841574
-0.266706
-1.21712
-0.3916
-0.0615196
-1.66133
0.811832
-0.294283
0.500149
0.370447
-1.02733
-0.105198
0.489825
-1.38003
0.87234
0.0839625
2.11209
0.63433
-0.492515
2.31722
0.4476
-0.452088
-0.0642917
2.63726
0.468437
1.77173
-1.59635
-0.942146
-0.359659
-0.765484
1.06623
0.171535
-1.81432
0.481191
-0.894888
0.294009
-0.562202
-0.973699
-0.663656
-0.0423199
1.8686
-1.08332
-1.23444
0.11483
0.504326
0.181345
1.87484
0.133861
0.479042
-0.169003
0.574728
-0.749107
1.37866
0.482432
0.20039
1.47934
-0.716373
1.83902
1.26541
-1.01415
1.65149
1.47049
1.8757
-0.885982
-1.05481
0.390435
-0.207343
-1.25224
0.758231
-0.808663
-0.311062
0.222092
0.379067
0.524451
0.990672
1.01014
0.846455
-0.0440659
-1.09479
0.824376
-0.164167
-0.6602
-0.953118
-0.0554876
-0.28925
1.07637
0.93831
0.692206
1.54906
-1.07263
1.0296
-1.03596
1.41886
-0.678956
1.03758
0.351135
-2.30594
-1.91454
-0.0992538
-0.536934
0.00561483
2.85665
-1.20763
1.14979
-0.532514
2.25119
-0.62114
1.46038
-0.588961
0.462064
0.732125
-0.691011
-2.03172
-0.0785568
0.305857
0.107982
0.397182
0.291552
-0.406252
0.788924
-0.959755
0.484139
-0.12472
-1.11169
1.13008
0.622447
0.82549
1.63153
-0.559514
-0.632971
1.43195
-1.95359
0.858146
1.8089
-1.15295
1.44257
-1.05552
-1.02882
-1.32334
-1.11379
-0.593287
0.0188017
1.83657
-0.807556
0.547078
0.198238
-0.528751
0.105152
0.95487
1.12815
-0.180319
0.0358675
-0.66123
0.253061
0.919278
1.46262
-0.662012
0.267963
0.194912
-0.133749
-0.246499
-0.0528311
-1.14745
-0.715644
0.829251
0.418226
-1.72093
-0.256546
-2.04106
0.896851
0.257421
0.823155
-0.246539
-1.51362
0.772894
-0.625881
-0.704899
-0.43883
0.71718
-0.33209
-0.548244
0.90901
-1.66983
-0.561187
-0.616967
-1.2919
1.29198
0.490385
0.433294
-1.34589
-2.5687
-0.696238
1.4465
-1.17169
0.314092
-1.50714
1.66666
-1.03761
-1.08287
-0.0833413
-0.208922
-0.201814
1.44326
-0.316579
-0.887303
-0.404366
0.56675
-0.552018
-0.575446
0.0628926
-0.361242
-0.561408
-1.08267
-0.718813
-1.0279
0.234223
0.297068
-1.07552
1.65605
-0.377307
0.236357
-0.919811
-1.39868
-1.49537
-0.548389
0.0922636
1.48233
0.177334
-0.121294
-0.276541
-0.153436
1.41167
2.31213
-1.40328
-0.477026
0.127739
0.307548
-0.165263
-0.10089
-0.43698
0.441235
-1.21545
-0.534153
0.591949
-0.285026
-0.14103
1.69597
1.33583
-1.14216
-1.30817
-1.16496
-2.12022
-0.445242
-0.635622
1.0323
0.512193
-0.4869
1.64088
1.01824
0.718529
-0.654568
0.769996
-0.0273614
-0.503693
-0.61582
1.54846
0.879385
-0.0208058
0.443042
0.0833593
2.02189
0.476445
0.850049
0.203278
-2.44343
-0.671132
-1.10196
-1.44023
0.124583
-0.847039
-0.0101965
0.981707
1.67074
0.728885
-2.68872
1.28089
-0.259759
-1.90253
-1.13493
1.72657
1.87287
-1.50847
-0.181031
-0.169007
0.94104
-0.439292
-1.57924
-0.569749
-1.06241
0.296803
0.0672024
0.0388353
-2.13071
-0.72883
-2.14847
-1.07513
-0.490661
0.369035
1.74374
-0.794362
0.990862
-0.561024
-1.07281
0.238758
-0.729115
-0.442199
-0.535622
-0.541862
-0.0232002
-2.43086
1.80355
0.704552
1.04187
1.14589
1.92219
0.326841
-0.434866
-0.729489
-1.39018
-1.31789
-0.455927
-2.43405
-0.182465
-0.71971
-0.943383
1.00965
-0.943981
-0.462419
1.81097
1.30828
0.191499
-0.954726
-0.692701
0.180733
-0.864856
-0.828613
0.634547
-1.03095
1.85066
1.23643
1.17056
-1.36821
1.10867
1.20066
0.810618
0.783132
-0.163261
-0.508062
-0.514807
-0.0038335
-0.110099
-1.04819
0.520912
-0.973174
1.70481
-0.199746
-0.230444
0.250015
-0.911416
-0.611301
-1.37009
-0.237519
-1.05891
-0.550977
-0.787493
0.185607
1.03455
-1.69333
0.0265791
-0.182131
-0.950034
0.441159
1.63676
-0.450581
0.848019
-0.451552
0.133712
-2.36284
-0.105993
0.628155
-0.623282
-0.494293
-1.30054
1.13074
-0.462564
-0.0829249
1.00783
-0.396234
0.0677479
-0.632715
0.830314
-1.89451
-0.721207
-1.10097
-1.7447
-0.169712
-0.03292
-1.36124
1.25337
-0.480069
1.5222
0.709616
0.68721
0.363879
0.000505123
0.927035
0.570841
1.10531
0.812786
-0.279813
0.770382
-1.64626
0.571054
-0.0277276
-0.57392
-0.118931
-0.0979955
-1.84452
-1.18481
-0.245978
-0.975095
-1.48227
0.797238
-0.919981
-1.28372
0.195931
-0.212334
0.403959
-0.227692
2.0862
0.411989
1.06259
-0.532364
0.390194
0.304943
-0.484325
-0.169343
-0.48403
-0.221241
0.424252
-0.798159
-1.16603
-1.11241
-1.25363
0.896043
-2.32039
0.630766
1.25084
-0.850993
0.279825
1.2577
-0.41223
0.102197
1.49752
0.100713
0.394846
-0.240417
-0.135619
-0.324618
0.115796
-1.08357
1.11982
-0.741309
2.14971
-0.373206
-1.92195
0.833341
0.559135
-0.955017
1.59926
0.839257
0.325456
-0.504624
0.0915838
-1.77395
-0.757006
0.329321
-0.404754
1.17849
1.51211
0.174814
0.93091
0.744429
-1.60308
1.00538
-1.8117
0.437713
-1.09761
2.56988
-0.334401
0.682528
0.319262
-0.319632
-0.258322
-0.818517
1.00631
2.13143
-0.0307515
-0.630473
0.371914
-0.108678
-1.18148
-0.57164
-0.338259
-0.656951
0.143893
-0.32529
0.46405
-1.1612
0.863653
0.0536747
1.06964
0.174958
1.90282
-2.18385
0.72165
0.202394
-1.91305
0.683666
0.671467
0.173563
0.737183
0.335741
0.284793
-0.895808
-2.42259
0.825371
0.312267
-0.103851
1.47966
-2.06896
0.673396
-1.19226
1.27131
0.897516
0.660321
-0.982047
1.26112
1.11145
0.0966542
0.801975
-1.64719
-0.14516
0.0341602
0.0127122
-2.39403
0.868784
-0.158294
0.710603
0.189143
0.582606
0.349137
-0.88714
1.37725
-1.13998
-1.83736
-0.269524
-0.60345
1.24666
1.4464
-0.933404
-0.286301
-0.393379
0.707652
0.407441
1.10346
-0.485908
0.569179
1.15194
-1.62167
-1.51908
0.360285
-1.18082
-1.3872
0.855825
0.885373
1.01421
-2.1967
-0.826436
-1.6207
0.102199
0.571189
-0.271921
0.348728
0.920329
-0.192035
-0.108307
0.0617631
-0.941902
0.711671
-0.409161
0.992303
0.771323
-1.51172
-0.0290671
-1.18485
0.343294
-1.10677
-1.57147
-0.867711
0.182134
0.537731
0.166533
-2.20866
-0.0306646
0.779647
-0.332536
0.262241
-0.257946
-1.71996
-0.937873
-0.303478
0.347561
-1.74962
-1.66928
1.22052
0.51005
0.387856
-1.5499
-2.56921
0.666858
-0.284709
-0.172224
1.31871
-1.08833
-2.56574
0.292043
-0.0105182
0.391912
-0.494961
-0.881059
0.799526
0.862943
-0.28455
0.291639
0.93758
0.119101
0.651269
-0.0803162
-1.22658
-1.20178
1.12287
1.62264
0.909801
-1.1254
-0.573712
-1.23268
-0.0351759
0.696225
-0.155181
-0.982482
0.370763
-0.253865
0.989473
-0.177298
-1.12879
-1.28991
-1.6815
-2.17055
-0.265313
0.264174
0.342939
0.267054
-0.551004
-0.0869979
-0.470289
0.665266
0.819169
-0.240434
-1.77033
-0.111719
-0.690231
-0.691201
-0.499468
-0.312912
-0.321909
-3.00842
-0.565887
0.370384
-0.72336
0.539831
-0.220486
-0.569488
-0.275666
0.236652
-0.84844
-1.2093
-0.204282
0.146659
0.432862
1.30229
0.292375
-0.882811
0.670795
0.827699
0.875403
0.300479
0.958987
0.537645
-0.398532
1.18723
-1.38866
0.990309
-0.541462
-0.236846
0.541982
-0.246291
-0.976525
-0.778888
0.683716
-0.570672
2.15192
-0.214046
0.406837
-1.44933
-0.145423
1.0232
-1.67876
-0.0705956
-0.101321
-1.27726
0.697229
-0.33231
0.629378
0.0293448
-0.294894
-0.0871801
1.18776
-0.898091
-0.451315
1.13879
0.407656
-1.2391
1.5735
0.51479
-0.328766
1.96249
-0.593734
1.19451
-0.859579
0.899261
-0.480124
-1.97432
-1.39179
-0.317968
0.279087
0.142317
-1.79441
-1.48607
1.27082
0.218119
0.623493
-0.103655
1.01338
-1.19335
0.907092
1.20626
1.42231
-1.11373
0.363756
0.698212
-1.11527
1.86606
-0.691998
-0.524276
0.928096
0.497274
-0.168585
1.84687
-0.258324
0.797707
-0.401594
-0.206449
-1.05476
0.161901
0.360278
-0.689653
-1.37679
0.367569
1.56271
1.05755
2.00979
0.369784
-0.0735618
-1.59931
0.884639
0.545366
-0.0970318
1.92437
-1.54649
-1.31859
0.751985
1.98972
-0.716861
-0.573785
0.206651
-0.0398705
-1.05719
-0.390335
-0.417351
1.08173
0.187027
0.804861
-0.562077
-0.28024
0.171346
-0.0117714
0.578753
1.35305
0.0430754
-2.31625
-0.223851
1.1827
-2.44947
-0.749474
0.180012
-0.312042
0.121171
-0.753274
1.27037
-0.476738
1.18596
-0.114881
-0.764875
-0.106176
0.185871
-0.589218
-0.807272
0.0590531
-1.71432
-1.417
0.37426
-1.60636
-0.697166
0.838504
0.168068
0.284633
0.567985
0.596288
0.327558
-0.570628
0.327182
0.311915
1.07865
-1.84268
-1.28314
1.56865
-2.07231
1.51127
1.05403
-1.21901
-0.10121
-1.28469
0.442377
-0.695099
-0.924624
-2.88961
-0.844582
1.02173
0.2941
-0.15258
-0.727422
-0.0541686
0.156993
-1.47653
-0.358374
1.11579
-0.644088
0.472833
-0.119762
-0.301168
0.715275
0.305464
-0.637923
-0.242022
0.995074
-1.0354
-0.383967
-0.119033
0.701823
0.946097
-0.855672
-0.241222
-0.378856
-0.512325
-1.04172
-1.17184
-2.30686
0.726676
0.495177
1.15549
-2.00158
-0.226738
0.694081
0.144723
1.34023
-1.00162
1.08251
0.306019
0.517872
-2.02706
-1.60753
0.636745
0.205645
-1.01747
0.24121
-0.554483
-0.323424
-0.78503
0.553008
-1.36873
2.27779
-0.811226
-0.189167
-0.194277
-1.55446
0.904645
0.186021
-0.174673
0.0507753
1.14002
0.434078
0.973951
-1.33622
-0.216393
-0.0318968
0.182009
1.21318
0.311513
0.821945
0.878685
-0.562553
-0.757921
0.36975
-0.278371
-0.951469
-0.525338
-0.401277
-0.0927749
-2.06126
0.851506
0.171687
1.21144
-0.133987
-1.29423
-1.73636
0.160232
-1.76416
-0.553561
0.255347
0.952883
0.577201
-0.643052
-0.198156
1.28929
-1.47744
-0.705679
0.490913
0.270121
0.628023
1.09754
-1.4961
-0.463156
0.754936
0.0436642
-0.483023
2.18214
-0.372029
0.141494
1.38377
-1.29362
0.22988
-0.0463548
0.605282
1.03644
0.329516
-1.45116
0.558869
2.1081
-0.944374
0.826719
1.1978
-0.711494
-1.82672
-0.766503
-0.652183
-2.25571
1.03161
-0.432916
1.88886
-0.321934
1.35489
-1.9844
-0.668213
-1.31934
-0.764534
-0.800332
-0.412163
0.040612
1.69188
0.173757
-0.691373
-1.26733
0.181395
-0.200309
1.40046
0.261494
-0.0496023
1.84143
1.97706
0.500371
-0.436213
1.20528
0.980174
0.950465
-1.07106
1.31211
-0.985013
0.100921
-0.64896
0.00226292
-0.162505
-0.261064
0.221238
1.86197
0.634728
-0.752713
0.363064
-1.43372
-1.33361
-0.128003
-1.33402
-1.37429
2.12176
0.301019
-1.41038
-1.20301
-1.32711
-0.983486
-0.634765
-2.11418
-1.49612
0.932885
-1.18569
0.988034
0.612289
0.0286263
-1.07199
-1.55898
-0.339589
-0.398206
-0.535143
-0.169307
-0.697029
-1.48729
0.151121
0.251953
-1.56666
0.593787
0.552344
-0.393048
-0.779178
-0.488333
-2.26154
0.159931
0.575545
0.124381
1.51141
0.607488
-1.03911
1.85821
-1.94635
-0.447711
1.08792
1.59183
-1.01402
0.430336
1.13451
-1.1595
0.459129
-0.129278
0.0297002
1.15552
-0.304203
-0.473261
-1.04428
1.27833
0.426711
1.46161
-0.660039
-1.98481
-0.658085
0.681766
-0.198332
0.532044
0.319672
1.57595
-0.50228
1.24753
0.098709
-0.476114
1.02528
0.441779
-1.57476
-1.63572
2.37058
0.3266
1.25333
2.22953
-1.29638
1.19077
-1.61274
-1.48672
-1.24187
-1.096
-0.888846
-0.356146
1.43004
-1.85614
-0.789115
-1.99484
0.186315
-1.36006
1.55003
0.364776
-0.653762
-0.813798
0.0337499
-1.16982
-2.69673
-0.801261
-0.246511
0.825364
-1.46807
0.839945
1.09737
-1.4847
0.906636
0.559914
-1.04503
-0.763285
-0.500896
0.76689
-0.350555
1.5323
-0.821131
-1.23344
1.16626
0.0830498
0.067351
1.04498
-0.0824699
-0.369423
0.875003
-0.163109
-0.0365647
-0.774197
1.26108
-0.434282
0.062608
-1.2461
-1.01558
0.0956535
1.11335
-0.0425663
0.977742
0.954838
-0.575837
0.592473
-1.50116
-1.48111
0.402505
1.48073
-0.021375
-0.368415
0.528665
0.168616
-0.11438
0.541992
1.70542
0.254316
0.596168
0.164271
-1.44497
-0.745198
-0.867813
-0.109933
-0.00594144
1.41422
1.0882
1.64896
0.689257
0.219738
-1.71141
-1.15919
-1.21993
0.312265
-0.275469
-0.691964
-0.111953
-1.17602
0.0725469
0.0876184
-0.845267
1.05819
0.613889
-0.1319
1.32574
-0.59112
0.501448
1.24186
0.12964
-0.171146
-1.64739
-0.275962
-1.37288
1.42672
-0.253918
-1.51214
-2.48581
1.21737
0.356669
2.1823
-1.24644
-0.822198
-1.57749
-0.556431
-0.979895
0.471342
1.87364
-1.24113
0.693347
1.626
-1.10828
-0.164013
1.51277
0.790492
0.210106
-0.290389
0.473438
-1.39266
-0.279546
-0.693484
0.255624
0.459246
-1.04302
-0.421886
-0.714778
1.23571
0.22428
0.670024
-0.716237
0.609309
0.0992945
-0.15739
0.599358
-1.50009
0.127379
-2.15792
0.362214
0.875396
0.338491
-0.415313
0.55159
-0.27019
1.9654
0.370411
-0.813142
-0.549245
-0.173251
1.39915
1.09913
-1.97211
0.488896
0.970082
-2.04584
-2.35351
-0.256498
2.04604
1.01891
0.672128
-0.300597
-0.490891
-0.04242
0.0365468
0.128262
0.130475
0.111763
0.80118
-1.10833
-0.0624262
-0.181128
-1.5535
-1.35779
0.0340549
0.341002
-0.412428
0.542
0.108856
-0.0959349
0.636509
2.51123
-0.817163
0.202748
-0.226147
0.316833
-2.82444
0.264046
-0.784162
0.501479
1.68626
-0.318693
1.36057
-0.349704
-1.28292
-0.783059
0.524156
-0.0547983
1.11925
0.0566399
-1.03641
1.55526
-1.50251
0.838383
-0.33278
0.743866
1.21911
-0.192569
-0.722618
-0.183585
0.718153
-0.840274
0.208676
0.611512
-0.482178
0.401513
-0.920694
-1.49926
-3.27422
1.0195
0.285987
0.578233
1.78998
-0.261494
-0.960521
-0.281223
0.77953
0.173068
1.16591
-0.224625
0.192151
-0.218713
-1.34482
0.637962
0.254607
0.249448
-0.641235
1.2571
-0.126765
0.601854
0.468963
-0.0800245
-0.694306
0.44235
-0.604594
1.01265
0.482474
1.35412
0.395268
0.470304
0.344209
-0.927262
1.22289
-0.096185
1.489
-0.699222
-0.661179
-0.364354
-0.197244
-1.14771
-0.72176
-0.314868
1.4285
-0.203537
-0.355697
2.03486
-1.06219
-1.83982
-0.51481
0.395246
-1.3674
-0.218254
2.41074
-1.2978
1.03152
0.265931
0.758364
-0.662006
-0.224087
-0.119646
1.19401
0.684409
-0.273281
0.597306
0.170458
-0.457582
2.94147
-0.168909
-1.81409
-0.515345
-0.0166907
0.159196
0.40657
-0.100976
0.663869
-0.105775
0.172218
-0.795698
-1.64694
-0.851318
-0.256586
-0.882212
0.911118
-0.342433
-1.39705
-0.982083
2.78116
-0.96801
0.180221
-0.536478
-0.976401
-0.631123
-0.214366
-0.206086
-0.39335
0.310031
-0.502487
1.3847
0.201182
-0.166827
-2.12624
-0.628289
-0.584344
0.618415
0.395886
0.207302
-0.446333
1.26329
0.209735
0.38704
0.43441
-1.44215
0.352898
0.982844
-0.250555
1.60723
-1.83517
-1.83341
-0.550049
0.487038
-2.98997
-0.777901
-0.276499
0.916869
0.469963
-0.41371
0.0148607
0.633585
0.393521
1.15774
0.193648
-0.403758
0.272985
0.571492
0.86846
0.936451
-1.20797
-0.454025
1.09175
-0.147382
-0.371863
-1.83542
1.43044
0.455001
1.19431
0.934995
-0.553915
-0.00673033
-0.43594
-1.62847
0.0508628
-1.26781
-1.46521
-1.26473
0.187878
-0.859941
0.46351
-0.801583
0.552599
-1.43476
-0.814149
-0.670096
0.496001
0.378566
0.422319
0.147948
-0.0777437
-1.83352
0.863582
-0.0706767
-0.793629
0.824554
-0.290745
-0.260285
-0.65631
-1.18579
-1.37099
0.438403
-1.20557
0.0905546
-1.32692
-0.318168
0.902292
0.180822
-0.700832
-0.229028
-0.871261
0.815541
0.635937
-0.00291718
-0.552247
-0.392245
-0.307465
0.607441
-0.693682
0.837568
-0.287978
2.51109
-0.276408
0.370777
-3.3057
-0.721186
-0.370457
0.374711
0.869188
-1.8715
0.65667
0.0786259
0.0475445
-0.407368
-1.30647
1.12462
0.963315
-1.37236
-0.749076
1.11703
-1.23666
-1.04664
0.132243
-1.54228
0.415169
-1.67993
-0.43655
-0.861709
-1.56179
0.260019
0.418637
-0.278352
0.676865
1.59723
-1.14078
-0.505113
1.97085
-1.21729
-0.278313
0.691185
-0.346408
-0.505234
0.175007
1.85899
-1.41116
0.0959634
-1.66515
0.378455
-1.04843
-0.420702
-0.607104
1.57551
0.845451
-0.977084
0.586914
1.35958
-1.2046
0.743949
-1.11317
0.0255525
0.864143
-1.30988
-0.410943
-0.0272212
-1.06588
-0.528755
-0.58494
0.506447
1.63256
1.17451
0.478085
0.463141
0.402621
-1.16937
-0.513196
0.523056
1.47707
0.299262
1.12235
-1.56673
0.473601
0.535908
1.63782
-0.733207
2.03327
-0.981705
-0.00477555
-1.4388
-0.20469
0.050379
-1.53269
-0.620688
0.813079
1.47181
-0.748617
0.603204
-0.901143
0.505544
-1.03876
-1.81357
1.21832
0.896621
-0.346582
0.201865
0.0884928
-2.18868
-0.9367
-0.767409
0.464619
-0.0345176
0.768448
-0.757386
-0.157141
-1.18351
0.552643
-0.631905
-0.411992
0.93164
-0.445837
-0.135595
-0.756828
-1.45818
-0.887041
-0.272336
-0.469459
-2.80229
0.0650786
0.566152
-0.315597
-1.4434
-0.021133
1.67921
-0.765347
1.94436
0.32442
0.63556
0.226048
0.300267
0.0838395
0.299623
-1.68942
0.170611
-0.256091
-1.13659
-0.17768
-1.3496
1.20642
-0.346269
-0.696806
-0.275206
-0.92673
0.653856
-0.454321
0.3788
1.01569
-0.76816
0.834536
-0.257885
-0.564191
-0.840523
-0.517053
1.69822
-1.27289
-0.396347
-0.214781
0.543005
0.235545
0.13269
-1.49766
-0.67547
-0.76891
-1.17524
-1.01365
-1.66313
0.23128
0.831016
1.67399
0.0611813
-0.492217
0.379275
0.927852
0.935009
-1.17662
1.64995
1.5502
-0.604604
-0.205042
-0.902882
-1.89743
-1.19174
-2.47412
-0.000845646
0.536405
-0.423751
-1.22127
1.14575
-0.0290151
0.203792
-1.75948
0.00731282
-0.135561
1.566
-0.47789
-0.660612
-0.677309
-0.223097
-0.880591
0.126501
1.93081
-0.293089
-0.13178
-1.51385
0.641368
-0.828579
0.224864
-0.31944
0.114784
-1.23647
-0.764593
-0.375315
-0.116003
-1.05278
-0.356311
-0.471085
-0.101146
-1.58824
-0.470558
-0.924854
1.21771
0.617082
-1.75744
-0.989119
1.19522
-0.0350328
2.16167
-0.343541
-0.18235
-1.26406
0.447344
-2.2318
0.464877
0.583538
-0.820116
-0.121185
-1.10985
-0.543238
0.873081
-0.139079
-0.387584
1.75815
-1.21776
-1.73074
-0.272623
-1.86783
-0.493184
0.712521
0.465506
-1.70244
1.21736
0.447745
1.13628
-0.346927
-0.726479
-1.21723
-0.3985
-1.0997
0.877208
-0.431603
-0.0639531
1.22224
-1.48129
0.172795
1.47122
0.909138
2.17932
1.48195
0.37142
0.14521
-0.549075
0.907149
-0.901118
-0.997513
-1.09822
-2.46373
-0.47805
-1.22035
0.229199
-0.12395
-0.786612
0.0720396
-0.942025
-2.18686
-1.3582
-0.570186
0.241968
-0.22417
0.498124
0.680856
-2.33447
0.194068
-0.330128
-1.8223
1.83469
1.76238
0.649163
1.73873
0.0885778
-0.278704
-0.686899
0.365593
1.31489
-0.77047
0.150693
-1.27033
-1.50409
0.207974
0.503852
0.721628
0.554472
-0.741478
0.26009
-0.337213
-0.571909
-0.389969
-0.483749
-1.01584
-0.303245
0.630958
1.22438
0.118403
-0.577509
0.891856
1.62895
-1.47931
0.0945173
-0.506471
1.58159
-0.903642
0.456031
0.050213
-1.64201
0.773017
0.984606
0.0557319
-0.264736
-0.332661
0.0176509
2.93314
0.953504
2.02566
-1.05401
-1.2041
-1.47048
1.34796
1.93059
-0.291797
1.80255
-1.04258
0.487321
1.22689
0.251095
0.109838
-1.21636
0.333227
-1.8907
0.706654
-0.255615
0.721997
1.84128
0.636844
-0.597962
-0.207274
1.1105
0.43184
0.109889
0.249592
-0.527925
-0.466271
-0.466959
-0.939534
0.656498
0.871381
-0.207358
-0.68688
1.14807
0.0139521
0.798088
1.46054
-0.763076
0.506038
1.16702
-1.44248
0.655934
0.873213
-0.168646
0.457191
-0.0319684
0.582823
0.255273
1.00973
1.15663
-0.511584
1.48714
0.967605
-1.49969
-0.376525
-1.09875
-1.47583
0.0265383
0.676017
-0.662025
1.16002
1.05572
-0.183849
1.57314
-0.631869
-0.68493
-0.340949
-1.12112
1.86894
1.47347
0.0832214
0.358904
1.04428
0.40686
-0.0770002
0.769706
-0.154841
1.83339
0.112101
-0.713027
0.413041
0.21541
0.17456
-1.22307
-0.535466
-0.833464
0.934525
1.61242
-0.949377
-0.240906
1.31821
-1.34042
-0.805004
0.87971
1.53074
1.31706
-0.122399
-2.52381
0.602692
0.155409
-1.04518
1.93993
-0.0739138
0.464
-0.947532
1.20658
0.818137
0.648961
1.54037
-0.111981
1.77002
-0.0563108
-0.162318
-0.0199988
0.13757
-1.22296
-1.07675
-1.69176
-0.0331473
-2.17199
0.352821
-1.55357
0.354097
1.79181
1.31196
0.742245
-0.537678
-0.688112
1.05879
0.620137
-1.87218
-0.00639425
0.322033
-1.32721
1.58998
0.723335
-0.835986
-0.468004
-2.08721
1.3324
1.98936
-0.0351691
0.137432
0.570477
-0.146778
-0.486474
0.341081
-0.0262534
0.489395
0.181316
0.183749
-1.26117
-0.23043
0.438893
-1.03993
-0.422263
1.04733
0.570543
1.21768
0.387233
0.455575
0.702869
-0.444939
-0.714565
-1.12516
0.806667
1.90141
-1.05665
-1.4118
-1.69993
0.492832
-0.216823
0.643782
-0.302359
0.442798
0.0784415
0.281462
-1.31277
-0.702099
0.488194
-1.23376
0.434885
0.609453
-1.24037
-0.0223385
0.932052
0.360004
-0.425913
0.184337
0.261319
-0.258951
-2.07849
1.28919
0.36494
-1.78882
0.507813
1.31187
1.61284
0.0866255
0.631142
-0.12831
0.417484
0.876533
2.22635
-0.179499
-0.787236
-0.1252
-0.227787
-1.34931
0.709499
-0.577281
-0.117454
0.263894
0.17814
1.26602
0.13331
0.207339
1.36367
-0.449876
0.40557
0.265966
-0.512948
0.199472
-0.0526655
0.0280097
0.650608
0.0202022
0.0258071
-0.380369
-0.921151
-1.25217
0.275378
0.54774
-0.0722272
-0.233394
0.963801
-0.0167922
2.23646
-0.0433615
0.0947809
1.18113
-1.6408
0.440681
-1.00348
0.416802
1.78988
-1.31126
-1.13361
0.49673
-0.201568
-0.380492
0.794302
-0.633037
-0.0806825
-1.33239
-0.720456
1.43871
0.5873
-1.63177
-0.0259307
0.567157
0.895785
0.612592
-0.21045
1.25682
1.45409
0.311665
-0.842931
-1.55452
0.27865
0.00611079
0.305913
-1.31825
0.579431
-0.358037
0.31254
-1.55585
-0.0239658
-1.16264
0.471989
-0.51339
0.78608
0.20945
0.184873
-0.445727
0.0290797
0.227277
0.266706
1.33915
0.896944
-0.804253
-1.92865
-0.0300543
0.646052
-0.646155
-0.232874
0.562216
0.478529
-1.13986
-0.806044
-0.290677
-0.36238
-0.683874
0.72966
-1.53366
0.64595
0.43985
-0.0211547
1.59505
1.23811
1.92461
-0.951947
-0.464247
0.152876
-0.857161
-0.590835
-0.612761
-1.30394
-0.328783
0.100537
0.668441
1.94908
-0.904246
-0.0750946
0.0447266
0.717439
0.743413
0.520465
-0.0188816
-0.103932
-1.04447
-0.522199
-0.609967
-0.256446
0.539059
-2.76944
-1.19538
-1.26905
0.0933406
0.097659
-0.385979
-0.463542
0.883656
-0.177229
0.801164
-0.646344
0.042306
-0.810231
1.2652
-0.109099
1.16759
-0.283919
-0.209543
1.78981
0.952439
1.81587
-0.094241
-0.751088
0.874684
-0.484492
0.0733924
0.105673
-1.42984
-1.13
0.260687
0.104321
0.37516
0.747415
0.744466
-1.29956
0.134257
-1.59977
0.640248
0.925547
-0.207627
-0.879023
-0.496086
-0.654906
-2.20946
1.4598
-1.51946
-0.178632
0.169458
-1.74855
1.81044
0.171483
0.0869853
0.669326
1.82939
-1.61226
-0.10517
-0.395885
0.923971
0.66011
-0.557897
1.56325
1.26944
1.28598
2.98842
0.482742
0.984686
0.684693
0.966362
2.45414
-0.112974
0.00103722
0.0339226
-1.41031
-1.02294
-0.398806
0.501015
-1.42026
0.492333
-0.683243
-0.622841
1.30718
-0.779849
0.535985
-0.617687
0.396561
2.10807
0.794881
0.143265
0.910982
0.494016
-0.296696
0.155906
0.348967
-0.68199
-0.235914
2.04639
-0.280723
0.270791
0.344455
1.1249
-0.456935
-0.69345
-1.43144
0.0494899
-0.641021
0.555726
-1.55656
-0.550151
-0.526046
-0.341509
-0.0599552
-0.576935
-0.272471
0.284124
1.18594
1.65293
-0.666235
-0.0819081
0.711115
0.199045
1.32497
0.792771
0.419178
-0.410477
0.38144
-0.296485
0.434184
1.51593
0.542004
0.11036
-0.38122
0.141941
-2.62922
-1.10161
0.372275
-0.407463
-0.147718
-0.138969
-0.188607
-0.826491
-1.44886
0.980017
1.30713
-0.472363
-0.676264
0.0793272
0.0190855
0.133753
-0.729745
0.485216
0.0970885
0.0190734
0.43324
-0.43575
-1.10157
0.0643003
-0.469853
0.445192
-2.03666
-0.87007
0.136516
-0.16948
-0.231418
1.41487
2.71478
-1.45392
0.37316
-1.75038
1.19028
-0.900905
0.895711
0.485874
1.1201
0.110809
0.640292
-0.0977332
-0.336825
0.433074
0.653404
-0.798217
1.12318
0.77527
0.081547
0.456781
0.981279
-0.704792
-0.998158
-0.977899
1.59969
0.994728
1.22294
0.259274
-2.07408
0.429081
0.567119
-0.417895
1.25033
-0.852103
0.280272
-0.191544
-0.435799
-2.49951
-1.23726
0.0557312
-1.30441
-0.454204
0.835629
1.26522
-1.31681
0.123156
1.23146
1.44643
0.560447
2.29774
-0.703965
2.05859
-2.2388
0.287729
-1.68012
1.79577
0.321392
0.306854
0.252733
0.86983
-0.0582934
-1.42943
-0.141434
0.265899
-0.738388
-0.395979
-0.759423
-2.67997
1.06034
-1.25882
0.533998
0.257762
-0.883133
0.0330909
-0.206264
0.120482
2.12344
0.916816
1.45692
1.50222
0.0797019
-1.44048
-0.438679
-0.138615
0.230399
0.299063
-0.185707
0.908808
0.92033
-1.48031
-2.69974
-1.44759
-2.44348
0.284881
-1.97949
-1.42827
-1.36736
0.591729
-0.124915
1.85427
1.20795
0.474246
0.164714
0.31154
-0.558475
-0.812485
0.449937
-0.0378875
-0.825646
0.28163
-0.752677
0.711781
1.43539
-1.12624
0.309475
-0.0950856
0.00106117
1.85858
0.0857048
-1.19727
-0.173018
-0.400948
0.642633
-2.23252
-0.0695335
1.66069
0.638643
-0.0206304
0.52645
-1.5601
-0.773254
-0.594401
-1.06958
0.786327
-0.159416
-0.60929
-0.582708
1.70844
0.326571
1.65656
-1.908
0.624459
-0.585701
1.07665
-0.554506
-2.63366
-0.317468
-0.335113
0.965823
-0.880867
-1.21439
0.297086
0.516478
0.344455
0.632681
-0.369661
-0.142113
0.72533
0.978784
-2.82232
-0.704183
-2.42976
0.0457222
1.04556
0.402386
0.632011
0.0257346
-0.962412
-1.43132
-1.03636
0.495771
-1.23796
2.11329
-3.74536
-0.242574
-0.853665
-1.02984
-1.53748
-0.576183
0.0112899
0.570385
0.697803
1.97687
0.0184983
-0.847282
-2.29109
-0.600514
-0.318763
0.666799
0.117791
1.6468
-0.647141
0.402026
0.166142
1.01833
-0.325186
-0.457238
-0.356862
-0.618784
0.636955
2.213
-2.04238
1.51983
-1.22942
0.428188
-0.0742004
0.406498
0.160309
0.30259
0.0489159
1.04652
-1.8205
0.362135
0.147289
-0.325897
0.253533
-0.978417
1.12246
-0.921231
1.12346
-0.186688
-0.927026
-1.00302
-0.312911
-0.673517
-0.483242
-0.255588
-0.336853
-0.459646
1.03135
0.468596
0.997941
-1.08473
-0.585982
-0.542486
1.40071
1.79197
0.844192
0.212898
-0.780287
-0.609078
0.569314
-1.98079
-0.83959
-0.510956
0.771303
1.14353
0.471557
-0.689037
0.470968
-1.53577
-0.333556
0.86111
1.67048
0.340609
0.00583273
0.125336
-0.29234
-0.854491
-0.317305
2.13567
0.695925
-0.825278
0.402484
1.12291
0.494953
0.565498
-1.10916
-1.06128
-0.833093
0.844082
0.812587
-0.233862
-1.53319
2.30018
0.495641
1.5612
-0.437685
-2.2555
-1.48097
-1.10461
1.22755
-0.175109
0.924625
2.80676
1.17832
-0.615029
-0.026604
-1.37731
2.34502
1.16956
1.32531
-0.508745
-0.879371
-1.86218
1.17992
0.237512
0.746355
0.112957
0.0524088
0.180661
0.0828453
1.03906
-0.616173
0.664615
-0.133416
1.95482
-0.533312
-1.42565
1.76749
0.332389
0.887901
1.55712
0.528866
0.349961
-0.636955
0.679651
0.464184
0.197993
-0.611419
0.879619
0.692328
-0.620582
-1.10941
0.152746
-1.01408
0.964628
1.49636
1.19714
0.0043031
-1.0714
-0.0180301
-0.0896845
-0.814428
0.772243
2.09765
0.238944
0.55451
0.827236
-0.0889249
0.379207
1.23808
1.48427
-1.53481
0.432114
0.00835208
-0.167185
-1.06806
-0.384019
-0.0387136
-0.0707614
0.247656
0.277805
-0.480699
0.753691
-0.518974
1.13293
0.0396861
0.419442
-0.193589
-0.537793
-0.843121
2.38279
0.508322
-0.033758
-0.206495
-1.88663
-1.2611
-2.53008
1.80563
1.39125
0.648483
0.102075
1.5372
-0.100245
0.0461783
0.448458
-0.155022
1.8916
0.425277
0.792885
0.637897
-1.25098
-0.355617
0.30469
0.537318
-0.851041
0.876927
-0.74714
0.509255
1.14268
-1.01462
0.580049
0.934452
-0.486325
1.84063
0.284909
-1.83408
0.701638
0.621335
-0.264476
0.392628
-0.875713
0.0260046
0.695237
0.422341
-0.224966
-0.830395
-0.509497
0.861546
-0.0279635
1.37264
-0.883013
0.182349
-1.88947
0.857049
-0.0498811
-1.2217
0.799438
0.713249
0.445828
0.0910967
-0.349163
1.77852
-0.594156
1.00197
-1.1497
0.129636
-0.207788
0.399579
-0.441566
0.631142
-1.2995
0.687815
0.23808
-0.178286
-0.114459
0.659702
-0.511213
-0.553993
-0.400786
-0.52102
1.26778
-1.59371
0.0607858
0.318624
-0.386997
-1.08552
0.793107
-0.721178
0.205564
-0.215199
0.78698
-0.755578
-0.421368
2.61494
0.420742
0.229763
-0.442109
-0.621174
0.339052
2.23298
0.216047
1.31517
0.756891
1.06518
-0.213777
0.270705
0.0284731
-0.73734
0.811271
-0.439262
-1.08368
-0.0238524
1.67047
0.619888
1.24277
-0.554659
1.06344
-0.23955
-1.12192
1.0036
-0.749114
1.05691
-1.48725
-1.2193
0.889985
0.818171
1.93201
-0.257504
-0.294009
-0.410198
-0.0922835
1.1795
-0.412461
0.0291468
0.974736
0.873232
-0.061428
-0.533853
1.46929
-1.56323
-0.844521
1.71085
-2.25099
1.49692
-0.747715
1.32267
0.0130628
0.434486
-1.35817
1.01666
-1.33921
-0.864374
-1.47832
1.12659
-0.842027
0.871873
2.77655
-0.800604
0.973105
1.21889
-0.12438
-0.572839
0.234724
-0.10687
-0.0637173
-1.97347
2.65777
-0.0166276
-0.171712
-0.195325
-0.110144
-1.08239
-1.43272
0.740346
0.0654029
-1.08628
-0.692946
-0.361598
-1.60966
0.105543
0.73034
1.30183
-0.198655
0.667405
-0.360154
-1.64998
0.11559
-0.336336
-1.91196
-1.88448
-1.4798
-0.013467
0.349184
0.512046
0.162517
-1.20419
0.90124
-0.535823
-1.46843
2.27583
0.87261
-1.0851
-0.908591
1.19824
0.434628
-1.16194
0.637926
1.07453
0.251832
-1.59721
-0.515192
0.72643
1.23953
-0.465492
-0.776443
-0.216614
-0.206022
1.15119
-0.936826
0.197199
-2.67905
0.605468
0.0410475
-3.48589
0.562402
2.41464
0.379177
-0.448425
0.971937
-1.45933
-0.502723
1.00853
0.0899747
-0.59642
0.80524
0.342749
0.71591
-1.40019
-1.61152
-0.360004
0.886714
0.0257554
-0.815114
-0.0681726
0.521951
0.416531
-1.61899
0.195604
1.50439
1.43915
-1.71045
-0.35044
0.586543
1.21049
0.846164
-0.688698
-0.299003
-0.818264
0.929412
-0.493473
-1.81398
0.0770315
-0.561464
1.01647
0.388181
-1.03193
0.37879
0.614621
0.265162
-0.161416
-0.327481
-1.31234
1.77508
0.887053
-0.191488
1.70153
-0.322367
0.998152
0.276963
-0.0969463
0.51849
1.51972
0.680356
-0.334131
0.207051
-1.11787
1.24298
-0.224792
0.261678
0.187622
-1.38182
1.09319
0.455993
-2.05615
0.849228
0.389587
-0.169791
0.483034
1.12236
0.0775182
-1.26317
-0.303253
0.30878
0.482355
-0.0229763
0.940097
0.0688667
0.431108
-0.899194
0.284462
0.970334
-0.646091
-1.54211
1.28384
0.113817
2.20783
-1.71922
-1.02045
0.634173
0.65567
0.893787
-1.38874
-0.375471
0.266309
-0.429121
0.369962
-1.11871
0.76314
-0.293956
0.437664
0.0785691
-0.00531339
0.44193
-0.0515913
0.244012
-1.51799
0.342524
-0.735445
1.39742
0.0813868
-0.26292
0.0567257
-0.799491
-0.172363
0.458937
1.07919
-0.298792
-0.321689
1.3177
0.625488
1.30335
0.0398378
2.11075
0.345036
-0.0944869
1.2968
-0.223136
-0.56621
0.24825
-0.905175
0.359402
0.19081
-2.54566
-0.224243
-0.30821
-1.05179
0.0192036
-1.55522
-0.490703
-0.466404
-0.772188
-0.170221
1.40921
0.860925
-0.219939
0.283576
-0.472564
0.269419
0.675753
-0.641771
-0.422945
0.0202205
0.428187
0.155111
0.31019
1.05457
-0.7617
0.394602
-0.789456
-0.391572
-1.01222
-1.84406
0.0207146
-2.19421
1.73429
-0.340435
-0.986695
-0.357309
0.137103
1.17262
-0.156703
0.872969
0.653974
-0.967869
-0.213811
-0.0689967
-0.397197
0.446749
-0.713773
-0.460059
1.16726
0.262081
-0.232613
-0.356348
-0.107643
0.0931072
-0.249518
-0.738884
-0.291346
-1.78809
0.440043
-1.86407
0.848414
-0.580806
-0.103245
2.58804
-1.15808
0.268866
0.872007
1.32048
-3.32393
0.698931
1.21895
-1.66997
2.09472
-0.248209
1.06751
-0.355585
0.109493
2.13721
0.3922
-0.21025
0.500769
-0.638698
-0.345957
-0.214803
-0.68859
0.0168398
0.0541956
0.275317
0.630099
0.0820174
0.436459
0.384372
0.457959
-0.205806
-2.44921
-0.657477
-0.689285
0.315542
0.251577
-0.47814
0.825762
-2.09985
0.440695
0.239156
-0.326789
-0.590758
0.901987
0.19021
2.0515
1.53363
-0.148264
1.3485
-0.0473589
-2.91041
-0.513111
-1.41621
0.411294
0.464123
-0.799673
-0.0799786
-0.636504
-0.385062
0.375858
-0.254304
-0.795083
-1.0368
-0.478308
-0.630012
-0.501996
-1.44539
-0.473152
-1.10222
0.517097
0.410322
-0.0158437
0.435521
0.110259
-0.00714921
0.430813
0.454472
-0.291307
0.0529091
-0.827467
-1.72177
-1.30484
0.24826
-1.27877
-0.165505
-1.87221
-0.361237
0.327273
-1.86003
-0.962521
-0.126721
-1.72757
-1.08433
-0.586305
-0.0779304
-1.64509
-1.94318
-1.27196
0.076388
-1.03774
-0.920174
-0.63156
-1.8764
0.492065
-1.09681
0.639103
0.748872
0.509254
0.628633
0.187127
-0.200779
0.330721
-1.5737
-2.34951
-1.01542
1.31377
0.745766
0.0921981
-0.239334
-0.731934
-0.282555
-1.66479
-0.357617
-0.64394
-0.36888
-1.54827
0.441552
0.10432
0.329882
-0.551465
1.46374
2.93352
0.95369
2.70011
0.619041
-0.486157
-0.226721
-1.55151
-1.73342
0.652344
1.23976
1.36566
-0.666244
-0.910916
0.276448
0.728648
0.846717
1.42685
1.1864
-1.10239
-0.66884
-0.509003
-1.08749
-1.21141
-0.724185
-1.36372
0.791031
0.593708
0.0345158
-0.972606
-1.01199
2.2163
-0.613598
1.42697
-0.242226
0.921366
-0.305921
0.0461884
-0.7217
0.881624
0.849672
-1.15035
0.251064
0.34165
0.806462
0.194565
-1.16493
-0.354171
-0.811361
0.438168
-0.562745
0.856418
0.650748
-0.41577
-1.67065
1.24816
-1.30798
2.08331
0.657964
0.953897
-0.561241
0.838002
0.214019
-0.49404
-0.790038
-0.327696
-0.809635
0.887142
1.01441
0.628057
-0.62268
1.59984
-0.355278
0.236733
0.416994
-2.34841
0.00201159
-0.991737
-1.04336
0.263894
-2.32765
-0.419179
-1.14559
0.828576
-0.555621
1.53923
0.306636
1.0597
-0.00657018
0.121873
0.183297
0.361608
-0.257943
-0.0601727
0.957907
0.697378
0.183432
0.83393
1.89339
0.179043
0.0188836
-0.19179
0.162253
1.02124
-0.332416
0.101875
0.151438
0.590876
0.666538
1.03497
-0.409521
0.88575
0.629888
-1.14579
-0.933754
0.455712
-0.626325
-0.47649
0.339629
0.287793
1.11119
-1.47647
0.194762
-0.430798
1.45082
-0.0738462
1.59723
-0.0619973
0.498355
0.868547
-0.407031
0.300881
-0.692401
-0.188554
0.600505
-0.941998
0.455816
0.599786
0.495487
-1.94879
0.688097
-1.41056
-0.996407
1.77246
-0.117322
0.14832
0.0978443
0.162215
-0.177706
0.0243006
1.14866
0.616008
-0.683756
0.0725564
0.817848
0.683825
0.891202
-1.08846
-0.162675
2.54676
-1.29389
-0.560453
0.225642
-0.758488
0.167161
0.17583
-0.0741186
0.363928
1.12075
1.07256
-0.437377
0.439294
-0.328154
0.587664
0.105209
1.16818
-0.713019
-1.26564
-1.4647
0.676709
0.401022
-0.171311
0.187458
0.433865
-0.555559
2.93835
-1.31511
-0.465133
0.201759
-0.290737
-0.345886
-0.383062
-1.22047
-0.808195
-0.825214
0.401587
-1.67823
-1.16683
0.705972
-0.0638492
-0.281046
-0.325058
-0.216179
-2.6129
1.08519
1.10902
1.39364
-0.659318
0.508968
-0.149577
0.632138
-0.153015
0.412998
-0.0313169
0.760383
0.965781
-0.714059
-1.20981
-0.314238
-0.230902
0.163582
0.407011
-0.835992
0.33953
0.0609643
1.99645
0.0897829
0.885492
-0.315919
0.602019
0.85745
-1.43974
2.40504
0.687578
0.417313
-0.927075
-0.156007
-1.30113
-0.255583
0.960192
0.244807
0.260298
0.821194
-0.0786831
0.713273
0.62101
-0.0139861
0.501279
-0.337664
-0.733847
-1.72171
0.812018
0.516456
-0.130668
0.947481
-1.23753
-1.06278
-0.379483
0.574735
-1.70823
-0.482555
-1.70275
0.526229
-1.1664
2.10804
0.78655
2.44691
0.0436075
-0.169899
0.97774
-0.419219
0.600728
0.846997
-0.410846
-1.46194
-0.467468
0.237208
0.749484
-0.551623
-0.121389
-0.052806
0.906723
-0.355461
0.404051
1.71236
1.85003
-0.902405
-1.06394
-0.305993
0.364481
-0.393182
-1.10612
-0.338032
1.0595
0.430595
-1.41744
-0.637225
-0.840073
1.37213
-1.49207
0.672256
0.553232
-1.28726
0.234281
-1.97303
-1.56871
-0.97392
-0.111053
2.22858
2.22585
0.100886
-1.13821
0.0737547
0.904905
1.9528
-0.0830297
-0.114886
-2.13984
-0.0749302
0.544661
0.378681
0.0238857
0.899626
2.02103
-0.176861
1.27411
-0.387582
0.515442
1.65599
-0.177103
0.61165
-1.36799
0.201858
-0.224141
0.244953
0.94058
0.420396
1.19287
-1.54339
-0.0202902
2.51186
1.3336
1.15092
-1.21408
-0.188841
-0.575829
-0.348619
0.120003
-1.32918
1.18996
-0.897669
1.08277
-0.600266
0.232537
0.032923
1.56241
-0.782667
0.143025
1.52362
-1.69657
1.24937
1.99246
-1.26382
0.961612
0.0140699
1.58879
-1.53981
-0.174285
-0.434923
-0.0993688
-1.24566
-0.746417
-0.454278
-0.485199
1.99484
-0.216947
1.48847
-1.52387
-0.463527
0.758244
0.252887
-0.0731303
0.106355
0.493176
-1.5158
0.102954
0.162491
0.165553
-0.0479619
0.209538
-0.435612
0.749774
-0.279957
1.32944
0.0261972
-0.389627
1.6883
-0.258964
-0.286236
-0.0348669
-0.540159
-0.99793
-1.52049
-0.850654
0.251656
0.479168
-1.71711
0.542888
-1.22466
-0.909133
0.325633
-0.442598
0.542509
1.32643
1.29466
-2.60097
0.676131
1.38055
-0.782752
1.01891
0.42592
-0.113801
-0.867369
1.66037
-0.585468
0.039543
0.482188
-1.74615
-0.91964
-0.253849
0.531493
0.41678
-0.216894
-1.05495
1.52546
-0.440838
0.831839
0.0192913
0.881026
0.205275
1.19744
1.08082
1.7683
1.24986
-0.264147
0.352945
-0.57578
0.745193
-0.833578
-2.24164
-0.408138
1.12151
0.118918
-1.123
-1.42429
-0.33923
0.562581
-0.190622
-1.70704
0.632313
-0.625486
-0.638638
0.569757
0.963662
0.00335938
0.154223
1.8602
0.965091
-1.03535
2.12222
0.161121
-0.0702496
-0.752893
1.80899
-0.580044
-0.535271
-1.27577
1.35103
-0.605426
-1.07003
0.830318
-1.00587
-0.0870027
0.172611
-0.118062
-1.2131
1.18319
1.82582
0.861084
-0.948726
-0.00624944
1.86451
0.942948
0.427248
2.26377
1.55567
-0.468689
1.81371
1.00409
1.32694
1.75933
0.0874923
1.93681
0.209919
0.885881
-0.979006
0.905764
1.07478
0.191935
0.372002
-0.723557
0.713803
0.938942
0.487049
-0.825496
-0.287156
0.246068
0.599057
-0.490009
-0.605236
-1.20585
0.74211
-0.437918
0.655948
0.938517
0.880718
-0.841184
0.609127
-0.651935
0.517315
-0.0459631
-0.308651
0.32602
-0.537375
0.243252
-1.27566
-0.674059
1.55509
0.241159
0.570072
0.413026
0.00452896
1.51025
0.590163
0.38562
-1.90252
-0.650153
0.878634
1.05108
-0.0402821
1.67576
-1.92614
0.29627
0.954169
-0.775924
-0.703235
0.726201
0.898782
-0.101188
-0.765279
0.547412
-0.327328
0.0707075
1.07371
-1.09488
-0.702683
1.11013
-0.538719
0.4171
-0.496569
2.07006
-0.455601
-1.25506
0.235813
0.261781
0.370229
0.271866
0.120465
0.85845
0.233552
0.897586
-1.06802
0.3988
-0.868983
0.0391387
-0.411351
0.966383
-0.97075
-0.960538
-0.0966719
-0.762628
0.420621
0.0670929
0.56748
0.168757
0.435964
-0.124116
0.193658
0.948731
-1.71726
1.26561
0.439032
-0.107208
-0.351676
-0.129849
0.208539
0.448561
0.0155307
-1.62948
1.34759
-0.106418
0.452742
-0.401116
-0.824521
0.878566
0.564634
-0.338377
0.841063
-0.257853
2.10532
-0.291053
-0.321407
-1.07238
-0.531013
-0.74545
-0.377992
-0.395496
-1.52999
-0.821556
-0.491681
1.596
-1.11998
-0.549444
-0.743245
-0.0471747
0.437104
-0.317691
0.943183
0.547714
0.152239
0.21662
-0.931302
-0.291301
-0.562237
1.46579
0.830505
0.155683
1.14599
0.0568139
-0.0741855
0.323565
-1.25465
0.0773192
-1.19812
0.548655
-0.572819
0.606484
0.820421
0.789634
0.910057
0.540565
0.324719
-1.09225
-0.340146
0.0299868
0.241827
-0.0251942
-1.96636
0.199408
0.7313
-1.05655
0.166533
0.82787
-2.33195
-0.0730165
1.84028
-0.444309
1.82891
1.17432
0.295332
0.23058
1.60098
-2.46398
-1.45906
-0.756121
-0.924668
-0.744311
-0.0469362
-0.763133
0.76885
-0.187493
-0.124719
0.935903
-0.556684
-0.285138
0.622332
-1.03881
0.240684
-0.55647
-0.929733
-2.42206
0.784646
-0.234277
-0.206603
0.285707
-1.0576
-0.56552
-0.109413
0.965131
-1.00321
-0.24527
-0.24994
-1.32118
-0.104534
-2.32045
-0.61851
-0.994109
-1.07674
-0.339936
-0.870544
0.791898
-0.986206
-1.96132
-0.711987
-1.34517
-0.330823
-1.20949
-0.348811
-1.19807
-0.990573
0.241904
-1.62987
0.783445
-2.40749
-0.84847
1.1724
-1.14389
0.23463
0.256167
-0.386281
0.548178
-0.572769
0.0128226
-0.873807
-0.115105
1.04837
0.00268786
0.779795
0.522166
-1.52421
0.69358
-0.296156
-1.1308
-1.83444
-1.18966
-0.330357
-0.282082
-0.0852117
0.388566
0.642443
0.0620728
-0.0649406
-0.548614
1.387
0.721277
1.46186
-0.935117
0.710385
-0.264617
0.851493
0.946404
-0.11309
0.785294
-1.28672
1.38167
-1.31999
0.493978
-1.09506
-0.550853
-0.739234
-0.15285
-1.7283
0.913431
-1.92258
-0.66876
-0.76382
-0.362884
0.767874
0.527572
1.6239
2.18084
-0.984143
0.463255
0.331767
-0.0115989
-0.519645
1.30474
0.154635
-0.537804
0.730663
0.554745
1.73338
1.13924
-0.0516627
-0.0359803
-1.4946
-0.683167
-0.44147
-0.834545
-0.70864
-1.77917
0.947454
1.42487
1.75013
-1.06866
-1.52196
0.318935
1.36472
-0.958406
1.15088
0.745434
1.03232
-0.113126
-1.88826
-0.433812
0.620605
-1.57515
0.22976
0.0801159
0.369077
0.275785
-0.384911
-0.64517
0.798276
-0.340878
-0.0652094
-1.29034
-1.412
0.327212
-0.0922148
-0.763263
-1.00189
1.04998
-0.317248
1.36149
1.23992
1.11014
0.463709
-1.51159
-1.2747
-0.918677
-0.128721
0.606875
-2.4304
1.09809
0.323931
0.609255
-0.9607
-0.399257
-0.626983
0.0603465
-0.0830317
-2.63955
-0.893651
-0.527567
1.48046
1.71583
0.971802
0.11889
0.563301
1.08551
1.54587
0.432203
-1.75224
-2.81449
0.280702
0.323957
-1.86118
-0.798625
-1.03237
0.613743
1.21462
-0.657671
-0.396981
-1.27547
0.378178
0.110962
-1.48986
-2.16888
-0.723779
-0.60267
0.163808
1.52483
-1.38443
0.0848331
-0.723148
1.55349
0.100528
0.186176
0.28399
-0.175183
2.41186
0.0383817
1.44689
3.05876
-0.976878
-1.51366
1.32566
-0.325986
0.144655
-0.911371
0.780114
-0.269693
-0.78127
0.714131
-0.386855
-0.028498
1.28113
-0.0856352
1.0171
0.385385
2.48157
1.16617
-0.198995
0.118372
1.47184
-0.91517
0.666714
-1.45754
1.4766
-0.996756
1.04344
0.998887
0.213115
-0.96097
0.0122769
0.757916
1.52413
0.214814
-0.0516531
0.408723
0.3682
1.81964
0.0318323
0.216588
0.114603
0.622606
0.786829
0.0506013
1.61414
0.640022
0.889317
2.42272
0.718173
-0.651432
1.02674
-0.254838
-0.925702
0.288569
-1.02842
0.310636
1.49698
0.577277
1.40323
0.0318329
2.68956
-0.869796
0.313179
1.76486
1.60562
2.5754
1.06429
1.27686
1.15711
0.969968
0.447741
0.535199
0.89342
1.68894
0.350402
1.48166
-0.90903
2.52677
1.58784
0.338572
-0.447358
0.170896
1.01427
0.269653
0.612781
0.13157
0.619947
0.661772
0.118667
2.51545
0.373671
0.357363
0.288011
0.426223
1.02604
-0.153551
1.8771
-0.459616
0.308952
0.517473
-0.778609
-0.741978
0.18797
-0.393382
1.36166
0.0187006
1.25399
-0.0878849
-0.308273
1.21701
-1.24441
1.11718
-1.49157
0.460172
1.7802
1.17936
0.174948
-0.371829
-0.140436
-0.116224
1.54679
0.219224
-0.72096
-0.403341
-1.17823
-0.784642
0.890634
-0.339558
0.317822
1.40652
1.42744
0.532578
1.85778
1.31821
-0.344807
0.855294
2.02788
-1.64653
0.479133
-1.0478
-0.781225
-0.928413
-1.01609
1.07977
0.479301
-0.73244
1.092
1.17361
0.776834
-0.657536
1.63817
0.462208
0.913913
0.255195
0.50834
-0.669533
-0.847342
0.11164
-1.41069
0.540068
-0.833864
-0.552273
0.799594
0.291601
0.938449
-1.39066
1.15619
-0.684562
1.28596
-1.37279
-1.69403
1.33862
0.804022
-0.732718
0.39064
0.349244
0.0888967
0.0340253
0.41133
0.0542772
-1.17169
1.94908
-1.13686
-0.516617
0.0720232
0.0929689
-0.884099
-0.00222572
-1.55936
0.671726
-1.55334
1.29551
-2.41005
-1.26974
0.247983
-0.33771
-1.62582
0.234626
1.43016
0.115523
-0.191625
-0.923963
0.598019
-0.976497
-0.489542
1.21875
-0.128167
-1.42743
0.677192
0.813519
0.0563514
-0.336895
-0.0099783
0.718308
0.500851
-0.145568
-0.247249
-1.70361
1.20101
0.0230754
-0.380382
-0.150767
-2.38583
-0.896521
-2.06089
0.658563
0.981962
-0.481235
-0.544257
-0.843901
-0.0813859
-0.122845
0.453223
-0.925429
-0.570101
0.376158
0.802181
0.338771
-2.04245
0.592351
0.836784
-0.441327
-1.28043
1.81797
-0.123381
-1.03915
-0.0080609
0.0290663
-0.689245
0.0816712
0.854382
0.625541
1.44834
-0.720373
1.64001
-0.50165
1.13438
-0.101584
-1.05049
-1.80709
-0.386957
0.319557
-0.0314023
-0.204915
-1.14324
-0.0942169
-0.929747
0.275474
0.490071
0.458436
0.147368
-0.480364
-0.108301
-1.29013
-0.570159
-0.860595
0.746572
1.97352
0.36465
-0.903078
-0.6181
0.271362
0.425952
0.888677
0.617666
-0.0410896
-0.172834
-0.950603
1.8005
-0.241834
-0.779409
0.00183768
-0.253712
-0.0987702
-0.347772
-1.28849
-1.67578
-0.4725
0.139861
0.592759
-0.525038
0.362206
0.226781
-2.26446
-0.220845
0.436592
0.062649
0.659423
1.20773
-0.0548994
0.522424
0.131492
-0.98927
-0.59311
-1.13506
1.96406
-0.438643
0.0848498
-0.280289
1.13969
0.207998
-0.844772
2.16951
-0.63802
-0.924746
-0.590409
-1.82108
0.257146
0.659126
-0.118412
0.872291
-0.487674
1.25362
-0.791832
1.07819
0.261855
1.47982
-0.0610799
-0.948951
1.41088
1.23453
0.000801383
0.637382
-0.456914
-0.477986
-2.70569
0.34091
0.989572
-1.06317
-2.49891
1.12484
-0.105805
-0.822044
-0.965741
0.479457
-1.86548
0.730073
-0.92631
1.43371
-0.811537
-1.38118
0.746284
-0.320244
1.27297
-1.73666
0.373545
0.496881
0.989654
-0.668692
-1.76672
-0.0148464
0.0332425
0.118882
-2.11091
0.602345
-1.3072
0.445941
0.930044
0.559236
1.15344
-0.448736
0.618113
-0.867835
2.39945
-0.131457
0.0971088
-1.90293
1.63883
-2.14631
-0.788309
-1.8664
1.59789
-0.494249
-0.808232
0.314262
-1.26109
1.8063
-1.47112
1.5327
0.668434
-0.421236
-0.230951
-0.717262
-0.0585757
0.693494
-0.10734
0.333128
0.219314
0.922854
-2.21345
0.772296
-1.3381
-0.97955
-0.127939
0.782874
-0.498196
0.917904
0.332852
-0.0108259
-0.644488
-0.940493
0.48461
2.17086
0.398608
0.12946
-1.16376
1.25905
0.0934522
1.35123
-0.237136
-0.601101
1.75212
-0.117509
-1.23775
-1.2381
-0.584899
-0.062286
0.283406
0.836602
0.751442
-1.3298
0.917359
0.259158
1.1143
0.865343
-1.22344
-0.597309
1.28614
1.08017
-0.284788
-0.368174
-0.510881
-0.0925046
1.08724
0.950107
0.79682
-1.00219
-0.222444
0.620401
-0.724836
-0.603706
0.725682
0.184639
0.719828
-1.64191
-1.51603
-1.60945
-1.20883
-1.04021
0.118667
-1.14348
-0.032907
1.23739
0.0829332
-1.34169
-0.522309
-1.38365
0.461869
-0.24586
0.137182
1.06548
-0.399051
0.331555
-0.451343
0.190017
0.488765
-1.10838
0.211805
-0.286433
-0.046782
-0.395934
0.703289
-1.31217
-0.467548
-1.56118
1.12205
-0.00994299
-0.855437
1.27512
-0.303773
-0.199319
0.312948
-0.952875
-0.278547
0.0972903
-0.969333
0.075891
0.296573
1.4201
-0.865131
-0.544544
2.08293
-0.718995
-0.817477
-1.17977
0.956861
-0.272338
-0.0745908
0.838434
-0.251779
-0.303225
-0.251089
1.32954
-0.0685933
-1.51554
-0.240863
-0.72516
2.28428
-0.39462
0.649238
-1.17243
-0.819366
-0.400281
0.124072
-0.474515
-0.877068
0.758859
-0.409962
0.125282
-0.747036
-0.599612
-0.819658
-2.58106
-0.107393
1.20448
0.968249
1.71566
1.73053
0.137073
-0.222065
2.66629
-1.17466
-1.6361
-1.05572
-0.99919
1.22215
-2.28247
-1.06627
1.06485
2.64311
0.57523
-0.786216
0.521756
-0.598756
-0.639835
-0.934697
-1.59225
-1.59541
0.451995
0.194787
0.327548
0.10011
1.15105
-0.824874
-0.137199
1.01043
2.02135
1.30338
-0.589512
1.23655
-1.95186
0.273845
0.474569
-0.432631
0.524758
0.959793
0.5974
-0.453174
-1.08421
-1.717
-1.5275
1.48778
0.384087
-2.30753
-0.975716
-1.72279
-0.980539
-0.305368
0.228028
-0.484597
0.230609
1.46302
1.44656
1.89724
0.153456
1.06206
2.11843
-0.675709
0.962463
-0.516934
0.420125
-0.388603
1.33852
-0.761277
-1.06245
0.927135
0.0431564
-0.216941
0.396062
-0.703579
-0.195331
-0.86564
0.63818
-0.238407
-0.419587
-1.72402
-0.385333
-0.957235
1.8901
0.331523
0.0500828
1.50534
0.693092
0.972227
-0.207949
0.296618
-0.881571
-0.858593
0.145118
-0.10006
-0.684108
0.49746
-1.28294
1.62029
-0.878418
-0.555704
-0.0185942
-0.97549
-0.277604
0.609286
-0.555262
-0.478417
-0.78475
-1.02435
1.74731
0.535736
0.19728
0.227744
-0.459874
0.82148
-1.17019
-1.49193
1.57078
-0.170754
0.0236062
-0.560287
-0.558663
0.107063
1.10298
-0.157277
-0.882779
-3.1276
0.887669
0.251807
1.12055
-0.0588228
-1.09084
-0.41948
-0.238338
0.292711
-0.779439
-1.77813
-0.547889
0.188825
0.279648
1.57564
0.265576
0.0441734
0.159147
2.74964
-0.610208
-0.319864
0.104223
-2.07066
-2.25339
0.165739
-1.28054
0.398392
0.0974603
-0.673188
-0.605021
-0.17813
1.02452
0.619258
1.3079
1.38043
-0.135245
-0.849094
1.2187
1.18651
-0.399218
1.33885
-0.113559
0.521162
1.06585
0.427791
1.27657
-0.17637
1.57727
0.128627
-1.28848
-0.36352
0.767948
-0.29362
-0.320425
0.676217
0.0608195
0.573575
0.704587
0.734231
0.832486
-2.3667
-0.88266
0.0268629
0.310121
0.570547
1.97021
-0.44912
-0.673431
-0.515626
-0.50161
-1.07831
0.770017
1.95623
0.982853
-0.146601
1.09701
0.499618
-0.221834
0.401957
-1.32311
0.378288
-0.95607
0.664892
-0.399349
-1.68658
-1.96465
-0.243127
-0.847563
0.880731
-0.283505
1.07891
1.06108
1.65547
-0.739218
0.921269
0.243178
-0.238797
-0.7655
1.80487
0.609889
0.905271
0.452968
-0.215276
-0.592422
-0.311354
1.01653
-1.31857
-0.132904
0.872065
0.239473
1.64825
-1.47252
0.3525
-1.27859
0.907131
1.24146
0.0262529
0.134771
-1.21782
0.132063
-1.20428
0.1583
-1.09215
0.220537
0.184838
0.505419
0.587897
0.475099
0.455473
1.09803
-0.941834
1.05854
-0.0873872
1.11609
-0.819897
-0.617038
-0.359034
0.285048
-0.616573
-0.0599054
-0.954987
-0.713761
-0.706877
0.56696
0.866248
1.55321
-0.589502
-1.33387
-0.896548
1.74729
0.546134
-0.6301
0.167393
0.260327
-1.46615
-0.668665
-1.34581
-0.854923
0.487362
0.651845
-1.09021
-0.387442
1.55626
-0.435834
-1.41172
1.25645
0.171782
0.93347
-1.19615
0.575098
0.611514
0.647802
-0.799186
0.618019
-0.362587
-1.49184
-1.55323
0.200376
0.0782364
1.2775
0.00859656
1.49165
2.51771
0.0965832
0.687121
-0.294495
0.790068
-0.30324
1.13395
-0.410204
0.0158101
1.77426
0.236959
-0.231025
-0.12978
-1.9677
-0.464647
1.8061
1.27436
-1.26308
0.395822
0.428418
1.59142
-0.233591
0.0475451
-0.212433
-0.262943
-1.05907
-1.27243
-0.102927
-0.934914
1.02896
0.430882
0.923268
-0.913141
-1.22138
0.757223
-0.178
-1.07268
-0.337315
2.27529
-1.54032
-0.632223
0.534305
0.799265
-0.458532
-0.868829
-0.575343
-0.152719
-0.387431
-0.729152
-0.444868
-1.39805
0.0286042
0.884549
-1.55953
-0.506452
-1.50848
-0.294014
1.50567
-1.13142
0.881892
1.14717
-0.771379
2.43315
-0.214243
-0.936191
-0.638938
1.54927
-1.8437
0.571657
-0.789666
0.628117
-1.00567
-0.672612
-0.217277
-0.173038
0.923368
-0.300887
0.648008
-1.7487
0.164234
-0.22738
0.158248
-0.605261
0.131625
1.17343
-1.50814
-0.902016
-0.141534
-1.4565
-0.465254
-0.403752
-0.753203
-0.16625
0.265251
-0.268292
-0.508089
0.0416682
-1.41844
1.27367
0.229966
-0.940065
-0.320751
-0.397776
1.65593
1.45408
-1.12603
1.03581
0.00573466
-0.820021
0.902063
0.414879
-1.84596
0.631859
-0.155116
0.18086
-0.331426
-0.129085
-0.644601
1.12431
0.391764
0.76128
0.800495
0.327074
-0.115546
0.591992
-1.75802
0.167218
-1.20835
1.34834
1.15101
1.93131
-0.541276
1.85972
-0.294454
0.531834
0.939958
-0.081797
1.0475
-2.76129
-0.75613
0.314789
-0.295988
-0.737584
-0.704309
1.47555
0.241627
1.3391
0.00074506
0.382343
-0.0476019
1.5918
1.91349
-0.639334
1.64948
0.341151
1.15555
0.399449
1.44311
-1.04324
0.605067
1.14825
0.92283
0.149145
-1.19382
0.268692
-0.0738213
0.305992
-0.43612
-0.394663
0.623535
0.978847
1.20046
-0.0489454
-1.15389
1.04073
-1.76415
-1.45715
0.668142
0.788561
-0.0510992
0.584291
0.550972
-2.16129
-0.577148
0.129369
0.232182
-0.0614386
0.742975
-0.351418
2.34992
0.202387
0.538767
1.57606
-0.190831
0.587054
0.292973
-0.00386741
1.897
-0.315247
0.0343255
-0.357025
-1.5684
0.33112
0.197659
1.01689
-0.319787
-0.0596461
-0.42972
0.0214386
-0.0839229
0.401693
0.805698
-1.40987
-1.06396
-0.0566214
-0.0572611
2.01842
1.44745
0.0249764
-1.68876
-1.90601
-0.205901
-0.670123
2.15076
-0.110855
0.162236
-0.543463
-1.13812
1.67865
0.0346308
0.448496
-1.16867
-0.746985
0.922391
-0.187273
-0.097087
-0.114476
-1.76596
-0.166497
-0.464783
1.01661
1.95731
0.0936562
1.03849
0.173891
-0.0571783
-0.377175
-0.247297
-0.0227925
0.11881
-3.06117
0.047118
-0.69407
-1.57397
3.00673
-1.60248
1.17431
-1.08687
-0.34843
-1.00048
-0.513207
-0.312059
0.7436
0.638725
-2.31415
-0.346305
-0.517838
0.195499
0.505281
-0.713177
-0.91071
-0.85027
-2.63463
0.936812
-0.444138
0.222964
0.944094
0.68646
0.660869
-0.469188
1.44174
-0.660655
2.44896
0.12621
1.11197
-1.73352
0.841189
-0.584752
-0.432266
0.106657
-0.271798
0.438088
0.604977
0.37213
-0.276058
-1.21158
-0.558748
2.03842
0.21731
-0.720565
1.8479
-1.88314
-0.708498
1.2921
2.2635
0.0723772
0.511061
0.812968
-0.11689
-0.55218
1.50542
-0.858904
-0.933763
1.44889
1.36042
1.52878
0.90441
0.0176625
-0.866859
-0.315973
-0.653164
1.64238
-0.288352
1.06199
0.327726
-0.793802
0.0711216
1.81691
1.49137
0.836686
-0.30805
-1.01799
-1.79119
0.206861
0.517941
-1.56715
0.0601548
-0.548447
0.256578
0.31882
-1.662
1.19605
0.787074
-1.19866
-0.204727
-1.43712
-0.208228
1.02565
-2.07002
-0.271716
-1.09067
0.385793
1.06779
-0.117205
-0.512488
-0.296358
1.06164
1.18188
1.183
2.15398
0.523558
-0.458187
-1.01939
1.44852
-0.556214
-0.766655
-0.774357
0.951661
0.300019
0.695811
2.71069
-0.969667
2.39882
-1.88836
-1.16725
0.557524
1.03429
1.08238
2.50599
0.195992
-0.371014
2.07999
0.0680413
0.3036
-2.18014
0.0438573
2.04807
-0.0417467
-1.78517
-0.129727
0.386246
0.111172
-1.3779
0.896075
0.0869655
0.392278
-0.583977
-2.11914
-1.04718
0.230023
0.131258
-1.50595
0.268301
-0.520269
1.42095
0.327022
-0.27288
-1.15117
-1.13405
-0.163734
0.537455
-1.69712
-0.594974
-0.877803
0.437913
0.401763
-0.821433
0.271714
-1.33137
-0.0215839
-0.995722
-0.954444
-1.82444
-1.22553
-0.381117
0.0288791
-1.18777
-0.924557
-1.02336
-0.6895
0.617896
-0.0319419
0.312743
2.17823
-0.686404
0.801533
-1.08067
-0.558584
0.743766
-0.824246
-1.23373
1.082
0.014761
-0.978536
-0.182574
0.571448
0.195889
-0.566765
-0.604772
-0.904048
-2.09753
-1.27471
0.083344
-1.20986
-1.62371
-0.106766
-1.40291
-0.863914
0.13536
0.591244
-0.0978905
-0.0976234
0.839396
-0.713212
-0.270803
0.555927
-0.915523
0.0997583
-0.742013
-2.28728
-0.297094
-0.0601645
0.0495128
-1.40573
0.452968
1.02697
0.574402
-2.39275
-1.26836
-1.50426
-0.568727
-2.59862
-2.17058
-0.251443
0.339196
-0.929854
0.253844
-0.859268
0.826793
1.9954
1.02825
0.782812
-2.01794
-1.57214
1.03507
0.378873
-1.33653
-1.43163
-0.407836
-1.24014
0.236699
0.854078
0.22911
1.77239
2.65763
-1.84613
-0.75338
-2.41692
-0.921919
-0.140019
-1.67462
-0.346991
-0.516358
-0.300608
-0.414976
0.687249
0.982839
-0.261654
0.451935
0.0916966
1.32997
-0.136609
0.950042
-1.62597
0.449964
0.273525
-0.380978
-1.17752
0.202243
-2.28386
0.557271
-1.21744
1.65871
0.851857
-0.90029
-1.60633
-0.659778
-0.791519
-0.531832
-1.41873
1.57694
-0.237343
-0.472435
-0.653294
-1.43298
0.94152
-0.435826
1.14228
-0.869809
0.436158
-0.58876
-0.292629
-0.705104
1.93683
0.657303
-0.500429
0.587413
0.931216
-0.683668
1.41668
1.12344
0.852674
0.0947163
-0.244151
0.943879
0.0452209
0.440778
-0.115185
1.24019
1.42169
2.33157
0.193905
-1.44485
0.780649
-0.135072
0.34976
-1.03063
0.378047
-0.649156
0.746009
-0.0801342
-1.27998
-1.44158
0.630263
0.710196
-0.504861
0.0562365
0.547809
0.771121
0.251011
-0.721088
-0.79018
-0.800029
0.429549
0.622939
-0.582099
-0.585823
-0.322124
2.55659
-0.0104608
-0.639257
1.24858
-0.48922
-1.47265
-0.905059
0.894772
-0.120716
1.20893
0.400121
-0.274806
1.22601
1.27053
-0.93697
1.08751
-0.178954
-0.431948
0.760813
-0.527743
0.824083
0.471398
0.726706
-1.01463
0.991748
-0.146113
1.84058
-0.889973
0.390624
-0.70619
0.940381
-0.165762
-0.550025
0.5528
-0.404606
-2.13738
-0.231337
1.03377
-0.0683751
0.232283
-1.82865
-0.0490156
0.500897
0.751866
-0.708303
0.0890787
0.891756
-1.14427
-1.33538
0.995124
-0.941051
-0.221372
0.403335
0.316231
0.200448
-0.23592
-0.294863
1.0329
-0.123823
-1.31659
1.02496
-1.02992
-0.179785
1.52611
-1.22775
0.772837
1.45231
0.887782
0.645826
-0.771642
0.0535975
-0.909207
0.862153
1.04872
-0.277591
-0.526215
-0.14374
-0.661085
-0.618081
1.58608
0.465767
-0.706218
-0.639791
0.885168
-0.448924
-0.72007
-0.572444
0.851469
-0.087136
0.124407
1.12891
1.10672
0.708856
-0.766958
-0.269289
1.70025
-0.182222
-0.466136
-0.997093
1.0234
-0.861418
0.540787
0.332056
-1.80846
-0.71819
-0.725997
0.393853
-1.68606
1.16242
-0.968119
2.51343
0.319016
-2.2709
-1.40798
0.776954
-0.768765
-0.688916
-0.0526219
-0.93428
-2.07352
-1.17856
-1.00438
-0.369329
-0.531624
1.87616
0.422471
2.08354
1.2115
1.63838
0.20988
1.18781
-0.41573
0.845061
-0.790765
0.174618
1.49355
-1.46213
-0.313452
-0.218544
0.950173
0.0113562
1.84803
-0.0942639
-1.25344
-1.55311
-1.00328
0.987881
-0.601763
-0.254653
-0.700114
-0.586723
0.631709
-0.889712
0.946389
-0.337662
0.795716
0.083028
-0.357185
0.0990854
0.496579
0.0727409
0.351906
0.942024
-1.55908
2.59164
-0.558099
0.521967
0.876453
0.140177
-0.0399602
-0.395707
0.181345
-0.494325
-1.3324
1.22589
-1.69115
-0.645305
0.773558
-0.0454437
-0.900583
1.85732
0.111772
1.35899
0.321271
-0.714524
1.75224
0.360153
0.941366
2.00826
-0.224333
0.860522
-1.19137
0.522142
-1.01919
0.13859
1.4493
0.825098
-0.175079
-0.485901
0.773737
0.331841
0.260299
0.441007
-0.395068
1.19564
-1.6624
-0.38655
-0.255242
-0.467882
-1.02383
0.660022
1.82412
0.768829
0.542546
-0.0551692
0.0219529
1.00359
-0.487482
0.321257
-0.902324
-0.351809
0.436873
-0.379797
1.27187
-0.698331
-0.157045
0.411115
2.34145
1.13702
0.430571
-0.700824
-1.17168
1.41748
0.938878
-0.230204
0.285419
-0.932092
0.157786
0.244818
-0.244348
0.211664
-0.912681
0.52194
-1.54689
1.22361
0.175217
0.849859
0.550477
-1.40609
0.565187
-1.0678
2.15688
-0.384412
0.34623
-2.51643
-0.118743
-0.813226
0.427983
0.29612
-1.83763
1.31733
0.822691
-0.802912
-1.38444
-0.0806577
-0.614744
-1.52251
-1.90574
-1.29473
-0.0567986
-1.57902
-1.7896
-1.59487
-1.02333
-1.05984
-0.670706
0.904646
-0.187822
-0.842624
-0.113181
-1.2044
-0.438648
-1.83087
-0.558993
-0.477947
-1.96761
-1.40638
-0.571356
-1.09611
0.0343072
0.438685
-0.800768
0.949615
0.779332
0.450342
0.100035
-1.18242
0.859725
-0.776389
-0.499952
-0.927838
-1.32647
-2.62368
0.0902634
-0.6736
-0.101839
0.532256
-0.783084
0.0323832
-0.58369
-0.0757871
0.318044
-1.10951
-0.290384
-1.00045
1.49929
-1.52962
-0.171218
-1.32494
-0.751692
0.0775178
0.403056
-1.29825
-1.79312
-0.0945967
-0.0963771
-1.52633
-0.0804383
0.426867
1.12905
-0.183483
0.536314
1.14378
0.178211
1.47265
0.448361
1.18316
-0.216591
1.53842
-0.653481
-0.994497
1.35348
-0.42587
0.684694
1.24985
-0.466601
1.54919
-0.809256
1.52137
-0.198063
-0.064276
1.16779
0.970755
0.507519
1.23404
-0.832089
1.5615
-1.30104
-1.01834
-0.0481511
0.225012
1.96442
0.947031
0.379609
0.568337
-0.947043
0.509934
-0.150225
-0.684812
-0.792713
0.210025
-0.878443
-1.15924
0.0651531
0.815851
1.31702
-1.07428
0.778265
-1.35672
0.649561
-1.62953
0.0682542
-1.12122
-0.119648
0.606578
-1.6527
0.162442
0.360665
0.436699
-0.487138
1.03036
0.677849
-0.880036
-2.10802
0.74229
-0.194994
-0.563576
0.098103
0.228617
-0.292043
-1.18182
-0.954869
-0.0569363
2.13736
-1.25159
0.725541
-1.65065
0.923759
1.1345
1.8392
-1.20756
0.674321
-1.11038
-0.211898
-1.06055
0.798421
0.104531
0.995171
0.777483
0.0828938
0.840379
-0.0473027
-1.09002
2.28418
-2.01037
1.28251
-0.239722
0.549643
-0.0835465
-0.0296013
-0.611198
0.73938
0.618611
-0.701682
-0.457439
0.564466
-1.69962
-1.26167
-0.0265114
-2.07151
-0.47994
0.575774
-1.53116
0.305452
0.717136
-0.265676
1.50352
0.56963
-0.972949
0.381091
-0.103805
2.30502
-1.42244
-0.635238
0.995713
0.39717
2.10313
1.62223
-1.38048
-1.41316
1.22122
0.271523
-2.27861
-1.06873
0.145197
1.95869
-1.06392
2.22913
-0.493675
2.31512
-2.03309
-2.07415
0.124663
0.56951
-0.359658
-1.58644
1.54345
0.165309
-1.02681
-0.909283
1.36728
1.85656
-0.976249
0.139103
-0.536211
0.00813924
-0.44242
0.605987
0.69676
0.0549261
0.275281
-1.1202
0.726627
-0.675489
0.606679
-1.68594
-1.69569
-1.86489
-0.473497
0.661063
-1.48815
-0.691141
1.86689
-0.858959
-0.830208
1.40792
-2.25275
1.23855
-1.485
-0.9093
1.13482
1.20553
0.96757
-0.42736
2.19682
-2.25464
-1.8231
-0.0114488
-0.521716
-0.274699
-4.28175
0.423319
0.235052
0.284585
1.28176
-1.01918
0.423773
0.824022
-0.530084
-0.456591
-0.776417
-0.128668
1.16169
-0.352658
0.541993
0.516874
0.508736
0.464004
0.12685
-2.33293
0.550387
-0.73878
0.763629
-0.277257
-0.358644
-0.883534
0.0654817
1.36219
0.894569
0.0677343
-1.59411
-0.391076
-0.386471
-1.91539
0.99006
0.116087
0.309559
0.765746
-0.282982
2.12474
0.515935
0.487445
0.227224
-1.07089
-0.159065
-1.55427
0.13036
-0.733578
1.58764
-1.57095
0.020708
0.187273
0.776237
-0.135761
0.486745
-0.756077
-0.512111
1.65355
1.23245
-1.66124
0.852932
-0.255484
-1.52587
0.59467
-0.0902624
0.254321
2.41395
0.583366
-0.801112
0.369602
1.28417
0.404861
-3.42596
-0.444159
-0.815049
-0.701017
-1.31251
0.106985
-0.163976
-0.0953805
0.392761
-0.46485
0.438783
-0.353108
-1.01478
-0.558457
-0.415312
0.762592
-0.90024
1.61938
-0.0576566
-0.231402
0.256058
-0.905265
0.603905
-0.332373
-0.561646
-0.486903
1.12785
2.33147
0.576563
0.277476
-1.27183
-0.61914
1.29576
-1.1997
-0.267576
-1.36242
-1.31955
-0.419617
1.04736
-1.10648
0.450615
0.191952
0.0565161
-1.67713
0.291112
-0.878521
-0.900979
0.00463225
-0.664584
1.32645
-0.505666
1.81689
1.92596
-0.1359
-0.494636
-1.73155
-1.36687
-1.4568
-0.997744
-0.385462
0.942695
-0.729479
0.0520704
0.205475
0.199516
-1.21318
0.141133
1.04977
0.0706221
-1.67406
0.355009
-1.56844
1.73884
-0.50874
-0.11344
0.647865
-0.709584
-0.877837
1.26948
-0.0156232
-1.08034
-1.72662
1.06795
-1.15008
-0.92767
0.511334
-0.909822
0.0101008
-0.245171
-0.011604
0.921851
0.437679
1.0412
-0.310187
-0.360383
-0.086388
-1.7147
-0.577973
-1.1968
-1.19018
-1.05663
-0.246698
-1.70366
-0.258343
-1.41276
-0.774566
0.798043
0.693334
0.849546
0.473531
-0.376958
-0.624934
-1.58974
-1.19269
-1.69297
-0.260335
-0.418888
0.166519
0.718819
-0.630532
1.25884
0.686933
0.178204
1.27898
-1.62882
-0.222516
-0.934864
-0.965344
-1.52248
-0.942697
1.20036
-0.738422
0.278551
-0.604677
-1.18202
0.723841
0.303559
0.807333
-0.431581
-0.284658
-1.06076
0.41368
-1.19813
-0.269489
-0.126783
1.09938
-0.170399
1.2261
1.49498
0.107774
0.724719
1.21717
2.74455
2.39594
0.736498
-0.542695
0.978834
-0.0849449
0.7122
0.522936
0.458163
-0.95174
-0.885442
0.332298
1.83584
-1.37688
-1.62563
-0.432749
-1.87482
-0.467775
1.69859
-0.539907
1.94661
1.76395
1.18196
-0.34791
-0.341644
-0.0694183
-0.297271
0.615961
3.13819
1.3462
1.97653
-0.161048
-0.219962
-1.00106
0.315462
-1.2405
-0.12059
-1.79962
-0.899747
0.123723
0.100463
0.0970459
1.84143
2.07895
-0.864271
0.13288
-0.344513
-1.56405
-1.00271
0.380953
0.290189
-0.225241
1.22837
0.872711
1.3587
1.47034
0.402096
0.389008
1.00407
0.0282561
0.769746
-0.452554
-0.644896
-0.79342
-0.680812
-0.15894
-0.657809
0.580402
0.120787
1.61232
0.364874
-0.0372194
-0.950658
0.0757406
0.350874
0.882875
0.638589
0.826757
1.01293
0.878644
1.02252
0.85791
-0.268585
1.88162
1.8573
0.886588
0.468511
0.271549
-0.224713
-0.072673
-0.140305
-0.0783601
0.289098
-0.475658
-2.00694
-0.25639
-1.17985
1.57741
0.332562
-0.274493
0.275429
-0.995559
-0.051687
-0.974673
-0.820042
-0.379046
-0.125898
0.231123
-0.705645
-0.155678
0.0989617
0.648426
0.766792
0.465968
0.283051
-0.0640144
-0.851573
-0.334517
0.20254
-1.7385
-3.54199
0.923097
-0.158107
1.00155
-1.00417
0.86387
-0.0777603
-0.900859
-0.443407
-1.21917
0.0875936
1.16788
0.667577
-0.621764
0.522435
0.0318685
0.751732
0.800269
0.725696
1.8415
1.33639
0.579012
0.79677
0.703559
1.4545
-0.834571
0.0231829
-0.217517
-0.0230059
0.317228
-0.159277
-0.444973
1.3581
-0.909757
-1.658
0.621164
-0.453024
-1.46231
-0.557598
0.371656
-0.161009
-0.0923149
0.311309
0.886684
-0.0818388
0.967303
0.70172
1.63714
0.596286
-1.01581
0.158026
0.0533227
1.15517
-0.360173
-0.945899
0.272888
0.681549
-0.263001
-0.439166
0.258459
0.839361
0.321004
-0.136224
0.634365
0.215433
-0.560651
-1.05656
-0.195987
0.676191
0.965274
0.533601
-0.718174
-0.223987
-0.821242
-1.36695
-0.0151107
-0.910711
-0.56241
0.311326
-1.45194
-0.627915
-0.512139
0.354877
-1.40276
-0.725859
-0.430679
-0.933532
-0.373103
0.839799
-0.37976
1.42664
-1.31776
-1.77258
0.673647
0.0542933
-0.327085
0.00802586
0.239878
-0.649995
0.705395
0.00922596
-0.432453
-0.546418
-0.60696
-0.320961
-1.03092
-0.647573
-0.435677
-1.8978
-0.276124
0.132484
-1.41617
0.991658
0.109046
-0.743263
-0.814
-0.631742
-0.615313
0.0536785
1.00124
-1.79657
0.208012
-1.14569
0.383848
1.6278
-0.791347
0.35381
0.179878
-0.550241
0.732167
-0.762739
0.781395
-0.573901
-0.69741
-0.311308
-0.453878
1.3046
-1.28612
-0.311257
0.223482
0.0913814
0.107146
0.144187
0.344895
2.74427
0.819588
1.13458
-0.140714
1.16222
1.50665
0.632307
0.977656
-0.779349
-0.0607549
-0.0829091
-0.604052
-0.239132
0.479503
-1.0655
-1.18278
-0.393742
0.997105
0.172103
0.69028
0.874828
0.60255
0.222581
1.12055
0.355294
-0.431744
-0.332411
-0.768386
-0.924989
-0.0949821
1.82213
0.206778
-1.08828
-1.41356
1.25086
-1.29966
-0.395532
0.205748
0.119417
0.719293
-0.033746
-1.23242
0.748299
0.8624
-0.329925
-0.223183
-0.688387
-0.166546
0.00190762
0.0695141
0.84334
2.54669
-0.00435716
0.42844
0.523857
0.604531
-0.521319
-1.07669
-0.309313
1.14269
-0.32269
-2.47273
0.0741456
-1.17466
-0.324456
0.50133
-0.112452
-0.285323
-1.15181
0.30086
0.41725
0.153446
0.595631
0.0715563
-0.665851
-0.450393
-0.886131
0.602792
0.178709
-1.44708
0.574649
0.5267
1.43452
-1.05119
0.359466
-0.129383
0.213355
-0.200261
-0.505336
-1.11113
0.892652
-0.752238
2.2727
-0.937352
-0.0272223
1.14133
0.223897
-1.06732
-1.21682
-1.23472
1.35769
-1.58474
0.151615
-0.256624
0.226519
-0.0210381
-0.0427819
0.806487
0.478026
-1.40606
-0.207227
1.12968
0.781708
1.16562
-0.152739
-0.27405
0.95202
-1.27348
-0.582424
-0.973093
0.819216
0.928209
1.20121
0.302856
0.0637615
-0.0794456
0.237159
0.149267
-1.48643
0.0674173
-0.416314
-0.618237
1.23447
-0.193772
-0.740947
-0.0823691
0.0961512
1.02344
-0.182156
-1.10161
-0.643474
-0.958074
0.990802
-0.647173
-0.738545
0.941522
1.81726
-1.27251
1.06825
0.739683
-0.705999
0.383316
0.202919
-1.21449
-1.72881
0.359853
0.140924
-0.132594
-1.0192
-0.572703
-0.767588
-0.654045
-0.963788
0.438505
0.666151
0.274552
0.267352
-0.53371
-0.311184
0.725277
0.690077
-0.569607
-1.73838
-0.775407
-0.0506487
-0.199472
-0.694318
-1.62418
1.31409
0.0584256
-0.777235
-0.990774
0.597174
1.18877
0.887447
-0.411355
-0.967015
1.17604
-1.7652
-0.594101
0.422123
0.475647
-0.920088
0.806187
1.5306
-0.768685
-0.97817
-1.4774
0.551686
-0.894324
-1.00483
0.0971885
0.801899
1.10539
0.178883
-1.06857
-1.23212
0.456131
0.347757
-3.15842
-0.842604
0.62441
2.49051
1.97067
-0.389383
-0.490882
-0.841701
1.24944
-1.15893
-0.48798
0.193072
-2.70486
-0.272714
-0.714198
-0.134935
0.782818
-0.0281065
1.03446
-1.94386
-0.547189
-0.0127137
0.870492
-0.145311
1.79575
-1.2635
-0.512304
0.928185
-1.06358
0.728905
1.54897
-0.146829
0.733545
-0.286381
-1.48379
-0.354283
-0.865102
0.332433
-0.321606
0.796046
0.902784
0.0284554
-0.369871
-1.83168
0.191161
-0.101622
0.398648
1.02702
-0.0602398
1.97568
0.25192
-0.581056
-1.13555
0.319281
0.527097
-0.387503
-0.103622
0.418145
0.875912
0.219649
-0.712475
0.445335
-0.0891422
-1.35154
0.520498
-0.685357
-0.612198
0.631722
0.760284
-0.15737
-1.00505
0.0219916
2.01115
-0.609504
-0.634029
0.766654
0.93213
-0.25141
1.48186
-0.0691168
-0.748758
0.654033
0.0161638
-1.15503
1.60797
-1.17761
-1.19386
-0.949187
1.10876
-1.69559
1.00652
-0.786761
-0.030262
-1.39744
-1.0893
0.338042
-0.0917782
0.11464
-0.658041
-0.462848
-0.229915
-0.772956
0.946066
0.359532
-0.620922
-0.797661
-0.578365
1.45769
1.17601
-1.01074
1.73723
-1.51528
0.383089
-0.426991
-1.3263
2.36556
0.573559
-0.851167
0.478215
0.971873
0.479357
-0.935098
-0.132375
-0.347361
-0.0642793
-1.93234
-2.83625
0.339421
-0.407305
0.485787
-0.548764
-0.0455388
-0.0512264
0.392571
0.560181
0.100899
1.5034
0.413708
1.37773
-1.67238
2.12479
-0.656929
0.179471
1.21005
1.15089
1.33262
0.4563
0.587798
-0.118894
1.2094
0.553028
0.264356
1.31818
-0.0943352
1.24912
0.804162
-0.324682
-0.0300686
-0.848493
-0.554449
-1.67904
-2.20932
1.08493
0.969375
-0.483374
0.114664
-0.0435958
0.250429
1.4395
-0.244865
1.14967
-0.768838
-0.75501
-1.4476
0.46053
1.2419
0.334611
-0.143853
0.848451
0.814035
-1.39616
-1.08083
0.0480423
1.10994
-0.334868
-0.362449
0.81944
0.114143
1.17507
0.795147
0.0352723
-0.381853
1.58237
0.811813
1.29721
1.59824
0.813826
1.77174
-0.100383
-1.21129
2.38977
0.613499
0.940763
0.277033
0.473837
0.416997
0.0345446
0.755293
2.61472
0.455669
1.20477
-0.0888213
1.6811
-0.945131
-0.723236
1.78132
0.25302
-1.31991
2.73904
1.25393
-0.637988
0.242316
0.815608
0.413791
-0.643911
-0.28306
0.319361
0.838575
-0.656868
0.809293
-0.0444841
2.49086
0.930883
0.14685
0.604228
1.27722
1.15663
0.611165
1.19742
1.09679
-1.44912
1.27848
-1.08603
-0.489511
1.52951
-0.65229
0.272802
-1.01805
0.122385
0.558511
-0.0309705
0.330695
0.559888
1.01292
0.191266
0.987076
0.51335
1.58111
0.635797
-1.26629
-0.561755
0.483603
0.866895
-1.67369
0.471302
0.147465
0.897468
1.68432
1.77134
-0.18805
0.675796
1.41997
-1.84424
0.495092
0.294794
-1.38965
0.541628
-0.611979
-0.160544
0.762058
-0.964436
1.67868
1.2355
0.883362
0.413476
0.511671
-0.579131
1.41047
-0.712077
-0.324783
-0.624205
0.646813
-0.27801
-0.469832
0.806687
0.181846
0.481226
0.254069
-0.44392
-0.969554
-1.0605
-0.2483
1.34401
-1.64499
-0.282302
1.12356
1.76998
0.347584
1.30238
0.464137
2.14415
-1.8203
-0.3638
-0.405944
-0.494285
-1.22951
0.503773
0.62602
0.0364493
0.391882
0.235882
1.41169
-0.33514
0.0537562
-1.4206
0.491371
-0.146697
-0.764377
-0.893426
-1.09008
0.513041
-0.483147
-0.279193
0.336556
-1.23227
0.11123
-0.470651
-1.87387
1.5236
-0.504216
-0.787191
-0.842293
0.487063
-0.148361
-0.771451
-0.21373
0.242166
-1.0043
0.296594
0.100356
1.18921
-0.713665
0.0372339
-0.439688
-0.214539
-0.227333
-2.29435
-0.342847
0.718915
2.0407
-2.25035
-0.465058
-1.16696
-1.05979
-0.345336
-0.591683
-1.69141
-0.376021
-0.185399
-0.712805
-0.636676
-1.82142
-0.337945
-0.190844
-0.698826
0.00240491
-0.702226
-0.755304
-1.65208
-0.727091
2.53674
0.853876
-1.09701
0.96389
0.387728
-0.974003
0.809032
-1.50789
-0.882647
0.242341
-1.98652
-1.06232
1.48371
-0.145176
-1.34528
-0.059584
-1.13596
-1.40659
-0.589942
-0.520412
0.667037
-0.890206
-1.00279
-0.139486
1.24965
0.11374
1.41473
0.764396
-0.972665
0.63907
0.327537
-0.981057
0.130228
0.311186
-1.06314
1.96433
-1.35239
-0.449255
-0.687317
-0.500102
-0.637275
0.0733679
0.144712
-1.20488
-0.565497
-1.27043
-0.76215
-0.477561
-1.02309
-0.460888
0.889732
-1.35808
-1.04558
1.14686
-2.3431
-0.877553
0.90827
1.23299
0.688761
0.656203
0.415157
0.857602
-0.735387
1.36301
-0.232037
0.252304
0.383514
-0.279377
-2.22224
-1.11981
-0.594946
-0.155223
-1.16575
-1.66277
-0.0747982
0.746364
0.857853
0.0176791
-1.12912
0.747
1.02679
0.725495
-0.0556416
0.732686
-0.522504
-0.147609
-1.76451
0.755767
-1.49642
1.61545
-0.141779
1.19592
-1.96153
0.282648
-0.334948
0.136145
-1.76031
0.769252
-0.304182
-1.08215
-1.25921
-0.180679
0.604216
-0.901281
-1.39501
0.755491
0.261963
-0.686618
0.720146
-1.65697
-0.114686
0.177831
-1.15524
2.02368
-1.19434
0.965324
-0.382025
1.04337
1.18854
-0.385243
-1.56722
0.492806
0.825031
0.309456
0.469911
-1.43313
-0.454633
1.44309
-0.42234
-0.288752
-0.255579
-0.497467
0.175957
0.277292
0.444357
0.636916
0.395131
0.526565
1.09321
0.545857
-0.494856
-0.251701
-1.66655
0.0128172
0.19105
-0.482782
-0.695238
-1.24925
0.168565
0.0980033
0.371001
0.293022
0.111395
0.479415
0.025689
-0.57993
-1.81078
0.506124
0.0200218
1.22381
-0.231195
0.597049
-0.709661
-1.2006
-1.02577
0.132035
1.9806
-0.623372
0.272605
-0.163769
1.56883
-1.23929
-1.21699
1.34597
-1.67296
0.36719
2.59649
0.553502
-0.0593208
0.94237
0.725762
0.46389
1.56554
-0.640115
0.368879
0.557152
-0.984831
0.471811
-0.134296
0.103283
1.22699
-0.272313
-1.58995
0.0765187
1.00201
-0.253231
-0.246635
-0.552741
-0.746501
0.475924
0.377604
-0.18057
-0.718262
-0.0408817
1.04979
1.73114
1.32151
0.804774
0.525648
-0.852537
1.74504
0.978069
-0.473369
0.878194
-0.0872126
-0.829056
1.23774
-0.390145
0.280851
0.121251
-0.981466
0.189533
-1.59019
-0.922829
0.374411
0.683543
0.949002
-1.09304
-0.621474
-0.26077
-1.12971
0.249619
0.943726
1.66572
-0.909105
-0.548795
0.396096
1.01751
0.347657
-0.446094
2.7541
0.23277
0.666927
-0.358193
0.90868
-0.444447
0.323328
0.472953
-2.13
-0.873092
-0.261962
-1.91352
-0.610434
0.889468
-0.513031
-0.319244
0.537902
0.213246
-0.0854887
0.0712632
-0.355133
-0.0550914
1.0023
0.153033
1.87083
2.34109
0.516871
0.823626
0.263843
0.889811
0.418864
0.375746
-1.03816
-0.246693
1.45196
-0.772201
1.34921
0.651703
-2.90409
1.61337
-1.30108
0.123041
-1.29129
1.54503
-1.79796
-1.89369
-1.997
-1.5304
-1.94176
0.449844
-0.176636
-0.104451
-1.1868
0.967003
-1.7174
1.17167
-0.924721
0.425906
0.399871
-0.281583
0.170375
-0.371034
0.579206
-1.71001
-0.774122
-0.807551
0.289474
0.0231252
-0.71959
-0.633273
-0.89209
0.980259
-0.991311
1.38902
-0.772074
-0.060423
0.593723
-0.21667
0.493169
-0.809146
-1.49185
0.348054
0.0275665
1.35136
-2.03686
0.82372
-0.789964
-0.571705
-1.6214
0.478001
-1.07631
0.37479
-0.766863
-0.671873
-1.1593
-1.83558
-1.25391
-0.305932
-1.01951
-1.24161
1.99267
1.20777
-0.30805
0.617042
-0.455149
1.31474
-0.249556
-2.21345
0.925484
-1.9724
0.999886
-0.11053
0.541482
-0.0753341
0.597297
0.00828195
1.62158
-2.5534
1.32143
-0.891675
0.89473
0.140209
-0.21509
-0.808106
-0.610286
1.201
-0.471683
-0.942476
-1.04564
1.58445
-0.666808
-1.07883
-0.361968
-0.107506
2.55609
0.669581
0.296117
0.0302028
0.192048
-0.464918
-1.56983
-0.622327
-0.148374
-1.23557
0.139635
-1.29526
-0.297881
-2.21866
-0.50944
-0.720764
0.819972
0.116717
2.40188
-1.05997
-1.65856
-0.877855
-0.0446882
-0.699902
0.775047
-1.82346
1.00621
1.65986
0.128391
1.15744
0.524944
0.681686
0.121739
-1.78005
2.69254
0.11091
-0.956723
-1.25111
-0.928519
1.30795
-0.588678
-0.579886
-0.477892
-0.994705
1.17241
-0.258283
1.55523
0.434768
0.0126708
-0.349914
-0.107438
1.34481
-1.42531
-1.07144
-0.0952575
-0.827631
0.136015
-0.220063
-0.781341
0.271896
0.331597
-1.17772
0.162461
-0.644545
-0.377682
-0.537683
0.606339
1.24478
1.26529
1.11651
0.421083
1.06537
-1.26497
-0.79992
-1.09166
0.159309
-0.392767
-0.337243
0.734331
-0.0737587
-0.636756
-0.00356154
-0.371824
1.5829
0.0471538
-2.00579
0.585117
-1.41442
1.34754
-1.05131
0.557925
-0.292382
-0.114044
0.818213
0.514366
0.406821
-0.273918
-0.657979
-0.547344
1.32412
0.772873
-1.9888
0.670224
-1.83377
0.339049
0.706795
-0.430697
-0.0349947
-0.164288
-0.0655897
-1.22513
-0.809034
-0.292205
-0.864009
1.451
-0.466848
-0.816853
0.533225
-0.140818
-0.743118
0.50943
-1.16721
0.50795
0.88967
-0.0107839
0.953423
0.128137
0.310604
0.0381288
0.0168303
-0.440582
-1.44941
2.27622
0.743364
0.389486
1.39105
0.0817462
1.00693
2.18979
-0.665851
-0.146171
0.632863
-2.03167
-0.499821
-0.69453
-2.21879
-0.215417
1.41627
-1.61374
-0.11282
-1.45054
0.594144
-0.465452
-1.0378
0.0773815
-0.906648
0.291094
-0.17564
0.16831
-0.960093
0.0704394
0.894233
0.816323
-1.26908
-0.271382
-0.441558
0.346409
-0.84244
-0.5379
-0.104608
-2.0541
0.269931
0.750427
-1.47655
-0.810899
-0.726405
-0.652439
-0.337831
-0.10633
-0.494295
-0.233304
1.29772
1.60076
0.441694
-0.28694
-0.875138
-1.56056
-0.597984
-0.44097
-0.400945
0.570323
1.2171
-0.795981
-0.489904
0.50736
-0.60167
-1.18288
0.594782
-0.0212149
-0.947637
-0.311686
-1.02025
-0.305596
-0.925942
0.415023
0.125742
0.188754
0.504354
0.356335
-0.225372
0.273975
0.497224
0.905123
-0.179967
-0.93386
-0.327799
0.480748
-0.464283
0.198313
-1.06313
0.432654
0.144552
-0.244229
0.469037
0.331666
-0.436615
-0.395582
-0.497118
-0.0493412
-0.482615
-1.68156
-0.135044
0.107016
-0.502079
-0.741538
-0.361365
0.319178
-0.461031
-0.554527
-0.177369
-0.156421
0.922355
0.1219
-1.5176
1.0376
0.705031
-1.43519
-1.11891
-0.379375
-0.154487
-0.863704
0.931041
0.363136
0.172419
-0.466532
-0.417647
0.517286
0.4939
0.797748
0.892732
0.111581
-0.721749
0.95529
-0.504963
0.261282
0.0428389
0.89753
-0.21115
-1.06845
0.438367
-1.21538
1.34757
0.379358
-1.00238
-0.00904275
-0.418138
1.60287
-0.0214787
1.12582
0.409802
0.296959
1.28664
0.795329
0.709128
2.09821
0.951743
-0.691117
0.978608
-1.05808
0.260456
0.235834
1.3135
1.68443
-0.279703
0.213558
0.223224
1.21956
-1.80946
0.907014
1.16512
2.52384
1.12649
0.169363
0.791469
-0.351949
-0.142861
1.81075
-0.215077
2.18441
0.760857
0.463773
2.32969
1.48799
2.50387
0.879911
0.55047
0.0166426
0.870542
-1.88389
-0.370144
-0.397723
-0.272837
-1.06921
-0.981589
0.550363
0.174126
0.29687
-1.05081
-0.468851
-0.495078
-0.682541
1.6145
0.164063
0.741889
1.84591
0.987444
0.619573
3.70566
1.59107
1.38862
0.931645
2.30827
1.33387
0.888358
0.427524
1.49796
1.306
-0.317759
-1.42772
0.337091
0.74767
-0.183877
1.31317
-0.616652
-0.974989
0.281012
1.45014
-0.539486
0.884147
-0.361116
-1.34246
1.6727
1.85565
1.43465
1.1794
0.296782
-0.781478
1.52665
0.352312
0.846846
0.465151
1.46543
-1.29903
-0.882927
-0.0263341
-1.36448
0.855701
-0.0349881
1.6142
0.914017
1.26124
1.77201
-1.02981
0.492766
-0.69624
-0.570729
-0.760291
0.249007
0.191102
0.59537
1.09463
0.822071
1.79334
0.84767
-0.407806
0.473896
-0.396044
-1.29418
0.443829
0.257763
0.314496
-0.477818
0.477754
1.36435
0.232572
1.9714
1.23374
0.223226
1.0573
-2.30566
-1.03208
0.626997
1.70182
-0.337525
1.28905
1.19815
1.39668
-0.0119544
1.56259
0.975496
-2.12767
1.00812
0.280234
-1.87447
0.602914
-2.07076
0.60329
-0.0894865
1.38288
-0.322937
0.426911
-1.05943
0.380863
-0.813833
1.44258
0.398356
1.11794
0.940266
-1.77629
-1.79332
0.138664
-0.256498
-1.38181
-0.34777
-0.413596
0.570947
0.102232
-1.14852
1.04041
0.047332
-0.531624
-0.196714
-0.0145677
0.299481
-0.354283
1.08739
-2.34592
0.769314
-0.110176
-0.204201
1.43256
0.912226
0.377281
0.68377
-0.996546
0.314799
1.07873
1.58841
-0.362907
-0.0356121
-1.31369
-0.15678
-0.583344
0.692769
-1.27505
-0.557162
0.346637
-0.512554
-0.872585
0.532247
-0.553281
-1.26763
-0.929991
-1.10323
0.398174
0.692739
-1.17637
0.929054
0.191912
-0.777916
1.96443
-1.23151
0.192892
-0.416317
0.787398
0.790893
0.161712
0.991455
-1.47207
0.0118882
0.6431
0.43306
-1.75246
-1.14676
-0.931669
0.228209
0.16695
1.16065
-0.771694
-0.746951
-0.0516493
0.0428125
-0.890793
-0.645647
1.7457
1.67266
-2.12575
0.79957
-1.58407
0.0357311
-1.29053
-0.556155
-0.320092
0.15852
-0.310297
0.985838
-0.152124
0.17478
-1.30542
-1.16849
0.393867
0.247622
0.326322
-1.03377
0.0456522
-1.6778
-0.824629
0.567115
0.359003
-0.972747
-0.359367
-0.262214
-0.378219
-0.683379
0.473052
-0.596289
-1.04654
-0.806962
-0.354577
-0.675211
0.0898583
-0.418109
-0.831004
0.990508
-1.29563
0.762629
-0.740127
-0.526674
-1.06105
0.588447
-0.645993
-0.52182
-0.0868696
0.849197
-0.125677
0.249254
0.256683
0.268915
-0.200453
0.570007
1.00542
-1.04486
-0.151394
-0.689336
-0.647063
-0.624568
-0.730862
-0.362717
1.12295
0.213868
0.894003
-1.09623
-0.60039
-0.0513727
-1.11386
-0.703198
0.110546
0.0661644
-0.158956
-0.27812
0.684281
0.626298
-0.0818737
-0.763874
0.693927
1.55795
0.185565
-0.784389
-0.676846
-0.217607
0.259912
0.459632
-1.75346
-0.154458
0.450546
-0.371655
-0.305603
1.76955
-0.109279
-1.65332
1.38991
0.577797
1.18967
-0.543509
1.51117
0.66378
1.08165
-1.54227
-0.587629
-0.216333
0.368788
-0.0393216
0.465972
0.764631
0.666079
0.925721
-0.209289
-1.4398
-0.467992
0.230694
-0.880483
-0.408999
-0.32592
0.532024
0.441067
1.0343
0.317756
0.876488
1.54823
1.54647
0.355293
0.398641
-0.470998
-2.5859
1.17693
0.326364
2.13907
-1.46846
1.83137
0.110971
1.71217
0.918823
0.0150246
0.55778
-0.64025
0.889722
-0.2476
0.831189
1.35957
0.696514
-1.08788
-0.972164
-0.260922
0.145036
-0.718576
-0.612683
0.243563
0.0273891
0.597977
-0.296067
-0.236764
1.61154
0.492718
1.39756
0.00376713
1.08462
-0.657763
0.51689
-0.769077
1.85665
-1.05326
0.364209
1.01115
1.43857
-0.477158
1.52917
0.760615
-0.494961
-0.248016
1.13616
-1.6805
0.604588
1.41558
-0.109133
-0.388284
-0.576883
0.202395
-4.11124
1.50738
-0.294335
-0.322921
0.917224
-1.14905
-0.143328
0.391785
0.851123
-0.348607
1.41931
-0.655281
0.566532
-0.272164
0.334468
-0.134427
-0.116956
-0.154546
-0.187359
-0.178997
1.65116
-1.1834
