1.54915
0.0314817
0.746186
1.53901
1.22201
0.330532
1.825
0.0345977
0.66303
-0.284132
0.482138
-0.0871598
0.319281
1.4299
2.27062
-0.655717
-0.0673804
-2.61323
0.0953346
-0.184861
-2.01241
-0.680216
1.48056
-0.616932
0.235573
0.832278
-0.72344
1.86035
-0.564537
-0.459711
-2.50395
-0.516041
-0.706859
-0.597614
0.130374
0.145167
1.42925
0.259336
0.549011
-1.09873
1.59781
1.46544
-1.00553
-0.99712
0.302222
-0.20879
-0.152669
-0.855517
-0.40636
-0.890206
1.37369
-0.320832
0.822548
-0.435039
-0.021681
0.570922
0.602372
0.856176
0.148055
-1.48566
-1.37216
0.43062
-0.120238
0.700822
1.84031
-0.944241
1.01942
-0.527262
-0.427415
0.781958
-0.162913
1.94272
0.731035
0.558822
2.31101
-1.26729
-1.55529
0.42777
-0.608176
-0.713778
0.796128
-0.0632172
-0.895985
-0.472021
0.257374
1.70181
-1.01438
0.0407884
1.2824
-0.729614
0.0135289
0.0615661
0.895435
-0.42111
-0.13169
0.0501318
2.12269
-0.602127
0.328062
-0.900629
0.93293
0.292401
0.350067
-0.162536
0.165189
1.22009
-1.77802
-0.121287
-0.647213
0.255402
-0.382892
0.15997
0.407166
-0.254656
-0.624935
0.187878
-0.905439
-0.562233
0.591743
-0.48845
0.824451
-0.802098
1.45673
-0.61208
-0.691835
1.2624
0.875523
2.24717
0.0269554
0.746434
0.861486
-0.22061
-0.00454851
-0.255381
-1.23342
-0.00100773
-0.784468
0.909739
-0.432681
0.503957
-0.52004
1.06395
0.471645
0.134493
1.39512
0.14282
0.419488
1.17188
0.505918
-0.127956
2.47881
0.187238
-0.22404
-0.441371
-1.09828
1.79163
1.77268
-1.30528
1.4869
1.0044
-0.476214
0.458173
-0.206102
-0.88346
-2.4239
-1.91477
-0.169117
-0.563699
0.148229
0.312068
0.917975
-0.0254792
0.881241
1.72155
0.349774
0.177612
0.114552
-0.532799
1.18122
-1.76188
0.79503
0.511138
0.963535
0.210664
1.41534
0.24574
0.145638
-0.244052
-0.852219
-0.328198
1.06401
-0.0814962
0.336892
-0.173294
-1.17655
0.0877497
-0.370454
-0.108076
0.918072
-1.18331
-0.34129
-0.334635
0.882376
-0.468951
0.486144
0.929945
-0.217277
0.853462
0.905892
0.0963133
-0.236189
2.90666
1.37097
-0.178563
-1.31445
1.04522
1.41853
0.0840667
-1.08213
-0.890852
0.243346
1.85589
-0.296275
-1.18986
2.12464
1.22392
-1.17307
1.00173
-0.0125204
-0.427628
0.935036
-0.659763
2.26791
-0.449653
-2.03176
0.412513
0.475712
1.08556
-0.195318
-1.56704
0.323757
-0.957608
0.185473
0.726196
-1.66262
1.10342
-0.645657
0.0295896
-1.73838
-0.170817
-1.12782
-0.136362
0.709435
0.97186
-0.437841
-0.273644
1.09209
-1.84735
-0.678438
-0.983851
1.47575
0.404704
-1.12331
0.265439
-1.45253
-0.939074
-1.13194
-0.62454
1.18596
0.646218
1.29674
-0.47696
1.06189
-0.402805
0.556642
-1.56635
-0.678795
-1.98298
-0.786231
-0.297889
0.545736
1.25701
1.70679
-0.0264248
-1.17553
-1.18852
2.00102
-1.60416
-0.050304
-0.209475
-0.251134
-0.891168
-1.41996
-0.880461
1.391
0.964417
-0.260822
-0.06411
-0.59958
-1.15609
-0.0766999
0.761918
0.143926
-0.671386
-0.511288
-0.712126
0.865189
-2.26892
-0.336928
1.13221
-0.493345
0.905265
0.815752
0.146639
-1.08898
0.361915
-1.71909
-0.230897
-0.645638
-1.08859
-0.30094
-0.748008
-1.84972
-0.757984
0.0722335
-0.928547
2.09455
-0.989739
0.186136
0.225846
0.0436871
0.00698278
-0.509266
-0.530834
0.600559
1.45291
2.72841
-0.00571118
-0.0889461
0.849645
-0.292578
0.96873
0.684997
-0.652354
0.10439
-1.64149
0.266843
-1.60887
0.195088
-1.35135
0.456779
0.866569
-1.15406
0.0715536
0.00635971
-0.306379
0.27343
-1.59418
0.863457
-0.53176
-0.75986
0.339154
1.37641
1.37664
1.81879
0.0389408
0.0021555
-1.32628
1.04419
-1.02126
-0.457646
0.375099
0.330968
-2.26315
-0.489707
0.475418
-2.23378
1.89311
-0.192497
0.363968
1.17923
-0.507702
-0.858752
-0.75564
-0.567987
0.294447
-2.27758
-1.72632
1.31741
-0.243184
0.222871
-1.46166
0.0691904
-0.626234
0.178941
0.211694
-0.284641
-0.519643
-0.405512
0.109464
0.468438
2.94873
0.0543636
1.67422
-0.389645
0.663853
-1.12085
1.23815
-0.471517
-0.998893
1.60106
-0.594883
-0.984958
-0.315823
1.12711
-1.103
1.73536
0.784947
-1.38123
0.550456
-0.234327
-1.20254
0.672081
-0.35065
-0.215636
-0.965607
-0.454909
-0.502947
-1.19813
-0.843445
0.166249
0.52269
-0.97874
1.07656
0.00577049
-1.46821
0.844845
-2.42052
1.25487
0.207506
0.12401
-0.637662
-1.60212
-1.19196
-0.144974
1.38723
-0.471406
2.21125
-0.850758
1.26339
-0.640614
1.12656
0.3941
0.616603
1.60551
-0.15248
-0.126687
-1.22196
-0.89584
-0.422329
-1.36271
0.793747
-0.765967
0.381477
0.186544
-0.422588
0.794934
-1.14687
-1.9763
0.0460034
1.96263
-1.68762
-1.22913
0.385007
0.886352
0.673409
0.673986
0.660981
0.49141
-0.574108
1.57929
0.911516
-0.32599
-0.935596
0.975193
-1.5555
-0.467452
-2.14013
0.308358
-0.97603
-0.661863
-0.903515
0.777284
0.532379
-0.28996
1.19559
0.187024
-0.811105
-0.800494
-2.48853
0.689904
0.43062
0.0877539
-0.00840095
-0.466061
1.03784
-0.810391
0.513095
-1.15802
1.02689
-0.284926
0.579685
0.49464
1.14442
-0.236719
-0.650662
1.04264
1.47376
-0.153009
-1.90854
1.70804
2.00634
-0.253672
0.0153993
0.0116381
0.316695
-1.8753
-0.890484
0.58868
-1.61658
-0.236493
0.649057
0.131357
1.0324
1.08155
0.0694053
-0.139378
-0.21371
-0.43421
0.687188
-1.49975
0.104974
-0.151478
-0.72469
-0.408094
0.766887
-0.465266
0.84843
-1.29638
0.102254
0.113927
-1.45013
2.64003
0.55358
-1.94554
0.593917
-1.23806
0.572687
-0.732596
-1.10498
1.44675
1.36804
1.85579
0.334425
0.319881
-0.385473
0.517092
0.31092
-0.445667
1.69345
0.596276
-1.15824
1.07541
1.67361
0.110703
-0.842956
-0.949347
-0.151768
0.460513
1.79631
-0.0167997
0.345322
0.991162
0.370451
0.142495
0.498945
-0.66589
-0.793355
0.337236
-0.688216
0.157301
0.584124
-0.00608167
-0.653082
0.429023
-0.459657
0.547372
0.398565
0.262646
-0.0179745
-0.226901
0.362584
-0.147965
1.42902
0.703257
-0.496831
-0.392039
-0.964644
-1.2222
-0.406354
-0.258135
0.683369
2.11586
0.122693
1.17683
1.28566
-1.41731
-0.0369765
-2.07182
-1.40047
0.127815
-0.224563
0.606043
0.611867
-0.782801
-0.617701
-2.07922
-0.405952
2.30697
-1.04604
-1.47002
-1.00133
-0.63372
-1.66775
0.374716
0.0144982
0.82103
1.30767
1.80466
0.222487
-1.44837
-2.64296
0.585038
-0.513775
0.817546
0.115452
0.32634
1.13613
-0.0126993
-0.42847
-0.376215
0.588718
-0.411954
0.69296
-0.657391
-1.3811
0.565686
-0.751601
-1.66426
0.191661
0.619594
-1.93947
1.09586
-0.32926
0.47854
0.259479
1.63013
0.681232
0.879963
-1.31817
-0.150483
0.301783
-0.354299
-0.525448
0.331246
-0.281476
0.119734
0.977011
0.0722788
2.17824
0.622876
-0.701623
-0.600149
-0.671282
1.14804
-1.02497
-0.802479
0.533547
-1.39178
-0.128216
-1.47432
-0.95334
-0.401717
0.788377
-0.347833
-0.118105
-0.576543
0.446012
-2.12094
0.588768
-2.37935
0.775249
0.418602
-0.202999
-0.241967
0.98901
-0.917424
0.543587
0.732948
-0.015289
0.510515
0.527333
-0.200197
0.802605
-0.939434
0.262042
-0.826046
1.27856
-0.665093
-1.46841
-0.386792
0.754966
-0.307123
1.46202
0.553111
1.12392
0.582962
-0.284964
1.03032
-0.578798
2.46435
1.3829
2.04568
-0.760753
0.15102
-0.683962
-0.752599
-0.187498
0.272178
1.56473
-0.733924
0.748736
1.39778
-0.180849
-0.43494
-0.126879
-0.928014
-3.23446
-1.22385
0.697797
0.692734
0.852134
-1.88495
-1.35048
-0.523968
2.70944
0.166469
0.359294
0.00389347
0.564768
1.57947
-0.0670307
2.08843
-1.51102
0.886175
0.817531
-2.04057
0.588699
0.168414
1.1185
-1.3554
-0.291507
0.436736
-0.100508
-0.545778
0.267304
0.221615
1.17096
-0.0394761
2.14253
-0.130593
-0.364707
0.793535
0.215033
0.470743
-0.102689
0.600228
0.323393
0.813883
-0.69517
-0.337379
0.177927
-0.762453
0.376181
0.0703629
0.648172
0.528485
-0.857478
0.409865
0.391488
-2.18541
-0.0240801
-0.261362
1.72784
-0.247458
-1.13981
-1.02991
0.976377
-0.446842
-0.0635575
0.864166
-1.50518
-0.133675
-0.431649
1.08975
1.60549
1.03983
-0.199958
0.777054
-1.60087
0.942256
1.29268
0.239642
-1.05971
0.20409
-2.27978
1.87549
-0.824998
1.76323
-0.401122
0.443371
-0.389573
0.31523
0.672305
1.72105
-1.11217
0.259961
-0.385004
1.55301
-0.386929
0.827087
-0.835451
-0.837129
0.11832
-0.536755
-0.277876
-1.66925
0.906977
-0.0730029
-1.07388
0.326906
-0.416703
1.18279
0.627941
-0.537574
-2.65779
-2.78654
0.450393
-0.431875
0.137026
-0.723085
-1.41155
0.604189
1.19774
0.173518
-0.97149
-0.085468
1.20128
-0.555606
1.89058
-0.615721
1.39435
0.185897
0.523847
-0.286486
-0.218215
-0.125315
-0.545134
1.17574
-0.638021
-0.191477
1.84031
3.1365
0.0975238
0.940348
-0.744367
-0.332196
-0.269499
0.373667
0.0455269
-0.492316
-0.450696
1.1492
0.525841
0.324403
1.60139
-0.68656
0.597772
-0.035514
0.297964
-1.63523
0.692608
-0.171869
0.223958
-0.334409
-0.680039
-0.041675
-0.38215
-1.01579
-0.123474
0.0823869
-0.183146
-0.263927
1.28646
-0.201291
0.602236
0.103707
-1.97389
1.15156
-0.208024
-0.271342
-0.13451
-1.79792
0.623752
-0.369653
0.16913
0.317694
0.0369724
-0.0789163
-0.382964
-1.22865
-0.991851
-0.515178
-1.26496
0.76522
-2.00799
0.313359
-0.898552
1.04593
-1.89894
-1.01388
-1.24131
0.0189466
0.74175
0.571897
1.28512
-0.797722
-0.235413
0.128496
-2.58654
-1.14807
0.466602
0.85405
1.48254
-0.864352
-0.753206
0.0347644
2.3306
-0.357631
-0.641088
-0.263751
0.810815
0.24855
-0.168716
-1.00436
-0.762834
0.765545
-1.49949
-1.76481
0.107305
-1.03064
0.972086
2.22956
0.305159
0.806683
1.01391
-1.16043
0.265824
-1.10728
-0.724
0.510795
-0.304403
0.317355
-0.018461
-1.55224
0.919525
-1.07231
1.46761
-1.74213
0.976777
-2.26136
0.608904
-0.912821
-1.51387
-0.292829
0.45472
-0.248349
0.543169
-0.712382
-1.13433
1.08975
-0.907902
0.709485
-0.500071
-1.42854
-0.353927
0.688259
0.51636
1.17758
-2.03853
-1.90106
0.75825
0.291011
-0.449296
-1.15674
-0.593787
0.599046
1.0684
0.556475
0.735844
0.868973
0.609342
-0.761166
-0.481553
0.928433
-1.20305
1.69189
-0.768798
-0.713209
0.509755
-1.29596
-0.168939
-0.00538255
1.16038
0.530429
-1.74302
1.19765
0.580695
-0.525079
1.84712
-1.14491
0.237282
0.538304
0.325461
0.0380447
-0.466353
0.72787
0.848701
2.60395
-0.79139
-0.609232
0.391471
0.822094
1.34496
1.48101
0.474797
0.572759
-0.629407
-1.38021
-1.07499
0.301625
0.210675
0.79757
-0.173229
0.215202
-0.0383991
0.235227
-0.360226
-0.228381
1.38773
1.88168
0.930019
-0.41243
0.355023
0.50868
-0.671739
1.46732
-1.08068
0.480117
0.0567918
0.972718
-0.644517
-0.962592
2.27978
0.37916
-1.05261
-0.9513
0.819328
-0.521083
-0.0539954
0.261652
1.41571
0.587959
0.923031
0.189036
1.33003
-0.764855
-1.00933
0.550435
0.28842
-0.961668
1.0126
-0.488541
-0.525693
0.434919
-1.84014
-1.8299
-1.51821
0.570688
0.293199
1.08103
-0.343881
-0.547029
1.66509
-1.11387
1.30473
0.167007
-0.304813
-0.472261
0.176553
-0.901832
-0.0361832
0.634261
-0.608709
-1.47931
1.21144
-0.249926
1.82208
-1.86484
-1.1955
1.20047
-0.696033
-1.69791
-1.18875
-0.916674
-0.0284075
0.950398
0.509512
0.822259
0.808014
0.883689
-0.830383
1.19803
-1.23101
-1.54647
1.31441
-1.49313
0.625748
1.53023
1.30227
0.891938
-0.12691
0.382975
-0.839935
1.00739
1.09848
-0.183818
-2.12722
0.243803
-0.509189
-0.947346
0.2449
0.564602
0.877301
1.70442
-1.07401
-1.11566
0.897588
-0.139679
0.376634
0.0694862
-1.71187
-1.02236
-0.769009
-0.231979
-1.62751
0.851304
1.16523
-0.498463
-0.215772
0.235143
-0.940924
0.364905
0.406892
-0.605022
0.0283626
1.35303
-1.75875
-0.65191
-0.408628
-1.06956
0.805569
0.802517
0.436449
1.92025
1.05802
-0.406352
1.18069
-0.413347
0.742699
0.0407222
0.492762
1.97264
1.1249
0.49941
0.708154
1.942
-0.940226
-0.457482
-0.536757
0.657536
-0.72165
1.24354
0.355391
0.736551
-0.168171
0.114236
0.233095
0.00705413
0.581004
-0.84994
1.16295
0.168972
-1.62916
-1.36544
-0.814995
-0.915488
-0.700866
0.18213
0.2269
-0.403513
-0.0491764
0.101832
-0.15162
-0.417927
1.10517
0.650336
0.971033
1.81998
-0.178008
-1.2113
-1.17442
0.238088
0.792448
-1.26007
0.615568
-0.8652
1.9363
1.62974
0.00165182
0.74513
0.490149
0.298978
0.926442
-0.471396
0.196336
1.40477
1.3108
-1.6724
-0.0868214
-0.733078
-0.205361
-0.880583
-0.11636
-0.371091
0.632819
-0.71822
-0.409179
0.932263
0.314126
-1.79947
-0.0159097
0.0184459
0.874884
-1.08596
0.819241
0.109702
1.05803
0.0683966
1.99544
-0.369269
0.138637
-0.961208
0.213623
-0.87675
1.45317
0.4413
0.445661
0.943039
-0.640654
-0.141544
1.24218
-0.365932
0.186162
-1.22813
1.01914
0.722518
-0.544561
-0.519425
-1.06267
-0.386036
-1.3185
0.741549
-0.010123
-0.130628
0.692461
-0.804479
-0.237377
0.733363
-0.843892
-0.763469
0.12788
0.349016
-0.449833
-0.933331
-1.38197
-0.595715
-0.639731
2.50971
0.576647
1.40809
-1.98013
-0.554299
-0.0649859
0.20752
-1.35826
-0.472084
-0.052586
0.471321
0.252395
0.0562927
-0.273802
-0.810757
-0.84108
-0.105717
-0.138602
-0.239171
1.15981
-0.0504467
0.925897
-0.429792
-0.779836
0.0353576
-1.07697
0.0124263
-0.382541
-0.081114
-0.597606
-1.00882
0.143624
0.294965
0.610539
-1.39978
-1.46356
-0.505357
0.150537
0.00511172
-0.701558
-0.193911
1.43733
0.88128
-0.34886
-0.00944304
-1.97175
0.855219
-0.0848264
0.449552
1.45012
-0.098143
0.33441
0.651702
-0.291495
-0.683319
-0.097894
1.16806
0.655178
-0.612259
-0.571076
0.159644
-0.881745
-0.957792
-2.67179
-1.19789
-0.829955
-0.789436
0.0470694
-1.02267
-0.912525
0.22156
-0.663548
-0.382168
0.100904
0.59433
1.11107
-0.484984
-0.738426
0.445452
0.376884
0.417188
-0.0619663
0.138209
-0.667756
0.547775
1.15912
-0.224904
1.09628
-2.28023
-0.0451997
-1.24797
-0.464899
-0.0804572
-1.13624
-0.388065
0.666335
-1.04182
0.362978
-1.41114
-0.407026
0.0349037
0.346194
0.21729
0.0290666
0.260226
0.332961
-2.17237
0.630044
0.423092
2.23753
-3.4145
-0.695533
-0.183683
2.13476
1.04786
1.74411
-1.68144
0.795956
-0.604436
0.501459
1.6117
0.29459
-2.25849
0.966136
0.550506
-1.71729
-1.9701
-0.428323
-0.047204
-0.550664
0.652736
1.35422
-1.93301
0.107592
0.727559
1.37414
-0.416694
-0.0915663
-0.10847
1.84616
1.49493
1.31542
-1.50577
-0.0293067
-0.35264
0.612555
1.93624
-2.43079
-0.521298
-0.08555
2.14892
-0.6357
0.2091
0.7822
0.851955
1.54414
1.31047
-1.22875
-1.25001
-0.952586
-1.72312
1.00812
1.61088
1.84928
-1.2086
0.793414
1.194
0.326844
1.07172
-1.32055
-0.498935
-1.24832
1.73825
1.68845
0.787366
-0.144825
0.592348
1.0393
-0.700152
-1.33575
0.122346
0.306699
0.026168
0.0336037
-0.571075
0.460329
-1.69964
-0.0983392
0.174324
-0.810448
-0.109949
0.148759
0.790746
-2.39166
0.567337
-0.921603
-0.324173
-0.125057
-0.647224
-0.681642
1.51264
-0.529881
0.844438
-0.0116834
-0.876066
-1.1225
0.0661679
-0.0276321
0.157713
-1.41232
0.44061
-0.198976
1.12826
-0.321258
0.501318
0.323251
0.137218
0.598892
1.20637
-0.53424
0.969935
-1.48782
-0.581294
0.0716295
0.0858468
-0.0757558
2.06296
-0.617954
-1.20972
0.450021
-0.39546
-1.35263
-0.710647
-0.750185
-0.913926
0.23928
0.305064
0.791736
-1.3954
-0.299643
-0.411458
0.197426
-1.21091
-2.30988
-1.13288
0.89475
-2.0304
-0.596506
0.766359
0.868761
-1.15124
1.45135
1.13567
-0.588239
0.387514
0.414169
-1.76807
-1.73067
1.84924
1.31094
-2.96944
0.598931
-0.603223
1.06886
-0.246305
0.451699
1.19009
0.206276
-0.84986
1.07366
-1.00554
0.577475
0.9033
0.643119
-0.198322
-0.599188
1.29318
0.274877
-1.36564
-1.44249
1.39618
1.23029
-1.13744
0.15245
-0.161456
0.15698
0.655668
0.194676
-0.126702
-1.80099
2.35998
-0.568182
-1.02871
-0.163915
1.90605
0.744659
-0.272653
-1.59875
-0.383024
1.55535
0.688116
0.0827427
0.354983
1.1632
0.487705
0.398978
0.371401
-0.736517
0.601678
-2.11053
0.699125
0.352285
0.549291
2.20994
-0.321337
0.870193
-0.584598
-0.678832
0.534576
1.0709
1.15123
-0.990264
1.0917
-1.20003
-1.31731
-0.0777396
0.130538
0.123477
-0.0331315
0.322354
-0.546935
0.583316
0.459547
0.897391
0.119886
0.316291
-0.271154
-0.72276
0.481205
0.877546
0.560459
-2.19186
1.21144
0.532985
1.37132
0.934904
0.134101
0.756209
1.44008
0.558042
-0.0801292
0.539441
-1.66917
0.132488
-0.654917
0.366051
-0.346404
-0.934251
1.76147
0.355955
-1.05971
-0.463265
-0.63114
0.253518
-0.781594
0.396134
0.0389862
1.33508
-1.58089
-0.71775
1.63146
-0.799516
1.04015
-0.978824
-0.584934
-2.33291
1.37364
-0.916445
0.235839
-0.0908118
0.0172946
0.628172
1.71597
-2.16705
0.886999
-0.266592
0.125065
0.856761
0.0433473
0.26235
-0.908519
0.78036
-0.478344
-0.434829
-0.960264
-1.63533
0.467219
0.493039
-0.559322
-1.29319
-1.21145
0.158191
-0.334755
0.947345
-0.358919
0.784759
1.28116
1.0349
0.807429
-2.12448
0.431681
-1.76146
-0.603983
-0.487707
0.528693
-1.27219
1.09856
-1.74153
0.922409
0.161341
0.537566
0.598597
-0.77771
-0.567185
0.687722
0.903165
0.151339
1.47033
2.35624
2.52723
-0.580833
0.080024
0.84439
-0.133214
-0.312172
-0.414048
0.0437989
0.477384
-0.403212
0.405606
0.496948
-0.94887
-0.952395
-1.2074
0.326691
0.935896
-0.264748
-0.514336
0.234406
-0.10602
-0.703759
0.649527
-0.123791
-0.363028
0.489199
-0.710036
-1.36633
0.37998
-0.128838
0.205336
0.420509
0.0831866
-1.11242
0.364851
-0.639934
0.666109
-0.463963
1.83913
-0.513356
-0.315272
-1.4089
0.544665
0.352828
-0.258497
1.91573
-0.855401
1.6508
-1.27849
0.925112
-1.76177
-0.762174
-0.126335
-0.153265
0.210412
0.259777
-1.199
-0.595238
1.37224
1.93539
-1.15698
0.343691
0.673904
-0.291104
0.638309
0.0600368
0.738776
0.257716
-0.690607
0.648703
2.11475
-0.100038
1.38099
-0.160595
0.695266
0.313368
-0.63918
0.249563
0.853345
-0.374813
0.347012
-2.14079
0.237433
2.58658
0.169961
-0.338345
-1.3523
0.707472
0.790035
-0.251376
-0.681666
0.123958
0.463272
-0.640517
0.723003
-0.679704
-0.218216
0.714317
0.0871189
0.454656
-0.513416
-1.07691
-0.614586
-1.00254
-1.01831
0.903833
1.10905
1.3837
-1.50062
-1.28555
-0.345203
-0.886694
-0.19102
0.269377
-0.577937
0.168276
0.197048
0.748314
-0.952869
0.471827
1.94795
-1.29841
0.0851851
1.31447
-0.124708
-0.3468
0.107038
-1.13419
0.148818
-0.901531
-1.23912
-1.65393
-0.725899
0.54849
2.05107
-0.953481
-0.301301
-1.06619
-0.28905
-0.674333
-0.591141
0.762374
0.197267
-0.289586
0.767329
1.08639
-2.44652
-0.481533
0.490622
1.11372
-2.31303
0.115718
-1.01728
-0.717795
-1.9594
2.86
-2.52296
-2.07215
-1.24285
0.0773315
-1.10543
1.17166
1.27145
-0.527061
-1.10118
-0.561002
0.124142
-1.65993
-0.538289
-0.772438
1.76251
-0.744783
1.27723
0.299344
0.251787
-0.826513
-1.06867
0.546252
-0.516472
-0.522546
-1.55732
0.17468
1.50944
-0.362739
0.624178
0.0655466
-0.194894
1.32659
0.788315
-1.15236
-0.179178
-1.11968
-1.04603
0.238458
-1.05387
-1.59631
-0.350361
0.0307926
0.0563832
0.358267
-0.0832084
0.932493
0.343492
-1.88308
1.03858
-0.772577
-0.550211
1.7424
1.52283
-0.146706
0.683233
-0.277429
1.58662
-1.60225
-1.48784
0.732789
-0.392207
-0.363197
-0.986931
-1.02031
-1.38925
-1.17887
-1.71536
-0.368386
0.305632
-0.0663306
-1.36736
1.15413
1.27444
1.24712
1.57406
-0.519563
-1.04702
1.48389
-0.280363
0.597673
-0.666624
-0.819162
1.63417
0.671685
2.11182
-0.831139
0.441121
-1.02835
0.517905
-1.62023
-0.0690505
-0.410116
0.26544
-1.7225
-2.04722
-0.037201
0.649051
1.2014
1.80326
1.35002
-1.03316
-0.0352502
-0.0147841
0.981511
0.0666081
0.124253
-0.615059
-0.652853
1.09607
-0.655647
-1.18883
1.79386
-0.965959
0.601876
0.115996
1.0149
-0.532182
-2.37706
-0.485165
0.713963
1.39348
0.962618
-0.463169
0.168542
0.688956
0.668122
0.629553
-0.486571
0.943325
1.25478
1.04734
-0.34775
-1.63639
-0.5388
-1.14177
-0.117534
0.11535
0.39948
-0.740041
-2.26922
-0.421323
-0.346041
-0.83422
1.93325
-1.63017
0.0292558
-0.652763
0.620336
-0.790814
-0.725597
-0.829396
0.949626
-0.531818
-1.14936
0.669218
0.189085
2.07932
-0.448467
1.58318
1.29099
0.138817
2.07474
0.133929
-0.782537
-0.308491
0.521958
-1.06347
-0.6203
0.186268
-1.78866
1.19091
-0.0642898
-1.30349
-0.0843422
-1.80816
-0.119865
1.69759
1.53859
-0.0763881
-0.543792
-1.30827
-0.0610092
0.408375
1.21405
-0.496655
1.00963
-1.81837
0.851113
-1.05065
0.0115092
-0.462691
-0.0560072
0.438321
2.38738
0.842946
1.4012
0.230335
-0.133163
-2.89404
-0.47113
0.749164
0.948205
1.08475
-2.48023
-0.66472
0.0963756
-1.28246
0.442899
0.87663
0.0252441
2.03904
-0.911838
-1.85672
-0.970333
-1.30441
1.09724
1.61448
1.21173
0.320697
0.22173
-1.2085
-0.113057
-0.20029
0.464229
1.91289
-0.24885
-0.912303
1.07788
-0.331278
1.31047
-0.39587
-1.56594
0.536697
-1.32575
-0.539236
0.976191
1.06237
-1.65742
0.710858
-0.104945
-0.124733
-0.539849
-0.585122
1.88288
0.394748
0.582487
0.87704
0.370263
-0.674965
0.196377
-0.353396
0.175874
-0.53204
0.455548
0.599724
1.76784
0.22224
-0.155115
1.69774
2.05619
-0.379954
-1.10926
-0.807418
0.471522
0.802268
0.21623
0.0445845
-0.90601
0.818466
-2.3492
-1.56813
-0.370024
0.533524
0.641976
0.849092
-1.08728
0.0587669
0.730996
-1.32532
-0.276325
-0.203908
0.900206
-0.561614
0.890204
0.471172
0.923451
-0.807212
-1.03322
-0.116028
0.829556
0.901352
-0.57036
1.05521
1.53994
1.77097
-2.0633
1.10419
-1.18737
-0.435309
-0.00747925
-1.40208
0.230811
0.0346699
-0.0154647
-0.693407
0.532928
1.01918
1.90325
1.25865
-0.197987
2.12332
-0.199316
-1.60608
0.997198
-0.635197
2.06267
-2.19112
-0.777917
0.592745
2.40794
-1.33514
-2.02086
-0.0551567
0.299434
1.00932
-0.460398
0.228347
0.135617
1.69605
-1.14966
-1.02946
1.9249
0.350315
-1.81931
0.219652
-1.06749
-0.374657
-0.412509
-0.036819
-0.130161
0.478452
-2.60369
-0.580298
-1.74132
0.8206
-1.14981
1.24584
0.817
-0.358001
0.153614
0.276985
0.0795607
0.546038
-0.214027
-1.66194
0.633497
1.08684
-1.3601
0.704044
0.374491
0.845949
-1.66757
0.216503
-2.18866
0.373192
-1.37687
0.00196272
-1.72049
-1.90715
0.0702318
0.809986
1.14374
0.3214
-1.37941
-0.445203
1.67106
-0.254344
-0.724735
-0.655374
-0.863243
0.976226
-2.77614
0.658254
0.536427
0.521592
-0.466168
-1.00966
-0.379047
-1.04588
0.246221
0.51104
0.624454
-0.237199
-1.07657
1.01555
-0.26679
0.205036
-0.626462
1.17853
0.221876
-1.07942
0.886905
0.380944
1.45597
0.0554956
0.776835
-0.307147
-1.21022
-0.0455985
0.181904
-0.672565
2.12381
0.384984
-0.414706
0.653355
-1.1737
-0.361671
-0.573169
-0.0744475
0.470509
1.59559
0.644562
0.856948
-0.275672
0.419466
-1.56634
1.79728
-1.31575
0.863193
0.20371
0.291838
1.21923
-0.409403
0.529495
0.711931
-0.417746
0.716681
0.219597
-0.656165
0.0485065
-0.48526
0.407687
0.913416
-0.512822
0.209818
-0.227472
0.882342
-0.222964
0.814037
-0.582872
-1.30989
0.522046
-0.333116
-1.32426
0.291317
1.06498
0.299737
0.116101
0.0928691
-0.434248
-1.04227
-1.2576
0.19678
-1.67563
-0.92092
0.95725
-0.501347
-0.0252772
0.116439
3.10613
-1.45206
-0.153996
0.579788
0.461771
-0.750722
-0.274794
0.982108
-0.249275
2.33307
1.05555
0.777761
2.58532
1.42699
0.764645
0.349765
0.745281
-1.88288
-1.40345
0.525967
-0.0901797
-0.557645
0.282042
-1.2404
1.03311
-0.250383
1.30856
1.19715
-0.103323
1.12184
2.19229
-0.631792
-0.691154
1.8085
0.373931
-0.306664
-1.89872
2.40552
0.706068
-0.554612
0.885683
0.532479
0.524312
0.626429
0.0442852
-0.765244
1.46314
0.683364
1.25305
-0.674069
-1.02806
-1.03162
-0.0445055
-0.751194
-0.221146
0.758595
-0.334416
1.34204
-0.875918
0.198838
-0.0200009
-1.50997
1.70456
-1.32027
-0.193881
-0.60874
-0.0363995
-0.822661
-0.587496
-0.364381
-0.158192
0.821934
0.158465
1.63695
-1.27277
1.30008
-0.487319
-1.08108
1.03669
0.555824
1.00081
-0.315485
-0.899032
-0.156716
-0.163806
-1.60068
0.545043
2.47556
-1.43882
1.11355
-1.0708
1.22416
0.536307
-0.959403
-0.402554
-0.0112456
-0.406561
0.0032591
0.32865
-0.417281
-1.68034
1.50516
0.537269
-0.941701
-0.589427
-0.308555
1.74599
-0.0525691
0.530407
-1.77133
2.40805
0.562066
-0.0552191
0.833429
0.454441
-0.114236
0.176449
-1.48488
-1.42157
-0.254253
-0.0208288
-0.525701
0.0138327
0.969733
-0.387139
0.236771
0.0965515
0.663319
0.852679
0.096098
-0.00182035
1.04555
0.261652
-0.350137
0.189879
0.681421
-0.313072
-0.112509
-0.00622039
0.942708
-0.984714
0.336188
0.0676326
2.63019
0.884562
0.586687
-0.191015
-1.15757
0.272232
-2.05437
0.718261
1.64932
0.600971
-1.88238
0.989639
-1.01779
0.400627
0.230111
-0.418056
1.3095
-1.70718
-0.512504
-1.62297
-0.169691
-2.2514
1.03211
-0.609668
-1.22026
0.151291
0.296999
0.741102
-0.156483
0.537168
1.58572
0.976013
1.98124
0.457272
0.13296
-0.0171116
-0.5802
-0.147903
0.25856
0.652733
-0.264331
2.64532
-0.286151
0.516032
-0.510445
0.743172
-1.91624
-0.889229
-1.53971
-2.30729
-0.0925377
-0.867318
-1.8929
0.900174
-1.05228
-1.36164
-1.27808
0.142534
-0.138493
0.34662
-0.133899
-0.172721
1.27222
0.283536
-0.0885792
-0.181895
0.69642
-0.353998
-0.365573
-0.727687
-0.806135
-1.84739
-0.452823
-0.405183
-0.426097
-0.490663
-1.65008
-0.928541
-0.0519726
-0.744601
0.88649
0.0761519
-1.68711
0.724603
-1.44639
0.330116
0.211722
-0.128692
-0.389328
-0.118062
-0.0103357
0.176577
0.157316
-0.374432
-0.434514
0.117203
-1.70827
-1.44322
-0.744878
0.737299
-1.77658
0.546778
-1.20094
-0.409318
-1.52346
0.0209077
-0.0452665
0.790215
-0.55886
0.643142
0.955663
-1.28678
0.000195059
0.716728
0.462262
-1.22049
1.42851
0.435053
-0.118282
1.45517
-1.8234
-1.06485
1.5254
0.255104
1.38672
0.126447
-0.476926
-1.5631
0.480102
-0.873498
-0.189348
0.587042
-0.86955
0.468763
0.413625
0.828228
-2.922
-0.0183623
0.0288992
-0.980223
-0.32271
-0.472906
0.845599
0.677446
-0.727275
1.83863
0.756477
0.265618
0.676849
-0.375451
-0.316714
-0.559727
0.931019
0.110987
0.528796
0.749288
-0.261304
-0.808323
-0.556364
-0.845946
0.443657
0.493838
0.270107
-1.37363
0.74862
0.217002
1.21279
0.312
0.0842073
0.449303
-0.835242
-1.51533
0.295828
1.17643
-2.86628
0.772976
-0.994387
-0.390958
-0.344245
0.107659
1.0421
0.636897
0.890265
2.24548
0.871861
0.700469
-0.0716816
0.239428
0.172038
1.764
-2.33824
0.0444315
0.523519
-1.00975
-0.258434
-0.207639
-0.87531
1.11261
-1.98597
0.336317
-0.855043
1.16682
-0.225941
-1.65245
1.00525
-1.34199
-2.31003
1.58367
0.606366
1.15069
-0.667861
-0.480331
-0.683009
0.150365
-0.0352036
-0.2803
-1.59335
1.51449
-0.297701
-0.0377912
0.32791
-1.51946
0.453052
-0.786142
-0.113348
-0.224223
-0.624482
-0.456529
-0.678332
-0.00359449
0.813086
-0.252444
0.524955
-1.1374
0.423794
-0.986296
-0.850923
1.19078
1.5651
0.0502824
0.29267
0.659183
0.667554
0.273968
-0.537858
0.793693
0.820321
-0.272608
0.538154
-0.194973
-0.539792
-0.320578
-0.991694
-0.624525
2.07929
-0.934791
-0.554361
-0.424706
-0.835726
0.0264489
-0.612959
0.0534772
1.06824
-0.900659
0.450112
0.176053
-0.0356984
0.213905
-0.352457
2.11038
0.438407
0.968277
0.692843
-0.317752
1.23088
0.807056
2.05796
-1.10263
-0.182259
0.975451
-0.418398
-0.370093
-0.531238
1.67999
-0.607034
-0.433732
-0.221404
-0.494065
0.766488
-1.03757
0.828347
1.64247
-0.510704
1.60933
-0.155867
0.907016
0.685839
-0.448422
-1.03157
1.42499
0.942908
0.380955
-0.0754716
-1.02436
0.0291404
-0.441087
0.193384
0.748201
0.438389
-0.323565
-0.748691
-1.65423
-0.349518
-0.776547
-0.698763
-0.515175
1.19547
0.587982
-1.44206
-0.488654
0.979158
0.110968
0.0860667
-0.0274647
0.684327
-0.119365
1.32939
2.46695
0.0448953
1.57796
0.790263
1.44894
-0.109207
-0.566138
-1.37291
0.239383
0.309298
-0.61617
0.397672
-1.49244
-0.469082
-0.104806
0.502144
0.288093
0.500624
-0.406952
1.28957
0.904221
0.553449
-0.30184
0.522321
1.61499
-1.0038
-0.681711
0.0664373
0.088806
-0.321959
-0.763191
-0.807467
0.320996
1.35012
0.305482
0.421311
-1.17097
0.281903
-0.130731
0.512189
0.178018
2.59654
-0.517622
-0.893014
0.88905
-0.600368
-1.23667
1.17372
0.406087
-1.09823
-0.0806064
1.3595
0.199385
-0.255558
0.0506653
1.36271
-0.125497
0.129756
-0.232849
0.845158
-1.72093
-1.70752
0.931911
-0.00935757
0.138975
0.275487
1.06053
0.376028
-0.21556
-2.3705
-0.760797
-0.684505
-0.926272
-2.20079
0.683138
0.318808
-0.72909
-0.652821
-1.24021
-0.604683
0.0802872
1.33265
-0.00474362
0.0421624
0.808286
0.808113
-0.0854153
-1.60429
1.35702
-0.273757
-0.649055
0.37151
-1.38313
0.271471
-0.574394
1.3441
0.278368
-1.49868
-0.659603
0.576804
-0.0403332
-1.02128
0.626743
0.460433
0.149717
-0.6796
0.5567
-0.121847
0.538804
0.760817
-0.0174327
-0.492124
-0.577568
-1.61182
0.838749
-0.563049
0.710885
-0.636189
-0.177183
1.10988
0.186908
0.972636
-1.94519
1.24368
-2.06181
0.520227
-0.310218
0.890842
1.43089
-0.470933
0.624406
-0.425605
0.165527
0.570522
1.94714
0.648789
-3.39947
-0.45136
-2.5434
-0.848241
-0.532451
-1.82039
-0.19529
-0.941151
-0.54574
0.699525
-0.0379697
0.54252
-0.790188
-0.218604
-1.9841
-0.338694
0.42709
3.16317
-0.0329564
-0.868153
-1.24013
-1.10052
0.273949
-1.23077
-0.463971
-1.26634
0.491444
-0.0829102
-1.27896
0.419595
0.100784
-0.343511
-1.60483
1.01625
-1.51317
0.466604
-0.0955157
-1.89733
-0.221995
-1.7134
-0.942249
-0.0908654
-0.995752
-0.722019
1.44896
-1.24646
-0.847953
1.50315
0.135852
1.84304
-0.322247
-1.29969
0.215552
-0.430895
-2.04998
-1.05383
-0.0242008
-1.62014
-0.951416
-1.04832
1.41391
0.27286
0.0385509
-0.500894
0.53508
-0.603125
0.9248
-1.11709
-0.603285
0.28528
0.617944
-0.775916
0.625498
-0.45128
-1.62222
0.662918
-0.602189
0.332728
0.248431
-0.368847
-1.08172
-0.191484
1.27518
-1.76565
-0.402239
0.574026
0.0995423
-1.30395
0.565826
1.01415
-3.22507
-1.2367
0.239498
0.0524852
0.939766
0.70774
0.463078
0.180284
0.51479
0.199755
0.272542
-0.840182
0.919482
0.0580516
0.965696
0.151986
1.07782
-0.554396
-0.545251
1.34209
-0.240385
-0.485947
-0.172871
1.21213
2.02211
0.549783
0.28541
0.587166
0.372883
-0.120467
0.847455
0.699768
0.423749
-0.682171
1.122
-0.399784
0.268306
0.0728408
1.55527
0.617365
0.900942
-0.885456
-1.62929
-2.42535
-0.512926
-0.27928
2.12851
-0.248444
-0.530048
0.158214
-0.0696614
-0.996439
0.197015
-1.31774
0.628507
-0.429235
0.564913
0.749949
0.442653
0.517258
1.33265
-0.159627
-0.365956
0.167651
0.513258
0.287905
0.388328
-1.11645
-2.57159
-1.5083
-1.26384
1.6268
0.500052
-1.29688
-0.10635
2.26489
-0.921978
-1.33091
1.3273
-1.18912
0.121882
-1.01762
-0.131938
0.597886
-0.386557
0.692316
0.00935755
-0.28107
0.864842
0.95794
0.617503
0.146808
0.169718
-0.174994
-0.735663
0.409281
1.00023
-0.144105
0.55422
-2.28033
0.541043
0.777075
-0.745136
-1.16861
-0.470158
0.460649
-0.723969
-1.08143
-0.0872342
-0.647672
-0.24621
-1.38148
1.07446
0.145179
0.112062
-0.135451
-0.408332
-0.462781
0.612467
-1.35806
-0.573995
-0.638732
-2.03484
-0.45955
-1.49391
1.87358
1.1896
-0.36178
-0.11224
1.61006
0.810786
0.349373
-0.599113
1.50916
-0.880018
-0.96505
-0.0939265
0.618135
0.720708
-0.379942
0.415288
1.20095
-0.468787
-0.720617
0.608426
-0.608571
1.14769
-1.14481
-1.01045
0.78103
-1.16789
-0.186272
0.622945
-2.02121
0.507757
1.49208
-0.0665604
0.259583
2.6326
0.307635
1.54013
0.933607
0.15546
-1.12833
-0.0638729
-1.86837
-1.12594
0.0612506
1.30487
-1.47421
0.270196
0.487545
0.316065
1.56255
-0.423466
-0.795937
0.481585
0.807059
-0.759146
-1.03666
-1.27731
-1.00947
-1.22878
-1.12946
-0.332785
-0.130036
0.180525
1.939
-0.88564
1.09811
1.48032
-0.991171
-0.0727096
-1.26798
0.682573
0.0927388
0.493608
-1.465
-1.29934
-0.156185
-0.619604
-0.977988
0.31825
-0.381621
-0.0775838
-0.29796
0.0708921
-0.0245285
2.02804
0.725783
1.93614
-0.615557
0.959307
-0.457654
-0.758189
-2.01772
0.546076
0.00876446
0.961283
-0.568176
-1.48287
-0.015529
-0.922349
-2.47145
-2.40459
1.85478
-0.326852
-2.12977
1.22661
1.06396
0.0522083
0.744157
-0.22243
-1.88931
-0.751069
1.01502
-1.10445
0.091902
-0.811723
-0.0566928
0.0722996
-2.05533
0.037275
2.0559
-0.778445
-0.434723
-0.607246
-0.282452
0.942242
-0.392516
1.6527
-0.739509
-0.236531
-0.722315
-0.552326
0.400021
0.927611
-0.358429
-0.421902
0.205478
-1.31818
-0.479285
0.453319
0.17411
0.174515
-1.92399
1.81201
0.0845618
0.229981
-0.0526248
0.971596
-1.65392
0.191697
-0.124935
1.13595
-0.0283402
0.489925
-0.0407435
-1.26285
0.468597
-1.14099
-0.48248
1.22708
1.85556
-0.707262
0.590059
1.33068
0.197804
-0.379528
2.09462
0.172294
-2.01024
-1.61782
-0.421606
0.552967
-0.148111
1.13709
-0.819167
-1.45326
-1.03878
0.863002
0.526171
-0.74193
1.65091
-0.0171404
-1.31622
0.551481
0.319372
-0.817465
0.804517
-1.61413
-0.161967
0.492228
-0.83603
0.41077
-0.0934509
-1.22769
-0.585352
-0.0867863
-0.889835
-3.1975
1.21915
-0.602505
2.01249
0.443298
0.349802
0.496065
-0.327331
0.512081
-0.728764
-0.507727
1.02606
-0.520388
0.145535
1.18775
-0.15348
0.471325
0.196124
0.817
-1.34706
-0.808704
-0.76461
1.54114
0.198308
-0.572375
-0.569946
0.030154
1.06974
0.428031
0.426293
0.499867
-1.12051
-0.601405
0.577239
1.11094
0.942879
-0.425529
-0.584014
1.07267
1.24253
-0.12858
2.25519
0.55144
-1.494
-1.12345
-0.542888
0.214083
-0.475846
-2.41525
0.12452
0.656782
-0.906069
-1.08577
0.381731
-0.286608
0.235764
-0.0876504
-0.639577
0.54558
0.904118
-1.2882
0.819879
1.71021
0.281891
0.579969
0.832469
-0.738304
-0.66744
0.325702
-0.223934
0.151889
-1.62696
0.712841
-0.761253
-0.329322
-0.697902
-0.48888
0.450021
-0.76061
0.668179
-0.199402
0.28871
-0.867557
-0.63168
1.37437
-0.625463
0.422981
0.159278
-0.684437
1.26745
-0.793088
0.0392638
-1.58121
2.20842
-0.985646
1.2798
1.08302
-0.087151
1.26936
-0.660315
-0.741948
-0.159942
1.82541
0.313727
-0.801708
-0.126479
-0.218876
0.52317
-0.99786
-0.848201
0.685663
0.106846
-0.58434
-1.27706
0.516878
0.104663
-1.09134
0.0417911
0.401557
-1.04367
-0.538583
0.538475
0.321797
-1.50607
-0.237506
0.963989
1.49957
0.463483
0.563599
-0.219069
-1.17972
0.764712
0.308346
1.9689
-1.24176
-1.47984
0.165904
0.0101895
-0.763347
-0.721244
1.00297
0.169311
1.11789
0.56615
-2.07594
-1.6151
0.336705
-0.397455
0.772032
0.612355
1.21806
-0.0978209
-1.09159
-0.813853
0.374501
0.349514
-0.149514
0.440943
1.2057
0.189118
-0.499351
-1.26758
0.39385
-0.44392
0.865575
-0.254689
0.800541
0.15626
0.583677
1.30008
-0.471549
0.561067
0.0854833
0.90329
-1.50858
-0.217821
-0.703092
-0.754401
-0.159287
-1.50374
1.0881
1.06895
0.248849
0.0155256
1.83881
-0.221034
-0.203687
-0.788455
1.19172
1.44354
0.197309
-0.432242
-1.26352
-0.0952477
0.0509938
0.147716
0.655622
-0.418441
1.2894
1.06861
-1.1746
-0.60716
0.921338
1.14519
0.240969
-0.146065
-0.986417
0.250125
0.168938
0.45795
2.70096
-0.367053
1.13666
-1.7647
-0.240772
0.917595
-0.637084
-0.387861
0.665936
0.215224
-1.06295
1.3944
1.88874
1.26591
-1.27255
1.62142
0.128676
0.712578
0.188491
1.02758
-2.04219
-2.25831
-1.57126
1.00248
0.157683
0.500552
1.51027
-0.213554
0.170805
1.03874
-0.317126
1.58036
-2.44635
-0.948706
1.14733
0.00470153
-0.506694
-0.0176102
-0.683736
-0.658733
0.0298407
-0.998051
0.0153177
-2.56002
-1.10174
-0.792187
-0.180755
0.529819
0.870273
0.0239655
-0.904136
-0.466944
1.98697
0.855422
2.0523
0.95972
1.42091
0.0586241
-1.67504
2.5404
-0.677988
-0.991929
0.59851
-0.773302
1.03347
0.49281
-0.221865
-0.346495
-1.96176
0.869738
0.791926
0.387049
-0.636171
-0.481942
-1.2988
-0.922603
-1.86999
-0.562209
2.17773
-0.201118
-0.663032
-0.595767
0.508649
0.826238
0.000542266
-0.199938
-1.21057
-1.11664
-0.244289
-0.687568
-0.125526
0.0417921
0.352519
0.168031
0.407118
0.0450853
-1.749
0.680863
-0.488934
0.184069
-0.0304074
-0.874075
-0.319124
0.618471
-1.65074
-2.39246
-2.30338
-0.620739
1.09063
-0.983298
0.444793
-0.0761861
0.985201
2.55911
-1.49959
-0.557204
-0.436157
0.928835
-0.0628217
0.531458
-0.395268
1.33243
1.44286
0.969118
-1.3152
1.1814
0.0311195
0.501885
-0.265088
-1.90917
-0.900627
-0.308638
-0.795981
-0.0569824
0.769698
-0.162487
-0.464643
-0.792006
1.15986
1.05754
-1.39644
1.70619
0.0534017
0.300132
-0.0954777
1.28612
0.733704
-1.54255
2.62702
-0.441541
1.95105
0.925557
-0.264669
-1.60541
0.538347
-0.423072
1.36196
0.155937
-0.934436
-1.02906
-1.31436
-0.48579
-1.77844
-0.258827
-0.00352733
-0.825412
-0.200312
-0.713404
2.16513
-1.56403
0.746199
0.374519
-0.28499
0.102611
0.651397
-0.699452
1.29992
0.717893
-1.71886
0.176172
-1.49479
-0.820939
-1.21397
1.17324
-0.651668
0.280173
-0.0329504
0.801065
-0.549412
0.678748
-0.141893
0.0236237
0.230034
-1.56196
-1.16691
-0.78455
1.53199
1.42686
0.560066
-0.0892871
0.97526
0.896191
-0.372407
-0.771315
1.74434
0.319201
1.1457
-0.582818
-0.507101
-0.3009
1.68176
0.49802
-1.29928
-2.95829
1.75591
0.0125897
0.686468
-1.24454
0.556563
1.06138
-0.916984
0.648578
-1.35528
-1.27917
1.37685
0.590114
0.111715
0.724458
0.447754
-0.254899
-0.189631
0.363836
0.961975
-0.808336
1.29551
-1.19154
-0.495105
1.07896
-0.990586
-1.09411
0.750678
-1.45438
-0.0396942
1.17348
-0.704128
-2.33872
0.438011
0.33808
-1.08212
-1.20963
-1.95618
-1.13214
-0.54401
0.344211
-0.750116
-0.106661
0.717815
-0.00781155
-0.835904
1.84071
2.11273
-2.0917
0.0542083
-0.236777
-1.12813
0.697362
-0.296954
0.390057
-0.522209
-0.169262
0.0503162
-0.0105898
-0.0296651
-0.0136067
1.53869
0.92828
-2.96437
-0.533194
-1.1013
0.72188
0.202932
0.66178
-1.50845
2.77462
0.958304
0.146703
-1.01599
-0.728274
-0.0564599
-0.253134
0.301992
0.298253
-0.952293
1.83297
0.601595
1.18092
-0.0792267
-2.09946
-0.500071
-0.404747
-1.72865
-0.95735
1.18473
-0.44818
-0.233572
1.53533
1.07874
0.352862
-0.520068
0.633856
-0.280708
-0.451182
-1.74789
-0.168823
1.18329
-0.641188
0.0610848
-0.719915
1.52865
-1.15259
-0.359373
0.18789
-0.746133
0.8406
-2.23712
-0.315061
-1.30573
-0.238581
-0.322532
0.25355
0.206488
0.40279
1.51814
0.183774
0.160687
-0.259739
1.28334
1.07146
-2.39392
2.01641
-0.903666
0.768062
0.825605
-0.575302
1.07286
0.0996141
1.34106
-2.23211
0.818181
-0.123243
-0.143049
0.09833
-0.331673
-1.2821
0.0277894
-0.24448
-0.603696
-1.4343
-0.945389
2.7364
0.0490495
-0.485591
0.109338
0.722129
-1.85099
-0.886532
-0.462917
0.463309
1.45791
2.00448
1.15593
0.0754815
-0.375639
0.355562
-0.858327
1.09884
1.05174
1.08005
-0.347749
0.436426
-0.115766
1.54882
0.147903
0.0203437
0.209646
0.767173
-0.909435
-0.549298
-0.167391
0.939017
-0.113134
2.4266
1.12192
0.699501
-0.315111
-0.0107421
-0.558711
1.09643
0.0421674
-0.832836
0.366524
0.167069
0.216286
-1.95294
1.33975
0.549507
-0.489554
-0.820015
0.985211
-0.247471
0.358235
0.498916
-1.19494
0.757515
-1.42775
-0.0650304
-0.931721
-1.24811
0.630867
0.115796
0.14397
-0.780379
0.423015
-0.386168
-0.677655
-0.530448
0.491983
-0.105782
-0.974008
-1.72
1.27309
-0.566658
-1.2017
-0.255638
0.568147
0.172611
2.02651
0.622969
0.11547
0.554941
0.400253
0.318373
0.0586877
0.410043
-0.898445
-0.473858
1.72085
-1.19414
-0.0567633
-0.731065
0.0120998
-0.752284
-0.866028
0.223685
-1.01202
1.07137
-0.12477
1.00145
0.0725722
0.0818941
1.74408
-1.17273
2.8633
0.45077
-0.671083
0.504253
0.12098
0.974867
-0.364727
-0.173245
0.321627
-1.0484
-2.66537
-0.490254
-0.871563
0.319811
0.203732
-1.01113
0.819806
0.561839
-0.690388
0.399843
0.985686
-0.055205
1.24983
0.114512
-0.690994
0.457657
-0.756748
0.416673
-1.20616
1.12587
-0.918659
-0.601208
0.809648
-0.487578
-0.775063
-1.24198
0.734785
-1.18938
-1.64524
0.658305
0.230237
0.258612
-0.660973
0.115547
0.886453
-1.36356
-1.57712
0.553127
0.656556
0.336654
0.964605
-0.0585997
-0.910176
-0.75315
0.0284572
0.798183
1.32577
1.30369
-0.857476
-1.59987
-0.0984449
0.592784
-1.72949
0.498308
1.87684
0.436645
0.137728
-1.16185
-0.0753365
0.0167409
-0.582667
-1.54837
-2.19877
-0.374965
-0.257438
-0.0210171
0.767111
-0.0065342
2.01775
-0.894199
0.106439
0.233721
0.723013
-0.675831
-0.344255
1.46281
-0.0751937
-1.87849
0.10882
-1.67712
-1.47393
1.01618
-0.592572
0.0293766
-0.787765
-0.459656
0.983565
-0.788159
-0.928545
0.336335
0.143069
2.70185
0.512629
-1.92501
-0.931364
-0.515117
-0.240235
-0.810578
-0.62394
0.000997335
1.65677
-1.98613
0.598268
-0.462005
-0.642994
-0.412818
1.04471
-0.774816
-1.80732
-1.38193
-0.0466107
-0.193374
-1.13636
-0.452514
-1.70394
0.736359
0.961646
-0.218199
0.342153
1.15113
-1.4277
1.85776
-1.91424
1.16082
-1.90847
-0.732831
-1.32749
0.990575
0.268062
-0.680275
-0.573138
0.382763
-0.979689
0.0258758
-1.86588
0.106582
0.154254
1.47765
-0.714519
-0.129656
-0.50907
-1.43761
0.321043
1.56223
0.292028
1.83749
0.527444
-0.384395
-0.166345
0.176743
0.859366
0.0468179
0.307368
-0.443521
-1.8097
0.316479
-0.807638
0.0315237
0.0263093
-0.176655
1.96385
-0.36742
-1.29152
1.60377
-1.71668
0.328559
-1.15186
1.39811
-1.00798
0.401639
0.443283
0.615177
-0.686881
0.27148
-0.525999
-0.318442
1.40075
-0.900919
-0.582004
0.0374287
0.0727401
-0.981608
-1.07912
0.731077
-0.875315
-1.57948
-0.184303
-0.988929
0.328801
0.344242
0.623436
0.336404
-0.587719
0.893921
-0.0403107
1.13675
-0.2791
0.666849
-0.239038
-1.27654
-0.257744
-0.255625
0.657282
-0.558267
-0.240364
0.561758
2.7704
0.99717
-1.51553
-0.554688
-0.265194
0.0145017
0.654777
-1.28073
0.229084
0.665943
0.563337
1.33541
-0.169882
-0.370474
2.23094
0.128717
-0.435178
-0.122271
1.41034
-0.151403
-0.963258
-0.592824
1.40193
-1.76649
-0.556369
0.229434
0.551945
0.671522
0.62963
-0.405571
1.28681
0.226322
0.113261
0.193005
0.889898
-0.966894
0.107326
0.605487
0.23227
-0.350588
-0.826471
0.83219
1.17102
0.663977
0.388124
-0.579183
0.377214
-1.2438
0.59121
0.11243
2.50001
0.70405
-0.198096
-0.916706
-0.919502
0.270767
0.777403
-0.5649
-0.245422
-0.526066
-0.0872451
-0.455921
0.127157
0.890504
-0.883037
-1.07463
2.3307
-0.364853
-0.229776
0.909222
0.937955
-1.42306
-0.623079
-0.217953
1.14733
0.806885
-0.739234
-0.79239
0.546708
-0.0163788
-1.40509
1.21025
0.189763
0.189713
0.0860217
-1.45022
0.0814685
-0.699348
0.797801
-1.20702
-0.282401
-0.282111
-0.620358
-0.59588
-0.488491
-0.630597
0.047311
-1.29924
-1.60195
-1.07903
-0.42045
-2.81869
-0.735775
-0.405441
-0.232893
1.54277
-0.542509
-0.648703
-0.94071
-0.640294
1.48608
-1.97565
0.605373
0.630967
0.0949395
-0.672673
-1.84639
-0.500199
0.297644
-1.17353
-0.0900524
0.555822
-1.0838
3.19239
-1.34172
-1.33686
-0.342012
0.397182
-0.529718
0.113123
-1.99218
0.135098
0.410171
0.936042
0.540383
-0.718597
1.32612
-0.945118
-0.427696
2.07471
-0.0810936
0.791674
-0.393613
1.93002
-0.760306
-0.347795
-1.83657
3.05339
0.394032
0.541064
0.900661
0.376084
-1.95395
-1.74165
-2.40657
0.530284
-1.40548
-0.422392
0.934809
-0.479436
0.628798
-0.221812
0.646721
0.275839
1.30789
-0.894183
-0.550401
-0.99453
-0.354376
-1.79401
0.0719005
2.31942
-0.852062
0.741775
-0.677412
1.15162
-0.521362
-0.067217
1.78728
-0.0858925
1.2133
0.966996
-0.250928
-0.451019
-0.622778
0.0767968
-0.451508
0.203636
0.826056
-1.32663
0.562002
-0.533554
0.489343
-0.15702
-1.29744
0.192662
0.411019
0.106087
0.627869
0.103043
-1.32835
0.297454
-1.47636
-1.20351
-0.689086
1.3057
-1.52812
0.940981
-0.455762
0.72897
0.37347
0.0457619
-0.546475
-0.346497
-1.15685
2.46246
-0.366775
0.30187
0.312597
-0.15527
1.3478
-1.81494
-0.717018
1.92534
0.219447
0.232708
-0.288992
-0.397472
-0.92915
0.794366
-0.481965
1.49138
2.45287
-1.05404
-0.245962
-1.70712
1.1846
0.0497375
-0.270265
-0.0411431
0.125982
-0.696254
-1.1224
0.922597
1.0078
-0.190641
-1.71768
0.148922
0.307915
0.154387
-1.15297
0.624069
0.0272606
1.32726
-0.529961
-0.632218
1.41697
0.409122
-1.50431
0.313205
0.256132
-0.283216
0.638264
0.958439
-0.878543
-0.976875
-1.1912
-0.911644
1.00259
-0.622617
-0.502702
0.525853
-0.498779
-1.07907
0.450586
0.866011
-1.14707
-0.765655
0.0313786
0.935915
-0.20514
-0.320789
-1.16328
-0.748081
-2.62564
0.809315
0.235031
0.537874
-1.27773
1.63103
-1.34135
-1.2133
0.0763305
0.373202
1.2289
0.497698
1.15955
1.29273
0.636035
0.255744
-1.03231
1.53417
1.45688
-0.346967
-0.160009
0.16316
-1.28049
-0.986481
-1.08176
0.698785
0.045885
-0.789657
-1.01369
-0.102609
-1.70462
-0.0290596
0.672733
-2.02966
-0.865228
0.0462199
1.44627
0.472905
0.0134483
1.56664
-0.311174
0.959068
1.37161
-0.691696
0.931279
-0.843719
-0.0836446
-1.03002
0.315069
0.769855
-0.214352
-1.04438
1.5399
-1.38998
0.858698
0.689421
0.0861674
-0.124613
0.502524
1.16774
-0.698806
-1.20089
0.698081
0.167264
0.700187
1.73907
2.57359
-0.734181
0.993111
0.493798
-0.0597985
0.257579
0.405762
0.26486
0.183905
-1.10857
1.93498
-0.514836
-0.901297
-0.609228
-0.313135
-0.854123
0.213687
0.394504
0.128772
1.04586
-0.0815241
-0.648156
-1.23869
-1.04787
0.37406
-0.679646
-0.0316496
-0.217139
-1.38773
1.70491
0.344239
-1.50671
0.0352194
0.794382
0.342182
-0.282935
0.513194
0.93324
1.25167
1.10247
-1.52119
-0.666794
0.352293
0.458322
-0.961498
0.697312
-0.236492
-0.142811
0.688276
1.03885
-0.338205
0.403002
0.134941
-1.59029
0.246952
-1.6748
-1.6254
-1.23723
-0.436289
2.68445
0.287311
0.449686
-0.685343
-0.706406
0.888196
1.5606
-0.547111
-1.52878
0.0767005
0.921641
0.330783
0.444664
-1.45754
-1.41718
-0.41665
-0.909232
-2.08673
-0.732905
-1.0681
2.04441
0.121531
-1.11087
0.473888
-0.705809
0.891247
-0.840533
-0.77541
-1.47859
1.05443
-0.794282
0.924036
1.41303
-0.703898
-1.51077
-0.244069
1.69377
-0.415559
-0.912618
-0.663151
-0.473327
-0.360851
-0.434166
1.01224
0.363393
0.941011
0.148785
-0.283281
-0.497296
-0.902173
1.16277
-0.248641
0.108712
-0.12665
-1.31678
-2.00654
1.66358
0.331566
-0.452531
1.2882
-0.606276
-1.89808
0.331344
-0.709705
0.368672
0.309869
1.63809
0.0758491
-2.10559
-0.0648631
0.106522
1.29249
-1.24729
-0.910962
1.14977
-0.828349
0.164232
-0.241741
-0.370732
0.427349
3.23429
-0.141512
0.643377
-1.45848
-0.117484
-1.09921
0.266032
-0.377447
-0.779788
-0.990642
1.31053
2.73684
0.654614
0.0928313
0.746366
1.11147
1.23015
1.27786
0.018963
0.420044
-1.23226
0.210159
1.13994
-1.85407
-1.87755
-0.0876145
0.52105
-0.130747
-1.24414
0.832474
1.64281
0.036917
0.664371
-2.09156
-0.283917
-0.955833
0.534689
0.127652
-2.53527
-0.120558
-0.304749
1.70216
-0.731851
1.05224
0.302605
1.28406
0.190301
-0.344692
1.2108
0.0947064
-0.875812
0.171824
0.498829
0.118478
1.86523
-0.40959
-0.30532
0.582245
-1.16099
-0.519494
-0.230062
-0.292491
0.352002
-1.25888
1.66465
-0.673887
0.976235
-0.938893
1.25689
0.874333
1.77702
0.753377
-1.27434
2.06596
1.76884
-3.10256
0.869557
-0.997622
-1.09955
0.492846
-1.09116
0.648429
1.71512
-1.09331
0.626933
-1.02264
-1.21464
-0.667837
-0.683974
0.610134
-1.32195
0.48485
-0.104042
-1.75703
1.71926
1.84026
0.327119
1.10469
-0.628501
-1.1289
-0.0846785
0.49188
0.679901
1.03427
0.360326
2.20446
-0.755843
0.619957
-1.00745
0.600064
0.058424
-0.124938
-0.0799638
-0.334385
-0.0950974
0.281546
-0.0302792
1.1765
-1.71101
-0.0426061
0.199967
1.76331
2.35397
-0.529981
-0.937762
0.841608
1.3114
0.316966
-0.502797
0.695464
1.51292
0.502798
0.608159
1.39475
1.21635
-0.582656
2.57581
0.448293
-0.724282
-1.68818
0.0329464
-1.15365
-1.25014
1.03481
0.413502
-0.260909
0.708406
-0.0546573
1.05589
-0.24433
-0.620733
1.17807
1.84566
1.10013
-1.23182
-0.0537332
-0.567912
-0.90506
-2.02881
2.30495
0.266657
0.313701
-0.321598
0.113855
-1.23493
-0.0972892
-0.82143
-1.7889
1.60148
0.968746
0.0515111
0.733867
1.19553
-0.17017
0.0685597
0.446201
-1.05076
-1.37882
0.0757423
1.63045
-0.539334
-0.65628
0.789736
0.165047
-0.218755
0.836589
0.156819
-0.316519
0.800112
-1.09075
2.30387
-0.741481
-1.82365
-0.014101
1.55274
1.10356
-0.26628
0.344818
-0.322873
-1.84418
-0.051849
-1.70619
1.06574
0.375975
-0.197796
1.75505
-1.43478
0.52476
-0.73624
0.357806
-0.605653
-1.07443
-0.0943639
-1.44141
-0.815507
-0.540532
0.356968
-2.69527
-0.319586
-0.215466
0.504314
1.35691
-1.09244
-1.03575
-1.27613
0.706423
0.28529
1.16214
0.215409
0.231652
1.89462
0.665627
0.565457
0.91636
0.618269
1.43668
-0.136458
0.529874
0.697056
0.760582
0.797903
0.793851
-0.315306
-0.598637
0.205291
0.271633
-1.19623
-0.551156
-1.77675
1.89816
0.285068
0.530961
-0.820576
0.562852
-1.52912
-0.44798
-0.876161
-1.21644
0.742701
-0.32609
0.699646
-0.752206
1.08471
0.393978
1.05747
0.700079
0.842809
0.11035
-0.638239
-1.47199
-0.839374
1.57218
1.3741
1.63909
0.409216
-2.07333
1.22191
-0.848118
1.62485
2.19723
1.07928
-0.727242
-0.18516
0.697984
0.00356339
0.115726
-1.02037
-1.46209
-1.66318
0.0853882
0.808727
0.036823
1.89166
-2.14009
-0.817664
0.867305
-0.256088
0.583543
-1.13328
1.08101
0.189089
-0.941742
0.266501
0.639391
0.659217
1.04183
-1.31475
0.567769
-1.31534
0.130635
0.0362581
-1.51039
0.962298
0.746827
-0.159963
2.12119
-1.38275
1.19034
-0.357926
-0.857059
0.281848
-1.7698
1.25809
-0.470421
0.159913
-1.5236
-1.33419
-0.986585
-0.784019
0.240099
-1.34671
-0.227892
-0.562196
-0.111657
-1.43455
1.68549
-0.874823
-0.958334
0.506854
1.22877
-0.224233
-0.612131
-0.200459
-1.03393
0.237195
0.566631
-0.106038
1.22975
-1.39226
0.13348
0.636928
0.320661
-0.389787
1.2208
-0.642646
1.12577
1.04267
-0.661804
0.487188
0.140322
-0.229289
0.68911
-0.168047
-1.8355
-0.632961
1.33824
-0.887245
0.28248
-1.4033
0.356109
1.48059
-0.553186
0.0948126
-0.525758
0.0867049
-0.136976
-0.674728
0.277824
-0.544437
-0.0774249
1.03631
0.386945
2.34781
1.41771
1.24202
2.66394
0.130709
-1.05962
-0.745337
1.68755
-0.621875
-0.758397
-0.0667977
0.636139
2.58364
0.861568
-0.598828
-1.26821
0.348024
-0.153959
0.0319534
0.706272
2.58168
-0.0646517
-1.0907
1.33917
-0.0829368
-0.653613
0.0954689
0.376569
-0.852559
-0.975919
-0.382327
0.855661
2.03441
-0.060444
1.69552
-0.292965
-1.10564
-0.84362
0.918527
-0.0745148
-1.7003
0.597939
1.14186
0.483611
0.973975
-0.0730893
0.794647
0.994612
-0.273057
0.981737
1.01972
1.82948
-0.68854
0.5742
0.682465
0.0729092
0.543825
-0.282633
0.370918
1.00211
-1.07141
0.149537
-1.38149
-0.516658
0.919599
0.998027
-1.24853
-1.97607
-0.506969
-1.61149
-1.50861
0.221337
-0.377875
-1.43627
-2.46005
1.81117
0.471056
-0.0939361
1.22674
-0.395699
0.794859
-0.0432072
1.63555
1.20025
0.28839
0.672717
-0.114222
-0.544463
1.16283
-1.55273
-0.345365
0.242321
-0.121269
1.30353
-0.603312
1.997
-0.315705
0.614575
0.0832421
0.112214
-0.251661
-1.36678
0.665194
-0.143645
0.605211
-0.0925856
1.49409
-0.0702617
0.70516
1.47249
-1.77478
1.27396
1.16287
1.58688
1.47332
-0.180162
-0.31214
-0.350231
1.18296
0.0839431
1.34393
1.81257
-2.44135
-0.624287
0.854254
3.16987
-1.00706
0.291024
-0.355705
-0.173352
1.89605
0.444314
-1.39204
-0.759903
2.03347
0.239807
-0.617892
0.819101
-1.15342
-1.38479
-0.536178
-0.835652
0.2858
-0.9855
-0.462115
-1.5027
2.33599
-1.5479
0.124511
1.50028
-1.13645
0.2275
-0.0815874
-0.0454125
1.40956
-0.556718
-0.562926
1.97885
2.42085
1.60589
-1.70957
-0.969655
2.15708
0.473632
0.715606
-0.0974651
-0.395948
0.0594623
0.704256
-1.2451
-0.221223
-0.612251
1.26333
-0.0603994
0.261662
-1.46127
0.616324
-0.92186
-1.24319
-0.284675
0.0868501
-0.542875
0.109208
0.0768407
0.844189
-1.51591
-0.300884
1.19268
-0.415526
0.831833
1.48582
-1.87376
0.289499
0.957068
-0.0524973
0.517028
0.622942
-1.4985
1.49876
-0.348023
-0.525721
0.685435
-1.0702
-1.45818
-0.0771047
1.02162
1.37587
-0.175854
-1.1565
-0.744132
-0.104615
-0.202074
0.00762266
0.514895
0.441029
0.352091
0.228128
-0.120501
0.754149
1.28308
0.00559119
-0.0285048
0.846517
0.62909
0.0182884
0.421202
-0.093058
-0.322439
-0.226308
0.137436
-1.15972
-1.39856
-0.804374
0.589717
0.508202
0.0629957
0.0335122
1.44109
0.14173
0.362498
0.16998
0.0260772
0.401894
-0.335429
-0.405552
1.06214
-1.06658
-0.563425
-1.11043
-0.270117
-1.01051
0.540512
0.557173
-0.123128
0.0136971
0.0792274
2.26959
1.41543
-1.30505
1.19449
-0.504752
-0.0846832
-0.317559
0.181695
-0.570587
0.157268
2.12973
0.191567
-0.385947
-1.06864
-1.30842
-1.39971
0.0295429
0.892662
-1.11225
0.42037
-0.672678
-1.25591
0.918654
-0.139776
-1.40509
-1.45574
0.949453
0.0639972
-0.105311
-1.25747
0.663251
-1.68296
-0.642709
-0.129488
-0.559548
-0.904666
-0.72726
-0.931831
-0.522023
0.170755
0.175683
-0.268452
-1.70146
0.576072
-0.172237
1.01324
0.167564
-0.316768
-0.499052
0.146504
0.0344324
-1.07316
0.134715
-0.383208
0.799021
-0.103974
0.460409
-0.333404
-0.323298
-0.190462
-0.734762
-0.233086
1.19585
-0.835971
0.17763
0.920257
-0.663612
-0.63115
0.706353
0.746781
0.361254
-0.490822
-1.00332
0.439068
-0.424549
0.681144
-0.372603
0.537671
0.52549
1.37752
-1.67293
-0.75811
2.04132
-0.294305
0.48326
-2.12586
0.215431
-0.143713
0.37541
1.21225
0.896608
-1.20792
0.600753
0.156679
-0.0910146
-0.104026
-0.562845
-0.0788846
-0.0017147
0.278013
-1.64718
1.15806
0.0427094
0.29002
0.83603
2.11992
-0.143159
-1.45092
-0.0898657
0.85175
-1.35322
-0.905618
1.07637
-0.423354
-1.08965
-2.53117
0.903934
-0.89384
1.18813
0.259133
-1.06778
-0.314026
-1.48219
0.606911
-1.00715
0.603449
-0.554544
-0.217576
0.401881
-0.137931
-0.285864
1.23936
0.0773542
0.454378
1.7811
0.290912
-0.26165
1.32332
-0.297421
0.295135
0.707429
-0.594498
1.83826
1.74568
0.294595
1.24087
-0.681059
-1.51477
-0.340388
0.569514
-0.0659978
0.214362
-1.87661
1.9878
-0.0390587
-0.212667
-1.25565
2.41538
2.19431
0.444103
0.849311
1.598
-0.678973
0.275436
-1.14912
-0.132337
0.872137
-0.757613
-0.566556
0.997397
1.19523
-1.59549
-0.074226
0.664429
0.664701
0.183984
0.700556
-2.45753
0.0647426
-0.57043
1.051
0.645084
-0.564859
-0.606154
-1.94212
-2.63431
-1.36723
0.386098
0.0832317
0.835346
1.06616
-0.147078
1.76506
-0.729177
1.38441
-0.876652
0.285373
-1.44802
-0.686207
0.17302
0.132155
-0.760461
1.89294
0.249616
-0.180072
-0.0749659
0.770122
0.15115
-0.887105
-0.558433
-1.81988
1.15043
-1.16413
0.323963
0.450493
0.234749
0.502842
0.54854
2.55335
0.923213
0.763918
0.771275
0.447954
-0.589512
-0.143316
1.3692
-0.240035
-2.57465
-0.223728
0.620397
-1.56123
0.460606
-0.715609
0.227104
0.0805025
-0.425169
-0.808927
-1.94932
0.292532
-1.53983
-0.179249
0.887485
0.767823
-0.11343
-0.41265
-0.348353
1.81288
-0.0525548
0.0511134
0.697479
-1.78439
-1.14816
0.282185
0.645925
0.10633
-0.873491
-0.0019011
-0.27883
0.696795
1.46661
0.795193
-1.15129
0.687116
-0.88767
-2.26795
1.04527
-0.418214
-0.792372
1.08375
0.637706
-1.63444
0.335567
0.554316
0.403748
0.163338
-0.909861
0.207096
1.37105
0.472113
0.412176
0.845582
1.26265
-0.257096
-2.06978
-0.465431
-0.879623
-0.311891
-0.350242
0.00709692
-0.330477
-0.384916
0.522051
-0.75319
-0.371466
-0.336146
1.26724
-0.530967
-0.247539
-0.0693902
0.959465
-0.533568
0.149546
-0.70326
0.452393
-0.0855127
-0.783499
0.295566
1.60762
-1.01551
0.0574988
1.32057
0.705127
-1.23034
1.12549
1.38473
-0.607838
-1.72363
0.307273
0.20931
-1.42508
-0.380345
-1.02149
-0.401405
0.190862
-0.560896
-0.726163
-0.272266
-0.468061
0.585167
-1.25728
-0.690795
0.219698
-0.26365
0.400468
-0.711723
0.0689862
-0.313064
-0.271785
-1.46404
-1.49714
-1.86096
-0.297977
-1.25233
-2.46866
-0.863305
-2.33835
0.0808065
0.983117
1.31224
-0.186943
-0.860863
0.380849
-0.676305
0.350603
-0.697633
0.1544
-0.755639
0.321991
-0.0687118
-0.136899
-0.842688
-2.51767
-1.62354
1.04512
-0.700916
-0.417018
-0.512661
0.295223
1.38715
-0.568364
-0.166947
0.689752
-0.245871
2.38143
-0.852884
1.33462
0.770418
-0.29989
-1.16133
-2.64691
0.778065
0.231077
0.0395532
-0.383751
0.218085
-0.0858556
0.881588
-0.225712
-1.11479
1.42443
-1.54886
-0.508242
0.220514
-0.357246
-0.927695
0.308118
-1.07612
-0.667255
-0.262169
0.53349
-0.399147
0.893037
0.545958
1.10891
-1.32599
0.441129
-1.54557
-0.0942626
0.366335
-0.680102
-2.25237
0.0714683
-0.528072
0.83828
-0.61057
0.321087
-0.952521
-0.467573
1.42822
2.2862
0.215867
0.0383328
-0.397945
0.106447
-1.72919
-0.50837
-1.37872
2.54644
0.391805
0.145919
1.02498
-0.0370392
-0.371672
-0.019837
1.038
0.974513
-1.77292
-0.153872
-0.77492
0.973934
-0.421256
-0.48265
1.08119
0.3458
1.279
-1.02169
0.161766
0.219906
0.562915
-0.666496
-0.00568885
0.342674
-0.814073
-1.01346
-0.180891
0.809621
-0.096572
-0.445995
-1.57929
1.53729
1.97732
0.0355078
1.24662
0.642934
1.02909
0.900954
0.48517
0.626979
1.52862
0.573224
1.44561
0.251288
0.277443
-0.102409
-0.911298
0.942906
-0.917286
-0.0332671
0.679966
-0.429619
2.17118
0.3185
0.314006
0.0662765
0.536622
-0.466391
0.314126
1.15695
0.780905
1.91849
0.920884
1.3894
2.89673
-0.0798834
-0.134118
0.221185
-1.80719
0.213567
0.209204
0.267747
-0.452213
-1.59232
-0.027398
0.276496
-0.117219
0.138088
0.419081
-1.55023
-0.78985
-0.120114
1.12471
-0.407646
0.0926612
-0.87795
0.943718
0.0710748
-0.418381
0.926519
2.12121
-0.151601
0.528504
-0.339423
-1.02769
0.886702
-0.19094
0.604823
1.07646
-0.342305
-0.404907
0.525016
-0.915931
1.2644
0.501464
-1.20972
0.922583
-0.948365
-0.291505
1.31653
0.622104
2.31689
1.22527
0.187894
0.701318
0.21893
0.116637
-0.0030797
1.22181
-0.617602
1.43936
0.202058
-0.00229035
-0.333343
-1.32049
-2.03739
-0.990047
-1.06887
-0.698416
0.583816
1.66319
1.12241
-0.996978
-2.04813
1.80849
1.33526
0.120232
-0.613713
-0.43185
-0.556513
-0.767349
-0.496354
-0.276186
2.76349
-0.282012
0.301329
1.19939
0.108237
-0.172433
1.63092
-0.81597
-0.254315
-1.54622
0.31566
0.205836
-0.866193
-0.543108
0.40207
-0.56829
0.0151511
-0.770597
0.287757
0.0814844
1.61208
-0.168226
1.29681
0.159004
0.754699
-1.47189
2.1048
0.991254
1.08795
-0.490387
-1.07342
-0.564281
-0.370323
0.735339
0.609051
0.284976
-0.146841
-2.22286
0.124278
-1.1165
-2.40547
1.48604
-0.128714
1.61427
0.726711
-0.542357
-1.83654
-0.179902
1.12185
-1.70301
-0.992622
0.0572756
1.58462
-1.4852
-0.795447
0.654392
1.18709
-2.09474
0.119466
0.170577
-0.883524
-1.77813
0.683478
0.63148
-0.0617064
-0.614996
-1.4917
0.811034
-0.136459
2.29272
-1.1809
-0.275591
0.000336154
0.277359
0.939008
-0.184018
0.253656
-0.668615
-0.812804
0.0896943
-0.236851
1.12139
0.518678
-1.01765
-1.02445
0.322
-0.185132
-0.327739
-1.48178
-2.0509
0.323508
0.390257
-0.0707243
0.676129
-0.525748
-0.872812
2.05182
0.319114
1.07254
2.52856
-0.839417
0.199414
0.438977
-0.0166135
0.844116
0.399487
-2.33918
-0.437444
-2.6263
-0.31464
-0.631392
0.715467
-0.382876
-0.518819
-0.356512
0.813488
0.0735231
-0.322904
-0.68285
0.749477
-0.112815
0.724594
0.0767353
2.16996
0.52716
0.0379779
0.0512682
-0.829625
-1.77387
-0.275349
-0.337398
0.141928
0.435794
-0.912979
0.798559
-0.299294
-0.539314
0.378784
-0.608402
-0.100633
-1.03719
-0.170814
-0.0250676
-1.70051
-0.785149
0.378073
-1.1874
-0.643645
0.555824
1.82981
-2.22007
-0.159081
2.56769
-1.09799
0.212102
0.115807
0.527058
-1.26696
1.9594
0.208714
-1.1657
1.08877
-1.23438
-0.562824
-0.461886
-0.491283
0.0747227
0.0386357
-0.340315
-0.154898
-0.109498
0.821734
0.651602
-0.831448
0.0966277
-1.26703
-0.0256744
1.26435
-0.706061
-0.634874
0.254429
-0.644081
-0.269539
-1.08914
0.214781
1.54076
-0.632869
-1.65696
0.310398
-1.40826
1.15531
0.735979
2.899
-1.2427
-0.450565
-0.102342
-0.979076
-0.584341
-1.04569
-0.0317444
-0.647017
0.998425
-1.50293
0.512271
0.67242
0.310014
0.45452
-0.935855
0.213126
-0.778878
-0.387947
-1.86132
0.15059
0.86167
1.44307
1.26132
-0.788038
-1.71942
1.19388
1.34892
-0.178871
1.51949
-0.0487099
-0.0239769
1.38527
-0.23462
1.2501
-0.292576
0.368368
0.381338
0.54695
0.975069
-0.258966
0.764015
0.0808221
-0.499437
0.893151
1.70228
0.968772
-0.0311512
1.79338
-0.215968
1.77131
0.94267
0.466987
0.582802
0.725509
-0.337536
-2.04369
0.215117
2.22229
-2.20593
-0.400163
-1.12403
0.143265
-0.259218
-1.73595
-0.599195
0.831992
0.14689
-0.3219
-0.0947367
0.22779
0.323444
-0.107325
-0.734545
0.748546
2.06419
0.26178
-0.761155
-0.269804
0.569125
1.94304
-0.173359
1.83532
1.67405
0.145933
-0.649399
-1.63568
0.0299366
0.408065
-2.18036
-0.742807
0.174853
-0.0762841
0.0538762
0.511645
-1.54578
-1.11451
0.425161
-0.158711
1.15591
1.41453
-0.466602
0.804203
-0.13041
0.90296
0.631333
0.317003
-0.547349
0.499707
0.665281
2.01782
-0.942698
0.500739
-2.12766
1.15885
0.638375
-1.78199
-0.450906
-1.03408
0.801222
0.918566
1.76744
-0.056333
-0.777514
0.635663
0.927861
1.40974
0.403716
-1.66332
-1.40499
-0.896217
-0.498856
-1.17174
0.144414
0.99435
1.11692
-0.62564
1.17748
-0.522212
0.721224
-0.812417
0.29135
0.311466
-0.465684
1.12925
-0.259785
0.67034
-0.181918
0.12463
0.70706
0.851713
1.27979
2.06013
-1.11076
0.308578
-1.93742
0.0695555
1.29161
0.0736234
1.19796
1.70346
-0.376219
0.58073
0.843127
0.370715
0.314674
-0.772688
2.1377
0.0478044
-0.158689
-0.956039
-0.0506837
-0.667047
-0.355664
-2.03228
-0.671463
0.950824
-0.601121
-2.76832
2.2164
-0.23781
0.291418
-1.20323
0.108187
-1.81872
1.64496
0.884146
-0.584491
0.369353
1.77762
-1.69633
-1.19809
-0.325133
0.458101
0.189327
-0.748631
1.49763
2.1399
0.0104613
0.82757
0.0250227
1.18881
-0.757562
0.199337
2.28132
-0.629305
-0.693564
-0.664529
-1.44121
-1.00435
0.423922
-0.093741
0.0989136
-0.925658
0.42355
-0.0551852
0.81459
1.45957
-0.442811
0.23694
-0.870943
1.19877
0.559193
-0.00418971
0.781522
-0.728457
-0.184203
0.406249
-0.348548
-0.584812
-0.21263
-0.84876
0.854353
2.47283
-0.458128
-0.102943
0.130719
-0.759367
0.351775
0.388648
1.50055
-0.675988
-0.97294
-0.170984
0.877499
0.871101
-0.051461
1.26898
1.47432
-0.608581
0.170036
-0.651799
0.839254
-0.0263738
0.110344
0.162051
0.972438
2.18789
-0.216546
-0.312282
-0.342162
0.387767
-0.0322726
0.928768
1.97768
-0.858037
-1.127
-1.42454
0.350061
0.580818
0.207053
-1.1341
0.904454
-0.91301
0.0886015
-0.504326
0.170343
0.886757
0.653875
2.77535
-0.103599
0.421743
0.654501
1.43411
0.33861
-0.503855
1.6141
0.658629
0.876632
-1.45815
1.67559
-0.722928
0.505241
-0.0633458
0.594695
-0.78265
1.80988
-0.692501
-0.23442
-0.909876
-1.32066
2.27991
0.12285
-0.398658
0.479721
1.9805
0.521046
0.418794
0.472347
0.14811
-0.026471
1.0496
0.300191
-0.105333
-0.468468
-0.297622
-0.356843
-0.289822
-0.554862
-0.674176
1.38851
-3.22486
0.505663
-1.50273
-0.321662
0.383251
1.28162
-0.0900137
-0.289671
-0.323117
0.986593
-1.31525
0.680575
-1.71864
0.808573
-0.397872
-1.39387
0.103471
-1.03098
-0.0851652
-0.850684
-0.795619
-0.124401
-1.67454
0.117486
0.704972
-0.317614
-0.676289
0.855716
1.37805
0.420331
-1.57698
-0.323797
0.491852
-0.332251
-0.685065
1.59116
-1.07351
-1.39981
-0.630933
1.28407
-0.586767
1.28593
-1.29858
-0.0853666
-0.849088
-1.42379
-1.01058
-0.106642
0.79567
0.891408
0.169576
0.262087
0.575237
-1.49212
1.18737
-0.0357008
0.612454
-0.0958063
1.96088
-2.46712
0.0128552
0.0957204
-1.20867
-0.472111
0.659344
0.394046
1.6396
1.20627
0.235645
1.75253
-1.91277
1.22099
0.143771
-0.588001
1.08936
-0.170272
-1.36532
-0.839122
-1.76224
-0.491605
-0.98774
-0.408231
-0.231864
-2.3509
-0.0385209
-0.781
0.999297
-1.66367
-1.30118
0.326202
-0.844804
-0.157054
2.48463
0.399321
-0.0215589
-1.42064
0.402836
-0.458514
-0.925027
-2.19893
0.404446
-0.940008
-1.36269
0.63131
-0.644167
-0.941954
-1.34835
-0.081215
-0.767126
-0.0312531
-0.974347
0.0542967
0.501537
-1.81868
-0.767845
1.39792
1.14687
-0.026359
-0.534681
0.316446
-1.43072
-0.983156
1.3027
0.479697
0.413272
-1.71352
-0.702332
1.87758
-0.0758534
-0.663892
-0.0658737
-3.30542
-0.497753
-0.0898003
-1.20137
-2.15536
2.00904
0.318066
-0.776858
-0.233233
-1.56382
0.354025
-0.719681
-0.217884
0.198054
0.355779
1.09638
0.0485442
1.07013
0.583365
0.157277
1.77892
0.0965893
-0.889801
0.338321
-0.179064
-0.336521
-1.06496
0.347622
-0.410307
-0.364033
-1.21249
-1.16157
-2.4422
0.0283217
-0.664535
1.75096
-0.678566
-0.81228
0.249312
0.403882
-1.40064
0.665098
-0.462684
0.9135
-0.434293
0.909864
-1.22209
0.13639
1.11865
-0.275852
1.27783
-0.720304
-1.43354
0.20426
-0.80844
-0.784097
0.908268
-0.944621
0.451742
0.472629
-0.997236
-0.7889
-0.515463
-1.41175
0.466889
1.78038
-1.94528
-1.60445
-0.629853
-0.304085
0.240222
-1.13975
-0.934182
0.272604
0.987043
0.574731
0.71723
-0.00530092
-0.294081
-0.526757
1.26075
-0.580542
0.567445
-0.139012
0.0488089
0.496304
0.370517
-0.217233
1.19588
-0.449566
-0.992307
0.754672
-0.961864
0.148625
0.141528
0.223345
-0.383444
-0.990511
-1.1141
0.769206
0.688199
0.924248
0.67912
0.625755
-0.244343
1.34429
-0.938338
-0.592396
0.643609
-0.0374321
-0.45807
0.0826171
1.21144
0.134419
0.221343
0.037969
-0.156485
1.32867
1.53648
0.589882
-1.06037
-0.626974
-0.0458024
-0.914754
0.422412
1.3876
-0.0289608
0.931525
0.0467033
-0.40672
-0.432365
-0.329362
-0.640734
-0.0324798
1.97958
-0.746604
2.29783
-1.18484
0.286209
0.165126
-0.437057
0.819653
0.0739141
2.02226
0.214311
-1.06846
0.742585
-1.33448
1.06296
0.34456
0.00343319
0.530418
-2.3553
-0.230927
-0.723316
1.46518
-1.36556
1.09878
0.597679
0.584134
-0.150413
0.859322
-0.567042
0.787827
-0.304688
-0.566392
-0.083049
0.846786
-0.250987
1.75542
0.202962
0.67332
-0.943872
-0.326112
1.48869
-0.490079
-0.0191107
1.24918
0.522417
0.988043
1.83356
0.850443
1.00326
-0.123209
-1.29781
-0.251127
-2.05715
-0.313152
0.38627
-0.0738388
-0.192588
0.85703
0.139901
0.8047
0.000600096
-0.260273
0.58693
1.27903
0.250426
-0.270277
1.32887
0.555003
-0.292604
1.61486
0.18034
-0.908303
-0.436951
-0.0776967
0.577532
1.79845
-0.889075
-1.18219
-0.505157
1.69119
0.344548
0.745885
-0.405937
-0.883473
0.989573
-0.145505
-1.40082
1.76628
2.42262
-0.131478
1.20196
-0.951503
0.707616
-1.79454
-1.27616
-0.84122
-0.935527
0.217788
-0.33827
1.19597
-0.761437
-0.0481119
0.492744
-0.165626
1.02722
0.974568
1.11592
0.731473
0.856846
-0.0449688
0.793845
-0.597838
0.511862
-1.20204
0.399314
1.09437
-0.687688
0.928913
-0.409412
0.428789
-0.258627
0.06226
-0.159205
0.576024
-0.553758
-1.06004
0.58575
1.03209
1.69892
-0.752081
0.189424
-1.53956
-0.414195
-0.0889593
-1.39974
2.33288
0.897607
2.0898
0.562941
-0.966575
1.42771
-0.291671
0.0768771
0.990058
-0.596512
-1.17835
0.0277996
-0.473447
0.206796
-2.51371
0.830009
0.142634
0.579576
-0.344441
-1.1209
1.70093
0.0621959
-1.33493
1.81559
1.13811
1.16064
-0.216315
1.34009
0.234376
-0.0197782
-0.934609
2.04155
0.545346
-0.258984
-0.698085
-0.721985
2.10827
-0.0998366
2.11498
-1.02256
0.427481
-0.00712685
-1.77259
-0.220966
0.229558
0.237044
-0.62153
0.192434
0.941299
-0.933937
0.459648
-2.39247
-0.0607084
-0.924494
-1.00706
0.0417319
0.525401
-1.17806
-0.642296
-1.35851
-0.640306
0.325976
0.537838
1.54943
-0.0178915
0.341112
1.96222
-1.27292
1.68865
-1.0719
-0.469183
0.606501
-0.390709
1.03443
-1.03509
-1.38138
-1.75093
-0.374282
0.395727
0.373314
1.33022
-0.674414
-0.431854
2.40659
1.41934
0.17775
-0.968004
-0.61891
0.102832
0.963794
-0.509078
-0.278464
0.646431
-0.338595
0.494699
1.18116
-0.358442
-0.595103
0.757679
-0.327613
1.07542
1.84843
2.22624
-1.11858
-0.447644
-0.787315
0.293353
-0.743244
0.700525
0.984613
-0.841915
-0.00887461
1.80731
-0.37875
0.178414
0.470374
1.13482
0.0433435
-0.823278
1.37264
0.140504
0.512723
0.266468
-1.65652
-0.615346
-0.464584
-2.08109
1.72695
0.380691
-0.902749
0.664057
-0.723713
1.93652
-0.112301
1.87251
0.913942
-1.3257
1.72854
-0.468638
-0.670847
-0.114449
1.2115
-0.903559
-0.880092
-2.68079
0.357353
1.0275
1.85365
-0.896445
0.337676
0.00425671
0.177186
-1.37113
0.0362735
-0.860264
-0.506605
-0.150878
0.936925
-0.155278
-0.749015
-1.14363
-1.60216
0.592082
1.70334
0.129475
1.07483
2.2029
-0.583134
1.1217
0.602545
1.00264
0.661123
0.788316
0.682944
-0.180893
-0.00693494
0.31143
-1.70558
-0.602039
-0.245503
0.0902477
-0.664771
0.34537
0.586943
1.04775
-0.346441
0.386406
-0.00495718
-0.524368
-0.853748
0.392857
-0.344852
-0.387119
1.06802
-1.47019
-0.0666547
0.940402
0.408626
-0.0579593
0.546239
1.5881
0.0516773
-0.383271
1.06842
1.60216
1.54368
0.146678
0.48068
0.914743
1.04565
0.56783
-0.220148
0.864171
0.766155
0.809607
-0.287067
1.23357
1.39417
0.22969
1.19716
0.696571
-0.0531302
0.180141
-0.223063
0.755757
-1.28548
1.34148
-0.653687
0.449876
0.510455
-0.880434
2.00463
-0.98513
-0.247498
-1.63312
0.860506
-0.975141
0.65675
-1.41711
-1.94983
-0.930824
1.30537
1.51517
0.936392
-0.97642
-0.446243
0.945435
-0.354969
-1.47977
-0.694083
-0.285069
0.514565
0.377958
-2.70761
-0.870804
-0.0527141
1.12055
-0.340554
1.58671
0.746292
-0.923369
-1.83359
0.447559
-1.01653
0.282132
0.311171
1.82247
1.3985
0.828668
1.37456
1.0217
-0.58393
-1.34026
1.38856
0.868831
0.0863991
0.102296
-0.777822
-1.95769
-0.82385
-0.902189
-0.238711
1.38022
0.464502
0.212562
0.0579346
0.13426
-1.46485
-0.517706
0.953673
1.47761
-0.718029
1.84798
0.867143
0.227733
-0.835505
-0.779111
1.33982
1.36459
0.0787219
0.584216
-1.4128
0.460221
-2.02347
0.364868
2.23382
2.09445
-1.64201
-0.701399
-1.59516
2.11754
-0.543296
-0.971669
-1.25451
-0.191631
0.860917
1.42582
0.340485
0.317401
1.54159
0.393681
-0.224893
0.273357
0.755714
-0.370025
0.469373
0.725258
-0.754106
1.97523
-0.319151
-0.474407
-1.70049
-1.03358
0.40206
0.324611
-0.171894
0.899536
0.956801
0.0570307
-0.886641
-0.12247
-1.83608
-0.744975
0.0119857
0.509764
-1.31846
-1.24055
-0.40123
0.731631
2.20916
-1.01705
-1.48376
1.30616
-0.864328
1.71808
-1.25246
-0.661447
-0.492753
0.126289
0.229247
0.00224864
0.59593
-1.42095
-0.541906
0.492077
-0.361979
1.22832
0.453315
0.992767
-0.88646
1.44497
0.938654
-1.31156
1.17586
-0.132126
0.255854
2.33687
1.17019
-2.5482
-0.897902
0.83576
1.72613
-0.732728
-1.34835
0.0518543
-0.248808
0.61008
-0.114497
-1.80115
0.174096
1.32596
0.387969
1.76245
-1.25883
-0.115326
-0.929289
1.28487
-0.376442
-0.532187
0.432287
0.165113
0.882957
0.786907
0.323051
-0.602188
0.0411936
0.143779
-1.57803
0.898847
-0.358301
-0.158605
0.142461
0.517448
0.383485
-0.246488
-0.454071
1.03676
0.487737
0.763371
1.10217
-0.358918
1.32291
-0.498366
-0.839368
1.66552
0.86408
-1.81566
-0.297604
0.00319165
0.864487
-0.709551
0.507243
1.41295
0.315498
1.31513
-0.102736
0.66982
-0.447289
-0.165851
-2.16939
-0.77961
-0.0294814
0.3976
0.4528
1.61955
1.10121
0.133269
0.695189
0.215543
-0.692051
1.35986
-0.0787343
-0.573086
-0.957275
0.241114
-1.28444
-1.11998
0.708115
0.527487
0.817204
-1.10449
-0.5571
-0.201564
0.176075
-0.740003
-0.165878
0.736964
-2.02343
1.25149
-0.176933
-2.09914
-0.287557
-1.20766
-0.0759945
1.06984
2.33888
0.357602
-0.668871
-0.334709
0.517407
1.28391
0.367426
0.804781
2.64338
-0.531866
0.193669
-0.884208
-1.99888
1.23781
0.59486
-0.554386
1.84879
-0.994649
0.483383
-0.192898
-0.944435
-0.932436
-0.578814
0.860396
-2.04654
-0.945704
-0.807959
-1.52991
0.479077
-0.193428
-0.080764
0.550097
1.09916
-1.84917
-2.07851
-0.700245
-1.5787
-1.37533
-1.62247
-0.341839
-1.30325
-1.21848
-0.70581
-0.268906
0.0590468
-1.25631
-0.501899
-1.606
-0.29676
-0.26153
0.30143
-1.16623
0.476576
0.156326
-0.615727
1.77855
0.391544
-0.100553
-0.0827721
-0.896295
0.985701
1.31759
1.58969
-0.29163
0.894311
-0.0881907
0.594583
-2.08424
0.0927284
-0.753491
-0.781256
-2.07795
-0.772218
-1.01283
-0.151612
0.037235
-1.48929
0.400333
0.419312
-0.789736
0.0966015
0.191618
-0.879763
0.871134
0.622018
-1.25818
0.431925
1.62649
0.529161
-0.741386
1.03162
-1.1171
1.42411
0.813942
-0.743878
-0.715325
0.843239
0.05479
-0.737214
0.579354
1.42819
-0.050715
1.49956
0.788484
-0.0767762
-0.381604
-0.439259
-0.385477
1.82094
-0.445163
0.736568
0.113905
-0.823942
-1.60194
0.459296
-1.54681
1.7904
-0.17103
-0.0584715
0.138459
-0.670123
-0.336691
-0.0792616
0.700696
-0.353726
1.35803
0.715015
0.83656
3.64174
-0.949694
0.865115
-0.0892333
0.977176
0.950296
1.23918
-0.442122
-1.17926
-0.931341
-1.34699
-1.9
-1.47947
-0.282326
-0.852381
0.0325439
0.692667
1.17159
0.100509
0.670692
0.421722
1.61246
-0.674716
-0.574935
0.263642
0.201083
0.492918
1.57576
1.79571
0.726567
1.82436
-0.868351
-2.11407
0.210844
1.61484
-0.297458
-0.673768
0.592769
0.981883
0.362253
-1.10344
0.197528
2.39574
-0.56236
-1.48654
-0.393925
0.682801
-0.0223505
0.455502
-0.0906225
0.0477624
0.786723
0.238624
0.399418
-0.180298
1.79342
-0.392649
-0.252845
0.625268
-0.976236
-1.04707
-1.05154
0.762752
0.504974
-1.75195
-0.29096
-1.29102
-1.24383
-1.91191
-1.1874
0.210614
0.904509
-0.195657
0.665992
1.09347
1.56627
-1.44741
1.02777
0.293913
1.10855
0.414235
1.56284
-0.124989
1.87638
2.74391
2.6642
-1.15762
0.346208
0.251434
-1.58005
-1.69525
-2.00117
0.174228
-0.323805
1.57352
1.32136
-0.424644
1.2568
-0.492367
0.158374
-0.0300605
1.12717
-0.54742
-0.726254
1.16407
-0.325017
-0.63223
0.239971
-0.369099
0.866754
-1.23427
0.525985
0.0830871
-0.314875
0.651029
-1.93535
-0.455925
-0.895508
1.08271
0.502879
0.556031
-0.381925
0.0620651
-1.2017
0.735608
-0.633208
1.34142
-0.678418
-0.998976
-1.67729
0.541795
-1.02824
0.236508
-0.00326032
0.0147602
0.0704466
-0.639355
-0.531953
-0.641248
0.390005
1.23474
0.268741
0.980918
0.983579
-0.620298
0.968741
-1.45144
1.18139
1.42529
-0.51204
0.257104
-0.768588
0.985631
0.84378
0.169078
1.35537
0.458764
0.569995
0.181924
-0.239325
0.142181
-2.04349
-1.14045
0.304477
-0.468526
1.22985
2.2236
0.521875
0.767398
-0.372567
-1.61519
-0.116703
0.475174
-1.13305
1.33867
-0.266143
0.72416
-1.28446
-1.33367
-1.42827
0.120767
0.894491
1.04525
-0.413881
-0.186151
-0.715649
-1.26545
-0.962227
-1.6903
0.255578
1.79676
-0.288313
-0.998405
-1.66302
0.0182381
-2.45863
0.729686
1.09484
-1.89923
-0.525344
0.572098
-0.835254
0.0974149
-0.182911
-2.08531
0.362002
0.171136
0.669256
-0.0126172
-0.62312
-1.85558
-0.607055
0.572959
0.0550077
0.0579853
0.957122
0.31776
-0.310817
-1.30451
-0.939886
-1.23814
2.69076
-1.00851
-0.299545
-0.795201
-2.7437
-0.21593
0.551352
0.248414
-1.85726
-0.386188
0.260168
0.148404
-0.496113
1.26894
-0.593964
0.0183453
-1.47242
0.378082
-2.3731
1.62936
0.46409
-0.295169
0.32213
0.321538
-0.619952
-1.46309
-0.0340279
0.0273472
-1.19844
-0.497058
1.57373
0.778495
-1.18626
-0.783485
0.952103
0.420526
-1.1786
0.00988762
1.32104
-0.371285
-1.22854
0.446767
-2.02295
0.993474
1.01602
0.172419
0.275762
0.462359
-0.0688683
0.182795
-0.76244
0.173163
-0.134459
0.652178
-0.728532
-0.739991
-1.05828
-0.427366
-1.44393
0.0913327
1.26026
0.721765
0.466103
-0.628384
0.221044
-0.242011
-1.4401
0.22892
1.41758
-1.48518
0.729654
-0.835118
2.38616
-0.420485
-1.61799
0.39368
-1.16272
0.234356
0.54209
-1.14966
-0.781768
-0.120671
-0.58023
-0.325626
-1.09527
0.476429
1.66718
0.582503
0.863966
0.678669
-0.118163
0.239698
-0.636957
-0.814515
0.575832
-1.07889
-0.251452
-0.372125
-0.758248
0.46784
0.00619464
2.08333
0.157782
-0.885039
2.79551
-0.368756
0.382554
0.180435
1.22771
-0.654751
1.75008
-0.782494
-1.83726
-0.840647
-0.0877412
-0.129407
0.773645
-1.4451
0.823221
1.41377
-0.159176
1.78058
-1.41767
0.409892
-1.22664
-0.528859
0.779655
0.309731
-0.443734
-0.975632
0.209103
-1.74948
0.288214
-0.315045
-0.695453
0.51037
0.095255
-0.824987
-0.429072
-0.631544
-0.0472985
1.6745
1.17763
-0.656081
0.0781553
-0.0459486
1.87381
-1.13231
1.52145
0.976058
0.771433
-1.31728
1.51589
0.565487
-0.0961243
0.384396
-1.00144
0.131965
-0.491822
1.06548
-1.12615
0.695169
-0.345051
-0.678022
0.609805
0.589533
-2.19136
1.00557
0.516231
0.19825
-0.154635
1.14432
1.82725
0.147341
-0.13932
-1.69273
-0.247709
-1.34435
-2.6414
-0.207533
0.499938
-2.48525
1.99449
0.476377
-0.0969531
-0.487233
0.150244
-0.525836
0.0486057
0.195079
0.518371
0.137316
-1.29784
-1.03562
-0.0764312
-1.02441
-0.136407
3.4247
0.820379
0.163739
-1.6476
1.5483
-0.0160828
1.29048
-0.308313
-0.778072
-0.655833
0.998451
-0.687224
-0.0807268
-0.719298
2.57276
-2.40236
-0.283192
-0.83212
0.249756
-1.255
-0.138525
-0.327464
-1.07256
0.878641
-0.0760387
-1.48958
0.584038
-1.19031
1.99933
1.39448
1.57329
1.61065
-0.503414
1.37315
-1.0096
1.34767
-1.12858
-0.0198134
-0.156133
0.246514
-1.86436
1.15565
-1.01004
-0.151927
0.354721
-1.44602
-0.419741
-0.740584
1.35392
0.93693
1.27637
-0.54684
-0.571264
1.72675
1.14662
0.0555115
-0.614139
0.107669
1.24814
0.606234
0.165173
-1.0085
-0.702359
0.362634
-0.568355
1.12973
0.707324
-1.06134
0.663284
-0.71858
-1.18052
-0.318763
0.726818
-0.646508
1.5764
-0.493448
1.09554
-1.09659
1.1178
-0.575435
1.07249
0.00168314
0.312425
1.34168
1.08219
-0.298405
1.05764
-0.135745
0.86603
0.918021
-1.09587
0.424801
1.20145
0.253622
-0.549886
-0.217489
0.724126
-0.560841
0.150399
0.446847
-0.0364053
0.478177
-1.17769
-0.17571
0.519983
0.8086
-1.33415
0.369964
-0.351951
1.46164
-0.332852
-0.441869
1.36766
0.0910495
-0.0887404
-0.136575
1.09458
-0.0179499
1.17499
0.174777
-0.289864
-1.76758
-0.5009
0.284188
0.328062
1.59918
-0.602662
-0.251036
-0.0665001
0.431754
0.191155
-0.437176
1.70629
1.32694
-0.382985
-0.0369735
0.650191
-1.88352
1.92833
-0.213455
-0.969631
-1.2878
-0.329712
1.96084
-0.766935
-0.589986
0.138111
0.577349
-0.141053
1.17866
0.534797
-0.952969
0.110051
0.635694
0.27243
-0.0390819
-0.44644
-0.642122
0.312084
0.149976
-0.263767
2.29949
1.49941
0.0487262
0.399125
0.921556
0.321406
-0.334679
0.251623
1.11897
-1.43898
-2.48082
-0.72366
2.66389
-0.0253401
-0.684269
-0.372081
0.261373
-0.303425
1.32443
0.93655
1.87633
-0.418165
-0.271636
-0.63591
-1.20051
0.914984
-0.273105
-0.45667
-0.662284
-1.21337
0.767241
0.20851
-0.11093
0.16288
0.234794
-0.0667339
-1.18518
-1.54723
1.01117
-0.641703
0.0675855
-0.764322
-0.0774743
0.224833
-0.295875
0.180104
-1.71216
-0.0445835
-0.713918
-0.956474
0.157026
1.89065
-0.916626
0.447274
0.10044
-1.64252
0.237351
-0.0731313
0.0104981
1.59284
-0.0428011
1.19226
-0.875752
-0.346324
0.451043
-0.0187289
-1.3816
-1.97715
1.33991
0.508206
-0.367566
2.1088
1.72516
-1.10592
-0.119608
2.69157
0.514313
0.23523
-0.668169
-0.169581
0.831468
-1.59006
-0.0938069
-1.3433
1.31029
-0.516526
-1.92092
0.891665
-0.0563994
-0.219413
-0.777652
0.174443
-2.28556
1.94826
-0.31659
-0.622517
2.3377
0.339656
-0.14334
0.412342
0.109244
1.03312
1.24367
1.12479
-0.836258
-1.31394
-0.227222
-1.09304
-0.418014
0.0652046
-1.10682
-1.1995
-1.23599
-0.430518
-0.642054
1.28826
-2.70235
-0.98767
-0.853633
1.29832
-1.21191
0.790207
1.34322
-0.451128
0.0135956
0.109256
-0.33562
-0.471164
0.775345
-0.224785
-0.305788
-1.11269
2.07139
0.841587
0.0588298
-2.26542
-1.47091
1.28545
-0.126188
0.364046
1.44026
-0.312263
-1.99242
-2.12738
-0.642369
-1.66953
-0.934376
1.35219
-0.451566
1.24904
0.52182
-0.495004
-0.117513
-0.402757
0.510874
-0.98481
1.80245
-0.0994844
-1.42816
-0.412209
-0.419585
-1.29046
-0.0521378
-0.366825
0.450658
-0.0900638
-0.666157
-1.04649
-2.05726
-0.877647
0.825682
0.101428
-1.29659
0.312907
0.610592
-0.362564
-0.138122
-0.552324
0.0751065
-0.286652
-1.90683
-1.1986
-0.046311
1.2285
-0.845176
0.026918
-0.198558
-0.921681
-0.337428
-0.103745
0.440811
-0.113944
-0.600956
-1.05755
0.854019
-0.0175539
0.743237
-0.882598
-0.311468
0.294401
-0.558251
-0.103418
-0.386173
1.77792
0.221529
0.246783
0.258565
-0.941161
-1.1971
0.32571
-1.12097
0.234728
-0.210047
-0.163629
0.172204
0.0487968
1.38573
-0.549819
0.377291
-0.708844
0.494129
-0.516919
-1.307
0.0108591
0.714757
0.319886
-0.659712
-1.71199
0.251897
0.111469
-0.682941
1.43461
1.09259
0.171567
-1.00811
-1.30173
0.374595
-0.518938
0.0324157
-2.54276
-2.00831
-0.386807
-0.536425
-1.57242
0.672279
-0.109746
1.25938
0.123143
-1.14789
-0.737898
0.263594
-0.954854
0.203739
1.54397
0.340222
-0.364361
-2.23755
0.987957
0.825263
-0.182738
1.67327
-1.56105
0.348571
-0.0235261
-0.28041
-1.3681
-0.454362
0.27224
1.19021
0.121796
0.617098
1.38259
-0.0894372
-0.303591
-0.553707
-1.62898
0.335474
-0.658454
0.364363
0.249929
-0.821109
0.0854923
0.399582
-0.397183
0.817381
0.262907
1.6709
1.23372
0.400841
-0.626778
0.311481
-0.665379
0.292923
-0.0106012
0.954111
0.356322
-1.61088
1.09377
0.109342
-2.01596
0.227301
-0.347533
1.14152
-0.302827
1.67973
0.611602
-0.944493
0.219723
-0.602215
0.0451967
1.26231
2.71022
1.02862
0.578187
-0.694107
-0.201268
-0.881487
-1.68906
-0.504844
-0.833819
-0.240417
-0.347884
0.179933
-0.374198
-1.15262
0.110029
-0.454399
1.3938
0.961518
-1.26341
1.1757
0.861819
-0.0744526
0.66147
-0.698143
0.0102934
0.445151
0.711047
-0.529267
-0.312558
1.21699
0.140211
0.604055
1.89895
0.708842
-1.39841
1.68675
0.295593
-0.368014
0.921808
-1.60765
0.719119
-0.435023
-0.590057
1.9516
0.610674
0.624124
0.365875
-0.447811
0.596267
1.55852
0.0811706
1.05234
0.0471082
-0.0813975
0.59565
2.11704
-1.22421
0.141912
1.90335
-1.11742
-1.29055
-0.506589
0.55706
-1.20504
0.452968
-0.723916
0.66333
-0.289132
0.517856
0.740647
0.85801
0.530588
0.766165
0.783181
-0.823273
0.428207
-0.924747
2.14133
-0.666156
0.299005
1.79601
-1.00925
1.71807
1.28654
0.597808
0.00156888
0.823146
0.569592
0.256167
-0.2395
-0.385077
-1.09365
0.883258
-1.83575
0.292954
0.0755335
0.268279
1.07184
1.2367
3.45254
-0.860516
-0.333461
0.917274
-0.122708
0.665697
-0.752246
0.174016
0.44507
1.49729
-0.590142
0.134857
-0.335884
0.35338
0.460123
0.480829
1.87215
0.780857
2.0222
-1.82
1.20506
-0.268438
0.156127
-0.898342
-0.480036
-0.621421
1.98112
0.0292149
1.03377
0.0520146
-1.9566
0.458676
-0.606475
-0.781032
-0.855805
0.397026
-0.863387
-0.268631
-1.67247
0.858591
-0.143134
-0.729244
-0.610436
-0.438747
-0.670103
-0.897645
2.53479
0.0403082
0.42485
0.722318
-0.492385
0.514007
-0.150817
1.01682
-2.57654
-0.667741
0.27287
-0.323494
-1.40657
1.20561
-0.974432
1.63513
-0.460942
-1.15563
0.102673
0.664789
-1.05687
0.648048
1.36571
-1.10987
-1.23418
0.164843
-0.193848
-0.339631
-0.60839
-0.668802
-0.346473
0.181858
0.985999
0.142487
-1.14935
1.70912
0.161674
0.186787
0.682795
-0.417447
-1.12267
-0.214195
-0.18691
1.14988
-0.808367
0.407355
-0.780594
0.655562
-0.137203
1.50231
-0.464916
0.257232
-0.518873
-1.1331
-0.31551
-0.148473
0.611875
-1.11425
0.438068
0.357258
-0.63286
0.587933
-0.361449
1.28945
0.00796638
1.18209
0.367299
0.88144
0.0595978
-0.956529
0.407121
0.278973
-0.859843
-0.404938
-1.90854
0.773569
-0.512776
0.472502
-0.645607
-0.24504
-0.917933
0.686587
-1.5609
-0.489047
0.257735
1.10215
-0.112813
-0.69914
-0.267054
1.66485
-0.780419
1.01984
-0.675431
0.00587097
0.408827
0.0339152
0.639416
-0.477467
0.350107
0.141694
0.336307
0.527966
-1.68848
0.166795
3.47971
0.744094
1.89398
-0.331762
-1.33568
-1.06984
-1.36547
-1.47349
1.38175
0.22633
-0.694772
-0.0469108
1.01804
-0.940028
0.597618
-1.39189
-0.742885
0.602357
0.141745
-0.429498
-0.608028
-0.992108
0.650298
-1.25953
-0.00280966
0.948606
-0.532917
-1.10985
0.646885
0.0601315
-0.533863
1.51553
2.18257
-1.14909
0.59572
-1.38862
-1.52275
0.478531
0.923506
-0.639831
0.565531
-1.00063
1.53068
0.836425
-0.18552
0.087299
-1.20471
-0.344072
-0.192853
0.782438
-1.80713
0.810399
1.99322
0.998031
0.0501152
0.0532411
-1.13277
0.540245
0.217937
-0.479754
-0.874107
-0.51142
-1.22319
0.73164
0.568217
0.708113
-1.155
1.00102
-1.269
0.426596
-0.235472
-0.21897
-0.758843
0.48962
1.63752
1.19542
-1.35903
0.42165
-0.74348
-0.0624752
0.815363
-1.01883
2.85998
-1.49813
0.672683
0.715068
-0.801176
0.0121264
-0.839269
-0.176117
0.912994
0.457034
1.7547
0.186795
-0.972872
-1.188
1.02759
-0.700548
-0.168279
0.525584
0.111658
-0.112731
-1.45879
0.352835
0.59997
0.852509
-0.942128
1.75602
0.265269
-0.44049
0.490844
-0.835305
0.613871
-0.082929
0.845571
0.436227
-0.491903
-0.825481
1.13087
0.0373405
-2.03387
0.124485
1.95377
-2.00574
0.136737
-2.06784
0.0421358
0.699575
-0.198631
0.124965
-1.26832
-0.164231
-1.22813
0.1749
-0.583389
0.0362381
-0.638571
1.15032
0.223064
0.202244
-2.26952
0.66423
0.169986
-0.605417
-0.672721
0.544602
-0.123626
-0.099704
-0.757388
0.88969
-0.669712
-0.113629
-0.652798
-2.01993
0.00905491
-1.2822
-0.389211
0.541573
-1.27175
0.370535
-0.610351
-0.444463
-0.925086
-0.734591
2.38574
-0.211073
-0.813044
1.68429
0.915322
-1.35732
0.494959
0.772275
-1.01736
-0.481865
-1.13204
-1.14972
0.930987
0.208405
-0.832586
0.0697494
1.96104
1.33048
-0.814192
-0.567845
0.965341
-0.691156
-0.965798
-0.0932077
0.0843717
-1.77216
1.15802
1.1532
1.40656
-0.0442966
0.598556
-1.00071
-0.333594
-0.418061
0.453043
-0.724144
-2.25883
0.650582
-0.388469
-0.183261
1.72838
0.0605704
1.09326
0.552496
1.29842
-1.38636
-2.27548
-0.352085
0.543379
-0.0238818
-1.63008
0.370975
-1.60701
0.00353905
0.412177
-0.662258
-0.0401624
-0.865302
0.257028
-1.37327
0.263078
-0.658826
1.54464
0.574179
-0.660827
0.740047
1.96881
0.880247
-0.790057
-1.72486
0.0120996
0.70383
-1.40433
0.51418
0.141706
0.489641
-2.07109
-1.45638
-1.22252
-1.06856
1.89693
-0.272411
0.480644
-0.977091
0.270855
-0.0552314
0.418465
-1.28951
0.635133
1.14156
-0.110141
-2.70584
-0.325047
0.803806
-2.10068
-1.3074
0.446154
0.558128
2.26371
-0.0271644
0.166668
0.463868
-1.85801
-0.539671
0.112912
-0.326009
0.626203
-0.178494
-0.0849455
0.622348
-1.36961
-0.187514
-1.87463
-0.541516
-1.11329
0.424039
0.640005
0.962675
-0.136883
-0.447833
-1.04484
-0.851071
0.764226
-0.384179
1.26757
0.359877
-1.31767
0.10087
-1.24428
2.24717
-0.0314092
-0.0985654
-0.79917
0.331389
0.221939
-1.51812
1.06255
0.95646
1.23005
-2.7142
-1.6244
-0.237209
1.06266
1.28201
-0.787608
-1.18728
-0.750144
0.192808
-0.094706
1.1613
0.578479
1.14233
-1.21723
-0.673168
1.0948
0.841952
-0.226827
0.0820377
2.19969
-0.186799
-0.585486
0.208044
0.0294875
-0.523736
0.634183
0.621961
2.16265
2.108
0.340123
-0.716474
-1.49125
1.46944
-2.57525
0.194391
0.568459
1.18553
-0.717618
1.43613
1.0162
0.353733
-0.656819
-1.30057
0.527315
-0.237293
-1.22471
0.171638
0.664263
-0.161506
-0.59613
-0.490945
-1.42501
1.02071
-1.14281
-0.913157
-1.0577
-0.675002
-0.956962
-1.30494
0.546124
-1.70498
-0.0438546
0.888827
-0.26238
-0.620471
-0.85621
0.766532
-0.100066
1.90263
0.146507
-1.06551
-0.145495
0.391387
-0.443634
0.521947
0.494863
0.812709
0.997934
0.902101
1.19169
0.0567467
0.14824
1.43883
-0.680437
2.08776
-2.12595
-0.116582
0.617843
-3.17392
-1.41273
-2.01971
-0.793168
-0.516419
-0.792069
-1.72867
2.03147
0.40393
0.473835
-0.189004
-0.497846
-0.20047
-1.76701
1.11917
-0.846608
-0.0409307
-1.95217
0.512491
1.20779
-0.751774
-0.155004
-0.357384
1.12676
0.305476
-0.819011
-0.36121
-0.345516
-0.933572
-1.08309
1.27925
-0.199238
1.83195
-1.13212
0.266305
1.35276
0.568473
-1.33555
-1.42069
0.519459
1.6183
-1.71599
0.417088
0.345799
-0.587521
-0.270479
-1.2356
-1.95821
-0.71434
-0.3076
-0.529806
1.01045
-0.714349
1.9726
-1.14513
-0.131771
0.151624
-1.49391
0.433353
0.724383
0.795359
-0.131453
-0.347423
0.405246
-0.229577
0.856945
-0.100674
-1.1116
0.229047
0.727766
1.03106
-0.544859
-0.805736
-2.23661
-0.866869
0.564364
1.91247
-0.0900065
0.932948
-0.333468
-0.363138
2.69176
-0.585418
-0.933076
-0.381891
-0.777415
1.28593
0.250209
1.19672
-1.16454
0.183926
2.40061
-0.820672
-0.30435
0.283712
1.51971
0.857062
-1.68789
0.583251
-0.863026
0.501033
-1.3189
-1.10113
0.648113
0.509872
-1.45458
-1.33196
1.4864
-1.93352
0.184805
0.428168
0.188515
0.874051
-0.140994
-1.8055
-1.02236
-0.653615
-0.273585
-0.421535
-0.441713
0.622015
-0.914025
-0.14315
-0.518933
-0.0370214
-0.490557
-0.416393
-0.433698
1.53629
0.125241
-2.11956
1.61841
-0.71434
-1.12334
-0.928809
0.040622
-0.382331
-1.16614
0.236968
0.569623
-0.0330818
-1.79886
-1.89428
-0.498963
-0.535069
-0.0642609
1.33746
0.147382
-2.46501
-0.0441571
0.831985
-0.427035
-0.639117
-1.45629
-0.70226
0.981826
0.0277492
0.198906
0.124054
-0.539791
-1.80071
0.779871
-0.0752397
1.51405
-1.66556
1.04804
0.30882
-0.147778
-1.48207
2.19835
-0.954746
1.76898
-1.63184
-0.0399732
-1.25816
0.192774
2.03659
0.324285
0.361497
0.0139812
-1.06768
-0.919654
0.640041
-2.72537
2.23468
-1.4758
0.683229
0.202158
0.701957
1.68442
0.5086
0.505271
0.507703
-0.105999
0.557112
-0.774735
1.34397
1.1846
-0.442044
2.22221
-0.0383042
-0.64945
0.42959
0.0788803
0.977466
-0.268716
-2.024
0.249622
-1.53967
0.505456
0.170836
0.863127
-0.0223481
0.3992
0.569227
-0.03801
-0.632648
1.1115
0.827916
0.800041
-1.2488
-0.4206
-0.463381
0.794036
0.323729
-0.760861
0.529128
-0.499265
1.54335
-0.535196
-2.36722
-1.12444
-0.624681
0.48885
0.838831
-2.04508
0.38346
-0.566448
0.810925
-1.23314
0.796542
1.33846
0.873003
-0.36845
0.298499
-2.22209
1.03646
2.17196
1.45726
1.36964
0.641331
1.40226
0.831354
0.0139805
-0.521951
-1.49763
-2.02256
-1.88685
0.275971
1.69692
1.64951
-0.461646
0.856005
-0.471804
0.251042
-0.365263
0.0649138
-0.244845
-0.414274
-0.839928
0.647721
-0.801543
0.0178527
0.863409
-0.582979
0.312638
-1.09598
-0.287432
-1.08244
0.0746839
-0.351126
-2.83378
1.91504
-0.892414
-0.630614
2.68594
1.24362
-2.27392
-1.05688
-1.85481
-1.35699
-0.595892
-1.40368
-1.26284
1.47452
0.803324
1.62711
0.020609
-0.666805
2.01916
1.07254
-0.0547904
-1.13519
-0.527414
-0.907189
0.434932
-1.21874
1.49886
0.106287
0.221913
0.424619
0.386016
0.780221
-0.696292
-0.648301
-0.885477
-0.523922
0.685362
-1.70266
-1.24425
-1.57578
-0.45419
0.659564
0.542874
2.00295
0.844534
0.577516
-0.00482263
1.93579
0.0634072
1.90604
-0.961344
0.315257
-1.93646
0.63899
0.656337
1.10302
0.395033
-0.573944
-1.62316
-2.98062
-0.520723
1.01338
0.919229
0.99998
-0.365465
-0.0548075
0.81096
0.447256
-1.53539
2.18376
-0.345042
-1.14369
0.427726
-0.267804
1.38888
-0.115939
0.37667
1.20962
-0.90357
0.343393
0.178651
0.776575
0.64468
0.526782
0.807728
-1.13381
0.038174
-2.22907
1.07622
-0.900659
1.53333
-0.438397
-1.68371
-0.129291
0.8017
-0.318448
0.568604
-0.622613
-0.00865818
0.193527
0.115574
1.12642
0.186638
-2.26136
0.632553
-1.66016
0.552714
1.06729
-0.341312
0.805343
0.831422
1.01505
-0.47567
-0.444259
0.342537
-0.114487
-0.432069
-0.305161
-0.808411
-1.09959
2.38864
-1.33867
-0.0720917
0.132645
-0.942084
-0.773454
0.643658
0.568621
1.28037
0.914342
-1.34573
-0.832398
0.00659771
-0.483773
-1.07135
-1.17662
-1.00037
0.821825
-0.176433
0.654822
-0.942518
0.804829
0.247112
1.31226
-0.866228
-1.52059
-0.580117
-0.613408
0.837755
-1.24371
0.732932
0.947916
0.390631
-0.622888
0.0723234
-0.783119
-0.778708
-1.33485
0.774602
-1.19561
-0.64835
-2.05365
-0.246355
0.880772
1.18423
0.263608
-0.742648
-0.0797486
-0.996448
1.56244
-0.632029
-0.117022
-0.676916
-0.138246
-0.621034
-0.146866
-0.685561
-1.09184
0.916818
0.729864
-1.87176
1.04411
-1.21245
-0.181619
-1.47025
0.883115
0.0681653
-1.10181
1.06639
-0.830588
-0.651675
0.200129
-1.21971
0.176791
-1.30821
1.53369
-0.998998
0.818512
-0.0766517
-1.32648
0.119512
1.02147
-0.0713764
0.633174
0.779646
1.89003
0.858827
0.129978
-0.00090863
-2.61343
0.330289
-0.425858
-0.909607
1.92533
1.72376
-0.0424224
0.157605
0.138083
1.34578
1.80211
0.492934
-0.21523
3.51553
1.21879
-0.132851
-0.943031
0.263799
1.00716
-0.423855
1.75914
-0.668577
0.660993
1.20622
0.257851
0.191594
-0.779523
2.14842
-0.303069
0.684313
-0.446321
0.075663
0.827123
-0.208537
-3.10557
1.17913
0.128765
1.78618
-0.756697
0.300522
-0.0155282
-1.62102
-0.45002
1.1918
-0.121352
0.626672
-0.32542
-0.426575
-0.652855
1.05102
-0.400779
0.0516634
1.11623
0.926175
-0.530965
-0.17388
0.47573
0.775572
-1.32497
-0.160338
1.1043
0.469701
0.88413
-2.7477
-0.413225
0.343305
0.170734
-0.4531
1.52772
0.643401
2.7932
-0.271435
0.769386
-0.328058
1.63251
-0.432598
-0.534428
0.0443798
1.00981
0.191442
0.815117
0.158998
-0.753012
1.69867
0.18129
0.71048
0.742936
-0.374053
0.737373
-1.21081
1.37043
0.241953
0.642176
-0.864238
0.882474
1.41403
0.00298786
-1.61946
1.23199
-0.0738914
0.359846
0.219767
1.95026
0.108412
-0.379409
-0.855123
-0.46432
-0.197748
0.174841
-0.144732
0.548023
-0.480116
0.332062
1.53294
1.05955
-0.440146
0.625861
-0.026385
-0.190905
-0.0248727
1.3552
-1.27772
-2.53881
0.896904
1.03701
0.489279
1.32306
1.16228
-0.55011
-0.433529
0.0235488
-0.987155
0.164388
2.3263
-1.24458
0.189803
0.796633
-0.288442
0.630222
-1.025
0.111703
-0.13147
-1.38075
-0.0194263
-1.21112
-2.24301
0.104931
-0.337514
1.06237
0.08087
-0.744499
1.82459
1.32632
-0.358681
0.353736
0.923268
-1.51731
-1.20918
-0.145923
0.629038
-1.43527
-0.574227
1.41538
0.276361
1.75434
0.448154
0.730149
-0.297781
-1.78073
-0.106269
-1.20823
0.0876427
2.30434
1.08143
1.63713
-0.489488
1.26671
1.57364
-1.03994
0.187254
0.207233
1.68992
-0.573901
-1.37025
0.176869
-0.253289
-0.989891
1.14564
-0.687306
-0.110814
-1.14959
1.45875
-1.27634
-0.145211
0.303382
-0.419437
1.14772
-0.126437
-1.48522
-0.979374
-0.90917
1.76362
0.707111
-1.15592
0.705178
-2.32674
-0.0206634
0.188246
0.342419
0.183628
0.704194
-1.23746
1.14989
0.555108
-1.08975
1.12675
0.545924
-1.10417
1.00005
-1.36779
0.180148
0.119159
-1.69558
-1.16962
-0.247196
0.0885886
-1.84722
-0.691015
-1.02694
-0.406391
-0.722205
-1.90701
1.07629
1.22801
0.56247
-0.81256
0.669113
0.124897
-0.919081
-1.1923
0.756788
-0.332864
-0.161077
-1.21712
-0.789883
-0.682824
-0.184218
-2.12291
-2.03692
-0.900016
-1.52693
-1.91211
-2.17798
1.09499
0.761605
0.633764
1.61269
1.37727
0.522287
0.825211
-0.143737
2.26051
-0.6942
1.01624
0.766107
0.189845
1.84352
-0.129309
1.29523
-1.71428
0.0995022
0.224865
0.664316
-0.613903
-1.43239
1.40108
-0.73448
-0.0480354
-1.29815
-1.0703
-0.826613
-0.64934
-2.87295
1.0561
0.494795
0.160207
1.10508
0.0663874
-1.56106
-1.60472
0.260743
-0.363092
0.49924
1.41033
0.0605423
1.39347
0.91931
-1.02444
-0.850903
0.753721
0.113295
1.29769
-0.70157
-0.335092
-0.0409684
-0.333376
-0.344264
-0.677141
-1.32528
0.734896
1.57201
1.31659
0.616794
1.73207
0.345419
1.68337
0.912722
0.541286
1.85437
-2.1581
-0.273146
0.993431
-0.801895
-0.00948185
-0.669182
-0.145983
0.407357
0.569219
0.873646
0.435463
0.3762
-0.504961
-0.711119
-0.308523
1.23745
-1.60112
0.363156
-1.41213
-0.892302
0.711961
0.216529
-0.264426
-0.408042
1.04547
-0.519153
-1.51786
1.34357
-0.955366
0.929037
-0.28512
-0.504864
0.0626074
0.513696
0.721378
-0.248461
0.73826
-0.440661
-0.282443
-0.449773
-0.764521
0.332646
1.15421
-1.65394
-0.561208
-1.03834
0.470107
0.883332
0.721116
0.403768
-0.45843
1.7681
-0.535185
-0.0957262
-0.651956
0.526754
0.0884688
1.46798
1.10762
-0.870369
0.493865
-0.0458922
-1.9431
0.410174
0.387183
1.19707
-0.711625
0.335383
0.304055
-1.36499
-0.165898
-1.90097
0.265793
0.269963
-0.101963
0.778659
0.439248
-0.495212
0.246465
0.178724
-0.497758
1.11249
-1.28168
0.423593
0.0740114
-2.16336
0.779391
0.0607849
0.226406
0.851226
0.98233
1.21282
1.03685
0.234445
2.06923
1.15357
-0.619222
0.284977
-0.75894
1.58295
0.11303
0.455163
-1.21745
-0.882049
-2.25168
-0.904114
-1.22201
-2.6356
1.32379
0.644315
-0.540033
-0.526169
-1.08223
0.0617267
0.344191
0.8509
-0.0116788
1.13291
-0.150025
0.52083
-0.458601
0.00545475
1.23986
0.471774
1.08443
1.67981
-0.842907
1.27126
0.0202636
0.651623
1.57786
0.514528
-0.635419
0.510023
1.23538
0.202774
0.241835
-0.485438
1.76412
-0.188596
-1.52017
0.300874
1.79687
0.228399
-0.40006
1.64109
0.0548381
0.384712
0.703088
-0.635853
1.07123
1.85886
0.377832
-0.438919
1.38462
0.130316
-1.09372
2.18789
0.349629
-0.170729
1.38631
0.0565131
0.552952
0.756391
0.543015
1.90244
-0.438645
0.908079
0.0912721
-1.25007
0.219246
-1.23149
-0.318915
1.24537
-0.306537
1.38479
0.00483919
1.38264
-0.949566
0.28534
0.253167
0.258673
0.801033
-0.105304
-0.687249
-0.41706
0.670804
0.503409
0.799884
1.13848
-0.417021
1.41435
1.45116
0.598297
0.565637
0.79375
-1.35621
-0.705841
-0.0291928
-0.675011
1.27367
-1.02251
-1.39002
-1.60727
-1.11746
0.829747
0.518145
-1.4989
1.03638
1.51011
-1.84175
0.138219
-1.39157
-1.12163
1.42835
-0.672434
-0.00779576
0.821567
0.535343
0.77943
-1.46317
-0.912104
-1.84288
1.10415
0.584396
-0.441993
0.121855
0.569894
1.24568
-0.501615
0.936596
-0.681316
0.167086
0.331349
0.676804
0.783073
-3.58617
-0.0808916
1.35844
-0.882352
1.63035
-0.980352
-0.603904
0.992809
0.391817
0.660951
0.484775
2.05828
-0.847635
-0.793139
-0.686052
-1.45555
0.945331
-0.171027
0.981231
0.0350484
-1.43704
2.02305
-0.197326
0.684169
0.333536
-0.883038
-1.12448
-0.640649
0.622756
-0.364281
1.03475
-0.16853
1.70037
0.889562
-0.372802
-0.642013
-1.3167
-0.696564
-2.43326
-1.00601
-0.147348
-2.0651
-0.162037
0.581366
-0.38097
-1.20405
2.33822
0.415408
0.412081
-0.207348
0.490336
0.133098
-0.20955
-0.684023
0.134539
1.18604
-1.09815
-1.16839
-0.667375
-1.17926
0.240194
-1.98288
-0.845597
0.273724
-1.20742
-1.04315
-0.130632
1.42051
1.71
0.49801
0.025744
-0.750702
1.54028
-0.364991
-0.269704
0.452684
-0.156896
-2.18093
-0.365456
-0.201214
2.17939
-0.563853
0.271766
-1.30264
0.739605
0.20657
0.318119
-0.110181
0.714947
-1.65975
0.383059
-0.822841
1.12982
-0.659541
1.28534
-1.33819
-0.493099
-1.17926
-0.213132
0.0716352
1.14737
-2.06993
0.246311
-2.65027
-1.3236
-0.13694
-0.387534
1.18238
-0.86096
0.40489
1.06846
1.80595
-2.40344
-0.336171
-0.931881
-0.46819
0.886176
0.419763
-1.4193
-0.195304
0.195051
0.242391
0.52907
-0.514687
0.168263
0.35984
-2.01224
0.1812
-0.0342316
0.248741
-0.469336
0.503757
-1.69394
-0.865587
0.046473
1.45021
-0.435049
-2.04389
0.537904
-0.726505
-0.174227
-0.709909
-0.299574
1.74461
-1.63486
-0.881847
-1.04392
0.858458
-0.402417
-0.660483
-0.310964
0.479164
-0.61471
0.710623
0.567648
-0.970006
-0.512266
-1.45455
-0.282959
0.26048
0.862548
-1.49286
0.0701133
0.606809
1.22323
1.22039
-0.232472
1.6277
1.7266
-1.91568
0.0217211
2.00307
0.641119
-0.762063
1.26073
-1.00434
-0.741931
0.807875
-1.62026
0.270611
0.795089
-1.08674
1.57684
-0.742892
-0.0150949
2.69837
-1.79425
-1.10193
1.80203
-0.335649
0.184428
-0.676112
1.45598
-0.616586
0.941623
1.38741
1.47962
-0.163917
0.455301
0.294009
-0.983453
0.619428
0.337614
0.340627
1.0982
0.211658
0.0186802
-0.346231
0.149753
-1.65484
-0.540245
-0.0531769
0.11124
0.509424
2.20681
-1.74461
-0.801277
-0.578863
0.416222
-1.73671
1.631
0.662813
1.49265
1.06571
-0.0309104
-0.167051
-1.31791
-0.997924
-0.481429
0.267472
-0.408167
-0.226708
-1.70226
-0.332403
-0.87878
-2.04696
-0.167831
0.741707
1.40402
-0.244617
-0.59119
2.23035
-1.1716
-0.172232
1.33131
0.292443
-1.023
0.532627
0.0135139
0.85753
-1.07757
-2.52007
1.40845
-0.798503
1.77392
1.28273
0.716293
-0.617554
-0.950986
0.726419
1.40863
0.988671
-1.77464
0.293079
-0.487352
1.47485
-1.44007
-0.289631
-0.153157
1.99967
-1.10409
-0.388242
0.153993
-0.854184
0.653604
1.07207
-0.0395702
1.51082
-0.827971
-0.473493
-1.22703
0.996182
-0.402173
0.774138
1.66493
-0.515602
-2.42002
-1.16525
-0.0802881
2.04248
1.5699
-1.07995
0.19864
-1.11738
-0.918839
1.38539
0.374353
0.0333413
-1.18466
2.42358
-0.494291
-0.803866
0.916468
-0.612484
-1.55353
-0.337531
0.972247
1.95924
0.245
1.68641
-1.82891
-0.0322355
-0.843889
1.66729
2.38236
0.290289
-0.0377125
1.041
-1.74987
-0.43036
1.41909
-0.0723199
-0.510433
-0.194486
0.554118
1.14424
0.842357
0.658325
-1.05663
-0.437068
1.76843
-0.393941
0.808955
-1.00432
-0.714218
-1.7532
-0.205595
0.795865
-0.51358
-0.412301
-0.262794
-0.688093
-0.248892
-0.0750132
-1.22534
-1.31837
-0.684371
1.6012
-0.129616
-0.074363
-2.05801
1.36103
-0.187914
-1.49982
0.802803
1.40072
0.216134
-0.615806
-0.904926
-0.627174
0.936963
1.24903
0.355275
-2.5212
1.16272
-1.17861
-0.435501
0.0947964
-2.02957
0.216294
0.640285
1.03645
0.721137
-0.169995
0.806428
1.39826
-0.0821627
-0.544983
-1.39194
1.76637
-2.19196
0.763893
0.627187
1.15498
0.696225
-0.625434
0.718534
-1.38026
0.869546
-1.46486
-0.211805
0.663952
-1.11148
0.15655
-1.02876
-0.485206
-0.854255
-0.830824
-0.835141
-0.252509
-1.01509
0.577669
0.761191
0.429049
0.366243
-1.15662
-1.00858
1.00971
-0.148353
-2.53248
-0.466767
-2.39265
-1.57866
-0.0250276
-0.674584
0.673754
0.355372
-1.14023
0.661343
0.559326
-0.696049
0.518679
-0.809562
-2.22803
-1.01362
0.827351
0.17288
-0.829528
-0.260792
0.0717565
-1.1066
-0.483819
-0.942816
-0.237465
0.0173303
1.36897
0.724159
-0.249086
0.781936
-0.183531
1.25369
-0.105198
-0.719245
-0.5783
-0.664571
-1.11327
0.638507
1.02758
-0.358786
0.61078
-0.326188
0.0366302
-0.650844
-0.355676
0.431253
-0.654835
-0.873449
-0.289542
-0.116813
0.404682
-1.99389
0.631322
0.199407
-0.0148887
-0.365288
-1.31213
0.0619071
0.404181
-0.992452
0.168922
1.70949
-0.483831
0.566328
1.35413
2.19294
-0.431501
2.64099
-0.313983
0.0694905
0.766064
-1.15452
-0.117213
-1.67845
-0.434906
0.390533
0.618471
-0.440902
-2.28833
-0.0548189
0.341088
2.02687
1.02775
-0.58923
0.146522
-0.479651
0.538015
0.193208
-0.507942
0.180118
-1.85672
0.620851
0.320674
1.71886
1.03981
0.153799
2.21485
-0.540016
1.28939
-0.170576
-0.462485
-0.952582
0.151112
-1.08749
-0.760473
-0.133834
1.22994
-1.05779
-0.691445
0.367187
0.552108
-0.651297
0.873278
0.510247
-0.819207
-0.0185948
-1.44425
1.25163
0.155767
-0.941341
-0.307074
0.586637
-0.947258
-0.600284
0.759886
1.06564
-0.334529
-0.351257
-0.300003
-0.68456
0.723471
0.61575
-1.40324
-0.115687
0.384599
1.6971
-1.14945
-0.660241
-0.676176
-0.205966
0.546752
-1.49384
-0.22084
-0.0953049
0.383683
-0.702926
1.5084
-0.685341
1.49193
0.244874
1.20753
0.201534
0.0181145
0.613584
0.0749067
-0.13562
-1.59684
0.213303
0.344222
1.57102
-1.43619
-0.770548
0.210443
-0.775656
0.864639
-0.632573
1.16398
0.469059
0.5019
-0.320444
1.31501
-1.08592
-0.685303
-1.49579
0.724394
0.0932302
1.1632
2.11814
-0.00189463
0.573262
-0.741413
-0.109097
-1.24946
0.970728
0.0307469
0.271589
-1.43732
-0.861496
-0.364309
0.675838
1.26868
-0.156595
-1.41729
-0.385193
0.026212
1.50605
-0.000575377
-0.425324
1.96934
1.33248
-0.663455
-1.05255
1.09388
-0.127814
-0.156163
0.522068
0.356381
0.10905
0.673554
0.367519
0.762903
-0.0537535
-0.743366
0.905666
1.0769
0.305437
0.136595
-0.131209
0.33399
-1.19106
0.346761
1.49223
0.145258
-1.0831
-0.0236138
-0.290642
-0.532444
-0.384686
0.350108
-0.344797
-1.03037
1.22059
0.00297009
-0.374314
-0.728769
0.0615266
-1.54079
-2.30511
0.0193157
0.475801
1.22788
1.21561
0.780258
-0.183629
0.708919
0.447413
-0.199987
-1.42997
-0.624609
1.96801
0.525628
-0.874898
0.701299
0.242558
0.142848
1.34054
1.51691
1.66037
-0.961533
0.0918446
-0.584759
-0.877602
0.0791863
1.82998
1.74593
1.70151
-0.0527715
0.387787
2.83452
-0.0348539
-1.13575
0.202103
-0.230836
0.884873
0.739737
0.425987
-0.42763
0.926848
-1.09415
-0.957561
0.395753
0.550814
0.276085
-0.0169785
-0.389164
-2.27723
-1.16158
0.66894
1.4774
2.76642
-2.23282
-1.79207
1.54443
-0.0870295
0.236487
-0.468495
1.72291
-1.72656
-0.279687
0.946857
-0.226566
0.0272691
0.24543
1.3273
0.959391
1.12793
-1.14598
0.382551
0.678653
-0.496993
0.0300634
1.64755
1.79268
-0.672096
-0.552395
-0.89924
-0.386161
0.483322
0.171372
-0.0917863
-2.49455
-1.15354
-0.142258
-0.100607
1.49472
-0.988514
1.09211
-0.837288
2.37662
1.15073
0.200901
0.0826783
-0.073091
-1.40356
1.38222
1.09897
0.817861
-2.06658
-0.0947377
0.514934
-0.318104
-1.18668
-0.016179
0.0977202
0.822753
0.186354
0.338297
1.22793
1.23028
0.481523
-0.126053
0.79312
-0.245252
2.41028
-0.0796789
1.09937
0.118621
-1.54227
1.23878
-1.05652
-0.933194
-0.940017
0.144193
-0.359156
-0.47641
-0.728031
-0.469114
-0.347494
-0.741777
-2.23827
0.272133
-1.07208
-0.0224725
1.43385
-0.525084
1.16136
0.0547629
0.707962
1.85768
-2.435
-0.398584
-0.137501
0.381122
0.422745
-0.275455
0.973669
-1.89624
0.668177
0.386972
0.439144
1.2114
-0.356076
-0.6326
0.0813492
1.5965
0.388117
1.31518
0.049848
0.487958
0.535183
0.175527
0.212083
0.996774
-0.0915945
-0.180335
-0.912965
1.86962
-0.0557029
-0.545259
-0.172638
-0.114036
-0.977965
0.981979
0.452224
-0.252986
0.0532665
1.7007
1.11151
1.46912
0.0663243
0.217776
0.0965779
0.397505
0.747028
-0.000930161
2.53258
-1.53522
-1.2446
-0.505233
0.5224
-0.196144
-1.33584
0.692016
-0.143599
-0.197453
0.827029
-1.17309
0.0789012
-0.129423
-1.13187
-0.368198
1.28705
0.0941697
0.637285
0.353638
