0.296062
1.16444
0.35347
-0.900187
1.75746
-1.15371
-0.0332882
0.0829695
0.0542152
1.13705
0.944934
0.210732
-1.43761
-0.0467464
-0.681871
-0.714083
-0.620052
1.33032
-0.42668
0.367664
-0.335349
-2.32921
-1.48665
-0.51517
-0.948851
1.01635
0.543485
-0.909797
-1.35631
-0.0798237
0.0992743
0.878524
0.340936
-0.481883
0.122288
-0.166629
-0.990631
-0.636643
0.298919
0.321765
1.18305
0.734269
0.598304
-1.61442
-1.42913
0.708738
-0.933901
-1.14719
1.78488
-0.673154
0.88003
-1.5922
0.598893
-1.11571
-1.52083
1.09211
0.857867
-0.182414
0.453623
1.34618
0.552903
0.0585972
1.28214
-0.273974
0.0552662
0.0621636
-0.69553
0.0427166
-0.128153
2.09068
-0.818377
0.479298
-0.301521
-0.565769
-1.79445
0.669161
-0.716262
-0.499088
-0.754069
-0.298263
1.30554
0.236203
-0.0315612
0.543405
-0.442188
0.613583
0.132658
0.623736
0.273775
-0.965369
0.929679
-0.372336
0.348382
-0.304129
-0.773681
-0.307247
0.473565
0.421263
0.435742
-1.16586
0.412412
-0.802059
0.673161
0.556845
0.0712534
0.748495
0.570447
-0.857004
-0.0346252
-2.3475
-0.969577
1.36302
-1.04484
-1.05564
-1.02931
0.40057
-1.50648
-1.09233
0.307487
-0.337362
1.41894
0.116596
0.242426
0.785803
0.139756
0.0230133
-1.79862
-0.530827
0.178682
0.0248873
-0.565676
-0.896668
0.497043
0.448758
0.409489
0.106018
0.750399
-1.18429
0.232734
0.261866
0.210004
-1.54733
0.236206
0.879667
1.19676
-0.302391
-1.41859
-0.853544
1.21292
1.60894
-0.339496
1.7404
1.73857
0.847234
0.940261
-0.572648
-1.43439
-0.220854
1.00092
-0.197456
0.535427
-0.528659
0.0346141
0.468745
-1.01019
1.38366
-0.395921
2.13349
1.62335
-1.11373
-0.52426
1.70497
-1.51419
0.6181
0.742334
-1.59948
1.6108
0.395159
0.647041
-0.370808
-1.56705
0.420986
-0.189081
0.724794
-0.707742
0.326694
-0.31677
0.0926892
0.384492
0.228808
-1.86286
-0.16498
0.515403
1.8143
-0.957793
0.463692
-1.66081
-0.228404
0.603407
0.238183
0.614053
0.863837
0.525501
-0.105565
2.80685
-0.750421
1.07886
0.719922
-0.0869312
-0.052345
-1.31178
0.17975
-1.20513
-1.44182
1.125
-0.371158
0.177699
-0.587044
-0.123742
1.05482
-2.01907
0.774147
-0.661468
-0.083094
-0.299536
1.18815
1.34386
-0.326623
-0.173016
0.0626648
0.722124
0.291092
0.0280944
1.97204
-0.918441
1.19707
0.27818
0.671282
1.1495
-1.95418
0.770939
0.0258849
0.825538
0.491996
0.0170267
1.72081
0.383132
0.255272
2.06745
0.878041
-0.328233
-2.09668
1.45358
2.63795
-0.570724
-0.416441
0.993127
1.7627
0.720428
0.532667
-0.602524
0.303736
0.890194
0.738327
-0.108234
-0.713699
-0.933383
-0.962784
-0.490212
0.292383
0.114639
-0.225782
-0.426403
0.138134
0.942436
0.60858
0.134346
1.08087
-1.57846
2.14531
-1.1792
-0.310859
0.372043
1.66656
0.561528
0.909171
0.538808
-0.501498
0.482845
0.253594
1.43786
0.731492
-0.321347
-0.799651
-1.72422
-0.164741
0.672719
-0.750698
-1.22708
1.18826
-0.581996
0.0754125
-0.244545
-0.297238
-0.487376
-0.625526
-1.47551
0.0232489
-2.0364
-0.154279
1.05403
-0.0673246
-0.244449
0.0812746
-0.2912
0.182898
-0.0429711
-0.223769
0.106589
0.851449
-2.46191
-1.62636
-0.380315
-1.17363
1.39094
-0.703448
0.44031
-0.10995
-0.344854
-1.02634
-0.240252
-0.487881
-0.042508
-0.598468
1.33836
-0.924853
0.66287
0.351187
-1.68835
0.823699
0.345258
0.626398
-2.02331
0.15373
-0.594294
-1.56937
0.558716
-2.44696
-2.03668
-0.413082
0.217462
-1.10329
-0.0918825
0.626846
-0.252098
-0.916995
-0.847762
-1.01926
-0.679135
-0.592926
0.406371
-1.51344
-0.110665
-1.40755
0.198956
-0.286743
0.763208
-1.72062
-0.657106
-1.46202
-0.463746
-1.69478
-0.240168
-1.25657
0.544823
1.7318
1.03071
0.775295
-0.316025
0.948401
1.16507
0.00140731
0.70982
1.27806
-0.0618892
-0.741242
0.871552
0.369589
-1.10273
0.736448
2.03172
-1.84886
-0.570229
-0.696089
-0.801661
0.311569
-1.73844
-0.415374
-1.22626
0.675605
-0.514755
-1.12359
1.58843
0.673541
2.0477
0.35642
1.23829
0.328483
-0.358241
1.02827
-1.07451
-1.24834
0.771493
-1.33165
1.00755
-1.96253
1.30895
0.694759
-1.69452
-1.32304
1.25035
0.232999
-0.498735
0.781239
-0.994129
-0.280579
0.0607738
1.50957
-0.00998564
0.345058
1.8961
0.421708
0.349185
1.83922
-0.312135
0.162239
0.905215
0.485139
0.44446
-0.79758
-0.325079
-0.718692
-1.86996
-0.327613
-0.943524
-0.0266138
-0.352923
0.418819
0.844061
-0.435486
-0.017518
-0.180711
-0.174899
-1.51078
0.635827
0.237305
0.628631
-0.900615
2.41001
0.928553
1.85076
0.486542
0.104995
1.40801
0.664952
-0.0450447
-0.489203
0.321083
-1.21804
0.95666
0.534077
-1.55125
0.447784
1.86619
0.217125
-0.0300797
-2.22104
-0.498212
2.04308
1.71154
1.17849
-0.932367
0.0440099
-1.20088
-1.19521
0.177549
1.6317
0.761353
1.50398
1.06981
0.713504
1.588
-0.276507
-1.8667
1.79831
0.179648
0.654547
-1.23453
0.248375
-1.13403
-0.327688
-0.00353072
-0.214003
-0.570328
-0.196265
-2.51538
-1.17496
0.0839921
0.20633
1.22375
0.848578
-1.45244
-0.903139
-2.16177
-1.30594
-0.826367
1.2963
1.22163
-2.03043
-0.78294
0.418707
0.0841506
0.0100206
-1.67075
0.260819
-1.41498
-0.710415
0.527504
0.101742
0.516513
0.684373
-0.245361
-1.74246
-1.04452
-0.0638953
-0.110823
0.0704928
-1.14356
0.330631
0.66557
0.288067
-1.06402
0.237759
-0.0376065
-0.241741
-0.0358094
0.575689
1.33103
-0.0898239
0.719941
0.561961
-0.133606
-0.405113
0.106933
0.233946
1.19367
-0.810919
0.468623
-0.415466
0.58042
-2.17707
1.19142
-0.920741
-0.640033
1.67655
-0.457721
0.0507234
0.680857
-0.645945
0.899716
0.124612
-0.540271
-0.441286
-1.01083
-1.71431
-0.59893
0.241999
0.32914
-1.03648
0.905382
0.460014
0.427468
0.100752
0.59378
-0.378185
0.532339
0.156861
1.44273
-1.16257
1.43152
1.07402
0.115926
0.774496
1.64076
0.375221
-0.0351638
1.41538
0.745733
-0.419678
0.130261
0.218056
0.384413
-0.738331
0.0184303
-0.04264
-1.59093
0.284054
0.89464
0.456913
-0.349716
-0.0191974
0.798699
-0.320816
0.953949
0.683269
-1.29546
-0.88238
0.593789
0.00968948
-2.23781
0.0378058
0.522814
-1.01475
1.44502
0.522752
0.0115697
0.782898
-0.449503
-1.98794
0.560315
-0.030831
-1.05111
0.847501
0.945625
-0.130445
0.786484
-1.1886
0.441244
-0.0287456
-0.518227
0.232093
0.708575
-2.29215
-0.129784
-0.982718
1.11375
-1.51449
-0.849308
0.765301
0.45629
0.895833
0.0372417
0.892624
-0.836039
0.778464
-0.637561
0.130491
0.654702
0.970669
-0.735805
0.297836
-1.32094
-1.08449
-0.714197
-0.089004
-0.716134
1.00575
-0.17643
0.511955
0.563777
-0.163316
1.07543
-0.151803
1.53082
-0.804147
0.580021
1.17109
-0.465048
-0.661095
0.947605
-0.200344
-0.180234
0.586266
-0.607471
-0.12387
-0.61227
1.0561
0.991643
-0.872331
1.16135
0.142004
-0.895707
0.214114
-0.173323
-1.57217
-0.227772
0.858908
-0.607693
-0.206286
0.370858
-0.387974
0.365756
-0.747841
0.601329
0.867625
-0.101252
-0.381125
-0.742462
-0.312086
-0.305918
-2.85287
1.92935
-1.69408
-0.375268
0.726799
-1.562
0.407277
1.51738
-1.09405
-0.384468
-1.30343
0.396967
0.170704
-0.0523029
-2.07661
-0.208192
0.781711
1.0532
-1.76493
0.179284
-0.0731388
0.945358
0.0647221
-1.59785
-1.39632
0.108386
-0.370846
-0.038934
0.0460837
0.912813
-0.319309
0.864983
0.137587
0.00612738
0.260251
-0.0584576
0.27424
0.595356
0.264711
-0.323222
2.20361
0.921569
-0.926834
-0.205301
-1.17778
-0.754483
-1.62177
-0.25039
0.68136
-1.49316
0.115567
0.796052
-0.956284
-1.52558
-1.09497
-1.04889
-1.07696
0.120725
-0.57497
-2.41628
0.114757
0.512565
1.60108
0.364719
0.103892
-0.68436
0.400545
-0.370434
-1.20596
-1.36331
1.34733
0.53711
-0.643062
-0.902656
-0.678495
0.447657
-1.00876
0.263496
1.10149
-0.260146
1.49364
0.861617
-1.22914
-1.67402
0.372418
0.318631
1.49681
-0.708274
2.07214
0.731969
2.60517
0.454348
0.0874183
-1.77128
-1.476
-0.415982
1.01734
-1.41933
-0.659737
0.0172526
0.850921
-0.271183
-0.188906
-0.320963
0.0896758
-1.14283
-1.02287
2.45297
0.223994
2.02339
-1.07568
0.609558
0.24872
-0.668439
0.624576
-0.554116
0.0525159
-1.54078
-1.72657
-1.09849
-0.317427
0.150677
-0.762642
0.457651
-0.701862
-0.879597
-0.366544
-1.61279
0.687749
-1.35426
0.729478
0.236209
0.166449
-0.389575
0.390259
0.395073
0.21147
0.0810414
0.578886
1.56615
0.436685
-1.25222
1.66689
-0.959746
-0.294423
-0.349531
-0.38099
0.784354
-1.40781
-1.57999
-0.88231
0.949836
1.67822
-1.58106
0.602546
0.053978
-0.737039
-0.766467
-1.79555
0.183999
-1.37937
-1.79736
1.26543
-0.294367
-2.02552
-0.012239
-0.20114
1.79826
-1.15591
-0.460882
-0.466413
1.5326
0.674316
1.66182
-0.142793
-0.415436
-1.69225
1.5639
0.371024
1.63541
0.621359
-1.17079
0.15775
0.205847
-0.250102
0.219316
-1.84926
1.53637
-1.98998
0.862243
-1.20496
-1.17831
0.151049
-0.272651
0.881138
-0.182165
1.01738
0.726958
-0.120317
-0.315369
-0.262125
-0.456461
-0.654716
0.454414
-0.0421829
-0.491752
0.418322
-0.83037
0.738719
-0.673894
1.63385
0.266009
2.67485
0.848458
-0.440462
0.04851
-0.995122
0.265308
0.422549
0.607376
-0.0376087
-0.610334
-1.96298
1.35041
-0.409984
0.211626
1.35845
0.0783418
-0.411173
-0.713346
1.23165
0.518204
-0.527866
0.974025
-1.4765
0.536474
1.06465
-0.0751826
0.578525
1.33338
-0.988561
-0.286284
-1.09414
1.17436
-0.194909
0.496257
-1.33313
0.188064
1.83496
0.809539
1.53359
1.48864
-0.418549
-0.338642
0.114226
0.306605
0.9926
-0.479859
0.222424
-0.045681
0.102942
0.906792
-0.409827
0.279584
0.521291
-1.10018
1.0653
0.495716
0.655212
0.774569
0.408676
-1.2859
-2.24997
0.725775
1.43075
-1.04539
-0.564751
-0.447066
-0.811174
-0.58975
1.164
1.03682
1.71116
0.392724
0.852886
0.655711
0.0629596
-0.445347
0.834082
-0.29583
0.636812
0.727158
1.27327
0.524172
0.370136
0.568062
1.00001
0.210108
-0.175865
1.01832
-1.15067
-0.59144
1.6778
0.0936778
1.00002
0.110593
0.426354
-0.66406
0.70195
-0.554285
0.204606
0.033051
-0.21399
1.0751
-0.750044
0.387043
0.303057
0.309069
-0.011149
1.43334
-1.55055
0.92008
2.65774
1.22233
-1.27557
0.23217
1.46716
0.301909
0.15314
-0.818814
0.711927
0.576143
-1.2121
0.586397
0.702402
0.883214
-1.06794
0.535093
0.835738
-0.324583
1.10218
-1.01643
0.420027
-0.15706
0.150578
1.38855
0.0275604
0.968116
-0.803403
3.04866
2.03504
-0.616205
-0.549855
-0.80414
0.634218
0.388976
1.41643
-2.19467
-1.38836
-1.23476
0.0794146
-1.51892
-0.483473
0.327334
1.55372
0.553812
-0.0349945
1.61182
0.676548
-1.11701
1.07019
-0.67698
0.854514
0.340785
-0.482964
0.448596
0.429867
0.258844
0.360965
2.61474
1.9452
-0.809628
-1.86052
1.5255
0.662746
1.55559
-0.22876
-0.208317
0.508963
-0.492196
-0.284464
-0.310067
-0.531383
0.401821
0.475695
-0.295581
-0.4449
0.289217
-1.31239
-0.457154
-1.58842
0.647309
-1.02549
-1.0197
-1.39823
-0.425918
-0.318843
-0.405118
-0.891572
1.25793
1.77375
-0.736951
-1.09917
0.666674
2.42264
0.454113
-0.422206
0.271449
0.538981
-0.647584
-0.0608874
-0.142332
-0.175705
0.672296
-0.456163
-1.18865
-0.226665
-1.68496
-0.287029
-1.77531
-1.63625
-0.345287
-0.849247
-1.05109
-1.18191
0.413585
-1.05656
1.90758
-1.41352
-0.57241
-0.502624
-2.27783
-0.193066
-0.0754559
-0.712968
-0.731896
-0.31537
0.0273808
0.0805501
1.53675
0.259628
-1.15136
-0.407369
-1.53266
-1.38637
-0.528002
-1.16806
-1.72971
-1.20757
-1.83349
-0.590496
-0.51812
0.0148188
-1.53083
1.29927
0.419741
1.0831
1.12
0.303153
-0.188814
-3.06373
0.414633
0.374908
-0.485399
0.72784
0.859522
0.810937
-0.0255866
-1.00633
-0.277677
-0.911134
-0.840813
-0.523063
-1.28632
-1.00593
-0.0348452
-1.66457
1.48881
-1.03552
0.446037
0.0908782
-0.999903
0.311887
0.543617
0.112505
0.829975
-0.448812
1.74558
-0.760007
1.66481
1.1818
-1.81155
0.942919
1.09914
-0.449819
-0.0117735
-0.412479
-0.749304
0.311285
-1.368
-0.984609
-0.63318
0.0418182
-0.370447
0.998584
-0.350376
-0.356455
-0.55906
-1.20311
-0.684927
-1.03304
-0.390046
0.143751
-0.192093
-0.823903
-1.47943
-1.69629
-0.93847
1.04845
-0.432211
-1.36272
-0.0624423
0.845293
-0.669589
-0.296547
-2.12877
-1.76935
-0.579276
-1.93965
-0.121937
-0.631044
-0.429604
1.67764
0.879293
1.85326
1.32806
0.472697
-1.20726
0.216208
-0.523498
-0.17773
-2.45544
-0.277833
-0.932917
1.09371
0.334908
1.85083
-0.563734
-0.607525
-1.1905
-1.60678
-1.3572
-1.87385
-1.42532
-0.944103
-2.11963
-0.5813
-0.653371
1.33987
1.11066
-0.437189
0.558791
0.549452
0.0945178
1.08386
-1.73678
0.635757
-0.524766
2.14324
-0.637017
0.0134398
-0.0177717
1.3079
1.27263
0.0152919
1.23593
-1.55757
-1.83026
-0.57412
-2.31425
-0.514291
-1.07948
0.0898988
-0.47675
-0.00133047
1.78696
-0.158141
0.522225
0.907459
0.471359
0.380438
0.120822
1.15619
1.07338
-0.507252
-1.23456
0.154823
-2.33944
1.40796
-0.708901
1.80763
0.978548
2.28676
-0.47753
0.235918
-0.755383
0.466818
-0.023858
1.35566
0.46274
0.0111669
0.235516
0.0336199
-0.521831
1.13113
0.172227
1.01058
-0.941764
1.18712
-0.293238
0.812841
-0.285699
2.4102
0.783585
-0.08645
0.59092
-0.34388
1.69888
0.752774
1.20861
-0.318138
1.96376
-0.333891
0.946516
0.483837
0.144366
1.16063
-0.026242
-1.16789
1.19277
0.876211
0.759706
-0.100206
-0.289546
0.337456
-0.217114
1.55498
0.00153315
0.594473
-0.716854
2.04741
-0.600404
-0.491165
-1.03899
-0.368276
0.243502
1.61771
-0.952913
-1.49529
-0.0572637
1.28343
-1.02049
0.097592
-0.457108
0.319215
-0.518505
0.819722
-1.10824
-1.47727
-1.29657
-0.0657939
-0.400397
0.924977
-0.7089
-0.736253
0.34605
-0.79742
0.230161
1.15989
-0.502516
-1.01403
0.595229
-0.0889913
0.0878071
1.46541
-0.303697
1.44247
0.260279
-0.824429
0.645405
-0.0610633
0.12372
0.590918
1.32994
0.377913
0.948
0.277147
0.69174
0.0668346
-0.848425
0.141227
-0.0221017
-0.0222275
-1.15983
0.345679
-0.830048
-0.269296
0.233209
0.410736
2.5215
0.869698
0.659744
-0.836046
-0.189322
1.36339
0.143097
0.619912
0.86594
0.1273
0.242487
-0.14356
-1.32776
1.17481
-0.183936
-0.287354
1.18508
0.531093
-1.00007
1.28175
0.118065
-0.623257
-1.22604
1.40684
-1.28655
1.07215
0.811042
-0.428181
0.322089
0.453696
0.697472
-0.765099
-0.0970212
0.225075
0.00842316
0.617357
-0.455828
-0.431664
0.0368646
1.12424
0.16704
0.134772
0.18772
0.655415
-1.05191
0.177783
-0.879899
-1.81401
0.438522
-0.403496
0.673516
-1.36349
0.585775
0.00414636
-1.61514
-1.82039
0.39919
0.906123
-2.97995
-0.554444
-0.354959
-1.42926
1.13522
-0.997124
0.378059
-0.647694
0.843639
0.197313
0.179196
0.199708
-0.656983
-1.22008
1.41114
0.103574
-0.720368
0.278673
0.473302
-1.65192
-0.862891
1.31762
-0.0570817
0.533336
-0.38257
-0.813822
0.273267
0.615853
-0.982255
0.470946
-1.29187
-0.684417
-0.88286
0.323341
0.434954
-1.32592
-1.28493
-1.04072
1.41251
-0.53405
0.483249
-0.886332
0.488212
1.5114
-0.687731
-1.86715
-0.0264738
-0.260635
0.099929
0.389586
-0.686354
-1.02957
0.677886
1.03857
-0.233531
-0.993173
-0.0815609
0.182762
0.78655
-0.394921
-0.821254
0.160428
-0.427614
-0.169439
-0.869883
-2.66402
-1.50037
-0.271252
0.028175
-2.01107
1.90767
-1.91124
0.463122
1.42845
0.413161
0.180941
0.0201472
0.258701
0.541702
-2.08391
0.0532346
0.635463
-1.70516
0.296615
0.502275
-2.4128
-0.627281
-2.82361
1.17162
-0.447386
-0.45164
-0.149143
-0.653879
0.00794088
-1.29703
-1.21278
0.286181
1.70823
0.0432047
-0.902468
2.54582
-0.486876
1.63526
1.15284
1.65887
1.52823
-0.75847
0.425628
2.75425
0.145022
0.634295
0.432432
1.34577
-0.568763
0.640537
0.873016
1.18809
0.285278
1.00272
-0.201967
1.03406
-0.14667
0.237776
-1.81042
0.0632378
-1.49344
1.15607
0.799859
0.806374
0.710928
-0.458659
-1.48399
-0.503107
-0.109198
1.27129
-0.811911
-0.389215
0.323502
-0.931736
0.429396
0.430911
0.80875
0.371062
0.0337449
-2.28718
-0.797641
-0.417125
1.56363
-0.0213588
0.466242
1.28182
0.498885
2.22842
1.10868
-0.202617
-1.63275
0.629467
-1.43145
-1.44085
-1.37125
-0.950767
0.895555
-2.1237
1.89851
-0.526899
-0.0213109
0.447189
-0.513632
0.117643
-0.365296
0.142572
0.439853
0.902509
0.541992
-0.369644
1.39992
-0.730888
0.82215
0.925089
0.0191752
0.641944
0.939147
0.6164
0.250743
1.1039
0.78712
-0.509707
0.774283
-0.310475
-1.65811
0.264131
0.518354
0.0935058
-0.229985
-0.950622
1.93938
-0.239784
0.117647
0.375974
1.14672
-0.512142
1.5742
0.502336
1.7338
0.302977
0.716754
0.941928
0.992305
-0.29202
0.660348
0.0747092
-1.72116
1.54884
-0.0977855
-0.491533
-0.74237
0.375923
-0.86995
0.757523
0.743493
-0.555622
0.422953
-0.430823
1.59362
-0.494015
-1.13974
1.76011
-0.207386
-0.946682
1.52919
0.968262
0.602113
0.938449
-0.115517
0.329662
0.739305
0.117256
1.03498
0.642566
0.324807
1.39217
-0.712362
-0.46853
-1.43824
0.307425
1.1746
-0.970531
0.373635
0.517298
-1.21646
0.163109
0.0825859
-1.22784
-0.409405
0.225789
1.18791
-0.889695
0.0384167
2.64599
1.23988
0.340615
0.678733
1.29415
0.589552
0.154091
1.90215
-0.116437
-0.380367
-0.437933
-0.445094
0.0632747
0.407878
-1.54956
1.43169
-0.436885
-1.58491
0.12638
0.338539
-1.27149
0.700006
-0.279936
-1.16734
-0.541741
1.89785
-0.410776
1.76535
0.60786
1.53434
0.512041
1.52521
0.177636
0.108537
1.34118
-0.470648
-1.28364
0.234449
-1.65385
-1.16864
0.935895
0.126971
-0.260197
-0.832903
-1.12898
-0.291762
0.186821
0.172191
0.827876
2.32542
0.551811
0.102959
-1.06148
1.02036
-0.309643
1.8368
0.85801
-0.0142477
-0.269651
-0.639947
-1.09169
0.246555
-1.46765
0.626601
-1.76214
1.02666
0.232856
-0.0680813
-0.432842
-0.386569
-0.101789
0.0994986
1.4651
1.11421
0.265654
0.429067
0.203886
-0.156755
-0.65951
0.0186826
0.215247
1.93718
0.825031
1.35958
1.41673
-0.0451472
-0.120871
-1.99549
-1.10149
-0.640119
-0.701241
0.838646
-0.420108
-1.13368
-0.698898
0.348095
-1.12601
-0.700286
-1.25974
-1.95122
1.16368
-2.23592
1.5531
2.70199
0.57231
-1.68981
1.13015
0.686558
0.00416938
-1.60128
0.455251
-1.14845
0.152791
0.262939
-1.04555
-0.207783
-2.30942
-1.05294
-0.504259
-0.240682
0.0294337
0.557973
0.925538
-0.943511
-0.488052
0.931408
-1.01554
-0.0598021
-0.0776591
0.857988
0.526403
-1.8296
-0.565563
0.0992099
-0.857522
-0.114013
-0.764039
-0.954094
1.40691
-0.174425
0.18135
0.811747
1.57252
-0.241388
-1.18343
-2.50723
0.0133205
-0.117182
0.762596
0.228914
0.0608565
-0.129026
1.10008
0.593506
-1.70618
0.174098
0.97928
2.42151
1.77485
-0.375007
-0.490075
1.50856
-0.233279
0.425193
0.659639
-0.92371
-0.881569
-0.781407
-0.346564
0.0744322
0.286506
1.65076
0.44229
-0.11221
-0.925206
0.687486
0.379093
-1.86491
1.26761
1.12562
-1.09708
0.0954038
1.95693
3.15459
0.022788
-0.480523
-0.424478
0.0195615
0.753515
1.38221
-1.51041
1.57415
0.72584
0.224481
0.168893
0.113678
0.103839
0.292263
0.540893
1.4072
-0.705112
-0.2184
-1.11918
1.23112
-0.589708
0.775722
-0.325772
-0.230327
0.680109
1.44362
1.51059
0.084172
0.76073
-1.10721
-0.864198
-0.191245
-0.910626
-0.915856
-0.999547
-1.53706
1.12207
0.212851
-0.101573
2.62513
0.0733546
0.964838
-0.273106
1.10738
-0.709664
-0.148215
0.843625
-0.574892
-0.0385125
-0.0407113
1.11193
1.17853
1.03788
0.125062
0.0953774
-0.893808
0.0292807
0.048668
-0.224773
0.237349
0.238285
-0.519725
0.368103
-0.250577
-0.397892
0.154375
-0.0109649
-1.85296
1.20999
0.926651
0.53597
0.315786
-0.663553
0.193816
-0.775442
0.877434
1.6999
0.353099
-0.242709
-1.38907
2.78658
0.468938
1.58956
0.0561118
-1.37898
-0.151632
0.722007
-0.184075
0.42829
1.76786
1.90224
0.428606
2.16268
1.47546
0.228519
1.44234
1.43317
-0.535059
0.0430429
0.243899
0.295587
0.0519025
0.786127
-0.1994
-0.234628
0.24744
-0.348993
2.65532
-0.248686
-0.0547937
-0.151721
1.28564
1.05903
1.74937
-0.209689
-0.745148
1.54211
0.388736
-0.786094
-0.32755
-1.40094
-0.0879886
0.29389
-1.2179
-0.504042
0.648506
0.321055
-0.680965
-0.945319
0.931702
-0.336748
0.983582
-0.0323512
0.853143
0.581791
-0.33715
1.31806
0.990696
2.46339
1.13084
-0.241966
2.92205
1.89051
0.0306395
-0.879931
-1.24116
1.40474
0.169414
0.165899
0.815687
1.37004
0.0843768
-0.670029
0.585134
-0.365382
0.1877
0.948183
-0.975247
-0.197979
-0.554024
-1.71434
0.606801
-0.0431054
0.883871
1.34877
-0.0228196
0.926365
1.44306
-0.376715
0.944255
-0.973251
1.40348
-0.821064
0.401263
0.0724788
1.16271
0.630758
-0.755789
0.841596
-0.767407
-0.573228
-0.573696
-0.17808
-0.540411
0.0762678
-0.539643
0.706944
0.454965
0.481611
0.164792
-1.0033
2.08157
1.25094
0.732905
1.17872
1.30227
-0.639466
-3.11803
1.92463
-0.849468
1.11001
-1.51572
1.18572
0.479231
1.45724
-1.15984
-0.821974
0.552622
0.790769
0.140317
-0.233501
0.578519
0.770957
-1.10707
-0.791802
0.950581
-0.608899
0.905075
0.0208279
1.85331
1.90716
1.30822
-0.317567
0.521644
0.343391
-1.33801
-1.40899
1.12822
-1.11579
-1.23423
-0.582699
0.568216
-0.449121
0.782235
0.104521
-1.01644
0.373059
0.331311
-0.57198
0.596217
0.633307
0.315744
0.403183
-0.577431
0.0548013
-0.278943
0.0529877
-0.784898
0.303343
-0.206462
-0.993231
0.657746
-1.39552
0.540612
-0.515901
0.749553
0.692158
0.215616
0.0664709
1.69168
0.767695
-0.264492
0.327917
-0.121683
-0.531439
-0.537848
0.663578
-0.9967
0.270751
0.649304
0.357525
0.10025
-1.40755
0.899189
-0.548932
0.930895
0.202002
0.319052
0.540605
0.503015
1.53166
-0.735832
0.127453
0.718962
2.33449
0.387639
-0.763835
-0.141466
-0.0328226
-1.06146
1.60675
-0.720967
2.27884
-0.0697441
-0.575247
0.135454
-0.902746
-0.227632
-0.561872
0.242775
0.0651486
-1.14614
1.18036
-0.340009
2.10897
-0.0158067
0.0197641
0.687347
0.58738
0.374552
-0.610949
-0.361113
1.18943
-1.11453
-0.0510879
1.12356
0.766442
-0.68439
-1.07568
-0.907695
-0.412144
0.0345825
0.225225
0.591285
-0.674019
0.551271
-0.69582
1.51282
-1.0887
0.646899
0.192855
-0.295055
0.26257
2.00006
1.08019
0.132968
-0.0494443
0.556598
-0.976711
0.596871
-0.209522
-0.362935
-3.35991
-0.890733
1.14847
0.167974
-0.199937
0.334485
-0.514882
-1.55045
-1.012
-0.0947215
0.619776
-0.831672
0.175064
-2.43273
0.583325
0.873135
-1.11229
0.597174
-1.03579
-0.30675
-1.17041
0.852287
-2.19995
-0.314298
0.954357
-0.661892
1.23436
0.157404
-1.67931
2.45862
-1.05431
1.00265
0.342711
-0.24947
0.733472
-0.41327
-0.0815995
-1.68955
0.00395833
-0.84971
-1.09323
-0.308162
1.65745
0.702715
0.026976
1.73385
-1.05749
-0.246546
1.21807
-1.10862
0.997003
0.142511
0.443967
-0.405033
-0.984726
0.0715023
-1.15426
0.874027
-1.7236
-1.34063
1.29111
-1.52775
0.318314
0.0736851
-0.25367
-1.61277
-0.393523
0.0319171
0.42308
-0.962932
0.237848
1.81836
-0.392199
-0.258551
-0.328211
0.387291
1.73579
0.10885
0.357242
0.531666
-0.569236
-0.958549
0.34741
-1.04255
0.564551
-1.30088
-0.152244
-0.789606
-0.986271
-0.0783654
0.17847
1.43757
0.837737
3.53811
0.280927
-0.25624
-1.00576
-0.787903
-0.616295
0.296219
-2.88526
0.48509
-0.502254
-0.949426
0.656514
-0.233238
1.66432
-1.91714
-1.72213
-0.507747
0.070435
-0.0393624
1.23042
-0.34641
-1.64099
0.100473
-0.312204
0.171523
1.50403
0.55531
0.326381
-0.644357
-0.998801
1.34484
-0.236315
-0.410959
0.714709
-1.24273
-1.87734
-0.93303
-1.09879
-0.139247
-0.959374
0.878629
-0.820881
0.185374
0.408282
0.242957
-1.31841
0.730087
-1.37581
-0.227642
-0.682122
-0.0525971
-0.0266477
0.450846
-0.938902
-0.0760857
-0.92674
1.60368
0.230648
0.507812
-0.455676
-1.01729
0.286566
2.03708
0.971218
-0.016204
-0.450478
0.290548
-0.228266
0.0825851
0.90457
0.946827
1.1238
0.354382
-0.428672
0.259471
1.63436
-0.695109
-0.030539
-1.64074
0.128999
-1.17278
0.123727
-0.836533
0.580845
0.487118
0.320576
1.5538
-0.558458
-1.95446
-1.8226
-0.246077
2.05757
-0.318241
1.04795
1.4845
0.0989039
-0.324083
-0.265955
-0.0505547
-2.49905
2.0099
-0.0287497
0.662607
0.0503097
1.30902
0.431239
1.56935
-0.476427
-0.505905
-0.23119
-0.379795
1.03861
-0.353171
-1.0339
-0.884242
-0.388022
-0.665258
1.44009
0.674524
-0.564756
-0.397868
-1.09127
1.36428
-0.688287
0.0799685
-0.278056
-1.22823
1.04157
0.384449
-0.28764
0.660374
0.247918
1.16631
0.276768
-0.0565275
-1.33021
-1.41917
0.159835
-0.320184
-1.20197
1.49319
-0.939334
0.680075
-1.95731
-1.33943
-0.232634
0.132721
-0.190488
0.0152273
0.772583
0.256717
-0.772594
0.482372
-0.927783
-1.05301
0.0143385
-0.0971121
-0.450382
0.0135834
0.0597159
1.12157
1.23602
1.0234
-0.765935
1.23497
1.16678
1.56807
-1.22542
-0.17775
0.256737
-1.57531
-3.05039
-1.79779
0.141012
0.0986492
-0.197866
0.742267
0.489277
0.37318
2.24291
0.210048
-0.19724
0.0859968
2.31516
1.23196
0.146574
-1.81875
-0.169951
1.4868
0.522882
-0.194829
-1.57204
-0.302171
0.176859
1.02402
-1.11153
-0.49572
-0.116542
0.00978685
-2.27389
-1.32545
0.156585
-0.934257
-0.733597
1.01342
-1.23151
1.79515
-0.8064
0.77892
0.965828
0.741148
-0.706433
-0.35868
-1.39864
-1.2391
1.55224
-0.143578
0.141614
0.543181
0.852592
0.406048
0.90828
1.1304
1.49355
0.994017
0.0863231
-1.35495
-2.38638
-1.43165
-0.505857
0.0817923
0.738853
0.248287
-0.559203
0.581199
0.117517
0.849665
1.1105
0.274838
-1.40876
0.415712
-0.434001
1.82446
-0.24711
-0.315893
-0.707882
-1.17492
-0.199244
-0.857343
-0.137617
-1.02773
0.258896
-0.862908
0.592795
-0.730308
-1.13122
-1.00193
1.15923
0.374873
-1.42958
-0.108816
0.308903
0.79645
-0.550336
0.287082
-0.272338
-0.283112
0.185671
0.432292
0.533634
1.03883
0.979548
-0.0259926
0.00751613
0.00743028
0.269167
1.30636
0.729324
0.818801
1.13082
2.08762
-0.317511
0.163299
-1.21475
0.259436
0.321497
0.915854
1.51132
1.36064
0.980224
-0.400762
-0.0344406
1.29942
-1.02576
-0.694127
-0.800689
-0.139565
-0.165588
0.880642
1.43221
-0.259569
1.89028
0.591235
0.307604
-1.51372
-0.286726
-0.0979649
0.288928
0.765583
0.878386
-2.53397
-1.23231
0.703733
1.28846
0.271329
-0.495897
-1.65888
-0.289537
-0.749319
-0.361213
-1.1548
-0.333977
0.0973901
1.21279
1.18609
-0.424898
0.841678
0.014795
0.93187
1.57469
-2.05179
-0.828269
0.0442216
1.2312
-0.0766564
1.23005
1.6993
-1.26335
-1.77199
-1.26668
0.23662
0.230833
-1.14183
0.574238
0.751435
0.422478
-0.839377
-1.50041
-0.795217
-0.627826
0.96211
0.504237
-0.432114
-0.543921
1.53526
0.90099
-1.07989
-1.5741
-0.168182
0.590061
1.84756
-0.931731
1.15147
-0.142934
-0.233572
-0.630356
-0.0463706
-1.25678
0.202767
-0.521672
0.29474
-1.52443
-1.19023
0.820353
0.0753481
-0.226709
0.948454
1.46324
1.3837
-0.00691747
0.869209
-0.0444348
1.6847
-0.75444
1.6416
1.24409
0.539492
1.71164
-0.126136
-0.83853
0.385813
-0.398742
-0.549548
-1.93476
-0.76229
0.182317
-0.0100057
0.453134
-0.446947
0.346716
-0.564004
-0.00533631
-0.299298
0.139718
-0.211278
-0.0290009
1.15828
0.333174
-0.622979
1.19393
-0.102715
-0.0663931
0.677096
0.141132
-0.341995
-1.04878
-0.596149
0.395799
0.0691926
-0.879662
-0.0844677
-1.25217
-0.226064
0.0258947
0.291208
0.312267
1.10429
1.02464
0.865637
1.64785
1.30673
0.427155
-0.46803
-0.226645
1.03111
-0.279812
-2.07742
-1.83085
-0.110822
-1.26892
-1.51178
-0.319788
0.871659
-1.58462
-1.02304
-0.332647
-1.00624
0.703626
-1.20764
-0.154035
-0.159613
0.41667
-0.435673
2.12807
-0.175934
-0.193642
0.803779
0.149589
-0.341132
-1.05299
1.13226
-0.618497
-1.16771
-0.165907
0.668616
0.867887
0.497926
-0.518658
-0.667254
-0.0882642
-1.44209
-0.327267
1.42225
0.876716
-1.19511
-1.65927
-0.0708064
-0.497612
0.533822
-0.024618
0.234646
1.26767
0.695932
0.779501
-0.117046
-1.78791
0.635353
-0.703946
-0.646565
1.39944
-0.49997
-0.982033
0.570786
0.156021
-1.45928
-0.0863596
-1.02349
0.018854
0.0458347
0.313859
0.371572
0.210881
-1.18347
0.00914586
-0.0180405
-0.0342561
1.40855
-1.49502
0.0360334
0.436768
-0.564453
1.29339
-1.29165
-1.94187
0.083247
0.373433
-1.36286
1.66085
0.612073
0.87408
0.7202
-0.0781483
1.54684
-0.718461
-1.08635
0.81027
0.911176
-0.282094
-0.337862
0.27224
-0.82768
-1.2135
1.26914
0.0576694
-0.345157
0.334763
-1.50207
-0.0935312
0.73755
-0.449042
0.0376878
-2.12264
-0.702352
0.53036
-0.291484
-0.996635
0.647846
-0.465918
-0.123858
0.215221
0.378313
-1.44541
-1.52268
-1.41771
-1.80631
-0.462851
-2.09651
-0.834161
1.41209
-2.12044
1.20918
-1.0608
1.20684
-0.122558
1.83062
0.38914
0.307515
-0.434267
-0.0577751
1.4038
0.482075
-2.63153
-1.50987
0.0979295
-0.586414
-0.100977
-1.2185
0.761813
0.900908
-1.33463
-1.35508
0.0823885
-2.23722
-1.72151
-0.573568
-0.667032
-1.80417
-0.645999
0.780504
0.79697
-0.327628
-0.254343
-2.09899
-1.29361
-0.907109
-1.10968
-1.19486
-1.21074
1.15032
0.351475
1.80837
1.12543
2.01025
1.42967
-0.6078
-0.0364144
-0.622168
-1.04054
0.224868
-0.585416
-0.879063
-0.618727
-0.316752
0.612365
0.172957
0.630458
-0.553235
-0.600094
-0.448258
0.171396
0.914281
-0.772041
-1.64312
1.61606
-1.25536
1.15841
-0.166828
0.2449
-1.00337
0.150225
-1.96867
-2.20326
-0.358978
-0.385132
1.25659
1.37799
-0.961228
-0.742221
-0.685463
-0.218828
1.40685
-0.60316
0.917406
-0.614464
-0.0418935
0.334972
0.145559
0.50721
-1.15375
1.72465
-0.0891102
0.218329
0.687432
-1.69681
0.304305
-1.02602
2.3911
-1.38813
0.0388871
-1.15964
1.8687
1.73159
0.742165
-2.36197
0.536503
1.05225
-0.473212
-0.120904
0.461647
0.84403
0.169252
1.00007
0.752883
0.0123496
-0.306436
0.115196
0.723388
-0.876143
0.509157
-0.447245
-0.418657
-1.1334
-0.84182
0.0207946
-2.39388
0.465232
-0.936861
-0.357384
-1.60143
0.286706
-0.638552
0.703224
-0.0125767
1.95258
0.133105
-0.335667
0.112032
-0.408052
-2.07858
0.390947
0.559278
-0.151641
0.8716
-0.185709
-1.7455
-0.906273
-0.318319
-1.13055
-1.66262
-0.23962
-0.321687
-1.11188
1.84299
-1.30529
0.497418
-1.62055
-1.58434
-0.277531
0.115908
0.32903
0.0932087
-0.342178
-1.07244
-0.331176
0.785485
-0.334392
0.721067
-1.07403
0.607493
0.131327
-0.543022
1.23264
0.70784
-0.385638
-1.55227
1.2698
-0.601074
-0.223547
0.0537221
-0.606844
-0.881037
-0.137927
1.51376
-0.215513
-0.944719
-0.38123
0.178565
-0.762813
0.660254
1.25108
0.944735
0.489252
-0.176536
-1.19906
-0.797029
-0.425426
0.583144
-0.746233
0.894391
-0.183971
1.85035
0.252791
0.063699
0.0842032
-0.389057
0.91872
0.97993
0.373036
1.4353
0.103749
-0.267369
0.16341
-0.672455
-1.21979
-0.361291
0.888928
2.20874
0.771496
-0.899442
1.50427
-0.898044
-1.03783
-0.946205
-1.58952
0.714772
-0.284847
0.225643
-1.247
1.19173
-0.945809
0.346725
1.72813
-0.365282
-1.28514
1.17536
-0.969544
-1.20376
-0.756373
0.0175657
-1.05797
0.593533
0.603301
-0.353683
-1.14075
-1.08278
1.84845
0.679708
0.31744
0.854229
-0.294763
-0.0392003
-1.14034
-1.11756
-0.786901
-0.570713
-0.436523
0.469258
-1.42645
0.625536
0.138367
1.57809
1.11191
-1.53908
0.884044
0.316068
0.148624
0.636568
0.0336533
-1.00302
0.8625
-1.21525
0.425383
-0.728901
-0.806734
0.214687
-0.798767
1.66577
0.169165
-1.16732
0.0951656
-0.0988722
1.4345
1.27637
-0.535463
-0.258897
1.07552
0.222951
-1.09797
0.646696
0.757052
-0.470807
0.393701
0.427673
0.228734
-0.580893
0.146011
0.693393
1.73894
-1.34477
2.90651
1.14927
2.08676
1.35678
-2.63693
-0.337109
0.57006
0.317248
-1.64375
0.0880062
-0.213468
-0.579777
0.00127379
0.631165
0.333372
-0.752718
1.36118
-0.341386
0.854689
0.192383
0.49031
0.0964442
-1.43759
0.575314
-0.307579
-0.315464
0.0464818
-0.204318
-0.769563
-0.390489
-0.925523
-1.3339
-2.14387
0.136824
0.173611
-0.808815
-1.98922
-0.723915
-1.52462
-1.21437
-0.700377
-0.416097
0.225063
-0.74628
1.12136
0.182935
1.76593
-0.83288
1.0343
0.299826
0.525827
-0.165139
2.83461
-0.233741
-0.95993
0.325811
0.214776
0.289725
-2.24967
-0.775922
-0.328491
-1.744
0.988442
-0.678248
-0.8455
-0.238471
0.787373
-0.666232
-0.753144
0.424348
0.0910904
0.572904
0.49452
0.348227
0.00192158
1.57552
0.391823
-0.330973
-1.16817
0.0513935
-1.08572
-1.01021
-0.561751
0.356979
-0.552247
-0.366326
-0.301454
-0.626413
0.00850117
-0.585353
-1.00951
0.417959
0.210787
-1.56088
-0.511918
0.17269
-1.64899
0.23675
-0.348677
-0.358398
-0.169731
0.136768
0.112713
0.679709
0.0088264
0.798485
0.775426
-0.682901
1.42455
0.494169
-2.46634
-0.976553
0.464064
-1.51191
0.183105
-0.797208
-0.666397
-0.179124
0.961022
-0.11542
-0.223187
-0.292526
-0.0134229
0.11819
-0.0557739
1.00074
-0.666738
-0.17674
0.561331
-0.138768
-0.47273
0.328974
0.826976
0.483014
0.552236
0.864943
2.1593
0.543643
-0.234405
-0.255568
-0.627204
-2.11004
-0.141859
-0.00308653
0.631086
-0.26755
-0.844576
0.503842
0.150431
0.0351927
-1.18575
-0.584097
-0.713769
-0.383093
0.0278175
-0.176583
-1.02795
-0.621775
-0.127607
-0.0314657
1.52943
0.0868875
-0.573206
-0.0354353
-1.72486
-1.4612
-0.0401098
0.0596
-1.13847
-0.452842
-1.01986
-1.47894
-0.533743
0.649832
-0.237425
0.724359
0.833883
-0.638523
-1.11039
-2.25907
-0.184903
-0.944013
-0.983765
-1.00184
0.471966
-1.11022
-0.549407
-0.379467
1.27081
2.74932
0.628686
-0.509319
-1.59909
0.0785554
0.661448
-0.950246
0.0794121
0.44363
1.5413
-0.00363298
2.19769
0.360351
3.34768
0.448818
2.3144
2.03862
-1.11243
-1.78225
0.313172
-0.610536
-0.299192
-0.333958
-1.25846
-0.283926
-1.22874
1.2342
-0.905759
0.0552235
-0.0239712
-0.62366
1.28406
-1.84064
2.46105
1.73826
-0.978758
1.37587
0.210469
3.34362
2.1527
2.10609
1.39234
1.58039
1.53647
1.51902
1.45063
-1.7476
-1.64502
0.254752
0.246008
-1.03875
-0.569577
0.491325
0.442749
1.5757
-0.898256
-0.271248
0.545204
0.633162
0.264252
-0.156517
0.871968
0.727563
1.46888
1.15056
1.62319
1.22678
0.968216
0.872996
-0.170949
0.388123
0.456804
0.271758
0.150037
1.09827
-1.57532
-0.0464246
0.19048
-0.122281
-0.0334474
0.855873
1.14681
1.54257
0.517461
-0.203056
-0.178408
-0.166913
-1.82985
-1.54495
-1.356
-0.222296
0.146843
-0.322644
1.18874
1.47244
1.65285
-0.0337283
-0.15054
0.0693133
0.627503
1.41761
-0.112916
-1.31368
-0.0968574
0.337935
-0.65653
1.0057
-0.115734
0.674754
0.72564
2.32484
0.333223
0.236304
1.12751
0.656031
0.874748
-1.11199
-1.67963
0.125017
-1.62741
0.74986
0.418249
0.124492
1.50591
0.257851
0.869033
1.02172
-0.0140323
-0.0369362
0.735437
-0.703704
0.177223
-0.984925
0.328806
-0.528027
0.153144
-0.427946
-0.152697
-0.0672726
1.92351
-0.415742
0.409525
0.188567
0.322123
0.61124
0.090676
-2.12136
1.19854
-1.06857
0.114778
0.812724
-0.490817
0.233273
0.696279
-0.635673
1.2749
-0.44455
-0.169545
-0.325435
-0.748847
0.149909
0.51974
0.237845
-0.963154
-0.577887
1.14505
-1.54301
1.08677
1.86763
-0.46385
0.434493
-0.175474
0.106769
0.108643
-0.295737
1.28599
0.753331
-0.660097
0.676619
0.0813616
0.472245
-0.364315
0.611097
0.277067
0.4661
-0.28185
0.420745
0.235713
-0.00745843
-0.310802
-1.04045
0.945227
1.23632
0.337812
1.38017
-0.364503
-1.15516
-1.09627
-2.40109
-1.58793
-0.386661
-1.30925
-0.0874302
-2.03268
0.961018
-0.103222
-0.283925
0.231693
-0.738782
0.360945
0.747085
0.179905
1.3828
-0.850254
-1.23571
0.514882
-0.890405
-0.456307
-0.18361
-0.849255
-0.703561
-1.80981
-1.34212
-0.831958
1.18982
0.0346615
0.208426
0.409959
-0.638149
-1.44689
1.23203
-0.176558
-1.34291
-0.58638
-0.217728
-0.153281
0.0841463
0.116672
-0.302212
0.457139
0.667112
-1.00028
0.73949
0.0564086
0.93066
0.46148
1.27086
-0.287528
-0.0359321
-0.225279
0.448495
-3.13877
-0.532322
0.65162
0.407883
1.87264
-0.813158
-0.700559
-0.260035
-2.24281
0.277524
-0.0369821
0.278268
-1.32805
0.582201
-1.47204
0.177392
-0.485285
0.640955
0.318037
-0.762225
-0.297105
0.182338
-1.94405
-0.260674
0.751768
-0.746258
-0.339213
0.116897
-0.819505
0.162645
0.378654
-2.24126
0.125469
1.13829
0.203606
3.17779
-0.45929
-1.18539
-1.22834
-0.218359
-1.22533
0.725439
0.110029
0.781712
-1.40275
1.31737
1.68254
0.484254
-0.368362
0.151377
0.0444347
-2.41905
-0.310753
-1.22767
-1.67459
0.132943
-1.4548
-0.087314
-0.64831
0.297567
-1.38175
1.20935
-1.53338
0.189982
-0.207743
-0.569772
-0.143516
0.518936
0.816306
-0.314628
0.419278
-0.544312
0.709358
1.4604
-0.223825
0.614739
0.907526
0.565256
0.229241
1.19614
-0.392467
0.367992
0.192921
0.259281
-0.531827
0.943576
0.76023
2.12588
0.858395
0.829241
-0.216968
-1.49626
0.0634885
0.771636
-1.29856
0.642069
-1.28779
0.631604
-1.06235
0.44772
-0.689012
-0.303119
-0.251973
1.22294
-0.780586
-0.57023
0.510834
-0.076156
-0.247392
0.597929
0.144318
0.191702
0.700103
-0.615443
-0.384452
-0.345449
-0.0754745
1.51466
-0.256039
0.281676
-0.592766
0.195149
0.58925
-0.979746
0.324982
-0.907601
1.30913
-0.882974
1.13004
0.122493
0.183213
0.727173
0.867304
0.569316
-0.849051
-0.443438
-0.0912525
-0.635367
0.210308
0.433875
-1.18749
1.09811
0.69865
0.164285
0.805374
2.06585
0.13946
-1.58884
-0.0899506
0.137573
-0.919249
-0.59072
0.927616
-1.616
-0.866616
0.251754
-0.198328
-0.994942
-0.723056
0.520974
-0.513596
0.961513
1.40361
0.651596
2.25877
2.08482
-0.0703917
0.277679
0.154226
-0.227084
-1.61371
-1.99657
-0.210723
1.65174
-1.11437
-2.04166
1.14806
-1.86451
0.594026
0.289211
1.00947
0.0241514
0.414878
-0.90707
0.434362
-0.063849
-1.08871
0.82543
-0.64279
-0.155329
2.29285
-1.25297
1.35675
-0.0266279
-0.861648
0.618621
1.53847
0.277174
1.5309
-1.96
1.01474
0.315157
-1.50727
-0.582053
-2.18035
-0.291502
1.55307
-1.53433
0.451297
-0.805095
-1.18652
-0.819237
0.297897
0.0147224
0.297094
-0.647778
0.167485
0.237924
-0.065303
-0.0212419
0.707899
1.84146
-1.21599
-1.19542
-0.644262
-0.941142
-0.347203
-0.737329
-1.54616
1.30016
0.617976
0.495069
1.06812
-1.08362
-0.0183448
0.0532492
-0.576827
-1.00873
-0.0828065
-0.662022
-0.346196
0.700116
0.374857
1.28019
-0.260794
0.644298
-0.694465
1.49524
0.230725
-1.15879
1.23009
0.646588
-1.41844
-1.69797
-0.130136
0.415667
0.084887
0.408841
-0.393574
-0.351585
-1.25764
-1.08316
0.016868
0.441815
-1.22029
-1.77571
0.890549
0.727654
1.05981
0.223735
1.15844
1.61847
-2.08112
0.668948
2.47655
0.89324
-1.97379
-0.713064
-0.896852
-0.800976
-1.56433
-2.21915
-0.482854
-1.87009
0.733079
1.78776
-1.21571
-1.60641
1.00344
-1.30937
-1.18768
0.925968
1.31778
-1.32493
-1.1709
1.26935
1.42193
0.85964
-0.813783
0.637376
1.37836
0.589405
-1.5599
0.0864575
-0.842094
-0.693943
1.68845
-1.84824
0.910498
1.50592
0.189924
-0.464768
-3.10263
-0.134049
-1.60327
0.326879
1.60451
-0.173199
1.77392
0.851381
-0.667599
-0.229173
-0.682487
0.51693
0.863973
-0.402628
-1.23304
0.0292268
0.615689
-1.23363
1.70383
-0.396453
0.539405
1.59883
-0.30454
1.60714
1.80774
0.217111
1.37074
1.09568
0.106758
-1.44107
-0.0774471
-0.854015
-0.385663
0.537332
0.797123
-1.59665
0.933282
-0.709034
1.13569
-0.0463444
-0.879715
-0.124848
1.04179
-0.44357
-0.168701
0.169962
1.49816
0.578636
0.056244
1.11082
0.803272
1.36854
0.681823
0.870347
1.81178
0.973081
0.823345
-1.38786
-0.0870876
-0.0296342
-1.19624
-0.701313
-0.460547
1.73844
-1.25118
-0.771365
0.691062
-0.240385
0.639757
-0.30259
-0.666555
-0.521688
1.34418
-0.608161
-0.555852
1.38702
-0.5751
2.26697
2.05554
-1.96595
0.375095
0.512735
-0.097394
-0.386011
0.606764
-1.08039
2.61603
-1.02947
-0.578491
0.000174167
-0.1795
-1.03234
0.418065
-1.62972
-1.11771
-0.87889
-0.438863
0.108641
-1.57676
0.00256918
-0.869633
-0.891299
1.5896
0.171951
0.157558
2.60687
-1.91393
1.16961
1.09491
1.61685
0.510022
-0.966934
1.28051
1.5497
-0.622504
-0.740999
-1.19708
-0.423167
-1.67017
-0.465052
-0.212912
0.133938
0.0815571
-1.36861
0.647111
-1.92989
0.235872
-1.66636
0.276925
0.107446
-1.2711
-0.178919
-1.28604
-0.784883
0.181624
-1.1756
1.19332
0.791168
-0.983225
-2.43034
-0.384915
-0.703709
1.60986
0.406515
1.03916
0.726099
-0.523295
-1.67527
-0.297955
0.360674
-0.455404
1.11207
-1.62677
-0.409649
-0.630586
-1.35244
-2.08001
-0.911444
-1.15464
-1.52665
-1.39335
-1.5306
-0.513596
-1.03957
-0.538643
0.382884
-0.574785
-0.0160594
0.185232
-1.21421
-0.286929
0.047941
0.0394488
0.66266
-1.0564
0.356338
-1.08272
0.0155211
-0.591906
-0.890073
-1.6857
-0.0589557
0.0338161
0.313062
-0.732228
-1.4462
-1.09542
-2.51335
-1.79143
-2.40534
-1.75773
-2.53258
-2.72148
-0.981996
0.919047
-0.637913
0.0334272
0.926899
2.02883
-0.0375541
-0.434438
-1.58556
-0.317314
0.640032
-0.277012
0.564622
0.557123
1.57687
1.46418
-0.122401
0.347694
1.20622
-0.617702
-1.612
-0.421309
-0.285804
-0.537479
-1.13258
-0.625323
-1.30046
0.166664
-0.333398
-0.0934977
-0.382556
-0.449314
0.280838
-0.710512
0.147197
2.10032
0.715321
-0.270077
2.35426
2.14498
0.449408
0.194273
0.0409863
1.21489
-0.585814
-0.347
0.997713
0.0903895
-1.42256
-1.74029
0.296787
-0.692082
0.0638016
-0.110192
1.55781
-1.04585
-0.919087
1.05852
-0.49216
-0.0747876
-0.55778
1.54722
-0.131076
1.20999
-1.35309
-0.883138
1.11303
0.895425
-0.404286
1.47608
0.383635
2.42466
1.09266
2.33976
0.711449
-0.696481
1.93425
-0.55989
0.383292
-0.87954
-1.07027
-0.0867303
-0.55753
0.158837
0.688326
-1.36772
-0.273325
0.166726
1.15769
-2.31387
0.109845
0.147325
1.12672
0.00970584
-0.494999
1.12649
1.04156
-1.33095
0.317156
-0.992271
-1.19666
0.170216
0.279282
-0.151536
-0.389553
1.23867
-0.406988
0.781342
-0.173549
-0.294366
0.58541
1.15569
0.666509
-0.187276
2.77503
-0.24584
0.526858
1.70951
1.43407
1.73643
-0.229823
-0.996636
-0.301461
-1.09581
-0.0617933
0.150892
-0.689948
-0.444132
0.665694
-0.455335
0.446077
-0.985411
0.851476
0.459695
-1.74503
-0.184199
-1.09058
0.942077
0.873613
-0.294231
1.17415
-0.505052
0.25719
0.528849
-1.66767
-0.561016
-0.843863
1.46201
-0.0396624
-0.810946
-0.4111
-0.341158
0.4674
-0.250253
0.650632
0.447114
0.64538
-0.535497
0.898249
0.00943176
0.553379
-0.370493
1.38291
1.54481
1.13766
0.675833
-0.0644225
-0.0926238
1.05542
0.67201
1.08574
-0.182296
0.331038
-0.0939064
-0.495151
-0.544374
1.28326
-0.0114057
1.07949
-2.03408
0.446088
-1.39313
0.116365
0.149115
-0.575162
-1.05405
0.359833
-1.53218
-1.31013
0.143321
-0.660532
0.139671
-1.20656
-0.148943
-0.230986
0.202624
0.750706
-1.44242
-0.615077
0.0416844
-0.770627
-0.192364
-0.0172039
-0.68964
-0.405548
0.132218
-0.186852
0.0898295
-1.45549
-0.176098
0.25749
0.180479
-0.0869744
-0.169447
1.77607
-0.86037
1.26592
0.317182
-0.88689
1.10074
1.10996
0.633187
0.963553
0.326168
-1.13919
-0.438599
-0.802424
-1.03944
1.19073
-1.37996
-1.08742
0.796387
-1.26948
-1.59508
-0.568566
0.331461
0.687486
-1.16875
-0.557363
0.324673
0.421392
-0.887379
0.38868
0.957704
-1.06587
-0.0317047
1.36626
0.454052
0.0793391
0.286748
1.7342
-0.910707
0.365657
-1.06246
0.159761
-0.193628
-0.342265
-0.136121
1.07556
-0.503549
-2.09999
1.44178
-0.386717
-0.442482
1.62002
0.112908
0.277016
0.388066
-0.927402
0.87775
-1.08934
0.345274
-0.732156
0.7864
0.344021
0.00332823
0.42501
0.104783
-0.870002
-0.0920723
-0.353998
-0.582706
1.11879
-0.969823
1.39547
0.786512
-0.205124
0.878825
-0.838639
0.282965
-0.194079
0.332414
0.0644221
0.032153
0.63076
1.47827
-0.0179063
0.872328
1.3585
0.776062
1.8605
-0.581522
-0.386908
0.611185
-0.0531415
0.866533
0.052082
0.50027
0.566065
0.514438
-0.291366
2.15528
1.33839
0.456515
-0.882293
0.550936
0.176053
-0.214127
-1.85896
0.982436
-1.46207
-0.0789642
2.2628
0.440012
-0.255376
0.266324
-0.561421
-1.18842
-0.184951
1.55815
-0.0610026
0.34372
0.756049
-0.119915
0.144561
2.0383
-0.350767
-0.269905
0.99602
-0.351197
-0.461635
1.04856
0.439027
1.10882
-0.785473
-0.157294
-1.56409
-1.62673
-0.234866
0.367317
-0.0319882
0.454651
0.948108
0.415487
0.844085
1.19777
-0.668365
0.978543
0.729392
-0.498126
-1.27685
-0.409307
-0.743878
-1.7261
-1.48353
-1.13966
0.00791173
-0.624217
0.694626
-1.45791
2.92872
-0.820709
-1.67078
-0.765949
-0.0869651
-0.571434
-0.992161
0.050718
-0.724592
-0.362639
1.08585
-1.46032
-0.0920628
0.347711
-0.496187
0.922111
-2.663
0.410881
0.509764
-1.11899
0.19289
-0.663015
-0.826337
-0.0312229
-0.374815
-1.03569
-0.602326
2.04858
-0.412757
-2.49585
0.594773
0.846925
-0.144189
1.26559
-2.09922
-0.681088
-0.925595
-2.81297
-0.827603
-0.309044
-0.271809
-0.168617
-1.83481
-0.227038
1.26277
-1.75119
0.112728
-0.996389
-0.645514
0.135377
0.190115
-1.05767
1.76894
0.332822
-1.13283
0.412846
0.773396
0.0911646
0.501612
0.61887
0.280702
0.676278
-0.0445426
-0.41706
-0.340323
0.821562
-0.0559112
-0.829656
-0.0231173
-0.177937
0.614862
-0.541607
-0.0247419
0.465352
0.475565
0.72791
-0.296008
-0.217477
0.591508
-0.0819733
0.404676
-0.840071
-0.741501
0.960577
-1.40178
1.13564
2.39795
1.64039
-1.70559
-0.0388935
-0.322749
-0.926861
-0.243741
-0.341842
-0.379794
-0.204783
0.0200387
-0.324398
0.0946738
0.0993337
0.6296
-1.16748
-0.0457748
0.62856
0.70661
0.913181
-0.541818
-1.49095
0.889464
-0.0171073
-0.71227
-0.526095
0.399025
-2.43002
-0.948369
0.528451
0.966486
-0.5907
0.881318
1.19767
-0.16792
0.893155
0.355385
-1.5196
0.381084
-1.73684
-0.630128
-0.08158
-0.682567
0.259821
1.5665
0.70041
0.333673
-0.698882
0.0751471
-0.14055
-1.96468
-0.235341
-0.569852
0.304707
0.862524
-0.529379
1.38033
-2.29183
1.31121
2.5874
0.545885
-0.445766
-2.00644
1.1413
-0.0948005
-0.767768
-1.0563
1.02943
-0.0018387
0.194164
-0.542159
-0.0674589
-1.15887
-1.78917
0.85623
-0.114197
0.626133
0.456381
-0.35572
2.16331
1.00374
-0.0431358
0.124958
1.64785
0.197849
-1.12894
-0.216803
0.794322
0.540829
0.072093
-1.17205
-0.537721
-0.303016
-0.422116
-0.541382
-0.836783
0.338074
-1.1695
1.74624
-0.642818
-0.601599
-1.6041
0.949927
0.401404
0.15866
0.216831
0.826639
0.343873
-0.119397
1.53899
0.842443
-0.686749
-1.28185
1.07516
0.957987
0.844443
0.260373
-1.18227
-1.10905
-1.0539
-1.79903
-1.62328
0.160144
1.04767
0.425177
-0.307099
1.07971
3.28813
0.0290764
-0.666032
1.12065
-0.282641
-0.657058
-0.406945
1.08125
-1.85594
-0.98255
-0.764988
-0.376839
0.459999
0.679619
1.31545
0.0383917
0.746736
-1.33013
0.60461
-0.678763
0.0510478
-0.109817
0.609014
0.728034
0.197847
-1.04469
-0.363845
-1.23728
0.0108324
-0.0253014
-1.53948
1.43672
0.54444
0.160337
-0.0712594
0.244256
0.916045
-1.43744
-0.607887
0.251973
-0.468686
0.84409
0.119546
0.531673
-0.222785
-1.62624
0.40584
0.0336214
-1.57489
-0.99943
0.534562
0.21799
0.282827
0.457163
1.18974
-1.83316
1.0954
-0.72816
-1.18552
0.511928
0.0581057
0.119208
-0.102391
0.925518
-0.641447
0.970908
-1.81725
0.89699
-0.0318667
0.965269
2.15052
0.110819
0.0518145
-0.144298
1.3781
0.942984
0.816036
2.8534
-0.503606
-0.00976093
0.717654
0.69139
1.21923
-0.0391855
1.4792
0.047165
-0.317002
-0.899394
-1.24925
-1.17133
0.339855
-0.539029
0.0215311
0.176628
0.165429
0.124254
1.00906
-0.067928
0.33179
-0.848589
1.72434
-1.88484
-2.25617
-0.582103
-0.126836
1.21025
-1.38799
-0.341497
0.794759
0.597378
-0.379421
1.70841
-0.15475
-1.59526
1.81366
-0.812152
0.135231
0.187949
-1.12906
-0.320678
0.513788
0.278202
0.998431
-0.836822
1.05406
-0.471683
1.2928
-0.467478
2.0582
1.48482
-0.495644
0.284947
-1.10613
0.561196
0.709355
-0.0944456
1.05572
-0.496268
-1.27225
0.93763
-1.16748
-0.470696
-1.83802
-0.402215
-1.4938
0.998559
-1.60742
-0.739401
0.241032
0.338297
-0.67094
-0.957441
0.662474
0.582326
-0.277916
-1.10561
-1.41683
-0.178411
0.385783
-0.0995568
0.205847
1.46632
0.710492
1.81484
0.122843
0.654843
-0.576961
1.09772
-0.779531
-0.575145
0.175586
1.08843
0.791436
0.47051
-0.855341
-0.69141
0.355376
-1.52073
-1.21813
0.74729
-0.0585376
-0.627477
-1.23698
0.608025
0.36567
0.405053
-0.314095
-1.39158
-0.621319
-0.604692
-1.0227
0.00895801
2.13079
-0.421718
1.39292
-0.972935
0.322639
-0.678831
0.243677
0.11284
0.460623
-0.029356
-0.181984
0.273181
0.895014
-0.413973
-1.29519
-0.847793
0.0719401
0.734444
-1.48238
-0.734119
-0.940815
-0.62315
-1.60168
-0.50136
-0.76162
1.16361
1.83415
0.295923
0.713746
-0.894513
-0.227948
-1.11853
0.917505
-0.564132
-0.686956
1.35163
0.49346
-2.29612
-0.58166
-0.595289
-0.326048
-1.16059
0.160793
1.70749
-0.499238
0.00784746
-0.171574
-1.3937
0.472648
0.814601
-1.1798
0.782617
-0.78666
0.682248
-0.261033
1.14839
1.94744
-1.05187
0.526202
-0.375958
-1.39264
-0.358263
1.5594
-0.863778
-0.473709
0.127501
0.426054
0.0815442
1.1242
-0.519029
-0.804787
-1.3849
1.27105
0.447128
1.17233
-1.77488
-1.31093
-1.19058
0.0900322
-1.1719
-1.25098
1.36452
0.911464
2.9157
0.287582
0.0401803
-3.04572
0.287247
-1.35582
0.578415
-0.225529
0.462217
0.879523
-0.797361
-1.17784
-0.150242
-0.22471
-0.0214537
2.44297
0.272606
-0.623505
-0.751869
-0.129576
2.41065
0.542492
-0.204244
-1.06015
0.701504
-0.291861
0.279539
2.27242
-0.42955
-2.10158
-1.36308
-0.891494
-0.733303
-0.488545
-0.839281
-1.15006
0.573728
0.554436
-0.99489
0.357207
-1.13673
0.483391
0.284397
-0.499658
-1.40899
1.22624
0.893954
0.617064
0.684141
-1.11912
-1.13461
0.978076
-0.0153906
1.62103
-0.271711
-0.459086
-3.17185
-0.091529
-0.281476
-0.119434
-1.59257
-1.60576
1.23332
-0.872444
0.20129
0.783763
-0.0153541
1.08931
0.00857697
-0.411346
-1.35723
-0.229562
-0.210826
-1.05205
-0.577703
0.632294
-0.56696
-0.968696
1.16308
0.908142
0.735546
1.68744
2.20324
-0.351002
-1.37951
-1.03008
-3.02024
0.0957948
-0.304761
-0.774259
0.694699
0.702382
0.962373
0.0538294
0.354901
0.282062
-0.68564
1.11228
-0.67613
-1.14383
-1.48466
-0.391033
2.1315
0.935792
0.301792
-0.484812
-0.941627
1.30266
1.34292
0.962428
0.222545
-2.17491
-1.22629
-0.41206
-0.760076
-0.784978
0.833264
0.790273
0.00667308
0.192855
-0.767739
0.385284
1.96294
0.855795
0.828893
1.27147
-0.986858
0.317341
-2.33406
-1.89236
-1.31545
1.47269
0.4769
-0.982167
-0.803627
0.236893
0.00603629
0.510853
-1.07179
-0.27826
0.301384
-1.75355
-0.445718
-0.49197
-0.951756
0.309918
-0.929134
0.515905
-0.903088
-0.247109
0.807524
-2.21601
-0.0899262
-1.30732
-0.0992438
-0.560159
0.312616
-0.823012
0.793443
1.06957
-1.39683
0.312091
-0.0224063
-2.10553
0.653332
-0.283676
-1.24951
-1.20547
1.75714
-0.395421
-1.02475
0.487938
0.487919
1.29004
-1.32136
-0.38523
0.626787
0.373421
-0.364611
-0.860462
-0.82388
0.667357
1.14849
0.670066
0.939273
1.71708
-0.538775
1.06911
-0.276746
-0.862615
-0.18341
0.575992
0.0169944
-0.24052
-0.519146
0.396281
-0.485498
0.428115
0.737894
-0.337807
1.35195
-0.718077
0.243265
-0.799913
-0.247017
-0.11992
-0.671123
-0.126865
-0.818853
1.6947
-0.244937
0.215427
-1.41879
-0.0912575
0.545573
-0.497114
-0.524496
0.965655
-0.483912
-2.36859
0.625679
1.03096
-2.11799
-0.673271
0.249272
-1.13698
0.634666
0.976275
-0.499763
0.666048
0.484809
-0.95153
-0.581097
1.41851
0.899341
-0.452057
0.0710584
0.729378
-0.130001
-1.0351
1.2541
-0.623019
0.838306
-0.592693
-0.84854
-0.28402
-0.908125
0.363992
-0.996003
-0.827345
1.91984
-0.141068
-0.272534
0.0442013
0.275587
1.55117
0.568682
-0.411183
0.997958
-0.267616
-2.03544
-2.12603
1.21578
0.888399
0.33256
-0.198918
-0.145854
1.20082
0.622959
-0.696012
-0.0975721
-0.0594254
-0.539093
0.394975
1.47519
-0.737791
-1.00256
0.678787
0.631537
-0.216157
0.712795
-0.982807
0.2848
0.19188
-1.76158
1.44317
1.77548
-1.62603
-0.35342
-0.401994
-0.337084
-0.26426
-0.387642
0.925136
-1.85183
-0.972024
0.67413
0.251757
0.970366
-0.56143
-0.380465
1.1104
-0.335717
-0.0822712
0.85459
0.258747
-0.303888
0.716201
-0.156435
0.770326
0.627214
-1.1014
-1.63576
-0.770885
-1.76674
1.02514
-1.35019
-0.151006
-0.590804
0.813707
0.470717
0.164193
-1.04605
-0.0711134
-0.368811
-0.743534
-1.0819
0.259476
-0.228983
0.798079
0.608756
-0.886143
0.128329
0.238614
1.03812
0.513431
1.96291
0.646821
0.894284
-0.729731
-1.41607
-0.705245
1.16371
-0.192065
-0.628686
1.07535
-0.356573
-0.524892
-0.58109
3.01445
0.647427
-0.527537
0.554453
-0.440118
0.0287551
-0.473502
0.582855
-0.707468
-0.654386
-2.17605
-0.687648
1.47598
0.394255
0.13855
0.858284
-0.122088
-0.623317
-0.279157
-2.05091
0.268371
-0.371682
-0.0456471
-0.25776
-0.260798
-0.613983
1.16584
1.70445
-0.729108
1.76992
2.87478
1.48433
-0.179164
-1.65036
1.44285
0.22072
-0.914886
2.19825
0.186329
0.891294
0.578338
-0.0487424
-0.0802409
-0.123226
0.0760722
0.0611453
0.362808
-1.39986
1.3448
-0.00549081
-0.0635796
0.889482
0.35607
-0.0719129
-1.06619
1.22277
-0.211047
0.379775
0.86057
-0.371594
0.697512
-1.45543
-0.831981
1.23349
0.448744
-0.759977
-1.0978
0.504807
0.178565
0.838691
0.430334
-0.604827
-2.15665
-0.621189
1.3086
-1.38715
-0.732684
-0.442123
0.670088
-0.467603
0.110122
-2.53999
0.254915
-0.175205
-1.11536
0.107098
1.55192
0.31283
0.108562
0.430944
-0.969103
0.010284
-1.55455
-0.612544
1.52206
0.423068
-1.52699
1.44617
1.37242
1.50391
1.26903
2.02141
-0.294179
0.688423
-0.129211
0.585105
1.33272
0.203564
-1.35554
1.06171
-0.216008
0.455699
2.57811
-0.797134
0.965281
-0.514303
0.789413
-0.152019
-0.4621
-0.0700137
-1.07462
0.457739
0.441767
-1.25636
0.363554
0.567394
2.32705
0.0244452
1.22895
-1.05134
-1.63531
1.61014
0.454272
-2.08004
0.684407
-0.965994
-2.58656
0.227944
-0.314104
0.430496
1.13398
-0.781622
-0.566413
1.17419
-1.57187
0.530353
0.900729
-0.0529748
-0.690744
0.782559
1.04798
-3.78015
-0.75153
-0.603608
-0.133231
-0.394474
0.87671
0.0839218
-0.0549813
-0.185369
-1.59029
0.51876
-0.737101
0.827971
0.503261
1.22309
0.350791
0.726954
0.569963
-0.305793
-1.25099
0.509049
-0.0926194
0.299511
-0.747257
0.861694
1.00645
0.0834047
1.82461
-0.652093
0.0224569
-0.445064
0.153701
-0.923865
1.59803
0.678711
1.21514
-0.626507
0.637799
-0.626981
0.659624
-0.184857
1.48801
0.0657732
-0.918294
0.117422
-3.27774
0.0330493
-1.44601
1.88099
-0.141634
-0.167244
0.422805
-0.693749
-2.63528
-0.773231
-1.04578
-1.33205
-1.04007
1.22467
0.706873
0.598718
1.02602
0.237931
0.318267
0.633446
0.533889
0.942395
1.37034
0.248981
0.270998
0.180106
1.39833
0.473188
-2.30765
-0.286105
0.516163
-0.191107
-0.288324
1.26148
0.766989
1.53446
-1.09784
2.35219
-0.170206
0.400509
-0.0335686
-0.038515
0.176544
-0.832731
1.13283
0.968447
-0.714444
-1.53636
0.598378
1.88869
-0.946366
0.70328
-0.649659
1.78902
1.15544
-0.525283
0.254614
0.480772
0.21406
-1.00602
-1.03351
0.795823
1.29076
-0.791719
-0.543831
-2.32297
1.05285
-0.535639
-0.246844
-1.21962
0.265252
-0.249203
-0.134237
-2.34916
-0.582603
1.14734
-0.911543
-0.708204
0.0721732
-0.37671
-0.981165
-2.68164
0.399384
0.551176
2.35967
0.0642221
0.866555
-0.281129
-0.663184
0.0224404
-1.3722
-1.02591
-0.709132
0.378226
-1.20419
-0.539754
-0.20333
0.626143
1.53821
1.12488
-0.843878
1.28598
-0.0733078
-0.0849751
0.504593
0.316201
-0.331323
-0.0859306
0.285674
-0.127924
0.456382
0.800697
-0.032771
-0.357597
-2.12524
1.71954
0.499695
-0.723593
0.0550042
-1.40906
0.166234
-0.491537
0.186265
-0.536712
0.46547
2.27177
0.95632
0.0858424
0.306081
1.15517
0.515146
0.356991
-0.350444
1.267
-1.48199
-0.0821669
-0.22093
-1.12143
-0.245775
1.64785
0.185487
-0.71806
0.229485
0.210507
-1.47364
0.70364
-0.223688
-0.831859
-0.0860729
1.31676
0.290616
0.83184
0.0909892
1.04763
0.424367
1.14682
-0.85021
0.531449
-1.03274
0.197726
0.0670661
-0.290844
0.976381
-1.13019
-0.620405
-0.140822
-1.30957
-0.497035
-0.26001
-0.0158943
0.275214
-1.23556
-0.609776
-0.955289
0.488476
0.199811
0.145352
0.679646
0.535135
0.303917
0.649275
0.911126
1.02108
0.125321
1.01557
1.35569
-0.0782622
0.458673
0.561347
-0.947333
0.780982
0.603864
1.1695
0.727514
-0.54559
-1.86214
0.774607
1.00397
0.279215
-0.053775
0.263289
0.773106
-0.409041
-0.821658
-1.4469
-0.4204
0.438326
-0.148517
1.22828
1.56258
1.06844
-1.33821
-1.08714
-0.44054
-1.56442
0.363298
-0.250616
0.511522
-0.546985
0.83397
-0.542671
0.241246
-1.14497
1.07276
1.71931
-0.201695
-0.757593
0.213856
-0.310701
1.04441
0.853802
1.22752
2.00063
0.163337
-0.00233685
0.197038
-0.364466
1.04198
2.92857
0.138584
0.968863
-0.670365
0.634082
0.0196681
0.0131338
0.0466991
1.84609
-0.616664
0.602583
-0.465874
0.992065
0.984807
-0.39428
0.801345
0.382604
0.306959
-0.895782
0.297273
3.47185
1.41386
-0.601215
-0.444918
-0.483139
-0.0676006
-0.392553
-0.897224
0.818724
0.71173
-0.772387
0.292914
0.548002
-0.0190034
0.845837
0.427305
1.07909
1.13449
-0.172867
-1.52207
1.39738
-0.544724
-0.778501
0.413554
0.797371
2.18937
-0.460498
1.20339
-0.188518
-0.215602
0.0588839
2.73193
0.790147
-0.453713
0.307359
1.76086
-1.12524
0.551226
-0.770534
0.586962
0.190066
-0.0564408
0.514128
0.0645878
-0.458359
-0.350571
-1.33641
-1.22401
-0.567266
0.823463
-2.28272
-1.25254
0.0658873
-0.991575
-1.30216
-1.55299
0.984164
0.316183
-0.908665
-1.23843
-0.354784
-0.686927
-0.526626
-0.243189
0.236822
0.209725
-0.0870704
0.227885
0.81527
-0.888986
0.782716
-1.30934
0.0666281
-0.0217391
-1.20161
-1.2756
1.46913
0.0083758
-1.48602
-0.975989
-0.921251
0.0467772
-0.647613
0.59505
1.687
-1.89937
-1.00436
-1.51415
-0.825566
0.618019
0.941314
0.461396
-1.08531
0.356752
-0.238465
-0.933476
1.52781
-0.266429
0.732276
0.141504
1.26977
-1.86443
0.100428
-0.575492
-0.573819
0.742944
0.995869
-0.324927
-0.151944
-1.07928
-0.246629
-0.290574
0.250173
-0.201186
0.542931
-0.81929
0.00653938
0.45008
0.703022
-0.0299385
0.390141
-1.69505
-0.66636
0.822621
-0.441726
0.946787
-0.386192
-1.95948
-1.85301
-0.139715
-1.91846
0.385937
-0.141994
-0.600161
-0.853119
2.52438
-0.412643
0.414889
0.286621
-1.27382
-0.864005
-0.396655
-0.0632434
-0.584185
0.889553
1.40334
0.470193
-0.106725
-0.172836
-0.790644
0.411821
0.816245
-1.11929
-0.132025
0.904125
-0.340914
-0.59109
0.270721
-1.72258
-0.362977
0.136817
0.00557152
0.573714
0.985281
-0.813874
-0.232513
-1.07491
-2.45972
0.911966
-0.540775
-1.82137
-1.12453
1.04364
-0.507463
-0.724521
-0.319867
0.217567
-0.551927
-1.61588
-1.40887
0.245493
-1.36493
-0.476582
-1.226
-1.30734
-1.6029
-0.759777
0.390455
-0.798772
1.81684
0.839786
0.569307
1.36051
1.55175
0.742965
-0.832112
-0.316583
0.535789
0.208215
1.18546
0.804417
0.284516
-0.413441
0.497883
0.354353
-0.000578941
-2.16994
1.05544
-0.397362
-0.00293181
0.28037
-0.270447
-1.43155
-1.54901
-0.349544
-0.723571
-0.0305339
0.742071
-0.397711
-0.740402
0.0220758
-1.01187
-1.07731
-0.347525
-0.459224
-1.11111
-0.687634
0.522401
-2.22018
-1.55991
-0.573336
-0.812993
-0.525344
-1.06532
-1.19896
-0.714346
-0.708381
0.288114
0.339834
1.20687
-0.796918
-1.5525
1.40293
0.407708
0.250919
2.36578
0.00105849
-0.326243
-0.381463
0.139044
-0.678095
-0.0191203
-0.12238
-0.542864
-0.781138
-1.75004
-0.701124
-0.987012
-0.76473
-1.50028
-0.158399
-0.608532
-0.65203
-1.46193
-0.994031
-1.18253
-0.904113
-1.26359
0.353464
-0.181217
-0.464435
1.73117
-0.183221
-0.287303
0.603588
0.90674
-1.29566
-0.0842686
-0.0232365
-1.13718
0.705662
0.207381
0.302717
1.69544
-0.986893
1.84413
-0.581315
0.297306
0.872502
1.05681
0.704521
1.50627
0.783493
-0.241755
-1.07149
0.145175
-0.626616
0.153029
0.890063
-0.0593628
-0.325585
1.33286
2.45539
1.38285
0.920077
-0.839092
1.62857
-0.451916
-1.36558
-0.513838
0.324647
-1.54015
-0.50109
-0.50376
-0.743496
-0.398977
0.342522
-1.21751
0.475633
0.685904
-1.1961
-0.53122
-1.42263
-0.399965
-0.429421
0.527307
0.735491
0.404211
0.895547
0.901878
1.80153
1.45303
-0.276451
-0.544783
-1.16006
0.438879
-2.34049
0.774544
0.697617
-0.462076
-0.411502
1.76316
1.00323
0.819606
0.526667
-0.287645
0.651467
-2.1059
-0.713715
-0.238215
1.24285
-0.437866
0.0534011
1.244
-1.90163
1.05598
1.52616
0.848323
-0.706871
0.0181489
1.6025
-0.570817
-0.814952
1.68663
-0.596432
3.01901
-1.71369
0.898822
1.10553
-0.82421
0.524563
1.79438
-0.73053
1.07835
-0.887253
0.82623
-0.641926
1.57578
0.0328962
-0.155931
1.35895
-0.384176
0.106402
-0.673897
0.754977
0.810989
0.567572
1.11782
-1.31344
-0.318841
-2.25173
0.104467
-0.924425
0.974504
-0.213075
0.810763
1.41832
0.210242
0.257887
-0.547531
-0.396518
-0.399217
-0.352688
1.77985
-0.756102
1.1161
-0.6626
0.0230644
0.0839072
-0.925127
1.48824
-0.219931
0.348428
0.716085
-0.756179
0.0283562
-0.499676
1.3942
1.92635
0.324324
0.222674
-0.496209
0.779634
0.471164
-0.183565
0.669147
-1.06981
-1.0657
-0.241183
1.09025
-1.63496
-0.275036
1.44522
-0.456837
-0.32943
1.44906
1.51505
2.65302
1.13491
0.345465
0.330093
1.03574
1.18587
1.17855
1.11641
1.03172
0.488959
0.374997
-0.446147
-2.16992
0.999012
0.841688
-0.764737
1.67718
0.0701938
-0.337505
0.4352
2.25105
0.821671
-0.129963
0.909993
-1.5581
0.358467
0.0646772
-0.939976
-0.257591
-0.431298
-0.927651
-0.273505
1.03446
-1.41175
1.52503
-0.424508
1.34209
0.133618
-0.976108
0.494157
0.752631
1.82725
-0.00814438
0.192931
-0.197932
0.0478631
0.116014
0.491512
-1.29627
-0.607936
-1.99163
-0.80035
-0.183356
-0.896187
0.375621
-0.907318
1.56907
-0.912632
2.29628
0.276012
-0.160073
-0.811226
-0.193577
-1.93975
0.526471
0.295029
-1.33292
0.21508
-0.481329
1.14259
0.591939
-0.465709
-0.37736
-0.150757
0.378653
0.420946
-0.12419
-0.51901
-0.384831
-1.82477
-0.462179
0.231917
0.263366
0.105666
0.518897
-0.546091
-0.864504
0.467918
0.217255
2.12464
-0.31163
-1.78177
0.457996
-1.51649
0.0545398
1.79237
0.747784
-1.30401
-0.305462
0.125617
-0.41938
-1.46101
0.406251
0.647884
0.993831
-0.245388
-0.49738
-0.138748
-0.560044
0.269937
-0.260985
0.689533
-0.244835
1.59909
-1.4059
0.0807236
0.185844
-0.607454
-0.669866
-1.48032
-0.0201729
-0.204144
0.626026
0.371808
-0.557609
1.23303
-1.25085
1.10179
0.887458
-0.219487
-0.00294661
-0.861668
-0.377309
0.676833
-1.05018
2.00052
0.785575
-0.482394
2.22087
-0.919802
-0.0266041
0.429308
0.885309
-1.92379
2.04956
1.31599
-1.66465
-0.455036
-0.571566
-1.26772
0.261523
-0.493174
1.8242
0.934694
0.43707
-0.664596
-0.570688
0.370719
1.75756
-1.01031
-0.914929
1.48408
-0.595194
-0.0517793
-0.253687
0.690558
-1.28614
0.8087
-0.168258
1.16575
0.963864
0.117696
-0.0748749
-0.00761248
0.901234
1.10646
0.0690444
-1.33293
1.31385
1.35824
0.188058
1.03061
0.252804
0.80059
0.533811
-0.092176
-1.17649
0.575652
0.349519
-1.5938
0.912686
0.133754
0.852844
0.595987
0.432551
0.102652
1.42134
0.411106
2.75145
1.41694
0.394686
-0.0199261
0.666918
0.897605
0.396515
-0.825054
0.197226
-0.0778283
0.216681
-1.14326
0.103775
0.25527
-0.762109
1.24944
-1.06925
1.29068
-0.230083
-0.0976755
0.965328
0.6045
0.056157
1.51341
0.407768
0.219383
-0.659262
-0.307738
0.798033
-0.63038
0.525754
0.121155
0.827081
0.114696
0.295559
2.28991
-0.500732
-0.693524
-0.267646
1.1126
0.13941
0.20916
1.32706
0.299404
1.45011
0.93014
0.981741
-0.55511
0.0387503
0.743269
0.279792
-0.284462
-0.913084
-0.807227
-0.273729
0.361266
-0.260688
-0.121782
1.30718
0.226933
1.13525
-0.299166
-0.257151
0.354988
1.17669
-0.738193
1.39544
-1.46548
-0.505363
0.0150996
-0.477242
-0.786537
-0.244672
-1.04433
-0.441538
0.265886
-1.00393
-0.0782554
-1.84881
0.0614345
-0.306648
1.60752
-0.589657
-2.31209
-1.04603
-0.484113
0.192646
0.520504
0.523052
0.456325
-1.02703
2.61888
-1.87947
-0.61698
-0.116165
-0.689206
-0.461974
-0.376704
-1.23111
-0.701398
-0.9273
-1.08393
-1.65273
0.210573
-0.425086
-0.133229
-1.71979
-1.22663
-0.88643
-1.10401
0.156922
-0.0282659
0.257086
-0.353547
0.509664
0.529633
1.4645
1.80906
2.23274
2.41572
-0.322744
1.06387
-0.0220654
-0.788224
-0.839368
-0.474285
-0.690397
-0.856734
-0.572883
0.904336
-0.612355
0.719101
-0.148544
0.599763
-0.172961
-2.02167
-0.430681
-1.66063
-1.7807
-1.42674
-0.375662
0.325155
0.45872
-0.27259
-1.17623
-0.544963
1.00616
0.332079
-0.567621
-2.4945
-1.05719
-1.05232
-0.90479
-0.808735
-1.07841
2.75879
-0.83501
-1.13601
1.08586
-1.26545
0.90693
1.65639
1.5806
0.616472
-0.908532
0.311574
-1.26585
1.67092
-0.122942
0.931095
-0.681695
1.56001
-1.13348
-0.380386
1.02256
0.613256
-1.26036
-0.746186
0.447498
-0.272898
0.839449
0.252974
0.724047
-1.92276
1.59841
0.712473
0.457149
0.636253
-0.149252
0.59134
-1.31566
0.813517
0.0408886
0.486074
-1.47784
0.148664
0.170038
0.272907
1.14816
-1.33177
1.33816
0.795899
-1.17654
1.69135
0.885768
0.788872
0.206534
-0.217841
-0.696785
-0.682601
0.903188
-0.123608
-0.523055
0.933461
-0.379052
-0.075275
-0.814069
0.176231
1.33744
0.528374
-0.220717
-0.0151087
0.17041
0.809782
-1.44962
0.435356
0.528289
-2.96135
0.395081
1.35753
0.418751
0.537547
-0.825618
0.376157
-0.64667
0.820948
-0.692267
0.120225
0.375893
0.22088
1.47015
-1.64388
1.14732
0.0590936
0.560407
0.221231
0.493051
0.784623
-0.455651
1.45375
0.121352
-0.0005601
0.296902
-0.318785
0.143637
0.219256
-1.25136
-0.495859
0.326634
0.536001
-0.928389
-2.26372
0.685677
-2.18051
-0.275647
-1.78621
-1.97685
0.888654
-0.79548
1.19727
0.89561
-1.03315
0.00960669
1.18143
0.130358
0.368241
1.50776
-0.714445
0.753169
1.21406
-0.308979
0.166769
1.18274
-0.159404
-0.433153
0.445987
2.26582
1.21873
-0.913407
0.663463
-2.56284
-1.66905
-1.86321
-1.78692
-0.0638662
-1.28855
-1.08062
-2.95599
-1.55467
0.0993721
1.00468
-1.10287
1.1207
0.414229
1.12936
0.542886
-0.834682
-1.18761
0.443467
0.511433
-0.493554
-0.3872
0.920952
1.67543
0.988625
-0.591909
0.567895
0.943989
-0.830179
-0.839185
-0.803722
-3.14435
-4.37443
-3.5917
-1.39281
-1.07973
-1.12727
0.235013
-0.0783638
0.09296
0.326233
-0.802272
-0.708233
0.278941
0.28125
-0.120431
-0.70791
1.44211
0.0367839
1.73677
1.16274
-0.0661163
1.99733
1.07903
0.945751
1.86826
-0.909467
-0.0850363
-1.53948
0.648427
-0.668191
0.375007
-1.46558
-0.174654
-0.501417
0.838998
-0.543888
-0.00788489
-0.676623
0.758138
-1.00041
0.508253
0.256602
-0.0457913
-0.754457
-2.75682
-0.610483
1.84708
-0.117424
-1.96254
0.496186
-0.233914
0.190179
-0.615046
-0.163095
0.473338
0.453551
-0.473088
0.841643
-0.629746
-0.750952
-0.0804691
0.370072
0.193776
0.156707
0.0116504
0.311321
-0.242609
0.166068
-0.300521
0.0461616
0.343115
2.01713
-0.534913
-0.00944055
-0.459924
0.0630134
-0.855634
-0.493632
-1.08607
-0.0173706
0.0154946
-0.411472
-0.309696
1.05023
0.722104
-0.280487
1.2317
-0.962217
0.601739
-0.49601
0.189592
0.378854
0.00554544
0.50131
-0.280118
-0.047082
-0.3587
0.259399
-1.11148
-2.06792
0.486119
0.495624
-1.1134
-2.0039
-1.91571
0.167239
-0.973693
-1.08033
0.218362
0.721254
-0.153522
0.571175
-0.812818
1.14103
-0.234887
0.599627
-0.0663032
0.982782
0.181595
0.0540526
0.990377
-0.237983
1.31941
0.399226
-1.46641
-0.0364732
-0.557445
-0.619449
1.15581
-1.43157
-2.08062
-0.758554
0.306783
0.301882
1.13319
1.16049
-0.68523
1.07697
0.68826
0.114624
-0.360633
0.36413
-1.59843
0.758543
-0.586
-0.335343
0.301807
0.751943
-1.05068
-2.08936
0.680899
0.506208
0.591614
-1.27286
-0.903983
-1.35182
0.862558
-0.370516
0.482584
0.531137
-0.247179
-0.263027
-1.29958
1.11837
1.18544
-0.41011
1.53758
0.778058
-0.583993
1.12829
-0.00986083
1.54579
-0.841479
0.485274
0.0191496
0.896888
-0.0545845
-0.62691
-1.10811
-0.126948
-0.309787
0.70525
0.804059
0.405226
0.526004
0.482082
0.663622
0.299989
0.370136
-0.91399
-0.747859
1.67928
1.90614
0.88948
0.763853
0.36178
1.59433
1.09108
-0.32164
1.36854
-0.703156
1.04183
-1.26358
0.175086
-0.314686
0.0130132
-0.102613
-1.36495
-0.303454
-2.64191
1.89908
-0.316959
-2.14939
-0.0954616
0.120104
-1.0466
-1.44235
0.342398
-0.844866
-0.545208
0.307202
0.165958
-1.01687
-1.26381
-0.429566
-0.693768
-0.050679
-0.924881
-0.646034
-0.536779
0.688229
0.345117
-0.903859
0.713967
-0.940407
-1.12952
-0.145663
0.493276
-0.0395697
-0.630663
0.18218
-0.57973
-1.20648
0.877333
-1.04301
0.144488
1.85662
0.645797
-0.609011
-0.777398
1.3034
1.39125
-1.4762
-0.79951
1.40827
-1.34388
0.0604302
1.75711
-0.370892
0.655132
-1.78306
-0.186754
-0.594233
1.2739
0.929879
-1.51359
-1.2314
-0.232694
0.0945758
0.779631
-1.29393
0.131982
-1.96519
0.000367946
-0.907243
1.11154
-0.173788
-1.15765
0.442713
-0.997325
1.22959
-0.247367
-1.51818
0.660401
1.3904
-0.286457
-0.731433
0.367438
-0.740189
-0.382401
0.49439
1.08196
0.58689
0.71233
0.310772
0.910271
-0.00209746
0.481723
1.74209
-1.1692
-1.08288
-1.26459
-1.13745
-0.270136
-0.375814
-0.653161
-1.39312
0.247549
-0.350638
1.24755
0.431152
0.141366
1.16225
-1.14959
0.685279
0.793541
-0.443609
2.00471
0.153087
0.758136
-0.204394
1.43004
-0.273678
-0.161966
-1.03408
0.0723457
-1.52262
0.98366
-0.340558
-0.830935
0.372381
-0.407832
-0.230628
0.929382
-0.776928
0.467516
-1.36384
-1.09979
-0.413844
-0.274633
1.1544
-0.854618
-0.717321
-0.297483
1.40611
-0.870177
1.68376
0.514398
0.0267665
-1.43264
-0.00896233
0.757262
0.657349
-1.69649
-0.675312
0.759999
-1.53922
2.48281
-0.34969
0.66865
0.6138
-0.0939603
1.06648
1.57685
0.0455349
0.211377
1.19217
1.0298
-0.941562
-0.84048
0.42673
-0.694267
1.1316
0.545016
-0.578504
-0.182632
-0.077912
0.0605601
1.03856
-1.66769
-0.987367
1.73426
-1.07763
-1.10766
-1.28112
0.574146
-0.049015
-1.36605
0.850517
0.0902422
-0.16969
-1.69291
-1.04144
-0.332725
-0.748153
0.653977
0.325821
-0.427636
1.43515
-0.194049
-0.74446
1.55773
0.298689
0.180549
-0.506164
-1.36201
0.358591
-0.0484541
-0.261607
-0.157838
0.860319
0.613284
-0.379438
1.64953
-1.18688
-0.900181
0.272745
1.60304
1.20667
0.125989
-0.0911469
0.306861
1.13592
1.11401
0.151193
0.44881
-0.821882
0.38943
1.27992
-0.0660963
-0.306094
1.83714
-0.692049
0.0496332
-1.4133
-1.19077
-0.915843
0.341936
-1.0769
-0.549236
-0.650275
-0.182375
1.0525
0.513659
-1.59014
-0.462467
0.501181
0.792233
-0.270826
0.705151
0.0381282
-1.23427
0.38822
1.28107
0.578263
0.564608
-0.783506
-0.439286
-0.212979
0.0937783
1.01742
0.592265
-0.511187
1.52478
0.299402
0.889339
-1.29464
0.0893888
-0.241008
0.893389
-1.10416
0.31083
2.03329
2.07032
-0.638212
0.842705
-0.736001
1.77281
0.90231
1.97785
1.3927
0.712218
-0.429091
-0.79521
-0.830942
-0.25995
0.189753
-0.904171
-0.032157
0.57818
-1.01121
0.641281
-1.78155
1.22441
-1.46648
0.510688
-0.378558
0.300817
0.46345
0.495253
1.44346
-0.614871
0.211543
1.06693
-0.96353
-0.711323
1.53603
0.175788
-0.950574
-0.749854
0.324661
0.117463
1.59299
0.905527
-0.587451
0.162933
0.32005
1.577
1.02414
-0.462672
-0.0446416
-0.0319632
-0.0472854
-1.53304
-0.888441
-0.0653904
-0.69169
-0.553029
0.627835
0.303757
1.00379
1.52654
1.72889
-0.668619
0.546191
-0.508385
0.809749
0.249146
0.805936
0.741968
-0.286719
-0.434571
0.806882
1.51871
-1.27342
-0.70067
0.909193
0.0400268
0.932421
0.213279
0.0881658
-0.740874
1.23494
1.51798
0.822806
-0.69896
0.0405207
1.73868
0.578736
-0.231422
-0.292807
-1.66502
0.202
-1.15844
0.596834
0.568165
1.57452
1.06359
1.59216
0.0850241
0.000440551
-0.318864
0.618594
1.04501
-3.06409
-0.482566
-0.960323
-0.542373
0.973518
-0.291973
-1.52131
1.58401
0.796466
-0.324978
-1.41055
1.12743
-0.36112
-0.252232
0.213985
-0.525114
0.579493
1.46588
1.05793
2.43286
0.955675
0.833281
1.23467
1.48332
0.607876
0.803072
-0.5816
-0.958144
-0.370608
1.50349
0.466244
-0.273312
-0.0295366
-0.857063
0.0918138
1.43523
0.293251
-0.0185625
0.743741
0.763408
0.124175
-0.523833
-0.232586
-0.321322
-0.757257
-0.844388
0.103735
2.26773
-1.34521
2.04066
0.645135
-1.82716
0.00146355
-1.0489
0.581276
-0.458227
0.206989
-2.82752
-0.570402
0.710171
-1.37558
-0.437918
-1.90617
0.940276
-0.271139
1.12328
-0.358683
-1.14169
1.08541
0.441776
-0.157513
-0.622544
-1.69798
-1.77003
-0.304666
0.202482
0.52669
0.203629
-0.21172
0.334895
0.703619
-0.952385
-0.851767
-1.49993
-0.0904445
-1.6073
-1.43265
1.16348
-1.8143
0.792892
0.608957
0.607776
-0.511217
-0.530129
-0.254783
-0.384946
-0.539668
-1.18387
-0.308504
-1.27527
-1.68177
-1.924
-1.86996
-1.03117
0.971515
-0.574647
1.27752
-0.985627
1.41042
-0.238756
-0.279685
-1.28997
-0.878779
-0.643253
-0.582417
-1.083
-1.41133
1.38589
-0.517929
-0.342401
0.828087
0.0241747
-1.50807
-0.211926
-0.899821
-1.00446
-1.6634
-0.566443
-0.247012
-1.56955
1.18919
-2.2649
-1.01266
-0.726326
-0.527662
-0.266827
-0.221249
-0.0962016
0.507688
0.305178
-0.693742
-1.04336
0.319323
0.253442
-0.0479037
-0.912372
0.53788
-0.603983
0.603813
0.0756837
0.306045
-0.989788
-0.376371
0.043852
-1.59387
-0.302504
-2.14613
0.1176
2.35294
0.079926
-1.28299
-0.68479
0.645518
-0.90266
-0.381776
-0.584132
-0.75859
-1.68223
0.176493
-0.054583
-1.17032
0.179551
-1.70026
-0.318839
0.77611
-1.43678
1.71697
-0.684536
-0.282166
-0.484815
-0.423383
-0.810089
-0.683781
0.318424
1.41319
0.458085
-0.121752
0.996253
0.614933
0.905699
-0.130797
0.671104
-0.915312
0.816604
-0.459043
-1.11243
-0.131976
-0.309364
-0.258102
-0.935482
1.54183
-0.504474
-0.700298
2.19064
1.74418
-0.483408
0.117142
-1.91022
-0.57748
-1.62147
-0.146519
-0.966091
0.726743
0.0637866
0.362053
-0.605628
0.230273
-0.379667
0.943386
1.02991
-0.747042
-0.48297
1.28313
-1.1555
0.881385
-0.169398
-2.77035
0.00281786
1.53987
-1.14806
-0.112025
-1.1925
1.11824
-2.02604
0.0791109
-0.815394
-1.63934
-0.0287514
-0.100185
-0.265495
-1.2326
-1.35491
0.310437
1.26201
-2.45398
-0.0835906
0.143439
0.141244
-0.363308
-0.264298
0.807167
-0.880123
1.11378
-1.96612
0.63246
0.930818
-0.27754
0.435735
-0.482773
-1.27806
-0.343958
0.122992
0.921583
1.11108
-0.0646221
-0.087703
1.18403
-0.330489
-0.224593
0.0137591
1.95136
-0.179233
-0.554245
-0.144055
-0.185479
-0.361318
0.944763
0.969435
-1.58011
0.101677
0.208288
-0.386538
-0.0873892
-2.01362
0.72711
-1.07429
1.1834
-0.436124
0.91826
-1.16094
0.765321
-1.52146
1.85746
-0.0729702
0.696849
-0.33566
0.221938
-0.600229
0.0643506
-0.874139
-0.759173
1.35378
-0.360679
0.398405
-0.728085
-1.49515
0.944883
-2.38815
0.605531
-0.178267
-0.764021
0.171832
0.322167
0.486723
0.255481
2.54201
-1.37203
0.635021
-0.212477
1.16816
0.114252
-0.433529
0.0137686
0.186502
-1.81107
-1.01264
-1.16278
0.586429
0.0494354
-0.0827028
0.0115042
-0.253017
1.16263
1.75424
1.20075
-0.449792
1.05394
-2.10538
-0.983954
0.683465
-0.79859
1.4702
0.354167
-0.149944
-0.800499
0.420215
-0.584492
1.54667
0.0105551
1.17023
-0.445909
0.646158
-0.877596
0.146513
0.557992
-0.782978
-0.519169
-0.60213
1.09981
-2.21466
-1.17279
1.03545
1.82148
-1.12372
-1.51779
-0.453099
-0.912429
-0.954266
-0.581131
-1.26737
0.687219
0.0353544
1.53234
-0.690394
0.929448
0.70294
-1.76596
-0.310904
2.16974
1.39069
-0.527032
-0.72204
0.86935
-0.96707
0.606939
0.431974
-0.0916551
0.0905774
-0.942984
0.497549
0.229647
1.46466
-0.101672
0.22944
0.27893
0.284698
-1.80595
0.811933
-0.147243
1.66618
0.715731
-2.69724
-0.431443
-0.57114
1.00174
0.519244
0.614558
1.42511
-0.178955
-0.377314
-0.832914
2.77604
-0.244861
-1.09741
1.17412
-0.471704
-0.478493
-0.238013
1.89424
0.923433
1.16884
1.19643
-0.374911
0.332355
1.81693
-0.946621
0.650575
0.439904
1.30982
0.350432
0.748606
-0.0562985
-0.646004
-1.2062
-0.125228
-0.0109488
-1.35942
0.191432
0.187967
2.23754
1.06654
-0.673177
0.857145
-0.247313
-0.238216
0.672168
-0.397226
0.290409
-0.452824
-0.369265
0.224137
0.461568
0.588099
-0.283436
-0.651315
-0.585854
-0.152106
-0.124444
-0.160238
2.32749
-1.62547
-0.593276
0.666589
-1.18093
-0.182403
1.17198
1.97648
-0.276761
1.65655
-0.672452
-0.809245
-1.22347
-0.855368
-1.50069
1.11195
0.617723
-0.275165
0.93003
2.20576
1.12802
0.987506
-0.993672
-1.46997
1.03578
0.960758
-0.750376
1.53204
2.0019
1.04091
0.656072
-0.00991023
0.050139
1.85598
0.261976
-0.2959
-1.26978
-1.13287
-0.184302
1.866
0.917472
0.165404
1.10701
-1.82814
0.717961
-0.296954
-0.28232
-0.820356
-1.35969
-1.2877
-0.0306566
0.822147
-1.51499
-0.135783
-1.09604
-0.169537
1.67531
0.985143
0.422351
0.0359308
-1.56292
-0.904504
0.280577
-0.757663
0.0138165
-0.31951
1.64221
-0.450257
0.399219
0.894957
0.544672
0.604937
-1.43669
0.282295
0.326232
-0.828233
0.297724
2.31561
-0.929965
-2.47428
-0.49014
-2.48549
0.245915
-0.170469
-0.204568
-1.24243
1.20619
0.170381
0.444477
0.627572
0.284732
-0.513024
0.0250332
-1.30592
-1.67789
-0.165608
0.0634374
0.906807
0.639225
2.30611
-0.364767
0.88335
1.83943
-1.00556
0.356209
-1.66782
-0.0369596
1.06963
0.356299
-0.166498
-0.219808
0.615789
-1.01024
-0.157676
1.91288
-0.30411
0.728597
-1.06481
0.223633
0.542329
0.321258
-1.39194
-0.18182
0.541519
1.22424
-0.310271
-0.189375
-0.292146
-0.816417
0.0737072
0.372357
0.375072
-2.57717
-0.71881
-1.92683
0.160185
-0.0172434
-0.439179
1.65484
1.27177
0.364491
-0.447492
-0.582644
0.0592782
-1.01249
0.342545
0.530119
0.077018
0.139982
0.469661
-0.740576
0.195319
-0.390285
0.299434
0.357299
-1.79698
-0.608945
0.328085
1.01245
-1.91348
-0.172131
-0.232976
-0.0149656
-2.50606
-0.472064
0.783528
0.212184
1.32925
-0.611235
-0.496099
0.981761
-0.478108
-0.786607
0.0614782
1.01652
-0.386201
-0.17286
-0.860348
0.86304
-0.460749
0.888026
-1.41813
0.487234
-0.309218
0.151042
1.19807
0.0993434
1.04328
0.825503
1.24578
-1.973
0.468903
0.280684
-0.830385
-0.0794394
0.15833
-0.789556
-0.89147
0.401363
0.205968
0.56245
-0.493942
0.0790349
1.79866
-0.0349606
1.44294
-0.884858
-0.262549
0.107843
-0.82658
-0.291658
0.27767
-0.709595
1.25047
0.799807
2.04747
-1.41979
0.691817
-0.451038
1.63667
0.970664
0.774869
-1.46557
0.271549
-0.961771
-0.90653
-1.13144
-0.841352
-0.00479745
-0.103829
0.261487
-1.00518
0.704532
-0.351952
-0.755118
-0.534833
-0.727747
-0.14023
-0.335991
1.08963
1.26883
1.27491
1.54881
1.6331
0.535511
-0.321359
-0.725023
0.427488
-0.00995065
0.84905
-0.44499
0.447308
-0.34157
1.09387
1.03793
-0.120231
-0.6816
-0.522358
-0.649925
-0.23227
-0.0769286
0.530658
-1.66132
-0.392473
-0.347053
0.259435
1.5032
0.215026
-0.436339
1.31106
0.949102
2.19159
0.973436
0.0144745
0.62495
-0.308166
1.38934
-0.962945
-1.4871
0.995552
1.36965
-1.72603
-0.151992
-0.0150931
-0.913488
0.07842
-1.00198
0.108356
-0.446917
-1.63305
-0.865345
-0.263763
-1.41913
-1.10841
-0.08456
0.90378
0.0331675
1.27489
-0.199151
2.50267
0.741514
-1.43299
-1.47843
0.245048
0.460047
0.818601
-1.94671
-0.846787
1.50795
0.00566
0.121894
-1.90769
0.598446
-0.377838
1.26791
1.1324
0.624327
-0.442634
-1.15517
-1.24194
0.343186
-0.464065
0.185162
-1.34425
1.64474
-1.11624
0.912575
0.427778
0.109233
0.69571
0.207406
0.259744
-0.805214
-1.20493
1.2959
0.71658
-0.120505
1.11943
0.71024
2.72779
0.871906
0.104829
1.68767
2.2392
1.51253
0.119886
0.107197
-0.625589
-0.61864
0.726868
-2.05381
-0.24047
-1.62088
0.509013
0.387664
0.922968
0.57295
-1.01247
0.500042
2.37951
0.00284276
-1.57681
1.14326
-0.202109
-0.58091
-0.893521
1.12123
-0.459534
1.39788
0.584949
1.53045
1.73945
2.01301
-0.0941045
0.140199
0.545395
-0.952408
0.131904
1.70499
0.0685135
-1.91505
0.150175
-1.56378
0.788021
-0.744472
-0.882459
0.0887575
1.21821
0.55807
0.3578
0.568986
0.540811
1.26766
-0.428951
2.77725
0.652542
1.40817
0.173274
1.38982
0.583419
1.08025
1.4669
0.481485
0.650828
1.30429
-0.621105
-1.12558
1.03644
0.471969
-1.36042
0.728868
0.0132114
-1.04586
0.422937
0.29642
-0.604126
-0.0964563
-0.986233
0.44979
1.14265
-0.812716
-0.63456
-0.532419
0.480734
-0.717618
-0.0728928
1.8027
0.308949
-0.994312
1.79889
-0.245289
1.06527
-0.830954
-0.183105
-0.918902
-0.705353
-2.7164
0.716263
-0.421807
-0.549537
1.73584
-2.517
-1.04769
0.377408
-1.17355
0.598541
-1.21337
-1.51382
-0.255688
-2.37466
0.222475
0.216425
-0.416142
-1.04
1.9124
1.01396
0.879786
1.11257
-1.59544
0.447989
0.0056796
-1.60568
0.95708
-0.411892
0.140257
-1.08334
0.73598
0.754698
-0.835003
-2.93239
-1.20997
-0.856142
0.853233
-1.80741
0.635181
-0.650058
-1.24389
-2.31502
-1.5908
-0.322639
0.436083
-0.339889
-0.162918
-0.679223
-0.12685
0.529293
-0.522004
-0.108152
-0.151425
-1.13062
0.0138346
-0.415882
-0.315556
-0.0783853
-1.63272
-1.57928
-0.472272
1.32203
-0.429179
-0.138689
-0.107007
1.00371
-0.107364
0.787807
-0.880526
-0.650062
-0.953329
-1.32544
0.227773
-1.0082
0.700895
1.27067
-0.01626
0.279271
0.953082
-0.235952
1.24478
0.554773
0.119118
0.622119
0.174884
-0.407114
-0.312792
0.344403
-0.341511
1.29432
-0.197252
0.721433
-0.204447
0.109705
0.0269628
-0.847146
0.879039
0.4154
0.738258
-1.9667
-0.74578
-0.456337
-0.577699
-0.851609
1.48913
0.319882
0.000373336
-0.320949
-1.95437
0.396325
-1.22603
0.239377
0.0858658
0.116035
-0.00977038
0.115283
-1.69925
0.386658
-1.3964
-0.752242
1.10212
-0.33256
-1.3354
-0.320044
-0.500184
-0.0684194
0.193204
-0.292103
-0.478674
-2.02223
-1.16629
-1.28999
0.0581696
-0.412664
-0.505692
-0.26548
0.967896
0.159374
0.711925
0.456274
-0.696214
0.381898
-2.15177
-2.09691
0.397443
-1.03019
-0.388184
-0.573198
-0.416435
0.887212
1.19608
-0.904794
0.158333
-0.143972
0.389968
-1.31412
0.922068
-1.17281
-0.149125
-0.0626619
-0.810891
0.640697
0.174671
1.24915
-0.419145
0.669541
1.44838
-0.729823
-0.309736
-0.60217
0.553829
-0.806266
-1.78948
-0.540266
-0.753595
0.134489
-1.92699
-1.10951
-0.602133
0.136475
-0.640682
-0.358243
0.719471
-0.102465
-0.292986
-0.205211
-0.655478
0.022398
-0.72684
-0.837714
1.00796
-0.0242362
0.352564
-2.17422
-0.375084
0.925243
0.90994
-0.688133
-0.42614
1.16008
-0.403412
2.8499
0.279047
0.408023
0.212109
0.525946
-1.89054
-0.0586563
1.41825
-0.0454775
-0.344784
-0.471293
0.386628
0.220976
-1.06062
0.782244
-0.0792859
-0.872662
0.54459
-0.398914
1.9407
-1.02803
0.894105
0.167505
-1.01487
-0.820577
0.13853
0.0907483
1.23663
1.5964
0.6013
-0.823835
0.326278
0.919492
1.09942
-0.998431
-0.573592
0.122453
-1.49262
0.221696
1.25897
-1.01563
1.12739
-1.33744
0.783432
0.267662
0.483953
1.2311
-1.11079
1.29842
0.530259
-0.112053
0.59316
-0.0848576
-0.056331
-0.058225
1.29358
1.52442
1.48265
-0.060219
-0.938129
1.05176
0.797481
1.00398
-0.0746322
0.0907831
-0.204255
0.931037
-1.42767
0.202616
0.19844
0.273098
-0.193298
0.324626
-0.343504
0.142822
-0.897001
0.800622
0.55006
-0.192519
0.155551
1.40255
-0.402698
0.985986
-0.0554422
-0.791768
0.102537
-0.748094
1.42742
0.243355
0.490586
-1.10194
-0.195256
1.1825
-0.526233
1.48771
0.31487
0.178159
1.46139
-0.275913
-0.940858
1.16341
0.119293
1.10725
1.42155
0.302497
-0.0497519
-0.284552
0.111161
0.537665
-0.721627
1.51491
1.71477
0.581264
-0.388812
1.59389
-0.631648
-0.033181
-0.0694476
-0.992208
0.370309
1.37182
-1.06806
0.356252
0.724175
-1.72937
-0.1408
1.91977
0.565295
-1.49918
1.38066
-1.75969
-0.701222
0.307939
0.822305
0.538688
-0.624404
0.702853
-0.750184
0.0422215
-0.522633
0.266704
-1.38476
-0.260134
0.480298
1.12408
-0.108247
0.728081
-0.663802
0.261524
-0.285772
1.47949
1.31917
-0.0912945
0.300775
-1.47804
-0.98666
-0.620258
0.235937
-0.277471
2.84057
-1.0152
0.862563
0.121195
0.473888
0.376889
1.82132
0.873935
1.41025
-1.16735
1.047
-0.952522
-0.104564
0.668538
-0.660209
-1.77977
0.385564
0.278596
1.16668
0.250148
-0.783079
1.37682
-0.535293
-2.79625
2.63984
0.774099
0.379512
-0.197344
-0.513478
-1.84561
0.927511
-1.92926
-1.41341
-0.429521
-0.328452
1.62464
-0.472065
-0.320414
0.31613
-1.90334
1.24507
0.311645
1.26113
0.0309504
0.713517
1.35446
-0.527325
1.07545
0.00126918
-1.18909
-1.03029
1.19463
-2.25421
0.416566
1.02821
0.186847
-0.45548
1.33514
0.121349
0.204455
1.17035
-1.04683
1.42982
-2.43303
0.0467113
-0.987775
0.166845
0.0704584
-0.178028
-0.172806
-2.52606
-0.705596
0.510064
-1.0967
0.0908359
0.805463
0.538057
1.44353
0.77918
0.821829
1.32478
1.42695
-0.988447
1.32066
0.530174
0.0258989
-0.0863955
0.467505
1.24302
-0.859817
0.171068
0.648427
-1.39804
0.100942
0.728346
-0.0052253
-0.104044
-0.132287
-1.58467
0.215143
1.52536
0.427667
0.536812
-0.824452
0.336164
-1.13341
0.164391
0.0698037
-0.368163
1.86639
-1.74625
0.380142
-0.30611
1.83772
0.117397
-0.223073
-0.706168
0.244255
1.18545
1.36425
0.451772
0.186022
0.992859
1.00987
1.03394
1.63342
0.694766
-1.45166
-1.1391
-1.92041
-0.711365
1.26779
-1.86776
0.211605
0.148707
-0.975132
-0.744146
-1.08204
-1.04484
-0.864257
-0.695357
-0.0165514
-0.713428
0.0564269
-0.699402
1.20123
1.52137
-0.330593
-0.283425
-1.47837
2.02308
-1.03591
-0.749183
0.488268
-1.32221
-2.35046
0.609042
0.070445
-0.332131
0.897722
-0.4304
-0.954394
0.149374
-1.41334
0.253723
-0.792414
-1.05156
-0.670568
-0.762617
-0.810492
0.146462
-0.643604
-0.110313
0.138931
-0.10211
-1.25587
0.473401
1.67132
-0.433999
0.610128
-0.108805
0.104137
-0.632677
-0.240066
-0.793081
1.73799
-1.92532
1.36097
-0.420606
-0.905024
0.372398
-0.640156
-0.0778585
0.675069
0.0926642
0.0866892
0.0175138
0.802638
-1.12138
-0.497086
0.251623
-0.42651
0.129467
0.231957
0.616135
1.04273
1.37476
2.21035
-1.94982
2.62995
0.848865
0.482965
-1.08235
0.188149
-0.83544
1.28544
0.425818
1.19713
0.0272828
0.320832
-0.768497
1.2745
-0.602961
0.109177
0.667138
-0.854412
-0.411962
0.00883557
-0.911031
0.0443071
0.675263
0.350441
0.332426
1.40312
1.59631
-1.00356
0.988885
2.03956
0.498994
1.02055
-0.167277
0.928365
-1.66146
-0.0425001
-2.00847
0.30341
-0.173827
-0.604604
-0.192206
-1.31523
0.777609
-0.0414061
1.23063
-0.160359
1.14177
-0.638367
-0.981086
-1.37548
-1.49378
1.10791
0.414285
0.378703
-0.738636
2.40191
-0.635561
-1.03355
-1.03868
0.700659
-0.942179
0.877677
-0.188569
0.65154
1.03859
-0.949382
-0.355094
1.13479
0.967968
-0.541159
0.0419896
0.771129
-0.129878
-0.0698625
0.482927
-0.905711
0.652241
-0.546531
-0.869345
-1.78771
-0.827091
-1.02871
0.774435
-3.12495
-1.86216
-1.60373
1.48854
-0.512452
-0.754787
-0.384343
-1.26843
-0.507595
0.481853
-0.261854
1.53927
-0.478623
-1.0464
0.82165
0.408399
-0.893775
0.880437
-0.862559
0.246636
-0.171182
-1.16262
-0.172514
-2.13278
-1.32822
-0.388234
-1.84835
0.494638
-0.821339
0.992202
0.264347
-0.0742016
-1.64628
-1.16392
1.48969
0.212443
0.787563
0.227143
0.726721
0.400226
-1.98733
0.370372
0.903853
1.39745
0.74221
0.312064
0.0445036
0.280677
-0.269832
0.0477521
0.961813
0.653671
1.34244
1.93383
0.536901
-0.0751395
0.684886
-1.24692
-2.70143
0.825616
0.621177
0.853327
1.07141
1.24905
0.418265
-0.712301
0.881116
-0.622044
-1.36846
1.01913
0.218373
0.693019
1.46481
1.68904
1.33635
1.42207
0.697654
-2.08572
-1.79389
-0.576619
0.0867993
-0.878305
0.265023
-0.706846
-1.24581
1.88738
2.4867
0.249812
-0.10221
1.3222
-1.09006
-0.552194
0.219863
-0.477184
0.725808
-1.72477
-0.117885
0.702062
0.511736
0.978076
0.264404
0.223283
-1.55627
1.85274
0.944214
0.675277
-0.457892
-1.33203
-1.1671
-0.829162
-0.466735
-0.895781
-0.879367
0.681684
-1.01997
-0.265863
3.35076
-1.49117
0.810257
0.601641
0.0927175
1.8443
-0.243188
-1.03277
-0.353916
-0.925477
1.91598
1.14482
0.973005
1.68614
1.44691
1.51305
-0.75775
1.16945
-1.59472
1.07782
-1.78412
-1.75725
1.01463
0.566488
1.0007
-1.47737
-1.59105
1.01652
1.13124
0.814577
0.472323
0.262471
0.422546
-0.844253
-0.148307
-0.240822
-0.411078
0.388015
0.0264227
1.14784
0.490596
0.1055
1.22867
0.387192
1.34789
1.00464
0.856195
-1.11716
-0.358966
-0.225666
0.608173
-0.646085
0.599986
0.121389
-0.961308
0.719153
0.449182
-0.553322
0.421093
1.56745
-1.23516
-0.0765307
0.1163
-1.37714
-0.578975
0.2633
-0.0241062
0.540932
1.07689
0.606767
0.71974
1.23905
-1.10941
-2.16469
0.728124
0.388268
-0.654433
-0.511142
-0.82075
0.990832
-0.237698
-1.37781
0.565365
1.31134
0.0628595
-1.08346
-0.639461
1.41193
0.918593
0.0310801
0.28194
-0.0271403
0.942191
0.514309
1.19246
-0.145366
-1.04437
0.435386
0.189415
-0.493527
-0.173888
0.297709
-0.569211
-0.849715
0.626577
0.576203
-2.06334
0.38233
-0.930878
-0.696075
-0.534822
1.16941
-1.93506
0.0202177
-0.458313
-1.25591
-0.0518681
-0.329401
0.593581
-0.0450282
-1.18963
1.30219
-0.0969662
-0.195486
1.49586
-0.633665
-1.1953
-2.44775
1.48388
-1.56057
1.0215
-2.09336
-0.300964
-1.11976
-0.395107
0.316934
1.38121
1.0584
0.276325
-0.780647
-1.08465
-0.595228
-1.01995
-1.02228
-0.611342
-0.771864
-0.514431
-0.717643
-0.0937174
0.0608638
-0.717524
-0.236879
-1.40982
-0.515504
0.140888
0.301391
0.388532
-1.7311
-1.44022
-1.59947
0.266744
0.317864
-0.106638
-1.28892
-1.62245
1.36544
1.19223
-0.538869
-1.31631
-0.579543
-2.69383
-2.41172
-1.45851
-3.14059
-0.355813
0.118464
-1.0756
-0.216365
-0.0167842
0.0477343
-0.0353548
-0.786944
-0.505165
0.262941
-2.63228
-0.525568
-0.883813
0.885888
-0.946276
-0.96752
0.079612
-0.962423
1.14484
0.772894
0.268381
-0.461582
-0.606056
-1.15574
-0.986468
0.525151
-0.452741
-0.242341
-1.31242
-1.95954
-1.20851
-0.128253
-0.676978
0.42081
-0.47876
-0.445057
-0.871638
-0.700221
-0.586018
0.314802
0.0526202
1.35742
1.1082
-0.982315
-1.01273
-0.200885
-1.37071
0.892988
-0.702392
-0.469119
-0.955729
0.397155
-0.393128
1.13121
-0.976468
-1.60404
-0.0355411
-0.80914
-1.54506
-0.118619
-1.34159
-1.1879
-0.752885
-0.638344
-0.876452
-0.379724
0.953527
-0.228426
1.04033
-1.70198
-1.31054
0.961648
-0.378726
-0.593291
-0.945307
-1.20552
0.29221
0.313916
0.663037
-1.62366
1.02215
0.0464818
-0.047528
1.01727
-0.988032
-0.0567016
-1.55264
-0.6408
-1.57041
-0.435551
0.387446
0.88482
-0.899102
-1.40601
-0.819325
-1.06862
-0.696505
-0.30316
0.587868
-0.92188
1.35974
0.596579
-0.0404179
-0.16525
-1.10529
0.085791
0.488854
1.72658
-0.836826
0.151777
-0.438849
-0.685069
-0.317663
-0.51485
-0.405113
-0.161949
-1.16403
-1.03705
-1.01751
-1.76976
0.444668
-0.744212
-0.0255752
0.120397
0.285534
-0.787596
1.34764
-1.46429
1.04619
1.23932
-0.470077
-0.642704
1.47435
1.91176
0.279955
-0.198133
0.724717
1.03976
1.87496
-1.61503
-0.0897925
0.057835
0.354383
-0.390594
-0.336638
0.191939
0.127611
0.219038
-0.647759
0.804127
0.840503
-1.01898
-0.790105
-0.899735
-0.774577
-0.46532
2.12339
-0.388279
-1.04798
0.760298
-0.95228
-1.64644
1.22889
0.0666076
0.485029
-1.35132
1.75476
2.30229
-0.669992
0.0924797
0.180683
0.320586
0.942721
0.379068
-0.0160197
0.918258
1.25108
-0.839746
1.2438
-0.627741
-0.14474
0.0220914
0.777718
0.521128
-1.42546
1.39379
0.591404
0.571336
-1.95888
-1.93754
0.867586
1.27859
1.43924
-0.643005
1.43232
0.121243
-1.65068
-0.925639
-0.171555
0.0576817
0.0610483
0.332474
0.439895
0.457651
-1.02103
0.380175
0.209959
-2.06826
-0.578028
0.230523
-0.154472
-0.409603
1.88618
0.0455309
-0.0150145
-0.88814
1.46374
-0.0619012
-1.62851
-1.12696
-0.409592
-0.960439
0.103721
0.194792
1.28535
0.91682
1.97733
-1.33399
-0.920687
0.17099
0.339257
0.618878
-0.0438548
0.129303
0.602998
-0.86689
1.87349
0.306915
-0.332579
1.82508
-1.38727
0.854301
-0.428021
-0.219081
0.107326
0.893071
0.18317
0.633421
-1.09375
0.0524343
0.834233
-0.258616
0.719616
0.657064
-0.33554
0.0162624
-0.562453
0.18771
0.876375
0.33344
1.50802
-2.33727
1.25606
1.63138
1.11185
1.01657
0.515921
0.520091
-0.922555
0.435109
0.370067
0.116528
-2.09131
1.0833
-0.0402074
-0.38229
-0.935136
0.343879
-1.07775
0.651606
0.344234
-0.211346
-2.09049
-0.20694
-1.66585
-0.34047
-1.2338
1.11811
-1.18489
1.65096
0.397532
-0.35516
0.107855
0.501045
-1.69576
-0.746616
-2.78187
0.729921
-0.469353
-1.30095
0.850204
0.101356
0.885684
0.148847
-0.353022
-0.730096
1.77838
-0.453088
0.060286
-0.351458
-2.39641
0.440445
-2.46273
-0.585717
0.147465
1.4788
0.264222
0.170103
0.0780402
1.50481
-0.403118
0.0123917
1.28559
0.595051
0.474334
1.50411
0.574145
-0.296397
0.471975
1.4984
0.26836
-0.168235
1.56277
-0.3376
-0.56229
0.880518
1.19245
1.63318
-0.434005
1.10105
0.166143
-2.16945
0.27332
0.195214
0.361679
-1.14584
0.0106382
-0.169896
0.00244185
0.220297
1.53175
0.0242538
0.779652
-0.319603
-1.20435
0.775081
-0.862769
-0.169069
-0.337357
-0.710632
1.14063
-0.221166
-0.935678
1.02715
0.412568
-0.463206
0.412293
0.154001
-0.594183
-0.722352
2.67221
1.19186
1.16753
0.973073
1.02348
1.59667
-0.61708
-1.91954
-0.392346
0.610053
-0.555819
0.956923
-0.49261
-0.341351
-0.248606
1.33559
0.882048
0.716131
-0.048862
0.535214
-0.0196724
-2.28025
2.09785
2.14048
1.98823
2.16764
0.316747
0.980665
1.46575
0.768925
0.889275
-1.24542
-1.23677
-0.572029
-0.834792
1.17973
0.478313
-0.635164
-0.866013
-1.49212
0.932616
-0.994059
1.88331
-0.104875
1.51761
-0.585378
1.20125
-0.233593
-0.855138
1.20482
0.826561
2.59466
0.661859
0.130319
0.280643
0.723134
1.2742
0.892618
-1.50868
-0.640595
1.11746
-0.803646
-1.65056
0.347968
0.686479
-1.37086
1.67806
-0.111829
0.744797
0.915889
0.724157
1.24778
0.171543
0.270288
-0.519951
-0.10315
-0.0536421
0.203929
0.481417
-0.623004
-0.107395
1.73975
-0.907607
-0.805044
0.66164
0.471521
-0.910143
0.576557
0.576023
1.54479
-0.203706
1.28584
0.494367
0.90897
-0.0674677
0.79801
-1.0416
0.295841
-0.0322336
0.451889
0.613618
-0.261863
-1.19123
0.885135
-0.757397
-2.10801
1.20586
1.76298
-0.452147
0.0677486
1.32278
-0.654735
0.43386
-1.27171
-0.660767
0.373413
-2.0707
-2.20922
-0.218856
-0.278654
-1.77933
0.594291
-0.050187
-0.565778
-1.78692
-0.337958
-1.77526
1.5679
0.593147
-0.775942
-0.121514
-0.593772
-0.579765
-0.90513
-1.13868
0.104665
-1.03851
-0.752944
0.0236283
-0.0877612
-0.178496
-1.70812
-0.517418
-1.07202
-1.1
-1.89443
-1.53241
-0.24337
0.893864
0.666144
1.89821
0.307305
0.0623693
1.10558
0.626548
-1.08477
-1.37648
-1.61291
0.612717
-0.0714254
0.120342
-0.257898
0.19534
-0.790898
0.297724
0.286846
-1.02146
-1.63265
0.400634
-0.441461
-0.83035
-1.87946
-1.83603
-0.439581
0.396896
-0.800222
-1.4281
-1.01231
0.654187
0.159377
-0.317415
-0.0221345
-1.35141
0.0226823
-0.229725
1.08162
0.555916
1.41226
-0.10888
-0.99767
0.757778
0.907784
0.512472
0.915818
1.44096
-1.59116
-1.78308
1.2497
-0.249851
-1.90853
-1.34915
0.343435
0.412802
0.335899
-0.575944
0.40189
0.228764
0.53675
1.85525
0.637199
-1.75035
0.266821
0.31671
1.03364
1.86496
-1.10211
1.21308
0.667498
1.63354
-0.0904249
0.579918
-0.961322
2.67121
-0.305248
1.13413
0.676452
-0.415666
0.433364
2.90254
2.18102
0.847767
-0.095806
-0.53116
-1.19363
1.49265
0.64871
-0.829085
0.248427
0.7739
-1.33523
0.457912
0.670468
-0.0186529
1.00254
0.672083
1.77499
-0.309834
0.15929
1.22506
1.11172
0.713562
1.73147
-0.103812
0.910093
1.15317
-0.436734
0.464885
1.47856
2.20508
-1.35774
0.521086
-1.10028
-0.209277
-0.193906
0.438766
-0.0580273
0.368022
-0.473939
-0.0626822
-1.36614
0.548834
1.39015
-0.758211
0.527964
-0.546783
0.940508
0.109837
-0.487265
0.237511
0.851592
-0.445583
0.365808
0.633937
-0.323879
2.32404
-0.0619718
0.817877
-1.2226
-0.105947
-1.9647
0.206102
-0.836738
-0.402167
-0.845125
-1.87002
-0.710067
1.62534
1.49211
1.11736
0.342104
1.71959
-0.36406
2.24396
0.0337531
0.544842
-0.637319
-0.0376838
0.0665655
-0.317954
-0.0187696
0.81928
-1.31402
0.435001
1.55712
-0.743226
-1.08753
1.01192
1.61741
0.481428
1.04224
-1.03604
-1.00956
-0.35912
0.871296
0.932304
-0.640033
0.269207
2.73089
-1.04686
0.343673
1.53283
-0.345732
0.145046
0.979024
0.368984
-0.118809
-0.49775
-0.932775
0.414772
-1.23005
-0.696968
0.138446
-0.840166
-0.796658
-0.250165
0.217298
0.0998441
0.0623594
-0.573066
0.627136
-0.430826
-0.784816
1.22776
0.491807
0.267203
-0.747834
0.10834
-2.08557
1.07015
-0.0862536
0.394932
0.13123
-0.893701
-0.139081
-0.633572
0.347792
1.62089
-1.03952
0.176412
-0.547729
-0.343445
0.686186
0.126691
1.14557
0.89176
-0.83336
1.62993
0.28812
-1.48283
0.209991
1.56203
0.715166
0.917914
0.257462
0.225373
0.0521538
1.58824
1.10734
-0.658917
-0.0710865
0.168121
0.696015
0.0459535
-1.51412
-1.48822
2.12055
1.55072
0.99137
1.12234
-0.123294
0.0562063
-1.59189
0.932536
0.800276
0.228942
0.334226
0.876334
1.15185
-0.941317
0.668078
-1.16822
-0.836033
-0.611821
1.42219
-0.36389
-0.0969038
0.135894
0.93198
0.784776
1.01642
1.66146
-0.49173
1.43749
-0.441208
0.686053
0.549942
0.182941
0.775493
0.0302147
1.31392
-1.01533
0.593563
0.655961
1.40882
0.89695
-0.9917
0.0976059
1.76673
-0.0551028
0.410131
0.00325622
-0.71923
1.04447
0.0565366
2.52588
0.0886206
0.6944
0.514594
-1.71187
0.295312
-0.213997
-0.336583
-0.803197
-0.38776
0.195217
-0.682686
0.0208125
-2.86751
1.13668
0.388086
0.979051
0.0541133
1.12126
-1.66778
0.487852
-0.917167
-1.38447
0.779479
-0.734411
1.29009
-0.50617
0.104031
-0.630229
-0.481844
-0.775628
0.385454
-1.13264
0.566781
-1.07316
-0.0921929
-0.216612
-0.432768
-1.08947
1.28451
1.32417
-0.0939927
-0.671617
1.06851
0.434249
0.703534
1.62316
-2.59669
-0.320987
-0.33171
0.670186
-1.17852
0.723665
0.318284
-0.573921
-0.644868
-0.872803
-0.53029
0.80921
-0.807147
-1.84063
-1.50535
-0.0740235
-0.815902
0.785386
0.218166
0.390377
-1.45796
1.00275
1.12626
0.601005
0.328538
-0.0355126
-0.67837
0.470469
0.616591
-1.22531
-0.691591
-0.31663
-1.03989
0.0695249
0.235924
-1.05965
-0.0783349
0.165316
0.395966
0.636401
1.30003
-0.375558
-0.153637
0.557741
0.432326
-1.46498
0.723778
0.887399
-1.71544
-1.78174
-0.195376
1.29349
-0.366869
0.726007
0.165439
2.35887
-0.759709
0.252794
-1.17096
-0.556604
-0.822062
0.399329
-1.15439
-1.44898
-0.271658
-0.52288
-0.830078
-0.112719
-1.43268
0.336804
-0.0122563
-0.277446
-0.656964
-0.327063
-0.136537
1.23016
0.941488
0.249871
-0.00475728
0.0660127
-0.354482
1.33678
1.11174
1.91766
-1.24
-0.402379
-0.621651
-0.785385
0.389554
-0.736687
0.16033
0.973562
-0.927878
-0.534923
-0.152399
-1.19963
0.804097
0.0580244
0.845395
-0.470479
0.490069
0.937552
0.416485
-0.498036
1.14646
0.121271
0.28032
-1.12946
1.06162
-1.23971
-1.24369
0.209369
0.045842
-0.0489178
0.391387
-0.528203
0.101802
0.241253
1.25582
-1.13414
-0.0631946
-0.230443
2.09858
-0.330097
0.511809
1.80728
-0.113516
-1.11548
-0.426427
0.602427
-0.475357
1.10765
-1.04322
-0.0660295
-0.191235
-0.83581
0.563517
-1.74654
-0.384236
-0.197898
0.640491
1.06288
1.56187
0.0535876
1.80972
-0.971146
1.69502
-0.881499
0.860761
-0.236594
-0.6212
0.779755
1.35074
-0.66705
-0.224319
-0.344539
0.240496
-0.24794
0.214622
-1.22335
-1.51392
1.44731
0.232717
0.059145
0.580065
0.87188
0.691022
-0.132063
0.574935
0.398731
-0.557075
0.15131
-0.405321
1.42911
0.734245
1.15052
1.43528
-0.0929732
-1.46061
0.422818
-2.09325
-0.624184
-0.820045
0.208847
0.451531
-0.872735
-0.485492
-1.65582
-0.169067
0.939034
2.0301
-1.12666
-2.84242
1.73535
-0.92162
1.071
-0.293486
0.239197
0.967859
1.413
-0.91682
-1.77429
0.681068
-0.777503
-1.18974
0.60661
-1.52702
0.956122
0.796343
-1.07137
0.416288
-0.557061
1.5593
-0.170891
0.0427407
0.223803
-0.166883
-1.1565
-1.04322
-0.573297
-1.1865
1.64144
-0.285088
0.741025
-0.00798197
-1.44156
0.657963
-1.90001
1.84986
0.193133
1.29693
0.549892
-0.0939411
0.038504
0.483883
0.386477
-0.338349
-0.0129735
1.40814
-1.17852
1.11895
0.201555
1.17079
0.918906
-0.104305
-0.814921
-1.10404
0.70943
-0.984616
0.908122
-2.03252
0.726012
1.71737
-0.0996106
0.00747612
0.00654331
-0.910986
0.679365
0.00571734
-0.266201
1.32271
0.307664
0.407746
0.57981
0.0864431
0.953189
0.826541
0.176634
-1.45233
0.313526
-0.539906
1.20084
1.01452
-0.373567
-0.712413
0.200159
1.11268
-0.983886
-0.0709109
-1.62937
1.63124
-0.940297
-0.397754
0.59358
1.38536
0.80864
1.59074
0.0697563
0.554762
-0.0179055
-0.0907322
0.440165
-0.993687
2.26351
-0.962571
0.438922
0.0742908
-0.841859
2.72479
-1.21308
-0.822491
0.334571
-0.366748
0.60307
-0.0937325
-0.582931
-1.69212
0.131081
-0.206901
-0.358253
1.98778
-1.14605
1.25167
1.20065
0.381863
0.761988
-1.78465
0.516154
0.253556
1.31742
0.901919
-0.80855
0.355183
0.738393
1.57061
-0.636816
1.00304
0.459772
-0.124326
1.49032
0.126974
0.247262
0.887451
0.031421
-0.259792
2.40419
-0.597192
-0.0944432
0.546407
-0.96254
-0.400121
-0.885109
1.40245
-0.271071
-0.809678
1.93262
-2.05179
-0.295552
-1.35681
0.0160721
-0.981724
0.173997
-0.665641
0.108725
-0.0591186
0.849269
-0.188541
0.604842
-1.0564
-0.33626
-0.240093
0.966411
0.477271
-0.916256
0.721198
1.77394
0.959378
0.704962
-1.09002
-1.7277
-2.15944
-1.00394
-0.806874
-0.728895
-0.941723
-0.964264
0.813126
0.097711
-0.621446
-0.103019
-1.19851
0.937313
0.53449
1.46279
1.26036
1.56644
-0.697142
0.213829
-0.764936
0.418154
-0.178914
0.909958
-0.280064
-0.049636
-1.00389
0.12666
-1.03904
0.98251
0.245357
0.0665552
-0.0784295
0.827761
0.834148
0.0566157
-1.99013
-0.0665016
0.25986
-0.157906
1.07564
-0.330327
-1.21537
3.82152
1.12127
0.554152
-1.42573
-0.590032
0.928073
0.513242
0.217829
-1.24455
-0.981824
-0.109618
0.711726
-0.704753
-0.453132
-0.205866
-0.578372
-0.629199
-0.375462
1.01405
-0.582322
0.594504
-1.56675
-1.12218
-0.599905
-1.83692
-1.52168
-0.364909
-1.39692
1.68616
-1.46198
0.753816
-0.865839
1.23816
1.89432
1.0272
-1.54978
1.57464
0.644285
-1.83534
-0.210391
1.91715
-0.776175
0.924229
0.526638
0.647413
0.350929
0.542423
0.421481
-0.967662
-0.136684
-0.0677463
-0.0266058
-0.380131
-1.3405
-0.00549329
-1.86274
2.49969
1.43989
0.353861
0.936394
1.19034
-2.23468
-0.593113
-0.713879
-1.22184
-1.38155
-0.603316
1.49682
2.25413
1.4047
0.354953
-0.769535
1.51176
0.299348
-1.83188
-0.857071
-0.845838
-0.495472
0.229928
-1.70173
-1.26476
-0.817173
0.386161
0.129371
-0.383143
-0.758917
-0.00871112
-0.660488
-2.01921
-0.272761
-0.372991
-0.0294342
1.44228
0.747721
1.65359
0.0762091
0.285547
-2.24511
2.67335
0.111225
0.505857
0.751812
-0.489147
-1.22746
-0.155969
-0.744043
-0.64688
-0.0314469
-0.960323
0.531934
0.0326325
0.222911
0.0835878
0.772861
2.32482
-1.04465
0.791771
1.15114
2.43112
-1.50261
0.228907
1.16315
-0.039954
1.11279
-0.650074
0.0163604
-0.397373
-0.171469
-0.0258132
-0.648749
-0.978101
-1.12494
-0.987483
1.03376
0.973078
-2.30057
0.2984
0.571518
0.802809
-1.01285
0.180158
-0.255191
-0.666441
0.276249
1.51858
2.44308
1.01858
-0.402093
-0.0799797
-0.326163
-0.145873
1.38703
0.512914
1.9193
1.07107
0.0322116
0.217898
-0.254076
-0.742765
-1.43604
-0.333571
-1.16506
0.0713079
-0.738398
2.68094
1.46508
-1.05538
0.832715
-0.144746
0.439886
-1.11905
0.20813
2.23161
-0.598052
0.457421
1.0139
2.75707
-1.09688
-0.778059
-0.0554942
0.303529
-1.41937
1.54429
-0.24185
-0.517333
-0.232925
-1.83539
0.709071
-0.405767
0.812543
1.69115
-0.183551
0.0110382
0.645275
-0.275424
-0.0958001
0.893645
-0.518255
-1.72061
2.1006
0.337768
0.947776
-1.58283
2.10829
-0.77448
0.94131
-1.23119
-0.857437
-0.320971
0.056995
1.03704
0.354807
0.58677
0.012469
1.64118
-0.135228
-0.344389
1.44017
-0.141099
0.623707
-0.375874
-0.801871
0.76794
0.34964
0.51572
0.205798
0.804124
2.13804
0.792073
-0.133108
-0.931322
-0.782701
-0.742349
-0.893462
-1.05936
0.024106
-0.237436
-0.809448
-1.12665
0.128274
1.10705
-0.16545
-0.223978
-1.51338
0.529518
-0.0585897
0.767818
0.401863
-0.817411
-1.06509
1.62205
-0.517212
-0.611626
0.160006
-1.23252
0.0220174
-0.695404
0.147561
1.63286
-0.0956147
-0.804567
-0.485411
0.342913
-0.0515104
0.63856
0.874133
0.274097
0.0785586
2.58751
-0.529709
1.70538
0.738997
-2.19619
1.13105
0.644385
-0.122662
2.24086
2.32935
0.88426
1.74483
-0.259208
-0.753117
-0.734131
0.522274
-1.70275
-1.7906
-0.66275
0.347442
-0.451263
0.823122
0.23058
-1.46356
1.64167
0.428414
2.52363
0.932951
1.01075
-0.777317
1.14902
1.88299
1.13494
-0.28068
0.550434
0.00759311
0.547864
0.258454
-0.599125
0.615169
-0.333788
0.920017
-0.113276
0.26571
0.707364
0.378397
0.179026
-0.189463
-0.374828
-0.624603
0.15832
-0.20376
0.44508
1.34045
0.276374
-1.5839
1.06225
1.06874
-1.19632
0.102696
-0.820048
1.05029
1.4642
0.729012
0.281437
0.434573
1.87862
-1.0768
-0.178569
0.779511
-0.109376
0.441313
-1.96708
0.353558
-0.393102
-0.496108
0.743208
-0.160822
-0.197546
-1.30953
1.04732
-0.687664
0.0209758
0.351538
0.906374
-0.272336
-0.133909
0.0526122
-0.308564
0.787981
0.229537
-0.587856
-0.499669
0.154271
0.578304
0.304719
3.09508
-0.566506
0.041366
-0.637484
-1.14631
0.13764
0.609124
1.32057
-0.849908
-0.225751
1.14345
2.01457
-0.698889
-0.0364821
-0.213345
0.0285638
1.47998
-0.634448
0.434799
0.688035
-0.337033
0.283067
-2.29534
-0.194055
0.383468
0.334388
-0.129516
0.931539
1.77504
-0.472662
0.937494
0.762009
0.315063
0.165165
0.0697922
0.973234
-0.194362
0.0195647
-0.74373
-0.530377
-0.666285
0.484099
0.738098
0.957945
0.693843
0.191551
-1.02548
-0.0396813
-0.046186
-0.746065
1.24765
-0.455907
1.54768
-0.403006
-0.637702
-0.851445
1.40445
0.877075
0.758087
-1.47062
-0.430868
0.0805524
1.22927
0.0257965
1.64841
-0.780595
-1.22122
0.407153
-0.485056
-0.870364
0.158538
-0.285992
-0.48201
-0.502183
0.0241414
-0.607029
-1.46095
0.982023
-1.92849
-0.0791286
-0.648151
-0.456972
