1.54915
0.0314817
0.746186
1.53901
1.22201
0.330532
1.825
0.0345977
0.66303
-0.284132
0.482138
-0.0871598
0.319295
1.42993
2.27062
-0.655717
-0.0673804
-2.61323
0.0953346
-0.184861
-2.01241
-0.680216
1.48056
-0.616932
0.235573
0.832278
-0.72344
1.86035
-0.564537
-0.459711
-2.50395
-0.516041
-0.706859
-0.597614
0.130407
0.145411
1.43368
0.262805
0.549635
-1.09855
1.59841
1.46592
-1.00511
-0.996733
0.302611
-0.210146
-0.154864
-0.855327
-0.404848
-0.889573
1.37369
-0.320832
0.822548
-0.435039
-0.021681
0.570922
0.602372
0.856176
0.148083
-1.48566
-1.37217
0.430624
-0.120205
0.701793
1.84899
-0.936311
1.01898
-0.53012
-0.426939
0.780563
-0.167701
1.93657
0.728695
0.555088
2.28949
-1.28623
-1.56591
0.421225
-0.610906
-0.713544
0.796307
-0.0632132
-0.895985
-0.472021
0.257374
1.70181
-1.01431
0.0408315
1.28207
-0.725805
0.0234945
0.0872734
0.937944
-0.357757
-0.0737395
0.102867
2.176
-0.560782
0.314827
-0.925844
0.925949
0.312454
0.385405
-0.137219
0.181555
1.20817
-1.79504
-0.131171
-0.649149
0.25561
-0.38289
0.15997
0.407166
-0.254656
-0.62524
0.18828
-0.899094
-0.536825
0.644353
-0.392426
0.960161
-0.637885
1.62333
-0.46274
-0.516665
1.34243
0.785948
1.99107
-0.227626
0.506997
0.636463
-0.345741
-0.0326106
-0.266425
-1.24875
-0.0529237
-0.805979
0.90504
-0.432743
0.503958
-0.52004
1.06395
0.472163
0.138727
1.41533
0.215048
0.540495
1.32996
0.706585
0.0443291
2.61278
0.342162
-0.0521181
-0.30215
-1.11881
1.5644
1.52766
-1.54879
1.15563
0.742312
-0.573207
0.405013
-0.290347
-0.982398
-2.46326
-1.92534
-0.169629
-0.563698
0.148229
0.31209
0.918751
-0.0125733
0.942854
1.83086
0.476478
0.327435
0.202224
-0.538688
1.23061
-1.55979
0.87281
0.538318
0.962461
0.160454
1.27477
0.163298
0.202315
-0.298608
-0.882186
-0.423983
0.842762
-0.32263
0.198821
-0.21296
-1.18072
0.0876687
-0.370454
-0.10755
0.921708
-1.16088
-0.252963
-0.20248
1.0272
-0.405583
0.363746
0.796581
-0.155958
0.866723
0.707019
-0.0999475
-0.16242
2.97883
1.37108
0.029371
-0.981218
1.22355
1.40599
-0.0589357
-1.31642
-1.20039
0.0316974
1.79034
-0.299052
-1.18992
2.12464
1.224
-1.17349
1.0337
0.0723096
-0.308357
1.01142
-0.776437
1.95817
-0.580619
-1.89156
0.314481
0.0890684
0.747774
0.0374478
-0.96004
0.763315
-0.525398
0.494569
0.884419
-1.71282
0.905196
-0.871249
-0.282145
-1.94772
-0.23187
-1.13014
-0.136362
0.709435
0.971934
-0.433826
-0.251275
1.14989
-1.77435
-0.71455
-1.18896
1.08739
0.137172
-1.25511
-0.0863133
-2.01557
-1.35566
-0.885495
0.0851609
1.67215
0.951834
1.48403
-0.360795
1.02171
-0.543589
0.412145
-1.74544
-0.791086
-2.00664
-0.788995
-0.297958
0.545736
1.25715
1.71102
-0.00475731
-1.1589
-1.19562
1.86355
-1.92223
-0.543444
-0.775001
-0.711399
-1.3775
-2.00206
-1.2109
1.64867
1.60147
0.197898
0.294341
-0.26269
-0.937989
-0.00921291
0.719404
0.0632357
-0.770372
-0.547275
-0.714403
0.864179
-2.26891
-0.336928
1.13223
-0.490968
0.913227
0.796164
0.0182476
-1.3678
-0.120467
-2.33951
-0.889217
-1.15243
-1.44121
-0.550973
-0.829908
-1.52883
-0.280435
0.421129
-0.488835
2.45346
-0.690287
0.307214
0.228558
-0.0500688
-0.0726744
-0.532671
-0.533316
0.598157
1.45296
2.72841
-0.00577083
-0.0886193
0.8422
-0.342814
0.785477
0.342978
-1.13461
-0.440718
-2.06114
0.0516143
-1.7135
0.149023
-1.41179
0.506422
0.869951
-1.08977
0.31379
0.412857
0.0219992
0.466701
-1.56503
0.779015
-0.628018
-0.788124
0.338525
1.37748
1.37669
1.81879
0.0387662
0.00131722
-1.33435
0.994757
-1.17573
-0.737079
0.0193911
-0.00210657
-2.43139
-0.610858
0.351938
-2.25979
1.7803
-0.303176
0.16923
1.08975
-0.37081
-0.550911
-0.418455
-0.304197
0.388228
-2.35007
-1.81935
1.27031
-0.241544
0.225461
-1.46163
0.0689125
-0.625513
0.178542
0.20306
-0.327621
-0.630528
-0.559214
0.00948888
0.411375
2.89949
-0.12948
1.4337
-0.466832
0.649348
-1.11643
1.12558
-0.519672
-0.916024
1.68149
-0.393848
-0.681572
-0.12856
1.10646
-1.17585
1.68467
0.788234
-1.37299
0.550475
-0.234418
-1.20062
0.676628
-0.360021
-0.241646
-1.01506
-0.507197
-0.460116
-1.07369
-0.792229
0.0627378
0.452077
-0.9299
1.19379
0.112522
-1.43056
0.724484
-2.44468
1.08772
0.248842
0.407116
-0.364697
-1.51752
-1.20446
-0.162881
1.40252
-0.456827
2.21313
-0.850758
1.26431
-0.623426
1.14317
0.409623
0.635595
1.62662
-0.0830328
-0.0214271
-1.08405
-0.753995
-0.226519
-1.18219
0.945361
-0.615466
0.283639
-0.128157
-0.634859
0.65469
-1.15016
-1.74921
0.372519
2.16947
-1.62913
-1.22067
0.407123
0.896705
0.677877
0.673986
0.661338
0.510213
-0.528039
1.63928
0.959126
-0.278178
-0.896639
0.985885
-1.56554
-0.361885
-1.95631
0.363118
-0.853477
-0.50662
-0.949096
0.407741
0.201213
-0.407322
1.19969
0.266595
-0.553147
-0.524938
-2.35037
0.732903
0.45182
0.0898722
-0.0082255
-0.466069
1.03787
-0.799975
0.601272
-1.00337
1.14855
-0.253399
0.520186
0.406814
1.03377
-0.236952
-0.570478
1.0132
1.37043
-0.227669
-1.96439
1.44234
1.82134
-0.230561
0.0367296
0.0109195
0.515905
-1.57169
-0.689084
0.67059
-1.58163
-0.231743
0.651305
0.131357
1.03246
1.09365
0.170625
0.0634321
-0.074332
-0.448481
0.546943
-1.67658
-0.0783394
-0.21437
-0.647987
-0.576672
0.421213
-0.735269
0.697555
-1.32471
0.190951
0.287415
-1.37772
2.59058
0.69239
-1.70567
0.76266
-1.15279
0.611933
-0.725042
-1.10332
1.44675
1.36809
1.86921
0.438264
0.546799
-0.181522
0.538897
0.212512
-0.601846
1.4309
0.378745
-1.33773
0.549977
1.04172
-0.229155
-0.936313
-0.776941
0.161423
0.741107
1.8215
-0.020382
0.417501
1.11146
0.451805
0.187097
0.514799
-0.66149
-0.793369
0.337236
-0.688187
0.174293
0.674089
0.181396
-0.434999
0.54621
-0.378752
0.634844
0.414963
0.190823
-0.374192
-0.876393
-0.238143
-0.397436
1.38287
0.896175
-0.178171
-0.146424
-0.908365
-1.27539
-0.421273
-0.25934
0.670806
2.11699
0.128863
1.17909
1.28566
-1.41731
-0.0369764
-2.05219
-1.32068
0.265247
-0.0351917
0.782961
0.792835
-0.445317
-0.183737
-1.68962
-0.376493
1.92531
-1.29769
-1.45241
-0.879034
-0.440853
-1.42332
0.473953
-0.026228
0.718766
1.22803
1.75472
0.193319
-1.4562
-2.64295
0.585453
-0.513775
0.817546
0.115452
0.330302
1.16933
0.0629136
-0.312136
-0.223645
0.725989
-0.230915
0.996657
-0.263563
-1.06282
0.693363
-0.599638
-1.47441
0.283296
0.5974
-1.96671
1.02765
-0.446466
0.363743
0.178828
1.56995
0.659733
0.880437
-1.31631
-0.149474
0.301783
-0.354299
-0.525448
0.331541
-0.277685
0.142855
1.01418
0.127585
2.25014
0.690785
-0.550732
-0.343015
-0.41606
1.39887
-0.742417
-0.622549
0.525417
-1.47377
-0.215933
-1.5713
-1.05774
-0.467882
0.740902
-0.377011
-0.130253
-0.572637
0.450276
-2.11955
0.588768
-2.37935
0.775249
0.418614
-0.202904
-0.232038
1.01028
-0.886314
0.552513
0.730505
-0.0160169
0.510984
0.510395
-0.216625
0.834239
-0.909908
0.24437
-0.864885
1.25553
-0.676455
-1.48648
-0.396393
0.751926
-0.310062
1.46058
0.554099
1.12516
0.584428
-0.284964
1.03032
-0.578798
2.46435
1.38306
2.04732
-0.759602
0.151335
-0.686582
-0.760049
-0.203597
0.241632
1.52834
-0.76387
0.730383
1.3855
-0.197222
-0.440948
-0.127439
-0.924709
-3.2317
-1.2255
0.695064
0.692505
0.852115
-1.88476
-1.35048
-0.523968
2.70944
0.166469
0.359294
0.00389347
0.564768
1.57947
-0.0670251
2.08843
-1.51102
0.886219
0.817752
-2.03973
0.589025
0.168574
1.11806
-1.35651
-0.291628
0.436655
-0.100509
-0.545779
0.267304
0.22161
1.17121
-0.0388192
2.14274
-0.130593
-0.364707
0.793535
0.215033
0.470743
-0.102689
0.600228
0.323393
0.813883
-0.69517
-0.337379
0.177927
-0.762453
0.376181
0.0703629
0.648172
0.528512
-0.857587
0.409677
0.391479
-2.18541
-0.0240801
-0.261362
1.72784
-0.247458
-1.13981
-1.02991
0.976377
-0.446842
-0.0635575
0.864166
-1.50518
-0.133675
-0.431649
1.08975
1.60549
1.03983
-0.199996
0.776402
-1.60199
0.941209
1.29033
0.234106
-1.06614
0.198955
-2.28244
1.87331
-0.828368
1.75707
-0.407729
0.439228
-0.392347
0.304406
0.668257
1.72102
-1.11219
0.259961
-0.385004
1.55301
-0.386929
0.827087
-0.835451
-0.837129
0.11828
-0.536928
-0.27795
-1.66955
0.900621
-0.0818673
-1.09882
0.290302
-0.452751
1.14366
0.589188
-0.574076
-2.69961
-2.82802
0.416482
-0.454187
0.127475
-0.733733
-1.41628
0.602702
1.1968
0.173042
-0.971611
-0.085468
1.20128
-0.555606
1.89058
-0.615721
1.39465
0.185692
0.524129
-0.287826
-0.231999
-0.159725
-0.593777
1.11692
-0.704922
-0.254134
1.77852
3.06265
0.0291575
0.874882
-0.800271
-0.373081
-0.289454
0.356613
0.0331229
-0.494974
-0.446801
1.14971
0.525702
0.324403
1.60139
-0.68656
0.597772
-0.035514
0.298406
-1.63563
0.692707
-0.174208
0.204112
-0.383786
-0.752488
-0.115865
-0.454177
-1.08017
-0.22362
-0.0556378
-0.288267
-0.354803
1.18461
-0.325757
0.491669
0.0299992
-1.98777
1.16086
-0.182231
-0.254951
-0.131865
-1.79814
0.623752
-0.369653
0.16913
0.317634
0.0363305
-0.0809988
-0.392098
-1.22505
-0.989811
-0.555561
-1.34028
0.661123
-2.13301
0.149753
-1.14115
0.801335
-2.02448
-1.08101
-1.38458
-0.275952
0.394231
0.261131
1.12252
-0.798528
-0.16472
0.183114
-2.55811
-1.14964
0.466597
0.85405
1.48254
-0.862142
-0.754253
0.0420145
2.34811
-0.348033
-0.662407
-0.297839
0.753936
0.201612
-0.168371
-0.984193
-0.760052
0.742336
-1.43476
-1.67089
0.0940465
-1.20105
0.614865
1.80746
0.0979324
0.783768
1.07515
-1.12798
0.28042
-1.11085
-0.723897
0.510795
-0.304515
0.321797
-0.00567982
-1.52457
0.964086
-1.02279
1.44824
-1.78784
0.938504
-2.24924
0.614301
-0.877045
-1.41852
-0.218828
0.482811
-0.259721
0.461721
-0.851288
-1.33426
0.8659
-0.97886
0.742597
-0.485607
-1.48157
-0.402912
0.673619
0.515922
1.17757
-2.03756
-1.88439
0.778019
0.337217
-0.396079
-1.13704
-0.648617
0.531185
1.06201
0.500133
0.508676
0.641362
0.496435
-0.728698
-0.556318
0.760442
-1.3595
1.3761
-1.04097
-0.83736
0.555799
-1.23075
-0.206212
-0.14965
1.06696
0.502692
-1.7451
1.19765
0.581089
-0.51552
1.86462
-1.11353
0.232477
0.452232
0.223472
0.0376841
-0.367454
0.55613
0.548157
2.37011
-0.757493
-0.517501
0.437053
0.767039
1.24844
1.16878
0.225744
0.556304
-0.475656
-1.24352
-1.13627
0.147123
0.124239
0.769448
-0.172349
0.215202
-0.0386058
0.23988
-0.346598
-0.203249
1.33539
1.71057
0.762434
-0.29497
0.497304
0.445416
-0.763217
1.51323
-0.885379
0.595587
0.27913
1.22468
-0.467493
-0.930306
2.26212
0.526536
-0.749615
-0.776239
0.748222
-0.650892
-0.119392
0.251406
1.41621
0.587959
0.922202
0.198532
1.36112
-0.717143
-1.02961
0.403303
0.16112
-0.789891
1.15208
-0.466549
-0.426035
0.630752
-1.68912
-1.65409
-1.17309
0.978379
0.713826
1.28299
-0.245026
-0.365256
1.94585
-0.918058
1.25575
0.0757084
-0.337443
-0.48091
0.176769
-0.901832
-0.032671
0.644167
-0.575207
-1.40547
1.22529
-0.357824
1.6514
-1.68123
-1.05317
1.21468
-0.54014
-1.52905
-1.1734
-0.891928
0.189956
1.34467
0.959133
1.04189
0.864962
1.02413
-0.612147
1.32907
-1.23798
-1.5809
1.31129
-1.4932
0.625731
1.53023
1.30582
0.901637
-0.105352
0.455973
-0.809839
0.910914
0.962053
-0.0502205
-1.96997
0.352586
-0.370124
-0.975271
0.0180297
0.350841
0.929622
2.00524
-0.659901
-0.942211
0.98379
0.0207004
0.575875
0.163997
-1.70307
-1.05262
-0.768192
-0.236696
-1.62758
0.8513
1.16645
-0.496029
-0.199394
0.300828
-0.899484
0.28393
0.345756
-0.520762
0.111292
1.3566
-1.78407
-0.869717
-0.730321
-1.26524
0.901603
1.13248
0.738036
2.04599
1.25409
-0.144226
1.3856
-0.308908
0.749718
0.0111847
0.511783
1.96943
1.12489
0.499409
0.707525
1.94226
-0.931608
-0.431133
-0.522063
0.634235
-0.672649
1.3538
0.38538
0.660538
-0.302209
-0.116959
-0.0577953
-0.0898036
0.770369
-0.47558
1.43332
0.301021
-1.34997
-1.09046
-0.664381
-0.833745
-0.709665
0.13799
0.233144
-0.405891
-0.0493346
0.101832
-0.153307
-0.421507
1.10739
0.658769
0.942514
1.81636
-0.0572181
-0.996149
-0.996752
0.262901
0.794817
-1.27398
0.540632
-0.725849
2.27825
1.9537
0.224978
0.897514
0.622189
0.357551
0.935508
-0.514566
0.0966978
1.32923
1.29883
-1.67966
-0.0870153
-0.733078
-0.205538
-0.889005
-0.125489
-0.363047
0.583478
-0.731152
-0.347541
1.06312
0.473434
-1.68419
0.0717097
0.0721513
1.0619
-0.730924
1.11347
0.296708
1.097
0.062816
1.89874
-0.539768
-0.000189022
-1.0958
0.100437
-0.930033
1.43882
0.438888
0.444093
0.943229
-0.640654
-0.15191
1.23614
-0.350876
0.148206
-1.31133
0.901077
0.621043
-0.598319
-0.505845
-0.982624
-0.320619
-1.11374
0.931635
0.0612774
-0.101084
0.610315
-0.929001
-0.42163
0.470181
-1.07326
-0.960735
-0.0228821
0.296778
-0.46207
-0.93404
-1.38197
-0.595715
-0.639962
2.49562
0.568698
1.40709
-2.03137
-0.716865
-0.309172
-0.0125066
-1.53386
-0.588167
-0.236074
0.294339
0.186851
0.00972599
-0.420551
-0.979542
-0.918758
-0.24121
-0.35202
-0.507063
0.894292
-0.252911
0.797326
-0.453791
-0.784259
0.0347147
-1.07697
0.0124263
-0.383012
-0.0906999
-0.610536
-1.0253
0.0462805
0.0890162
0.329248
-1.60267
-1.54995
-0.627446
-0.0907474
-0.302761
-0.897925
-0.356505
1.15755
0.691158
-0.421076
-0.192969
-2.23637
0.549299
-0.333703
0.289688
1.36759
-0.100497
0.334873
0.650992
-0.291496
-0.683304
-0.0981665
1.16692
0.636838
-0.653933
-0.678315
-0.0346172
-1.13651
-1.07098
-2.60104
-1.17802
-0.954375
-0.986183
-0.19589
-1.26661
-1.19644
0.108748
-0.711191
-0.559937
-0.138808
0.33172
0.933882
-0.587877
-0.774272
0.451477
0.378038
0.416554
-0.0619663
0.138223
-0.667762
0.545719
1.13748
-0.26308
1.02226
-2.40786
-0.210623
-1.32965
-0.467911
-0.123526
-1.27343
-0.62085
0.344727
-1.34856
0.164539
-1.38526
-0.434568
-0.113648
0.187163
0.0536419
-0.0727489
0.22395
0.319622
-2.16347
0.631065
0.422994
2.23753
-3.4145
-0.695533
-0.186064
2.12513
1.03761
1.75539
-1.64668
0.756852
-0.692786
0.403685
1.40548
-0.0160479
-2.64228
0.533407
0.178035
-1.83728
-1.89274
-0.476421
-0.162482
-0.636207
0.57075
1.31271
-1.9338
0.105208
0.734956
1.37468
-0.416561
-0.0915663
-0.10847
1.84616
1.49472
1.31633
-1.47744
0.0602383
-0.209676
0.698632
1.91834
-2.43757
-0.599661
-0.342541
1.81023
-0.913592
-0.0231415
0.731501
0.869776
1.49163
1.26214
-1.22265
-1.2432
-0.958835
-1.71116
1.01389
1.60883
1.8472
-1.2086
0.793414
1.194
0.326844
1.07172
-1.31303
-0.46296
-1.15792
1.8406
1.80364
0.859329
-0.042892
0.634038
1.05792
-0.660065
-1.29528
0.180137
0.41408
0.146839
0.130011
-0.510333
0.502709
-1.67575
-0.0884403
0.183558
-0.80553
-0.109098
0.148759
0.790746
-2.39166
0.567337
-0.921603
-0.324173
-0.125056
-0.631855
-0.663317
1.53623
-0.502711
0.869058
0.035664
-0.827674
-1.06581
0.0856037
0.0108569
0.255217
-1.3198
0.496657
-0.174959
1.1506
-0.301447
0.502425
0.31741
0.138484
0.599519
1.20639
-0.53424
0.969935
-1.48782
-0.581294
0.0716295
0.0858468
-0.0757558
2.06296
-0.617949
-1.2098
0.44959
-0.395649
-1.35231
-0.71072
-0.749749
-0.900079
0.258519
0.320829
0.795391
-1.39107
-0.29453
-0.407822
0.19976
-1.2109
-2.3119
-1.13418
0.89475
-2.0304
-0.596506
0.766359
0.868761
-1.15124
1.45135
1.13567
-0.588239
0.387514
0.414169
-1.76807
-1.73067
1.84924
1.31094
-2.96944
0.598931
-0.6034
1.06847
-0.246301
0.451699
1.19009
0.206276
-0.84986
1.07366
-1.00554
0.577475
0.9033
0.643119
-0.198322
-0.599188
1.29318
0.274877
-1.36564
-1.44249
1.39618
1.23029
-1.13744
0.152492
-0.161449
0.157163
0.657602
0.196047
-0.124026
-1.7971
2.36355
-0.569599
-1.03741
-0.172698
1.9027
0.743512
-0.273306
-1.59812
-0.380977
1.55606
0.688132
0.0827489
0.354983
1.1632
0.487705
0.398978
0.371401
-0.736517
0.601697
-2.11053
0.699291
0.35234
0.548922
2.20948
-0.318068
0.875602
-0.58366
-0.679526
0.526251
1.04471
1.11458
-1.0185
1.07978
-1.21105
-1.32724
-0.0814513
0.131092
0.125153
-0.0316336
0.324263
-0.546234
0.583404
0.459547
0.897391
0.119886
0.316291
-0.271111
-0.722762
0.481207
0.878536
0.56289
-2.18141
1.24135
0.581907
1.43385
0.995803
0.175379
0.769114
1.41126
0.535745
-0.059421
0.606369
-1.59979
0.174471
-0.632432
0.369662
-0.345847
-0.935457
1.76587
0.355675
-1.05971
-0.463265
-0.63114
0.253518
-0.780957
0.396965
0.0440991
1.35777
-1.52903
-0.621894
1.79808
-0.557009
1.3482
-0.657038
-0.198611
-2.00057
1.52105
-0.915718
0.206029
-0.116908
-0.000747029
0.592902
1.68017
-2.20058
0.861828
-0.307838
0.105694
0.851491
0.0446039
0.262688
-0.908519
0.78036
-0.477354
-0.430692
-0.933431
-1.55233
0.588315
0.67337
-0.320231
-1.06769
-1.10069
0.18072
-0.258778
1.0458
-0.253841
0.800365
1.13979
0.804669
0.612917
-2.24329
0.31774
-1.86272
-0.709261
-0.587396
0.456337
-1.29929
1.09338
-1.74168
0.922409
0.161341
0.535973
0.614177
-0.700765
-0.45131
0.827102
1.05307
0.306038
1.42472
2.04219
2.11732
-0.868671
0.036433
0.959683
0.0580463
-0.234384
-0.452342
-0.0537138
0.354102
-0.520546
0.246769
0.310298
-1.13774
-1.11708
-1.27578
0.305719
0.934219
-0.264747
-0.512874
0.237493
-0.0718619
-0.579403
0.806869
0.0412977
-0.239784
0.529141
-0.893748
-1.80402
-0.0941054
-0.342275
0.243355
0.626279
0.324874
-0.931981
0.455375
-0.579717
0.663445
-0.53938
1.62656
-0.757913
-0.62247
-1.70086
0.392902
0.315182
-0.25893
1.91571
-0.852989
1.65405
-1.23417
1.0641
-1.5895
-0.609915
-0.0931641
-0.21665
-0.062801
-0.193316
-1.57972
-0.692378
1.439
2.12548
-0.877576
0.518608
0.788408
-0.145076
0.705449
-0.0305466
0.502407
-0.0189885
-1.07337
0.282326
1.90244
-0.134695
1.3815
-0.160502
0.698319
0.314357
-0.597027
0.341136
0.936156
-0.351714
0.28764
-2.25199
-0.128145
2.01641
-0.337653
-0.491733
-1.17496
1.11093
1.17754
0.0824295
-0.450461
0.330734
0.578756
-0.658845
0.589929
-0.847099
-0.432773
0.50786
-0.00845146
0.446198
-0.513859
-1.07679
-0.613039
-0.999839
-0.991803
0.92814
1.0792
1.29185
-1.59515
-1.42554
-0.777295
-1.46301
-0.686315
0.00740818
-0.332383
0.718523
0.814073
1.25498
-0.551223
0.837773
2.25164
-1.12056
0.163552
1.31753
-0.151626
-0.393628
0.0953216
-1.13485
0.148362
-0.901513
-1.23804
-1.65257
-0.716285
0.540041
1.93961
-1.12796
-0.436966
-1.23869
-0.583185
-1.04549
-1.05316
0.463754
0.340075
0.183343
1.31976
1.56649
-1.85161
0.0839047
0.921865
1.32815
-2.22544
0.119494
-0.99948
-0.697392
-1.94624
2.85808
-2.52282
-2.07215
-1.2427
0.0776702
-1.1089
1.13439
1.10781
-0.775222
-1.26844
-0.650267
0.154979
-1.70421
-0.889582
-1.09688
1.70883
-0.479268
1.60812
0.67863
0.651188
-0.321971
-0.628132
0.747447
-0.507512
-0.609135
-1.59679
0.190521
1.51636
-0.36112
0.624509
0.0655466
-0.194978
1.32597
0.782422
-1.20535
-0.370068
-1.38976
-1.21891
0.305868
-0.866914
-1.56498
-0.522786
-0.0542842
0.257642
0.674356
0.20488
1.15557
0.558969
-1.54744
1.29986
-0.634256
-0.560529
1.60484
1.42063
-0.185053
0.68306
-0.2721
1.58798
-1.60259
-1.48785
0.731928
-0.395402
-0.406547
-1.15132
-1.26168
-1.53476
-1.0815
-1.56463
-0.519379
0.10659
-0.0446288
-1.08254
1.49978
1.50214
1.27641
1.47582
-0.50115
-0.877611
1.61914
-0.18647
0.535889
-0.754424
-0.886695
1.62174
0.677557
2.11198
-0.831251
0.441163
-1.027
0.521945
-1.63894
-0.171269
-0.585516
0.115443
-1.68899
-1.96096
-0.172333
0.47852
1.1236
1.8973
1.55088
-0.851778
-0.0899223
-0.259479
0.743649
0.0728923
0.266163
-0.387349
-0.583278
1.03434
-0.702706
-1.1949
1.80049
-0.964629
0.601876
0.116046
1.01842
-0.519045
-2.34969
-0.505635
0.576892
1.24587
0.974453
-0.303986
0.278963
0.796751
0.788664
0.745945
-0.409525
0.959453
1.04609
0.661928
-0.662595
-1.78182
-0.494989
-0.908441
0.0222743
0.117641
0.371535
-0.740517
-2.25875
-0.417245
-0.346041
-0.834211
1.93584
-1.60501
0.1025
-0.595446
0.474699
-0.914147
-0.645914
-0.584632
1.22226
-0.229356
-0.852065
0.880918
0.308113
2.06841
-0.59089
1.25261
0.938447
-0.0887122
1.95047
0.263909
-0.590241
-0.260809
0.514306
-1.05406
-0.614724
0.187617
-1.78866
1.19091
-0.0619229
-1.2609
0.0208116
-1.68142
-0.169055
1.54216
1.58703
0.140062
-0.172449
-0.950293
0.221024
0.509926
1.1825
-0.532892
1.04147
-1.87996
0.637427
-1.33039
-0.13628
-0.351675
0.127453
0.513624
2.37823
0.850517
1.40403
0.231664
-0.133163
-2.89387
-0.464843
0.800162
1.06387
1.23035
-2.42298
-0.681581
0.157276
-1.0932
0.698014
1.05254
0.14637
1.99276
-1.05865
-1.8679
-0.710728
-1.08146
0.991559
1.35069
1.03888
0.360985
0.367716
-1.11167
-0.0841574
-0.186888
0.467022
1.91364
-0.24885
-0.912306
1.08188
-0.294528
1.3891
-0.288818
-1.43402
0.677693
-1.18699
-0.480909
0.906556
0.963085
-1.75583
0.503167
-0.273776
-0.0350749
-0.156048
-0.341238
1.80791
0.177255
0.460909
0.925993
0.486606
-0.573275
0.237816
-0.344646
0.177101
-0.53204
0.455548
0.599726
1.76823
0.237572
-0.124489
1.73342
2.08626
-0.298613
-0.993172
-0.741824
0.3364
0.535277
-0.0252935
-0.120451
-0.932873
1.02957
-1.96206
-1.42078
-0.421925
0.443029
0.569833
0.879481
-0.994104
0.111309
0.752045
-1.3202
-0.275668
-0.203908
0.900206
-0.561614
0.892702
0.494418
0.961496
-0.7589
-0.989677
-0.126102
0.801554
0.899304
-0.598921
0.859347
1.30909
1.66103
-1.97294
1.2525
-1.11344
-0.478785
-0.0966014
-1.4633
0.187429
0.038348
0.00211245
-0.686604
0.539315
1.02021
1.90253
1.25865
-0.197987
2.12332
-0.197374
-1.58865
1.0197
-0.590769
2.12695
-2.13416
-0.800137
0.496964
2.29519
-1.46291
-2.10075
-0.139732
0.177597
0.88411
-0.579088
0.0893314
0.0738843
1.63275
-1.20384
-1.0669
1.90495
0.334055
-1.82462
0.218958
-1.06648
-0.374657
-0.412509
-0.036819
-0.128718
0.4856
-2.58693
-0.536517
-1.66051
0.932037
-1.03039
1.31175
0.84432
-0.341427
0.107169
0.158023
-0.0569875
0.447269
-0.267063
-1.70695
0.602218
1.05012
-1.39483
0.666447
0.352593
0.83792
-1.66821
0.217007
-2.18866
0.373192
-1.37687
0.00196272
-1.72046
-1.90711
0.0719828
0.822023
1.17462
0.369293
-1.30547
-0.375852
1.74621
-0.177636
-0.64904
-0.597655
-0.809486
1.02364
-2.7579
0.658686
0.537418
0.51485
-0.478447
-1.02654
-0.389433
-1.05141
0.245473
0.51104
0.624454
-0.237199
-1.07657
1.01555
-0.26679
0.204908
-0.627655
1.18069
0.22363
-1.07571
0.889719
0.387431
1.46281
0.0652108
0.781554
-0.310513
-1.21095
-0.046346
0.181788
-0.66976
2.12913
0.391496
-0.411895
0.650863
-1.17583
-0.362147
-0.573169
-0.0744475
0.470509
1.59559
0.644562
0.856948
-0.275672
0.419466
-1.56634
1.7973
-1.31568
0.864398
0.205957
0.293536
1.22231
-0.407292
0.530879
0.712459
-0.416827
0.716961
0.219893
-0.65483
0.0515204
-0.483231
0.406908
0.912406
-0.514141
0.209824
-0.227472
0.882342
-0.222964
0.814037
-0.582872
-1.30989
0.522046
-0.333116
-1.32426
0.291317
1.06498
0.299737
0.116101
0.0928691
-0.434248
-1.04227
-1.2576
0.196781
-1.67563
-0.92092
0.95725
-0.501347
-0.0252772
0.116439
3.10613
-1.45206
-0.153996
0.579788
0.461771
-0.750722
-0.274794
0.982108
-0.249275
2.33307
1.05555
0.777761
2.58532
1.42699
0.764645
0.349765
0.745281
-1.88288
-1.40338
0.526193
-0.0900911
-0.557886
0.281923
-1.24045
1.0331
-0.250441
1.30846
1.19681
-0.103668
1.12184
2.19228
-0.631792
-0.691154
1.8085
0.373931
-0.306664
-1.89872
2.40552
0.706068
-0.554616
0.885682
0.532512
0.52444
0.626603
0.0447621
-0.762706
1.46642
0.686363
1.25547
-0.668426
-1.01985
-1.01899
-0.0307832
-0.733806
-0.204979
0.767896
-0.330439
1.34308
-0.87588
0.198979
-0.0198783
-1.50989
1.70456
-1.32027
-0.193881
-0.60874
-0.0363999
-0.82268
-0.586858
-0.363064
-0.154109
0.831704
0.175832
1.66614
-1.23723
1.34479
-0.449474
-1.05645
1.05601
0.583146
1.06807
-0.187598
-0.741331
0.00372261
-0.0232373
-1.49809
0.595814
2.48828
-1.4337
1.11552
-1.0708
1.22416
0.536307
-0.959448
-0.40278
-0.0117655
-0.406804
0.0105141
0.338848
-0.395649
-1.64858
1.53162
0.559842
-0.928699
-0.613236
-0.354187
1.6219
-0.162428
0.532179
-1.70693
2.40614
0.548373
0.000103035
0.863473
0.468933
-0.126921
0.16308
-1.49234
-1.4234
-0.254162
-0.0208288
-0.525701
0.0137516
0.968973
-0.385901
0.244895
0.106731
0.701598
0.882234
0.111238
-0.102232
0.810066
0.0517712
-0.549858
0.0701917
0.733281
-0.168059
-0.0976744
-0.129928
0.828407
-1.04057
0.281597
0.0602573
2.62419
0.8531
0.554417
-0.193155
-1.1576
0.272232
-2.05437
0.718405
1.64511
0.605332
-1.8497
1.00502
-1.00919
0.346238
0.101707
-0.705955
0.899238
-1.93138
-0.700839
-1.73124
-0.0324421
-2.00348
0.981653
-0.766303
-1.29051
0.0311205
0.247203
0.795204
-0.140783
0.500663
1.53046
0.961455
1.97773
0.457272
0.133264
-0.0172277
-0.571125
-0.113002
0.298684
0.643442
-0.310585
2.51103
-0.450602
0.297798
-0.679557
0.484737
-1.93204
-0.858724
-1.36343
-2.14786
-0.328655
-1.17466
-2.07375
0.631141
-1.1376
-1.31408
-1.28439
0.0648362
-0.205147
0.32273
-0.134902
-0.17262
1.27165
0.283292
-0.0861494
-0.131533
0.762707
-0.350694
-0.392613
-0.80709
-0.806009
-1.75034
-0.43202
-0.49698
-0.483851
-0.630655
-1.75271
-1.18219
-0.608344
-1.30468
0.53324
-0.263058
-1.91332
0.609556
-1.58521
0.14049
0.0972579
-0.152926
-0.390017
-0.118058
-0.0097749
0.179181
0.154334
-0.327773
-0.367505
0.107013
-1.77338
-1.58459
-0.71601
0.819669
-1.80343
0.454156
-1.2763
-0.72873
-1.79623
-0.362938
-0.65996
0.301193
-0.771015
0.298167
0.652102
-1.47303
-0.231175
0.530327
0.370661
-1.23771
1.42757
0.43506
-0.117695
1.45479
-1.84677
-1.01833
1.57724
0.195344
1.13757
-0.104757
-0.481368
-1.61569
0.288687
-0.878832
-0.345957
0.257342
-0.95863
0.126363
-0.0536211
0.612358
-2.82351
-0.207806
-0.223081
-1.14255
-0.530711
-0.597554
0.792978
0.666289
-0.729943
1.83868
0.754242
0.248544
0.658453
-0.314227
-0.246984
-0.65376
0.614551
-0.151365
0.395587
0.539973
-0.258463
-0.622332
-0.678846
-0.995462
0.353652
0.332779
0.0901508
-1.31542
0.769279
0.0686889
1.05995
0.189712
-0.064794
0.361169
-0.86812
-1.52435
0.295831
1.17643
-2.86955
0.763252
-1.00965
-0.319517
-0.260978
0.0860292
0.8249
0.428
0.671417
2.19715
1.23439
0.985662
-0.133601
0.0115542
0.14789
1.80955
-2.14378
0.220283
0.486928
-1.00122
-0.216106
-0.23245
-0.915367
1.09781
-1.98533
0.338352
-0.855012
1.16682
-0.225793
-1.65908
1.00316
-1.27006
-2.15136
1.71227
0.610373
0.990192
-0.604268
0.0713048
0.105044
0.603947
-0.0716646
-0.496166
-1.53458
1.53151
-0.0847297
0.0930541
0.388775
-1.25103
0.699375
-0.661504
-0.0178723
-0.17621
-0.607202
-0.44973
-0.677964
-0.00359449
0.813493
-0.25636
0.530512
-1.04014
0.643813
-0.669794
-0.622142
1.14536
1.77693
0.731515
1.00592
1.04808
0.565226
0.032796
-0.585441
0.856989
0.912098
-0.242255
0.671966
0.148665
-0.23988
-0.0797393
-0.837702
-0.561106
2.09171
-0.934071
-0.554359
-0.424706
-0.835721
0.0258826
-0.59377
0.13031
1.22422
-0.5735
0.74007
0.361273
0.213289
0.5844
0.00418857
2.13443
0.237602
0.734919
0.642358
-0.0897984
1.34432
0.747403
2.14183
-0.784839
0.105445
1.20097
-0.248979
-0.308682
-0.501922
1.68602
-0.606753
-0.433732
-0.221405
-0.497055
0.791319
-1.00382
0.914498
1.84421
-0.265674
1.77932
-0.0100668
0.865623
0.555401
-0.540698
-1.14988
1.20433
0.944128
0.544447
0.0464613
-0.960076
0.214142
-0.0234729
0.510047
0.936617
0.586524
-0.234427
-0.711421
-1.64936
-0.349257
-0.776547
-0.698775
-0.515187
1.20741
0.601727
-1.42738
-0.413485
1.11758
0.318636
0.21257
-0.071367
0.42595
-0.414227
1.07715
2.34247
0.169225
1.79657
0.858685
1.52442
0.040842
-0.220355
-1.11261
0.394359
0.417752
-0.533773
0.43086
-1.48628
-0.468892
-0.104779
0.502146
0.287573
0.499138
-0.434909
1.1983
0.827035
0.581836
-0.152249
0.646495
1.60777
-0.992337
-0.644181
0.115078
0.272508
-0.0403052
-0.487432
-0.694047
0.440079
1.46011
0.4993
0.57361
-1.07039
0.393238
-0.0566996
0.542303
0.182147
2.59721
-0.517619
-0.893475
0.885796
-0.601946
-1.29823
0.991885
0.140499
-1.26351
-0.0946017
1.36998
0.190994
-0.204595
0.0341951
1.43285
0.0821894
0.470522
0.0757267
1.08785
-1.51854
-1.66087
0.934467
-3.62417e-05
0.153908
0.329761
1.10173
0.401184
-0.212437
-2.37023
-0.760797
-0.684609
-0.930166
-2.21369
0.612502
0.125953
-1.07231
-1.02606
-1.58801
-0.848738
-0.066374
1.21428
-0.0540214
0.100713
1.03723
1.12529
0.290201
-1.2606
1.45704
-0.394997
-0.77774
0.28877
-1.4135
0.284394
-0.552682
1.35734
0.280477
-1.4987
-0.659603
0.576808
-0.042372
-1.03456
0.57322
0.299909
-0.16451
-1.11012
0.00748543
-0.561894
0.284626
0.622638
8.47442e-05
-0.314872
-0.435035
-1.36155
1.0539
-0.395153
0.566606
-0.898279
-0.392114
1.00717
0.144447
0.979775
-1.93606
1.24853
-2.06102
0.520227
-0.310218
0.890842
1.43099
-0.474723
0.607339
-0.499656
-0.000446411
0.250491
1.45427
0.248211
-3.50491
-0.409897
-2.46387
-0.781483
-0.637216
-1.89725
-0.266857
-1.02674
-0.851754
0.41451
-0.185036
0.501076
-0.797241
-0.219823
-1.97883
-0.331611
0.428327
3.16317
-0.0329564
-0.868153
-1.24023
-1.10131
0.271795
-1.25237
-0.526559
-1.44595
0.199976
-0.22772
-1.26271
0.473532
0.0568802
-0.533425
-1.9276
0.613364
-1.7182
0.293155
-0.349604
-2.04684
-0.266705
-1.72411
-0.936702
-0.109054
-1.00479
-0.719181
1.45023
-1.24646
-0.847953
1.50315
0.135853
1.84268
-0.323911
-1.30477
0.199889
-0.471341
-2.0381
-0.883877
0.216173
-1.42311
-0.856618
-1.06178
1.07345
-0.0300638
0.0629024
-0.511606
0.388865
-0.68841
0.852882
-1.14363
-0.605351
0.271154
0.606072
-0.774109
0.626106
-0.45128
-1.62222
0.662918
-0.602189
0.33276
0.246062
-0.380226
-1.10304
-0.258854
1.2234
-1.73544
-0.351333
0.521391
0.0520217
-1.37661
0.185826
0.698561
-3.18521
-1.24631
0.0444382
-0.166572
0.805429
0.672763
0.463308
0.183218
0.509923
0.200298
0.273188
-0.840182
0.919482
0.0580516
0.965696
0.151777
1.07313
-0.562261
-0.567977
1.30503
-0.271714
-0.516906
-0.231589
1.06049
1.87797
0.384758
0.000146579
0.394878
0.275759
-0.213445
0.744165
0.616866
0.365997
-0.700003
1.1192
-0.399091
0.266704
0.0728408
1.55527
0.617365
0.900942
-0.885456
-1.62929
-2.42535
-0.512925
-0.279211
2.1286
-0.249776
-0.530857
0.156951
-0.0791741
-1.00043
0.182117
-1.32724
0.604238
-0.437461
0.557264
0.750047
0.439993
0.512555
1.33021
-0.156092
-0.363251
0.16773
0.513258
0.287905
0.388328
-1.11645
-2.57159
-1.5083
-1.26384
1.6268
0.500052
-1.29688
-0.10635
2.26489
-0.921978
-1.33091
1.3273
-1.18912
0.12184
-1.01772
-0.131939
0.597886
-0.386557
0.692316
0.00935755
-0.28107
0.864842
0.95794
0.617503
0.146808
0.169718
-0.174994
-0.735663
0.409281
1.00023
-0.144105
0.55422
-2.28033
0.541043
0.777075
-0.745136
-1.16863
-0.471512
0.459584
-0.724795
-1.08171
-0.087357
-0.647052
-0.238365
-1.37423
1.0747
0.144882
0.112197
-0.135278
-0.408403
-0.463194
0.612394
-1.35806
-0.573995
-0.638732
-2.03484
-0.45955
-1.49391
1.87358
1.18961
-0.361839
-0.112256
1.61105
0.815638
0.351883
-0.601835
1.51394
-0.871934
-0.965528
-0.0908523
0.630925
0.755129
-0.343552
0.444105
1.22455
-0.446004
-0.705192
0.619314
-0.600776
1.15153
-1.14398
-1.01071
0.780822
-1.16789
-0.186272
0.622945
-2.02121
0.507772
1.49172
-0.0666192
0.264174
2.6365
0.304827
1.52705
0.920265
0.135929
-1.16016
-0.0760235
-1.84312
-1.066
0.136181
1.38655
-1.38237
0.353012
0.562098
0.377783
1.59252
-0.401639
-0.783535
0.487987
0.807322
-0.759149
-1.03666
-1.27731
-1.00947
-1.22871
-1.12956
-0.333992
-0.130361
0.164802
1.89116
-0.975036
0.961202
1.31317
-1.12392
-0.157149
-1.30172
0.698269
0.159789
0.625314
-1.26123
-1.07078
0.00544884
-0.497124
-0.890584
0.36178
-0.362237
-0.0711309
-0.30077
0.0705081
-0.024429
2.02804
0.725783
1.93615
-0.616159
0.953498
-0.476657
-0.824983
-2.14722
0.368305
-0.213497
0.705022
-0.843156
-1.75799
-0.277421
-0.935723
-2.24546
-2.14476
1.98895
-0.200424
-2.04384
1.22442
1.06713
0.0566393
0.722621
-0.246352
-1.90538
-0.753485
1.01521
-1.10445
0.091902
-0.810994
-0.064914
0.0475137
-2.11382
-0.0892872
1.87869
-0.972023
-0.658346
-0.925004
-0.68348
0.488113
-0.77954
1.42707
-0.748424
-0.152136
-0.718984
-0.63535
0.295887
0.787707
-0.496679
-0.519667
0.12827
-1.38844
-0.529612
0.439944
0.172988
0.174515
-1.92347
1.81421
0.072411
0.191159
-0.12614
0.850461
-1.7539
0.078496
-0.303071
0.84024
-0.387681
0.180477
-0.230993
-1.46639
0.362749
-1.19191
-0.643573
1.00618
1.6536
-0.84216
0.40203
1.16642
0.106145
-0.453753
2.00646
0.143732
-2.01095
-1.61782
-0.420774
0.560431
-0.15309
1.11095
-0.860572
-1.47399
-1.03425
0.821548
0.462763
-0.865874
1.47834
-0.119811
-1.36115
0.325001
0.0677081
-1.01445
0.51415
-1.85351
-0.283715
0.443417
-0.930388
0.297285
-0.208434
-1.31488
-0.681092
-0.114975
-0.891157
-3.19749
1.22018
-0.595615
2.01004
0.439136
0.340931
0.498337
-0.293108
0.569273
-0.628247
-0.43608
1.02543
-0.525041
-0.0321917
0.86734
-0.320805
0.381301
0.0331731
0.703413
-1.34112
-0.733081
-0.718022
1.54611
0.200851
-0.593242
-0.605966
0.0237893
1.06641
0.428048
0.427934
0.503446
-1.12134
-0.586295
0.586979
1.13456
1.02426
-0.247382
-0.352758
1.24602
1.26626
-0.236699
1.9939
0.346471
-1.44204
-0.990741
-0.55657
0.198375
-0.371584
-2.257
0.281408
0.797049
-0.814133
-1.05571
0.39167
-0.269986
0.234991
-0.0876506
-0.638946
0.547482
0.910201
-1.2566
0.86254
1.78047
0.444768
0.804277
1.03075
-0.655665
-0.72161
0.0456841
-0.535427
0.128289
-1.38649
0.948928
-0.593448
-0.184157
-0.505069
-0.256409
0.642064
-0.559303
0.796282
-0.137512
0.311026
-0.857749
-0.629113
1.37437
-0.624704
0.428016
0.170649
-0.634205
1.30657
-0.71201
0.176672
-1.43448
2.24451
-1.06394
1.00601
0.59488
-0.474783
1.28468
-0.382537
-0.450106
0.077795
2.00895
0.523327
-0.55939
0.0993846
-0.0228719
0.647722
-0.930046
-0.824823
0.689581
0.106879
-0.584338
-1.27572
0.520395
0.11741
-1.05098
0.0739834
0.440257
-0.9991
-0.511548
0.441473
0.0953787
-1.85392
-0.697562
0.688188
1.52449
0.712982
0.802004
-0.0367162
-1.09506
0.818144
0.418206
2.10379
-1.11604
-1.3996
0.182741
0.0195839
-0.76406
-0.721514
1.00295
0.170331
1.12024
0.579121
-2.05216
-1.62775
0.318398
-0.439914
0.704623
0.416962
0.859753
-0.420327
-1.27438
-0.818105
0.540908
0.547338
0.0378891
0.546693
1.17631
0.10608
-0.576806
-1.27122
0.44726
-0.426104
0.84419
-0.243342
0.795719
0.155995
0.583672
1.30008
-0.471658
0.572449
0.0978674
0.826963
-1.5892
-0.297419
-0.751402
-0.917286
-0.38919
-1.60261
1.12729
1.2147
0.415565
0.159837
1.95912
-0.0765907
-0.190859
-0.905751
0.961818
1.25484
0.0987371
-0.488101
-1.2947
-0.0932881
0.045194
0.145965
0.655621
-0.418481
1.28338
1.06632
-1.19953
-0.726169
0.767612
1.0665
0.264888
-0.146696
-0.934225
0.431325
0.402509
0.671507
2.77185
-0.346278
1.10123
-1.69404
-0.178028
0.777918
-0.96431
-0.73391
0.418898
0.0893559
-1.11808
1.38579
1.8834
1.26472
-1.27255
1.62142
0.123483
0.696774
0.107898
0.855868
-2.23041
-2.31496
-1.46227
1.20824
0.469719
0.885003
1.90299
0.0767881
0.244939
0.930094
-0.479118
1.47404
-2.36956
-0.992708
0.849498
-0.383605
-0.826679
-0.195004
-0.773867
-0.686793
0.0273121
-0.99864
0.0153899
-2.56002
-1.10124
-0.813761
-0.289882
0.336181
0.655355
-0.0453448
-0.755501
-0.16388
2.35578
1.31597
2.4052
1.17448
1.39637
-0.121152
-1.81015
2.47731
-0.617078
-0.969078
0.328452
-1.19171
0.639455
0.263549
-0.331464
-0.380477
-1.96724
0.868085
0.791926
0.386934
-0.636472
-0.503023
-1.40972
-1.08751
-2.05785
-0.65258
2.24089
-0.0545656
-0.475864
-0.359995
0.663133
0.882719
-0.0667678
-0.361088
-1.17872
-1.05371
-0.241225
-0.798175
-0.465974
-0.413123
-0.0152443
-0.0329967
0.321306
0.0173946
-1.75389
0.680369
-0.488934
0.183858
-0.0315857
-0.893786
-0.418796
0.480928
-1.74767
-2.42115
-2.27183
-0.584574
1.09706
-0.888103
0.501713
-0.0558329
0.922937
2.47361
-1.38767
-0.513341
-0.605622
0.605579
-0.504512
0.11902
-0.660472
1.2089
1.40133
0.957913
-1.31723
1.18138
0.0311211
0.501885
-0.266361
-1.92314
-0.950573
-0.354528
-0.79314
-0.0463864
0.754815
-0.175129
-0.473151
-0.775015
1.13917
1.05071
-1.47184
1.61881
0.0562328
0.131814
-0.464061
0.868349
0.343323
-1.82774
2.47428
-0.500589
1.93629
0.923381
-0.264704
-1.60541
0.538348
-0.423072
1.36093
0.141377
-0.962447
-1.01887
-1.27828
-0.460576
-1.81436
-0.320125
-0.0498142
-0.859975
-0.203512
-0.806071
1.94696
-1.78792
0.511385
0.045516
-0.650203
-0.216362
0.441681
-0.814061
1.2291
0.693605
-1.7201
0.17769
-1.49477
-0.820939
-1.21397
1.17324
-0.652414
0.268205
-0.0641756
0.790031
-0.535604
0.697593
-0.161055
-0.044958
0.183534
-1.56989
-1.15193
-0.925027
1.17733
1.07239
0.298317
-0.319847
0.77623
0.76935
-0.418261
-0.777374
1.74706
0.315045
1.1454
-0.581076
-0.507019
-0.3009
1.68176
0.49802
-1.29928
-2.96161
1.73646
-0.01108
0.680688
-1.2578
0.518973
0.99031
-0.934322
0.711201
-1.2614
-1.31295
1.17371
0.434741
0.0586977
0.682817
0.416688
-0.244471
-0.160353
0.387134
0.970583
-0.807488
1.29377
-1.1926
-0.495108
1.07896
-0.990586
-1.09411
0.750678
-1.45485
-0.0439341
1.16987
-0.702794
-2.3353
0.422296
0.308813
-1.09944
-1.1427
-1.83615
-1.06251
-0.524145
0.399903
-0.66062
-0.0382718
0.756627
0.0327674
-0.807018
1.86178
2.12003
-2.09069
0.0537007
-0.236778
-1.12813
0.697362
-0.296954
0.390057
-0.522209
-0.169262
0.0502467
-0.00924578
-0.0301462
-0.0146718
1.54632
0.94517
-2.93498
-0.478245
-1.03469
0.782217
0.250425
0.705681
-1.46211
2.80602
0.968174
0.1515
-1.0131
-0.728088
-0.0550092
-0.252808
0.302031
0.298253
-0.952293
1.83297
0.601595
1.18092
-0.0792267
-2.09946
-0.500072
-0.40484
-1.72889
-0.95614
1.18821
-0.446583
-0.232557
1.54038
1.09328
0.363046
-0.514462
0.637096
-0.27639
-0.44715
-1.74667
-0.167277
1.18483
-0.641381
0.0618063
-0.719625
1.52865
-1.15259
-0.359373
0.18789
-0.746133
0.8406
-2.23712
-0.315061
-1.30573
-0.238581
-0.322532
0.25355
0.206488
0.40279
1.51814
0.183774
0.160693
-0.259726
1.28334
1.07146
-2.39392
2.01641
-0.903666
0.768062
0.825605
-0.575302
1.07286
0.0996141
1.34106
-2.23211
0.818181
-0.123243
-0.143049
0.09833
-0.331673
-1.2821
0.0277894
-0.24448
-0.603711
-1.43435
-0.94566
2.73631
0.0490645
-0.485506
0.10964
0.722687
-1.84477
-0.878403
-0.462132
0.465955
1.46136
2.00424
1.15502
0.075539
-0.37561
0.355562
-0.858327
1.09884
1.05174
1.08005
-0.347749
0.436426
-0.115766
1.54882
0.147841
0.0203389
0.209615
0.765557
-0.910725
-0.553555
-0.174222
0.921462
-0.13551
2.41281
1.13248
0.725236
-0.293869
0.00099323
-0.54806
1.10164
0.0427109
-0.83093
0.368536
0.166681
0.21555
-1.95297
1.33975
0.549507
-0.489554
-0.820015
0.985212
-0.247471
0.35823
0.49819
-1.19573
0.753318
-1.43578
-0.0866788
-0.964315
-1.30522
0.567194
0.0487579
0.117735
-0.777122
0.430901
-0.380052
-0.672131
-0.515433
0.501209
-0.0986084
-0.981833
-1.73534
1.25884
-0.568209
-1.2016
-0.255638
0.568147
0.172611
2.02651
0.623173
0.114996
0.547249
0.392113
0.288411
0.0107877
0.334993
-0.989674
-0.594856
1.55793
-1.34474
-0.121337
-0.748125
-0.0116107
-0.722977
-0.801563
0.248288
-1.04458
1.02713
-0.135017
1.00502
0.0632573
0.0833347
1.74487
-1.17277
2.8633
0.45077
-0.671085
0.503621
0.112373
0.956889
-0.390412
-0.236587
0.224848
-1.16457
-2.78425
-0.674772
-1.14294
0.000194591
-0.0664877
-1.28552
0.466038
0.221564
-0.934664
0.173125
0.784598
-0.168275
1.2414
0.214331
-0.613679
0.48681
-0.750666
0.416659
-1.20616
1.12587
-0.920285
-0.609144
0.790462
-0.515945
-0.819356
-1.31693
0.630534
-1.30131
-1.78512
0.450552
-0.0610615
-0.015328
-0.858644
-0.152883
0.505952
-1.76231
-1.83614
0.363432
0.497646
0.276773
1.04716
0.151868
-0.697715
-0.647738
0.054275
0.80063
1.32577
1.30353
-0.858363
-1.59991
-0.113105
0.555832
-1.77416
0.428081
1.7523
0.302972
-0.00267037
-1.29708
-0.189077
-0.00891169
-0.552214
-1.6147
-2.39366
-0.679003
-0.342221
0.0839762
0.835357
0.127534
2.22306
-0.564401
0.436138
0.422645
0.761718
-0.673589
-0.344581
1.46164
-0.0736893
-1.87225
0.0966661
-1.70253
-1.51884
0.964804
-0.658782
-0.0835744
-0.891561
-0.523255
1.0379
-0.621533
-0.719633
0.476534
0.115268
2.60302
0.731602
-1.51654
-0.620265
-0.261686
0.0475204
-0.416674
-0.21153
0.231984
1.69336
-1.98599
0.598571
-0.461635
-0.640971
-0.407139
1.04301
-0.792651
-1.85725
-1.41139
-0.0671968
-0.194061
-1.07414
-0.314546
-1.47888
1.01144
1.30116
0.0914087
0.424034
1.25353
-1.02405
2.28014
-1.61692
1.33147
-1.69798
-0.460047
-1.01342
1.15402
0.300565
-0.675533
-0.572785
0.383052
-0.975976
0.0356677
-1.85902
0.0901432
0.111134
1.47072
-0.68791
-0.0642917
-0.363644
-1.29817
0.512203
1.8468
0.660459
2.13227
0.572474
-0.278116
0.0544467
0.34162
0.798664
-0.084298
0.234068
-0.404719
-1.69787
0.384945
-0.79084
0.0326112
0.0263654
-0.176122
1.96768
-0.3571
-1.27803
1.58167
-1.72134
0.370275
-1.06712
1.46965
-0.995999
0.330353
0.549529
0.871162
-0.372369
0.391572
-0.669674
-0.463856
1.28516
-1.14431
-0.999622
-0.316069
-0.138001
-1.01827
-1.05288
0.754099
-0.86605
-1.57905
-0.184286
-0.986945
0.329615
0.350109
0.619677
0.31435
-0.582482
0.958012
0.0389303
1.06698
-0.488483
0.514583
-0.165273
-1.02999
-0.123278
-0.299415
0.416403
-0.806911
-0.529804
0.13493
2.30713
0.655717
-1.66603
-0.586116
-0.269015
0.0182417
0.655778
-1.28065
0.229122
0.667339
0.566018
1.33542
-0.175383
-0.371013
2.2384
0.150637
-0.452756
-0.251619
1.18908
-0.297195
-0.953436
-0.563644
1.30362
-1.80746
-0.701922
0.0066547
0.240744
0.331664
0.29328
-0.634035
1.20584
0.206191
0.0997036
0.189497
0.887379
-0.966902
0.107326
0.605969
0.233583
-0.350688
-0.830213
0.828005
1.1586
0.621204
0.320004
-0.644125
0.337036
-1.25673
0.638312
0.0902795
2.47508
0.706857
-0.277578
-1.06269
-1.13357
0.0313423
0.556997
-0.691975
-0.264479
-0.536069
-0.0984779
-0.457337
0.127125
0.890504
-0.883035
-1.07463
2.33005
-0.364561
-0.238848
0.87019
0.876475
-1.51355
-0.710638
-0.204314
1.21884
0.936585
-0.638249
-0.732883
0.754396
0.134263
-1.34806
1.07534
-0.0319161
-0.0462262
-0.0918665
-1.50534
0.0759966
-0.702886
0.787601
-1.20669
-0.283377
-0.282598
-0.620346
-0.59588
-0.492578
-0.639941
0.0207129
-1.36059
-1.68612
-1.18811
-0.562177
-2.83497
-0.62239
-0.361491
-0.35383
1.64443
-0.197846
-0.344675
-0.883125
-0.786382
1.21714
-2.24939
0.433808
0.550019
0.0488339
-0.705222
-1.87244
-0.515307
0.295341
-1.17481
-0.0900524
0.555825
-1.08703
3.18155
-1.38455
-1.39671
-0.377912
0.283722
-0.670663
0.069779
-1.93115
0.0295426
0.232902
1.15014
0.934556
-0.491106
1.23628
-1.1096
-0.689626
1.7941
-0.246622
0.672673
-0.501304
1.84133
-0.841151
-0.384943
-1.84439
3.05135
0.393941
0.541055
0.899314
0.360937
-2.02356
-1.78827
-2.36199
0.516564
-1.4397
-0.433277
0.838482
-0.681797
0.507674
0.0998459
1.03775
0.355637
1.08239
-1.05719
-0.745474
-1.17448
-0.507297
-1.93633
-0.0819538
2.17448
-0.955954
0.699429
-0.684607
1.1509
-0.521362
-0.0671717
1.78472
-0.115823
1.09287
0.885779
-0.189536
-0.322517
-0.471473
0.215425
-0.416304
0.0373242
0.801031
-0.889716
0.866889
-0.577884
0.163874
-0.377227
-1.43584
-0.00113075
0.239148
-0.0545296
0.494236
-0.00995108
-1.38481
0.279045
-1.47987
-1.20347
-0.689086
1.30571
-1.53198
0.902361
-0.588996
0.587459
0.395877
0.259369
-0.222864
0.0187616
-0.873711
2.49668
-0.239688
0.630559
0.495431
-0.311098
1.0015
-2.00162
-0.887922
1.68734
0.00703481
0.0769244
-0.394024
-0.466294
-0.959495
0.788123
-0.479808
1.49143
2.45287
-1.05404
-0.248017
-1.73154
1.06509
-0.111383
-0.30926
0.122901
0.414698
-0.31619
-0.81743
0.967344
1.03318
-0.0580404
-1.69776
-0.0598891
0.0239039
0.0310149
-1.30662
0.420521
-0.127427
1.23049
-0.588506
-0.675362
1.38856
0.398163
-1.50729
0.313205
0.256132
-0.283216
0.637445
0.939732
-0.931564
-1.07734
-1.28252
-0.889725
1.06423
-0.536587
-0.511438
0.347149
-0.643059
-1.17267
0.270973
0.621171
-1.2638
-0.731669
0.0281492
0.859182
-0.282732
-0.358584
-1.17917
-0.756201
-2.63191
0.808664
0.235766
0.537874
-1.27773
1.63103
-1.3435
-1.22735
0.0754783
0.359885
1.19165
0.439888
1.01826
1.14798
0.454344
0.0225562
-1.25391
1.33368
1.25234
-0.468537
-0.170927
0.232356
-1.2453
-1.0142
-1.10685
0.679576
0.041343
-0.788945
-1.01547
-0.102988
-1.70205
-0.0290596
0.672733
-2.02966
-0.866414
0.0516881
1.46059
0.498333
0.0511112
1.56804
-0.3777
0.817587
1.1658
-0.874024
0.792939
-0.953159
-0.210257
-1.12925
0.245721
0.776884
-0.212918
-1.06984
1.51537
-1.40254
0.853587
0.689344
0.0861656
-0.124775
0.502529
1.16774
-0.698806
-1.20089
0.697995
0.169796
0.707464
1.75499
2.60867
-0.658837
1.07676
0.565449
-0.00374621
0.309661
0.441346
0.255285
0.133762
-1.19194
1.86323
-0.535541
-0.904489
-0.622613
-0.326798
-0.85837
0.214314
0.394317
0.128816
1.04576
-0.0815241
-0.648156
-1.23869
-1.04787
0.37406
-0.679646
-0.0316106
-0.216635
-1.38559
1.70621
0.34798
-1.49844
0.0422988
0.814969
0.357054
-0.290435
0.474374
0.903582
1.24472
1.10924
-1.52019
-0.668243
0.34906
0.45649
-0.96188
0.697456
-0.236492
-0.142811
0.688276
1.03885
-0.338205
0.403002
0.134941
-1.59029
0.246952
-1.6748
-1.6256
-1.23835
-0.43705
2.6854
0.292631
0.457088
-0.676354
-0.69612
0.893115
1.56253
-0.545417
-1.52667
0.0775184
0.923518
0.335016
0.445425
-1.45658
-1.4169
-0.41665
-0.909232
-2.08673
-0.732905
-1.0681
2.04441
0.121531
-1.11087
0.473888
-0.705809
0.891247
-0.840533
-0.77541
-1.47859
1.05443
-0.794282
0.924036
1.41303
-0.703898
-1.51077
-0.244069
1.69377
-0.415559
-0.912618
-0.663151
-0.473327
-0.360851
-0.434166
1.01224
0.363393
0.941011
0.148785
-0.283281
-0.497296
-0.902173
1.16277
-0.248641
0.108712
-0.12665
-1.31678
-2.00654
1.66359
0.331773
-0.452426
1.28833
-0.605586
-1.89469
0.332385
-0.709586
0.368677
0.309874
1.63809
0.0758542
-2.10559
-0.0648279
0.106569
1.29249
-1.24729
-0.910962
1.14977
-0.828349
0.164232
-0.241741
-0.370732
0.427349
3.23429
-0.141512
0.643417
-1.45842
-0.117312
-1.09886
0.266478
-0.374149
-0.769448
-0.978377
1.31453
2.73697
0.654631
0.0928498
0.74638
1.11142
1.22908
1.27676
0.0190007
0.420044
-1.23226
0.210159
1.13994
-1.85407
-1.87755
-0.0876145
0.52105
-0.130747
-1.24414
0.832487
1.64401
0.0344069
0.657329
-2.10148
-0.289934
-0.946592
0.551697
0.140246
-2.52989
-0.121506
-0.305892
1.70158
-0.731981
1.0514
0.301575
1.28409
0.190301
-0.344692
1.2108
0.0947064
-0.875812
0.171824
0.498829
0.118478
1.86523
-0.409576
-0.304492
0.586097
-1.15719
-0.52635
-0.238043
-0.300212
0.349583
-1.24767
1.68049
-0.667475
0.97565
-0.942606
1.25576
0.873193
1.77618
0.75139
-1.27457
2.06695
1.76949
-3.09971
0.871076
-0.997622
-1.09955
0.492846
-1.09116
0.648429
1.71515
-1.09322
0.627257
-1.01712
-1.21346
-0.673106
-0.683752
0.619704
-1.30781
0.5037
-0.0874685
-1.75059
1.718
1.83863
0.329694
1.10878
-0.62671
-1.13104
-0.086383
0.489381
0.679228
1.0359
0.360825
2.20446
-0.755843
0.619957
-1.00745
0.600064
0.0594004
-0.12314
-0.0782616
-0.324937
-0.0869635
0.287597
-0.0158705
1.20969
-1.67569
-0.011863
0.229044
1.78232
2.36095
-0.527275
-0.93246
0.84572
1.31349
0.314836
-0.496088
0.698136
1.50873
0.49986
0.607872
1.39458
1.21633
-0.582656
2.57581
0.448491
-0.719711
-1.68195
0.0398452
-1.1411
-1.23999
1.04137
0.429267
-0.223339
0.738157
-0.0274128
1.08406
-0.210406
-0.605404
1.18663
1.8506
1.10304
-1.23483
-0.0508239
-0.551583
-0.891532
-2.02608
2.30997
0.275814
0.314724
-0.321607
0.113855
-1.23493
-0.0970342
-0.817058
-1.78382
1.60778
0.973869
0.0520639
0.734602
1.21342
-0.134074
0.088058
0.456341
-1.03819
-1.34622
0.119859
1.67613
-0.500708
-0.617253
0.824956
0.20683
-0.162788
0.892387
0.206653
-0.291058
0.802584
-1.08978
2.30385
-0.741481
-1.82361
-0.0140652
1.55311
1.10188
-0.265386
0.343215
-0.324479
-1.83303
-0.0257531
-1.67411
1.08832
0.38797
-0.18208
1.80151
-1.36258
0.602481
-0.66063
0.427264
-0.526743
-0.991803
-0.0103613
-1.36111
-0.761127
-0.50562
0.359856
-2.69581
-0.319078
-0.215466
0.504323
1.35693
-1.09231
-1.03889
-1.27485
0.708163
0.29419
1.18146
0.249974
0.25957
1.90834
0.680001
0.603052
0.990366
0.691006
1.50683
-0.0724946
0.589419
0.763407
0.82454
0.846205
0.836459
-0.283636
-0.575379
0.208683
0.271852
-1.19619
-0.551149
-1.77674
1.89817
0.286743
0.533103
-0.815
0.568995
-1.51343
-0.421967
-0.844132
-1.19505
0.759254
-0.287998
0.772196
-0.675708
1.1455
0.430471
1.09058
0.749101
0.899988
0.165339
-0.594399
-1.43805
-0.806305
1.59349
1.37636
1.63886
0.408999
-2.07333
1.22191
-0.8481
1.62809
2.19746
1.08502
-0.716704
-0.169134
0.722205
0.0247699
0.145963
-0.980001
-1.39154
-1.58558
0.153378
0.865342
0.0858032
1.94135
-2.07013
-0.755688
0.911073
-0.225424
0.601936
-1.11167
1.09497
0.188683
-0.94138
0.266541
0.639391
0.659209
1.04177
-1.31173
0.567328
-1.30567
0.144759
0.0531449
-1.49461
0.983534
0.786433
-0.102384
2.19981
-1.3151
1.23585
-0.302888
-0.784029
0.374037
-1.70102
1.30142
-0.448082
0.171121
-1.52061
-1.3199
-0.97068
-0.783736
0.240308
-1.3467
-0.227892
-0.562207
-0.111736
-1.43136
1.68753
-0.853916
-0.935412
0.517751
1.22967
-0.199311
-0.575081
-0.140589
-0.954673
0.322138
0.637134
-0.0334545
1.32204
-1.29436
0.199896
0.664688
0.336008
-0.386346
1.22346
-0.628148
1.13329
1.04279
-0.661779
0.487189
0.140322
-0.229289
0.689118
-0.161329
-1.82409
-0.604197
1.36197
-0.889541
0.282445
-1.3851
0.377025
1.5072
-0.515484
0.160182
-0.454175
0.147826
-0.0746951
-0.606544
0.338624
-0.510574
-0.0504321
1.04699
0.396005
2.36089
1.4207
1.24215
2.66394
0.130691
-1.05962
-0.745337
1.68755
-0.61536
-0.730578
-0.00808369
0.697047
2.60785
0.867702
-0.595248
-1.27941
0.343159
-0.134399
0.0848347
0.754819
2.64047
0.00785231
-1.03069
1.37387
-0.0514706
-0.614276
0.115205
0.386479
-0.852734
-0.97521
-0.381893
0.855896
2.03435
-0.060444
1.69552
-0.292965
-1.10268
-0.818739
0.999776
0.0418392
-1.59617
0.658996
1.17883
0.507089
1.00996
-0.0159153
0.870043
1.07206
-0.189539
1.06135
1.06137
1.84945
-0.65611
0.612944
0.706132
0.0750788
0.544146
-0.282473
0.370881
1.0021
-1.07141
0.149537
-1.38149
-0.516658
0.920052
1.01094
-1.20018
-1.87303
-0.383493
-1.48438
-1.38573
0.330235
-0.256894
-1.30808
-2.34243
1.89001
0.534405
-0.0468204
1.24824
-0.375191
0.81606
-0.0235002
1.65848
1.21065
0.288555
0.673094
-0.11422
-0.544474
1.16283
-1.55273
-0.345365
0.242321
-0.121206
1.30468
-0.593259
2.02498
-0.260789
0.689318
0.174728
0.219326
-0.142849
-1.26405
0.734417
-0.108405
0.625154
-0.078809
1.50194
-0.0635892
0.711235
1.48435
-1.74985
1.28532
1.16271
1.58647
1.47318
-0.180164
-0.31214
-0.350231
1.18296
0.0839434
1.34396
1.81393
-2.43449
-0.616762
0.864714
3.1827
-0.982512
0.325959
-0.333801
-0.164272
1.90624
0.459588
-1.38738
-0.760514
2.03769
0.244909
-0.617462
0.827648
-1.13384
-1.38362
-0.548991
-0.837865
0.285377
-0.985662
-0.462115
-1.5027
2.33599
-1.5479
0.124559
1.50134
-1.13663
0.230526
-0.0767545
-0.0296698
1.4289
-0.547523
-0.565095
1.97625
2.41193
1.60573
-1.7082
-0.97129
2.15663
0.480385
0.720821
-0.0861503
-0.386373
0.0491633
0.691396
-1.24689
-0.22164
-0.612501
1.26333
-0.0603994
0.261662
-1.46127
0.616313
-0.921525
-1.24399
-0.282817
0.102684
-0.524889
0.111421
0.0695003
0.840733
-1.5144
-0.299806
1.19577
-0.411845
0.836022
1.48946
-1.86688
0.291585
0.959474
-0.0506096
0.513101
0.6193
-1.49964
1.49868
-0.348029
-0.525721
0.685435
-1.0702
-1.45817
-0.0770922
1.02179
1.37787
-0.161031
-1.14162
-0.736084
-0.10806
-0.206742
0.00439452
0.520523
0.454518
0.368379
0.24287
-0.112644
0.76506
1.29348
0.012332
-0.0237546
0.849139
0.627497
0.016505
0.420336
-0.0930219
-0.322445
-0.226308
0.137436
-1.15972
-1.39856
-0.804378
0.590199
0.509452
0.074729
0.0422773
1.44467
0.144659
0.362716
0.168683
0.0300972
0.418905
-0.309828
-0.395246
1.0661
-1.05775
-0.556982
-1.1066
-0.268854
-1.00844
0.540783
0.556109
-0.123486
0.0137223
0.0792274
2.26959
1.41543
-1.30505
1.19449
-0.504725
-0.0838549
-0.316559
0.184204
-0.565276
0.157657
2.12955
0.193677
-0.38539
-1.06293
-1.29763
-1.38853
0.0347202
0.892207
-1.11229
0.420952
-0.674039
-1.25636
0.918484
-0.137869
-1.40501
-1.45572
0.949453
0.0639972
-0.105311
-1.25747
0.663251
-1.68296
-0.64278
-0.129903
-0.559526
-0.90309
-0.725748
-0.931223
-0.521971
0.170331
0.174437
-0.26897
-1.69789
0.584119
-0.167707
1.01514
0.167643
-0.317648
-0.5001
0.145588
0.0342586
-1.07295
0.134722
-0.383208
0.799021
-0.103974
0.460409
-0.333404
-0.323298
-0.190462
-0.734762
-0.233086
1.19585
-0.83597
0.17763
0.920257
-0.663612
-0.63114
0.7064
0.747369
0.362519
-0.489443
-1.00227
0.439093
-0.424566
0.680739
-0.372809
0.537259
0.525215
1.37752
-1.67293
-0.75811
2.04132
-0.294305
0.48326
-2.12586
0.215431
-0.143713
0.37541
1.21225
0.896608
-1.20792
0.600753
0.156679
-0.0910146
-0.104026
-0.562845
-0.0790334
-0.00180521
0.278275
-1.64717
1.15806
0.0427094
0.29002
0.83603
2.11992
-0.143159
-1.45092
-0.0898657
0.85175
-1.35322
-0.905618
1.07637
-0.423354
-1.08965
-2.53117
0.903934
-0.893843
1.18813
0.259131
-1.06776
-0.316591
-1.48601
0.602048
-1.01733
0.591444
-0.558363
-0.217289
0.397579
-0.149907
-0.29133
1.23678
0.0761738
0.453787
1.78109
0.290661
-0.261999
1.32332
-0.297421
0.295135
0.707429
-0.594498
1.83826
1.74568
0.29451
1.24078
-0.681135
-1.51502
-0.345776
0.55859
-0.082517
0.185967
-1.9148
1.94474
-0.0788713
-0.238762
-1.271
2.39879
2.18508
0.442715
0.84957
1.59731
-0.680806
0.27391
-1.15024
-0.133087
0.871912
-0.757613
-0.566556
0.997397
1.19523
-1.5955
-0.0746214
0.664453
0.663901
0.179377
0.687337
-2.48024
0.0245262
-0.631939
0.962606
0.539484
-0.670102
-0.675695
-1.99432
-2.70036
-1.42413
0.339983
0.0599417
0.839694
1.08405
-0.133574
1.76928
-0.729996
1.38611
-0.876002
0.285373
-1.44802
-0.686207
0.172606
0.131133
-0.767165
1.87712
0.210777
-0.246752
-0.175342
0.644066
0.0101253
-1.00216
-0.678049
-1.92043
1.07204
-1.27083
0.0952449
0.219698
0.0685434
0.422211
0.498506
2.55413
0.955889
0.821513
0.795985
0.453087
-0.588043
-0.143352
1.3692
-0.240035
-2.57472
-0.227228
0.596643
-1.62566
0.353561
-0.860383
0.0757678
-0.0214457
-0.449996
-0.732849
-1.90478
0.239426
-1.66191
-0.437908
0.470904
0.409151
-0.248474
-0.318779
-0.121597
2.03557
0.19337
0.29262
0.829807
-1.73833
-1.13885
0.282223
0.645925
0.106277
-0.8734
-0.0131766
-0.344232
0.559082
1.26151
0.571882
-1.31478
0.746111
-0.613233
-1.88102
1.26148
-0.287462
-0.698219
0.980519
0.433361
-1.78531
0.252955
0.577618
0.544286
0.448712
-0.465751
0.693841
1.70802
0.611261
0.442683
0.849082
1.26265
-0.258958
-2.06946
-0.48417
-1.0141
-0.547865
-0.639552
-0.169282
-0.316058
-0.222184
0.733646
-0.545523
-0.295788
-0.337682
1.25937
-0.380006
-0.132143
-0.0221882
0.923365
-0.612418
0.273874
-0.369359
0.923006
0.490392
-0.292722
0.522481
1.66021
-1.01248
0.0575014
1.31294
0.705116
-1.26861
0.938662
1.15996
-0.718831
-1.58997
0.519648
0.447505
-1.31881
-0.508488
-1.28173
-0.583445
0.0209109
-0.6111
-0.618563
-0.154582
-0.40911
0.566119
-1.12093
-0.384326
0.646695
0.282926
0.962951
-0.417349
0.117558
-0.310885
-0.271787
-1.47627
-1.52128
-1.91671
-0.44667
-1.33043
-2.29121
-0.527863
-1.97949
0.198688
0.734995
0.888379
-0.475118
-1.02001
-0.0102881
-1.28684
-0.123906
-0.726283
0.121877
-0.86615
0.18192
-0.115421
0.0061475
-0.48028
-2.12199
-1.41595
1.08457
-0.700406
-0.417026
-0.522909
0.253929
1.30385
-0.634837
-0.136111
0.903856
0.0714783
2.46869
-0.86728
1.1794
0.679273
-0.148692
-1.31457
-3.26043
-0.159356
-0.502803
-0.212587
-0.59037
-0.0833957
-0.532969
0.455252
-0.431212
-1.06999
1.52486
-1.48969
-0.496519
0.220589
-0.357274
-0.932944
0.274901
-1.14891
-0.677319
-0.0809514
0.750696
-0.187687
0.905832
0.581585
1.24533
-0.78016
1.00537
-1.37497
-0.487139
-0.194296
-0.9573
-2.15421
-0.129742
-0.875444
0.495866
-1.04453
0.0131494
-1.06176
-0.446995
1.43776
2.29042
0.215562
0.0383268
-0.407361
0.0787687
-1.76891
-0.453832
-1.16632
2.67526
0.522592
0.301482
1.29988
0.356222
0.360076
0.860883
1.70437
1.39187
-1.45113
0.0304631
-0.611249
0.872593
-0.537213
-0.57923
0.760182
0.0647005
1.11118
-1.04284
0.162623
0.220936
0.562346
-0.66651
-0.010077
0.314346
-0.83659
-0.940938
-0.0521491
0.904793
0.198944
0.0984728
-1.08765
1.65343
2.35304
0.714809
1.81295
0.97803
1.06381
0.991409
0.770186
0.701726
1.57522
0.51946
1.10635
-0.0649182
0.0693143
-0.176521
-0.909018
0.941304
-0.917956
-0.0332425
0.679085
-0.433149
2.17085
0.34729
0.281314
0.155217
0.863107
0.134462
0.697893
1.06468
0.842838
2.10261
0.871356
0.940376
2.35484
0.134585
0.203792
0.153332
-1.83249
-0.0618522
-0.300414
-0.08839
-0.688873
-1.68695
-0.0376049
0.272547
-0.117249
0.138095
0.417938
-1.55239
-0.791124
-0.169185
0.9394
-0.514178
0.304656
-0.467194
0.998869
0.029527
-0.232543
1.09927
1.9111
-0.547073
0.336555
-0.0306326
-0.823831
0.780606
-0.303019
0.16968
0.528174
-0.648498
-0.603205
0.416619
-0.937533
1.25953
0.500894
-1.20972
0.922063
-0.955893
-0.284037
1.22226
0.394
2.07823
1.24812
0.180395
0.45645
0.0506995
0.45901
0.432873
1.2579
-0.677836
1.45887
0.424606
0.0566363
-0.343616
-1.23739
-2.28729
-1.35098
-1.24859
-0.853597
0.483241
1.63788
1.11673
-0.998377
-2.04813
1.80822
1.32606
0.0962925
-0.705257
-0.617684
-0.658463
-0.754844
-0.638471
-0.546351
2.59216
0.0205668
0.69447
1.23854
0.0717017
-0.0358403
1.71669
-0.892129
-0.152893
-1.26868
0.295089
0.0331812
-1.06073
-0.716991
0.308173
-0.600217
0.0068311
-0.772631
0.287779
0.0814603
1.60319
-0.2017
1.20195
0.10667
0.791644
-1.38256
1.99509
0.758193
1.02313
-0.132334
-0.822871
-0.693104
-0.464272
0.858305
0.523202
0.0427625
-0.022695
-1.78419
0.320365
-1.19461
-2.59529
1.30131
-0.199872
1.5922
0.723152
-0.542818
-1.83654
-0.181129
1.11487
-1.73897
-1.07767
0.0484203
1.73687
-1.25065
-0.722561
0.469683
0.972359
-2.08078
-0.122381
-0.231551
-1.01764
-1.62405
0.499435
0.441753
0.14203
-0.116048
-1.13659
0.785955
-0.299734
2.15627
-1.21378
-0.29193
-0.00150121
0.277283
0.939008
-0.186312
0.248934
-0.713458
-0.886948
0.114164
-0.0157626
1.48694
0.769699
-1.0029
-1.13656
0.114236
-0.606728
-0.638036
-1.52704
-1.96657
0.146761
0.376785
0.208648
1.15929
-0.18101
-0.883188
1.94539
0.256439
1.06384
2.51995
-0.840075
0.199403
0.43897
-0.0179648
0.841667
0.361794
-2.38069
-0.40896
-2.48252
-0.0323792
-0.40963
0.839137
-0.289651
-0.567686
-0.498775
0.703693
0.171788
-0.315474
-0.763792
0.860778
0.161078
1.06502
0.324395
2.16147
0.505261
0.0439154
0.0533466
-0.836267
-1.77437
-0.275349
-0.337405
0.141875
0.432446
-0.936209
0.782022
-0.313624
-0.486836
0.465655
-0.579102
-0.0760966
-0.948717
-0.100181
0.00930832
-1.65777
-0.779859
0.335214
-1.12439
-0.49216
0.705917
2.03838
-2.01786
-0.0730839
2.60244
-1.05827
0.219394
0.115848
0.527256
-1.26696
1.9594
0.208714
-1.16636
1.0794
-1.25369
-0.632777
-0.532545
-0.546605
0.040789
0.0586886
-0.275791
-0.106518
-0.166507
0.764234
0.619353
-0.809935
0.206748
-1.1577
0.0115883
1.41415
-0.487169
-0.460876
0.31793
-0.586998
-0.267387
-1.08871
0.213594
1.54076
-0.632869
-1.65696
0.310318
-1.4188
1.1177
0.625998
2.73728
-1.42689
-0.537581
-0.0637966
-0.777811
-0.355503
-0.931243
-0.0120768
-0.615953
0.878863
-1.48013
0.504907
0.664181
0.431042
0.660227
-0.750789
0.304539
-0.715789
-0.381505
-1.86171
0.150523
0.86167
1.44307
1.26132
-0.788027
-1.72666
1.16771
1.25674
-0.310093
1.36926
-0.163498
0.00709004
1.42345
-0.238973
1.15496
-0.326653
0.357803
0.257501
0.488009
0.878153
-0.358841
0.802541
0.25086
-0.34243
0.960766
1.74476
0.972047
-0.0311511
1.79338
-0.215968
1.77131
0.94267
0.466987
0.582802
0.715565
-0.355287
-2.05508
0.169596
2.17808
-2.10061
-0.232125
-1.01039
0.171916
-0.221525
-1.66825
-0.730201
0.585979
-0.0629737
-0.499449
-0.137061
0.288437
0.362795
-0.109171
-0.736178
0.748539
2.06419
0.26178
-0.761155
-0.269804
0.569125
1.94304
-0.173359
1.83472
1.67255
0.14446
-0.650675
-1.63655
0.0296643
0.406974
-2.18074
-0.749786
0.140038
-0.094107
0.0381721
0.476282
-1.59081
-1.14574
0.419456
-0.144817
1.16564
1.4091
-0.468199
0.804203
-0.13041
0.90296
0.631333
0.317003
-0.547349
0.499707
0.665281
2.01782
-0.942698
0.500739
-2.12766
1.15885
0.638375
-1.78199
-0.450906
-1.03365
0.80215
0.918566
1.76744
-0.056333
-0.777514
0.635663
0.927861
1.40974
0.403716
-1.66332
-1.40499
-0.896217
-0.498856
-1.17174
0.144414
0.99435
1.11692
-0.62564
1.17748
-0.522212
0.721227
-0.812296
0.291626
0.312196
-0.4657
1.12991
-0.259203
0.670504
-0.18427
0.104383
0.691836
0.843399
1.2627
2.05379
-1.11064
0.30938
-1.93704
0.0700721
1.29231
0.0736234
1.19796
1.70346
-0.376219
0.58073
0.843127
0.370715
0.314674
-0.772713
2.13765
0.0482951
-0.156942
-0.950011
-0.0381747
-0.660036
-0.3372
-2.01533
-0.701853
0.838673
-0.701914
-2.84067
2.10892
-0.342145
0.237108
-1.24438
0.0786079
-1.8313
1.64273
0.883802
-0.584473
0.369353
1.77762
-1.69633
-1.19809
-0.325133
0.458102
0.189298
-0.75062
1.49832
2.15122
0.0505504
0.875557
0.0711016
1.2285
-0.727484
0.119687
2.01378
-0.928969
-0.900923
-0.828234
-1.52517
-1.05806
0.351351
-0.14745
0.066193
-0.94611
0.416597
-0.0552709
0.814597
1.45957
-0.442811
0.236939
-0.871406
1.19785
0.552608
-0.0305127
0.759015
-0.724426
-0.109286
0.537946
-0.200045
-0.441424
-0.108655
-0.86002
0.680905
2.17958
-0.685463
-0.339088
-0.00586743
-0.725685
0.428673
0.39087
1.46465
-0.691789
-0.982899
-0.171239
0.877903
0.871071
-0.051461
1.26898
1.47437
-0.607707
0.145247
-0.736783
0.747057
-0.0629867
0.13053
0.151122
0.863052
2.04416
-0.308649
-0.331908
-0.327523
0.35159
-0.195006
0.676249
1.80816
-0.749999
-0.851472
-1.24258
0.363506
0.524096
0.184671
-1.14336
0.901386
-0.913054
0.0886015
-0.504326
0.169569
0.869242
0.584043
2.64304
-0.216708
0.330384
0.524136
1.17141
0.0552912
-0.765409
1.40494
0.560921
0.941275
-1.41004
1.5146
-1.02609
0.296659
0.00693528
0.810902
-0.581447
1.85959
-0.766698
-0.275003
-0.924446
-1.31911
2.28069
0.12285
-0.398901
0.479577
1.94991
0.430748
0.317259
0.449281
0.12511
-0.0705648
0.974251
0.247752
-0.0495902
-0.407693
-0.23698
-0.238673
-0.168477
-0.52132
-0.781077
1.25671
-3.17728
0.615851
-1.30686
-0.193411
0.331098
1.23238
-0.0969258
-0.28339
-0.322531
0.986682
-1.31437
0.682511
-1.73489
0.766558
-0.372569
-1.31132
0.172428
-0.93121
0.07761
-0.613334
-0.501945
0.0930056
-1.47714
0.326448
0.982279
-0.0634606
-0.500963
0.784311
1.31468
0.419527
-1.45065
-0.180476
0.475132
-0.386354
-0.692652
1.59691
-1.0735
-1.39981
-0.631079
1.28326
-0.587511
1.2821
-1.20994
0.020526
-0.775842
-1.41244
-0.944663
0.013939
0.906149
0.94826
0.193329
0.362681
0.830337
-0.986439
1.52999
0.110097
0.59641
-0.181458
1.97745
-2.40973
-0.0470979
0.0267505
-1.22411
-0.470914
0.659335
0.394046
1.63951
1.20365
0.24071
1.73998
-1.89909
1.17737
0.00631627
-0.714456
1.00013
-0.22096
-1.38153
-0.922754
-1.90772
-0.534385
-0.795934
-0.00502703
0.0598156
-2.10403
0.00256268
-0.801383
0.964099
-1.737
-1.40177
0.277639
-0.862966
-0.156276
2.48445
0.399321
-0.0213463
-1.42162
0.406462
-0.474109
-1.00413
-2.43722
0.0570631
-1.20647
-1.56329
0.447
-0.905097
-1.28365
-1.57687
-0.200579
-0.668932
0.175194
-0.770501
0.196611
0.569589
-1.8028
-0.842405
1.20464
0.976299
-0.078099
-0.543307
0.314991
-1.43073
-0.983156
1.30255
0.479371
0.411267
-1.7396
-0.885679
1.48808
-0.500886
-0.973833
-0.320682
-3.55649
-0.858495
-0.42054
-1.30027
-2.10632
1.97383
0.214566
-0.813396
-0.221674
-1.44872
0.377986
-0.803909
-0.460152
-0.0175647
0.289472
1.11469
0.0474875
1.07013
0.583365
0.157003
1.77864
0.0914605
-0.934547
0.10966
-0.583628
-0.718535
-1.33963
0.196884
-0.540458
-0.52346
-1.21295
-0.958063
-2.23699
-0.108981
-0.900981
1.5132
-0.728157
-0.821794
0.223634
0.303389
-1.60457
0.462595
-0.541186
0.91299
-0.430977
0.911406
-1.22209
0.1355
1.11788
-0.282769
1.22688
-0.922581
-1.74499
-0.0125606
-0.821699
-0.681605
0.974419
-0.863877
0.609082
0.773139
-0.871199
-0.972762
-0.811521
-1.63503
0.345373
1.61005
-2.05318
-1.68104
-0.802268
-0.500106
0.128643
-1.13891
-0.910552
0.273826
0.987043
0.573001
0.715659
-0.00576806
-0.319857
-0.620357
1.07486
-0.636005
0.712766
0.0713776
0.175665
0.532059
0.52508
-0.00746426
1.09643
-0.669394
-1.22824
0.604802
-1.06949
-0.0229478
-0.0331814
0.133894
-0.466196
-1.0865
-1.16012
0.797856
0.718435
0.926569
0.67912
0.625091
-0.252164
1.3522
-0.91666
-0.595704
0.577701
-0.00777792
-0.238241
0.346695
1.39506
0.282225
0.429954
0.119816
-0.184045
1.16186
1.36988
0.575133
-1.04606
-0.7145
-0.192884
-0.926855
0.452129
1.38489
0.0079167
0.99874
0.0760298
-0.405444
-0.432365
-0.329542
-0.656553
-0.0209008
2.0285
-0.656768
2.35904
-1.05412
0.495086
0.420831
-0.170509
0.973198
0.182784
2.08587
0.398718
-0.969655
0.681398
-1.32916
0.943216
0.123987
-0.156388
0.507962
-2.27064
-0.11753
-0.543296
1.57694
-1.33993
1.10187
0.597684
0.584163
-0.169663
0.858438
-0.480783
0.986813
-0.0742323
-0.400456
0.017349
0.889484
-0.1577
1.75215
0.346507
0.869913
-0.679148
-0.219131
1.41296
-0.619819
-0.292617
0.913371
0.313108
0.935337
1.90624
1.08062
1.24185
-0.0177515
-1.28226
-0.245009
-2.05714
-0.31304
0.370131
-0.084261
-0.0792298
1.08916
0.418765
0.904097
-0.0433332
-0.214257
0.674482
1.43534
0.473506
-0.0407712
1.42287
0.543193
-0.44601
1.42606
-0.0249265
-1.12182
-0.58159
-0.0876574
0.666275
2.03552
-0.675085
-1.08419
-0.48677
1.6953
0.344548
0.745857
-0.413193
-0.855013
1.12643
0.0787435
-1.17869
1.77723
2.37138
-0.0310481
1.41907
-0.607048
0.889775
-1.69162
-1.23443
-0.937733
-1.01362
0.17542
-0.364862
1.17984
-0.707159
0.100431
0.71191
0.123502
1.22857
1.03492
1.12952
0.731443
0.856847
-0.0449779
0.793401
-0.560645
0.623323
-1.02671
0.459362
1.05499
-0.650815
1.12641
-0.143399
0.669008
-0.174681
0.0482478
-0.307267
0.341256
-0.601946
-0.954317
0.660483
1.08802
1.79083
-0.519488
0.425974
-1.30275
-0.277795
-0.0373367
-1.38592
2.33288
0.897608
2.0898
0.563275
-0.930311
1.5168
-0.165174
0.110776
0.962847
-0.521025
-1.0451
0.162931
-0.348497
0.297206
-2.47709
0.702241
-0.113927
0.431371
-0.265109
-0.968712
1.83278
0.207231
-1.15998
1.97339
1.24197
1.21977
-0.199146
1.34156
0.234376
-0.0197782
-0.934609
2.04087
0.547997
-0.245499
-0.675795
-0.767288
1.94069
-0.342778
1.82778
-1.26206
0.191871
-0.133884
-1.86721
-0.409359
-0.0482744
0.0489749
-0.64987
0.279432
1.02995
-0.860656
0.543263
-2.3111
-0.0130813
-0.908308
-1.00205
0.0434377
0.525401
-1.17806
-0.642296
-1.35871
-0.644026
0.307683
0.490509
1.4317
-0.192743
0.0922419
1.60931
-1.66349
1.30733
-1.38493
-0.696742
0.362572
-0.669793
0.847431
-1.10771
-1.38691
-1.75555
-0.393397
0.396229
0.37349
1.31874
-0.667583
-0.425246
2.40959
1.41934
0.17775
-0.968004
-0.61891
0.100605
0.956732
-0.531879
-0.330925
0.555695
-0.461776
0.35474
1.03075
-0.469323
-0.659139
0.713522
-0.410945
0.943867
1.74477
2.19011
-1.11477
-0.44609
-0.792522
0.285104
-0.7497
0.693146
0.983858
-0.839249
-0.0056889
1.80731
-0.37875
0.178414
0.470374
1.13482
0.0433492
-0.82577
1.3649
0.128795
0.499305
0.254786
-1.66006
-0.615516
-0.46505
-2.08887
1.70545
0.353336
-0.920223
0.657686
-0.724928
1.9365
-0.112555
1.87064
0.913411
-1.3257
1.72854
-0.468648
-0.670847
-0.114449
1.2115
-0.903559
-0.880092
-2.68079
0.357356
1.02751
1.85356
-0.896541
0.337596
0.00424741
0.177184
-1.37114
0.0362548
-0.860285
-0.506642
-0.150936
0.936852
-0.155339
-0.749015
-1.14363
-1.60207
0.592063
1.70334
0.129475
1.07483
2.2029
-0.583134
1.1217
0.602545
1.00264
0.661123
0.788316
0.682944
-0.180893
-0.00693494
0.31143
-1.70558
-0.602039
-0.245503
0.0902477
-0.664758
0.345399
0.586943
1.04775
-0.346441
0.386406
-0.00495718
-0.524368
-0.853748
0.392857
-0.344852
-0.387119
1.06802
-1.47019
-0.0666547
0.940402
0.408626
-0.0579593
0.546239
1.5881
0.0516773
-0.383271
1.06854
1.60259
1.54711
0.149598
0.484611
0.915711
1.04575
0.568107
-0.219421
0.863692
0.766611
0.809965
-0.287009
1.23383
1.39485
0.230143
1.19732
0.696571
-0.0531302
0.180141
-0.223063
0.755757
-1.28548
1.34148
-0.653586
0.44988
0.510455
-0.880428
2.005
-0.981629
-0.23982
-1.62669
0.862026
-0.972157
0.670254
-1.40332
-1.93636
-0.919191
1.32587
1.53223
0.958956
-0.955352
-0.430319
0.95204
-0.353962
-1.479
-0.693644
-0.284868
0.514565
0.377958
-2.70761
-0.870804
-0.0524914
1.12066
-0.340525
1.58551
0.744152
-0.913994
-1.80618
0.473189
-0.99065
0.274349
0.286596
1.78048
1.31243
0.749646
1.34346
1.09136
-0.44018
-1.19155
1.49867
0.920767
0.112302
0.107476
-0.771965
-1.95664
-0.823741
-0.902189
-0.238711
1.38022
0.464485
0.212759
0.0569571
0.11587
-1.48489
-0.520134
0.973684
1.5583
-0.643769
1.91268
0.966559
0.359969
-0.730451
-0.725155
1.424
1.49703
0.253811
0.811464
-1.16517
0.608658
-1.97444
0.361729
2.2176
2.08372
-1.64382
-0.701263
-1.59516
2.11754
-0.543308
-0.971256
-1.26275
-0.225471
0.819596
1.42854
0.438801
0.473306
1.60662
0.394783
-0.203221
0.39512
0.931639
-0.212751
0.621399
0.882613
-0.599361
2.1585
-0.136544
-0.365568
-1.68465
-1.09089
0.342451
0.294397
-0.1759
0.899542
0.956801
0.0570307
-0.885369
-0.122936
-1.84927
-0.77922
0.00295624
0.597265
-1.14881
-1.09126
-0.404965
0.514157
2.02066
-0.973159
-1.34693
1.31776
-0.925175
1.66898
-1.20209
-0.588646
-0.516187
0.0121872
0.0798752
-0.154268
0.445681
-1.49665
-0.560399
0.490897
-0.361979
1.22833
0.460093
0.994904
-0.883624
1.45021
1.02732
-1.138
1.30296
-0.0606476
0.172317
2.18039
1.11129
-2.31474
-0.741919
0.703361
1.50232
-0.905681
-1.40747
-0.0328316
-0.471658
0.307633
-0.38172
-2.07256
-0.0808479
1.17074
0.348841
1.76081
-1.25911
-0.114208
-0.935381
1.28514
-0.349009
-0.477853
0.550526
0.281781
0.936628
0.847149
0.368444
-0.548783
0.169823
0.387061
-1.56054
0.655642
-0.714704
-0.370077
0.0342838
0.315473
-0.000558423
-0.697633
-0.828467
0.676834
0.15124
0.553644
1.06195
-0.360077
1.323
-0.497918
-0.837575
1.6721
0.907927
-1.74292
-0.256556
0.00556024
0.841822
-0.691725
0.508037
1.36574
0.259495
1.22865
-0.291443
0.322366
-0.783332
-0.353475
-2.17519
-0.947042
-0.352377
0.0165526
0.133791
1.34516
0.860314
0.00798741
0.675492
0.212797
-0.69195
1.35991
-0.0757416
-0.575986
-0.939638
0.225653
-1.37545
-1.23968
0.606629
0.439239
0.761384
-1.20778
-0.85512
-0.529434
-0.102419
-0.982077
-0.355575
0.644923
-1.8478
1.24719
-0.285312
-2.23342
-0.404587
-1.2978
-0.1323
1.04948
2.34171
0.356983
-0.668861
-0.334717
0.518571
1.27891
0.359616
0.696769
2.42205
-0.758907
0.0067205
-1.04053
-2.12753
0.919694
0.0665077
-0.970148
1.58405
-1.03968
0.467445
-0.0541784
-0.608401
-0.761436
-0.545266
0.843911
-2.12218
-1.02367
-0.811545
-1.52946
0.479032
-0.193322
-0.0807639
0.550046
1.09908
-1.8518
-2.11098
-0.874985
-1.87174
-1.64014
-1.82971
-0.542845
-1.54723
-1.65396
-1.26279
-0.612967
0.0501757
-1.15977
-0.417558
-1.39428
0.0492129
-0.00085654
0.391021
-1.12271
0.417223
0.0554665
-0.623805
1.77957
0.391999
-0.100363
-0.0827719
-0.896422
0.985495
1.31717
1.54391
-0.496762
0.615227
-0.33329
0.449102
-2.22581
-0.20186
-1.14767
-1.17315
-2.1821
-0.66164
-0.901177
-0.134035
0.198573
-1.21667
0.621939
0.590297
-0.704101
0.0331075
0.102483
-0.908002
0.875698
0.628342
-1.25372
0.431925
1.62573
0.528493
-0.74258
0.983514
-1.29198
1.20941
0.652617
-0.77563
-0.803043
0.498664
-0.438529
-1.15474
0.373091
1.35197
-0.075906
1.41114
0.76673
-0.0227816
-0.29054
-0.288136
-0.30346
1.80476
-0.540312
0.68451
0.117975
-0.804828
-1.59826
0.459296
-1.54845
1.78878
-0.176792
-0.090332
0.0300417
-0.790215
-0.391151
-0.0242279
0.664221
-0.621089
0.93004
0.34477
0.539983
3.37184
-1.08809
0.715554
-0.134422
0.985151
0.934224
1.26024
-0.383136
-1.15075
-0.972215
-1.35262
-1.86947
-1.45491
-0.276407
-0.852381
0.0317708
0.682889
1.14611
0.0720045
0.616506
0.378014
1.60828
-0.487879
-0.372352
0.330223
0.244083
0.514416
1.45119
1.64596
0.551065
1.50998
-0.969518
-2.07745
0.171946
1.52988
-0.293307
-0.64893
0.602404
0.986483
0.409987
-1.08234
0.199858
2.39574
-0.562611
-1.50253
-0.427963
0.629625
-0.0156786
0.490743
0.0038747
0.315549
1.17725
0.662625
0.908454
0.17291
1.98179
-0.277272
-0.351888
0.277955
-1.12899
-0.967696
-0.996424
0.731412
0.535929
-1.66022
-0.2157
-1.24065
-1.19092
-1.90188
-1.18534
0.210632
0.904511
-0.207997
0.60658
1.01795
1.57524
-1.3983
1.10848
0.446721
1.43181
0.987876
2.1755
0.355813
2.10956
2.73607
2.47093
-1.42205
0.195632
0.38668
-1.34463
-1.55432
-1.90517
0.297161
-0.188093
1.6584
1.37631
-0.412795
1.26073
-0.492367
0.158356
-0.0362592
1.07325
-0.605
-0.761782
1.10523
-0.347957
-0.54579
0.513332
0.0776171
1.3796
-0.887234
0.574426
-0.0490498
-0.484057
0.517855
-1.93424
-0.287314
-0.741134
1.13694
0.540344
0.625975
-0.241424
0.171011
-1.13621
0.749536
-0.633179
1.34142
-0.678469
-1.00123
-1.68868
0.545521
-1.02363
0.139067
-0.0845754
0.0893086
0.243519
-0.361961
-0.314233
-0.674861
0.163245
1.01529
0.125915
0.925987
0.993894
-0.615164
0.956894
-1.46555
1.19162
1.51558
-0.347237
0.381846
-0.726377
0.992609
0.843757
0.169078
1.35536
0.457159
0.57758
0.236656
-0.215692
0.0470408
-2.10493
-1.04294
0.474509
-0.334439
1.2046
2.01924
0.277575
0.586282
-0.337667
-1.49143
-0.0382228
0.467082
-1.16429
1.36343
-0.130077
0.916476
-1.11738
-1.2311
-1.4011
0.126704
0.894491
1.04525
-0.413881
-0.188008
-0.705952
-1.23309
-0.9079
-1.72659
0.19202
1.76663
-0.237836
-0.907383
-1.64273
-0.0536911
-2.53223
0.74969
1.2107
-1.71836
-0.459619
0.587911
-0.816174
0.187812
-0.0150885
-1.92609
0.454677
0.217162
0.679251
-0.0116199
-0.62312
-1.85558
-0.607055
0.571297
0.0492889
0.0374763
0.926504
0.249009
-0.42971
-1.4143
-1.0401
-1.37904
2.49195
-1.13299
-0.327832
-0.787463
-2.67866
-0.182688
0.442269
0.175408
-1.84011
-0.295842
0.326659
0.196026
-0.47526
1.2729
-0.593294
0.0183576
-1.47242
0.378082
-2.3731
1.63017
0.460384
-0.307617
0.294852
0.262079
-0.70904
-1.56734
-0.168204
-0.0924398
-1.31402
-0.6137
1.41131
0.59301
-1.3241
-0.932588
0.804469
0.33143
-1.19817
0.0193466
1.3203
-0.380021
-1.23019
0.458911
-2.01319
0.996556
1.01602
0.172419
0.275762
0.462316
-0.0688557
0.184949
-0.764984
0.1624
-0.167694
0.60297
-0.791178
-0.765524
-1.01916
-0.3825
-1.46071
0.0373279
1.21424
0.65779
0.404369
-0.671931
0.193906
-0.252163
-1.45256
0.215838
1.41304
-1.48539
0.732389
-0.831848
2.38616
-0.420485
-1.61799
0.39368
-1.16279
0.234069
0.542995
-1.14908
-0.78408
-0.124479
-0.580362
-0.304926
-1.05756
0.496348
1.65899
0.573247
0.86754
0.686344
-0.118604
0.235629
-0.647573
-0.818207
0.576473
-1.08262
-0.252749
-0.372129
-0.758247
0.46784
0.00619464
2.08333
0.157782
-0.885039
2.79551
-0.368649
0.382824
0.18071
1.22794
-0.654503
1.7505
-0.779709
-1.83588
-0.83983
-0.0866245
-0.128864
0.77425
-1.44453
0.824263
1.41489
-0.159028
1.78091
-1.41756
0.409865
-1.22663
-0.528859
0.779655
0.309731
-0.443734
-0.975632
0.209103
-1.74948
0.288214
-0.315045
-0.695453
0.51037
0.095255
-0.824987
-0.429072
-0.631544
-0.0472985
1.67449
1.17762
-0.656081
0.0781553
-0.0459486
1.87381
-1.13231
1.52145
0.976058
0.771433
-1.31728
1.51589
0.565487
-0.0961243
0.384396
-1.00144
0.131965
-0.491822
1.06548
-1.12615
0.695178
-0.345022
-0.678018
0.610152
0.593928
-2.18746
1.01173
0.527566
0.210121
-0.152539
1.14414
1.82656
0.146723
-0.13974
-1.69196
-0.246707
-1.33962
-2.63696
-0.203488
0.500273
-2.48525
1.99449
0.476377
-0.0969531
-0.487233
0.150244
-0.525836
0.0486064
0.195074
0.518415
0.137735
-1.29318
-1.02085
-0.054384
-0.991182
-0.0877961
3.47148
0.845981
0.157923
-1.66897
1.53013
-0.0438374
1.25613
-0.324122
-0.783122
-0.65924
1.00084
-0.686167
-0.0807794
-0.719288
2.57276
-2.40236
-0.283192
-0.83212
0.249714
-1.25539
-0.138597
-0.326426
-1.06744
0.901117
-0.0238351
-1.41454
0.671868
-1.09389
2.07348
1.4112
1.53358
1.55008
-0.586385
1.2767
-1.10933
1.26198
-1.19162
-0.071415
-0.192746
0.230092
-1.8614
1.15566
-1.01028
-0.151927
0.354721
-1.44602
-0.419882
-0.7409
1.35592
0.942152
1.29122
-0.509365
-0.496112
1.82625
1.26622
0.166921
-0.478693
0.187786
1.27079
0.574237
0.0979562
-1.08067
-0.796925
0.232842
-0.715688
0.978349
0.583068
-1.15465
0.623481
-0.728945
-1.18178
-0.318762
0.726818
-0.646508
1.57675
-0.492496
1.10023
-1.0907
1.12591
-0.542514
1.12949
0.0611407
0.326293
1.29166
1.01546
-0.306853
1.13668
-0.130257
0.738457
0.764248
-1.1789
0.295389
1.01792
0.091183
-0.73288
-0.382069
0.6073
-0.601255
0.144417
0.446848
-0.0364053
0.478211
-1.17814
-0.177224
0.522815
0.796639
-1.31691
0.419724
-0.302519
1.43605
-0.443104
-0.58167
1.25934
0.0377784
-0.198172
-0.29925
0.898436
-0.257881
0.933369
0.0246623
-0.328402
-1.87263
-0.684038
0.082375
0.162395
1.50789
-0.623333
-0.251442
-0.0664984
0.432376
0.187967
-0.450434
1.68908
1.30131
-0.358807
0.0278511
0.742971
-1.85902
1.81253
-0.222408
-0.821006
-1.14633
-0.346238
1.8919
-0.856878
-0.72472
0.0195305
0.577773
-0.0418259
1.10318
0.369428
-1.15861
-0.0571648
0.524621
0.250978
-0.0392799
-0.446433
-0.643543
0.305908
0.139035
-0.282679
2.29818
1.57582
0.185525
0.507405
0.959335
0.292384
-0.197569
0.51409
1.25683
-1.31741
-2.18857
-0.418466
2.64294
0.0925012
-0.387967
-0.237753
0.241945
-0.357467
1.21033
0.794176
1.78269
-0.431527
-0.271372
-0.635909
-1.20109
0.911964
-0.270671
-0.43845
-0.58966
-1.05149
0.916623
0.257375
-0.207676
0.100311
0.263092
-0.0170991
-1.22603
-1.5438
1.29082
-0.132332
0.278221
-0.479929
0.39138
0.398671
-0.19846
0.319004
-1.63394
-0.0872544
-0.757569
-0.957284
0.157129
1.89065
-0.916664
0.445462
0.115188
-1.61085
0.314698
0.0688446
0.141249
1.4693
-0.262555
1.10783
-0.996074
-0.638729
0.104418
-0.173532
-1.05794
-1.43651
1.47515
0.722538
0.0884868
2.35057
2.0078
-0.797425
0.0746112
2.74533
0.518722
0.24191
-0.667164
-0.169576
0.831484
-1.59
-0.0874405
-1.34327
1.31585
-0.473356
-1.89535
0.622064
-0.167121
-0.242365
-1.02834
-0.369848
-2.67243
1.86436
-0.0723707
-0.40383
2.252
0.476722
0.295028
0.777686
0.437963
1.31917
1.43784
1.22149
-0.799292
-1.30455
-0.226588
-1.09304
-0.418014
0.0652005
-1.10867
-1.25868
-1.31268
-0.529538
-0.778297
1.00674
-2.68486
-0.937743
-1.21577
0.690925
-1.55879
0.727355
1.2395
-0.582866
-0.183569
0.19545
0.00526215
-0.12538
1.02943
-0.0274832
-0.16476
-1.03034
2.10296
0.85263
0.058875
-2.26544
-1.47091
1.28542
-0.136376
0.268737
1.27845
-0.550159
-2.24203
-2.29396
-0.509434
-1.49044
-1.0839
1.10188
-0.414967
1.32465
0.425395
-0.547203
-0.190051
-0.265969
0.588928
-0.901022
1.84281
-0.0242762
-1.33545
-0.354358
-0.3952
-1.28073
-0.0518961
-0.366825
0.45076
-0.0899875
-0.681884
-1.14207
-2.25072
-1.13791
0.549801
-0.0397731
-1.09683
0.497958
0.693227
-0.240129
0.223526
-0.258429
0.157063
-0.166404
-1.80147
-1.19455
-0.254433
0.99735
-0.915877
0.0180643
-0.152101
-0.855003
-0.310971
-0.0949022
0.441062
-0.113944
-0.600715
-1.05669
0.84902
-0.0820108
0.579628
-1.0982
-0.461949
0.290303
-0.376436
0.0129493
-0.317264
1.7545
0.372127
0.348652
0.328308
-0.795251
-1.18229
0.193732
-1.33989
0.0248947
-0.272265
-0.169436
0.244928
0.140331
1.42329
-0.537976
0.37844
-0.708844
0.494374
-0.515529
-1.28141
0.00380828
0.631545
0.165912
-0.725987
-1.5341
0.442333
0.146264
-0.722822
1.32799
1.03715
0.0318557
-1.0948
-1.25633
0.284782
-0.665693
-0.0941858
-2.59029
-1.98587
-0.379241
-0.440712
-1.49144
0.717861
-0.0947505
1.26113
0.123143
-1.14785
-0.736533
0.303116
-0.898716
0.220177
1.46799
0.346455
-0.128671
-1.99184
0.961827
0.777891
-0.115125
1.64805
-1.69558
0.220077
0.0251779
-0.371288
-1.50216
-0.460946
0.320432
1.2636
0.175943
0.706123
1.48868
-0.022997
-0.284676
-0.551541
-1.62898
0.33546
-0.656313
0.410227
0.33563
-0.727325
0.143274
0.453319
-0.224402
1.0174
0.356195
1.80364
1.49841
0.539402
-0.624245
0.298521
-0.620624
0.233531
-0.0612859
0.957157
0.412439
-1.5328
1.19899
0.223711
-1.91554
0.280261
-0.338273
1.14189
-0.302827
1.67986
0.616975
-0.914878
0.302068
-0.471917
0.130803
1.34014
2.82185
1.29043
0.828319
-0.276463
0.20536
-0.716966
-1.66509
-0.574682
-0.810337
-0.179934
-0.363104
0.163802
-0.351842
-1.08425
0.20908
-0.365833
1.46004
0.997498
-1.25407
1.1765
0.861819
-0.0739672
0.667448
-0.673512
0.0776569
0.567677
0.788581
-0.435557
-0.183324
1.30874
0.18216
0.854291
2.15413
0.793255
-1.50895
1.46185
0.189695
-0.359592
0.943199
-1.61964
0.717571
-0.398052
-0.564014
1.97745
0.634206
0.627288
0.368539
-0.447811
0.596267
1.55886
0.089211
1.08002
0.0986341
0.0305384
0.660792
2.15395
-1.16384
0.0218669
1.61459
-1.16782
-1.11708
-0.398876
0.409251
-1.4114
0.32341
-0.729223
0.709428
-0.23497
0.492286
0.688425
0.800514
0.505953
0.769316
0.778516
-0.822956
0.428207
-0.924747
2.14133
-0.65594
0.321315
1.83328
-0.894821
1.81955
1.3178
0.520174
-0.25262
0.453213
0.291174
0.164668
-0.187483
-0.29598
-1.18392
0.738126
-1.81551
0.39672
0.167703
0.215869
0.956712
1.13722
3.4035
-0.8688
-0.335514
0.917377
-0.122709
0.665697
-0.752246
0.178262
0.456505
1.51965
-0.538996
0.20507
-0.30368
0.277565
0.241102
0.178376
1.58725
0.646692
1.95104
-1.75084
1.1806
-0.262943
0.264707
-0.745849
-0.445457
-0.703409
1.86357
-0.059142
0.980613
0.0430656
-1.95718
0.456602
-0.606475
-0.781032
-0.855805
0.399423
-0.855539
-0.260436
-1.67764
0.85897
-0.161407
-0.718103
-0.639592
-0.430236
-0.642393
-0.90258
2.44753
0.0247814
0.377827
0.719433
-0.463266
0.577546
-0.171667
0.963134
-2.62804
-0.705256
0.249417
-0.331091
-1.40676
1.20539
-0.974432
1.63513
-0.460942
-1.15546
0.104184
0.653541
-1.09711
0.606342
1.32236
-1.1557
-1.26262
0.211975
-0.1197
-0.272155
-0.529692
-0.594884
-0.344499
0.083622
0.917556
0.121111
-1.17739
1.66991
0.131529
0.162717
0.670602
-0.418019
-1.12267
-0.214193
-0.18691
1.14988
-0.808367
0.407355
-0.782146
0.63485
-0.155047
1.49158
-0.465906
0.247564
-0.533397
-1.13272
-0.328277
-0.166129
0.607161
-1.13058
0.401205
0.322536
-0.652294
0.573731
-0.375543
1.27521
-0.00211461
1.17795
0.366831
0.881444
0.0595987
-0.956529
0.407121
0.278973
-0.859843
-0.404938
-1.90854
0.773554
-0.512817
0.472502
-0.645534
-0.244939
-0.917734
0.687178
-1.56046
-0.489188
0.256849
1.09971
-0.113189
-0.699802
-0.267587
1.66643
-0.780346
1.01773
-0.678001
0.00425633
0.408564
0.0339152
0.639416
-0.477467
0.350107
0.141694
0.336307
0.527966
-1.68848
0.166795
3.47971
0.744094
1.89398
-0.331762
-1.33568
-1.06984
-1.36547
-1.47346
1.38191
0.226412
-0.694769
-0.0469108
1.01804
-0.940028
0.597618
-1.39189
-0.742885
0.602357
0.141745
-0.429498
-0.608028
-0.992108
0.650298
-1.25953
-0.00280966
0.948606
-0.532917
-1.10985
0.646885
0.0601315
-0.533878
1.51481
2.18201
-1.14941
0.595517
-1.38937
-1.52328
0.478506
0.923801
-0.639307
0.567911
-0.999638
1.53084
0.836656
-0.185541
0.0872597
-1.20471
-0.344072
-0.192853
0.782438
-1.80713
0.810399
1.99322
0.998031
0.0501153
0.05323
-1.13274
0.540109
0.217485
-0.481156
-0.875965
-0.514691
-1.22681
0.727223
0.566765
0.712195
-1.14932
1.00786
-1.25679
0.438355
-0.226612
-0.213007
-0.755598
0.491338
1.63873
1.1957
-1.35915
0.42165
-0.74348
-0.0624752
0.815363
-1.01883
2.85999
-1.49814
0.671777
0.714852
-0.800121
0.0126928
-0.846941
-0.196453
0.876516
0.41772
1.71874
0.177878
-0.948788
-1.15301
1.07249
-0.658947
-0.122441
0.565846
0.139598
-0.101431
-1.45806
0.351742
0.599356
0.852359
-0.942128
1.75602
0.265269
-0.440493
0.490239
-0.839739
0.608664
-0.0962368
0.81632
0.399025
-0.545795
-0.905567
1.02862
-0.0722414
-2.10408
0.103784
2.00089
-1.88313
0.301789
-1.91528
0.163221
0.800941
-0.142049
0.138985
-1.27225
-0.169148
-1.22941
0.174832
-0.583385
0.0362381
-0.638571
1.15029
0.222732
0.196053
-2.2854
0.626461
0.113355
-0.667706
-0.736451
0.452699
-0.242227
-0.272795
-0.921018
0.806793
-0.605783
0.0141192
-0.453611
-1.79985
0.148379
-1.23686
-0.395696
0.522601
-1.29474
0.351173
-0.617217
-0.446248
-0.925144
-0.734591
2.38572
-0.211918
-0.814893
1.67402
0.891248
-1.40428
0.42668
0.71371
-1.04429
-0.521375
-1.24915
-1.32858
0.77647
0.205593
-0.659176
0.26609
2.13402
1.52947
-0.672467
-0.538209
0.892243
-0.775703
-1.03034
-0.138517
0.0673889
-1.77496
1.15797
1.1532
1.40599
-0.0491097
0.588002
-1.01619
-0.370779
-0.487012
0.388336
-0.7565
-2.29093
0.530018
-0.586777
-0.397271
1.59746
0.173476
1.37595
0.789594
1.46218
-1.17855
-2.12444
-0.293482
0.529895
-0.0979274
-1.70849
0.305133
-1.63568
-0.00113631
0.412095
-0.662261
-0.0427205
-0.870714
0.237782
-1.40063
0.227121
-0.692197
1.49166
0.528359
-0.751177
0.541433
1.73984
0.722883
-0.770748
-1.56818
0.217899
0.843056
-1.32655
0.576194
0.170247
0.529055
-2.08396
-1.55789
-1.34925
-1.19221
1.82887
-0.289557
0.479066
-0.977105
0.267099
-0.062754
0.401672
-1.31703
0.631098
1.13595
-0.135232
-2.73939
-0.411815
0.666809
-2.19662
-1.29282
0.484977
0.613451
2.33316
-0.0745297
0.0820744
0.358356
-1.95294
-0.571591
0.0253919
-0.482206
0.4449
-0.333218
-0.168594
0.593686
-1.37414
-0.187533
-1.87668
-0.55156
-1.12894
0.41738
0.67337
0.973934
-0.173107
-0.479401
-1.08141
-0.955227
0.744243
-0.409433
1.23349
0.418804
-1.25598
0.0469591
-1.29514
2.20612
-0.0470435
-0.0526605
-0.856346
0.19872
0.0726749
-1.62789
1.0014
0.938131
1.22856
-2.7145
-1.62642
-0.243029
1.06349
1.30031
-0.720494
-1.1404
-0.769418
0.149362
-0.150623
1.0689
0.539932
1.09153
-1.14626
-0.505264
1.2232
0.911435
-0.148037
0.190075
2.35398
-0.0573595
-0.579725
0.108601
-0.0594988
-0.582517
0.601041
0.614355
2.16266
2.108
0.338648
-0.718091
-1.47803
1.50863
-2.48454
0.276937
0.551988
1.11651
-0.771107
1.37835
0.998168
0.389959
-0.450855
-0.987052
0.789497
-0.0762287
-1.10403
0.324834
0.906665
-0.00156184
-0.585854
-0.54913
-1.47621
0.987433
-1.158
-0.914876
-1.0579
-0.674991
-0.957616
-1.30476
0.559387
-1.66591
0.0627654
0.99992
-0.225228
-0.617287
-0.8528
0.756543
-0.11873
1.88457
0.216448
-0.856929
0.0458989
0.487634
-0.320544
0.739453
0.757359
0.941354
0.971461
0.847859
1.14737
0.0280003
0.13682
1.43685
-0.681206
2.08776
-2.12604
-0.116434
0.625762
-3.15064
-1.34427
-1.92098
-0.716554
-0.439315
-0.683039
-1.65476
1.98785
0.27782
0.370542
-0.192101
-0.47343
-0.185906
-1.64981
1.33296
-0.61374
0.0363067
-2.00605
0.455566
1.16869
-0.778782
-0.162885
-0.359765
1.12672
0.305476
-0.819011
-0.361962
-0.345183
-0.925533
-1.06368
1.28608
-0.151437
1.9054
-0.996552
0.425415
1.37444
0.42511
-1.51661
-1.54056
0.446398
1.58553
-1.6156
0.572821
0.503478
-0.545561
-0.318502
-1.26803
-1.99025
-0.739848
-0.318108
-0.531835
1.01064
-0.714349
1.97261
-1.1452
-0.132271
0.153131
-1.51973
0.361423
0.692187
0.863216
0.042262
-0.131311
0.490017
-0.320565
0.752637
-0.124524
-1.07208
0.222226
0.781484
1.12316
-0.520253
-0.825449
-2.28289
-0.908033
0.518066
1.87753
-0.102501
0.929117
-0.333087
-0.363138
2.69174
-0.585637
-0.935498
-0.39348
-0.826765
1.20221
0.213707
1.27012
-0.969319
0.427127
2.53144
-0.773801
-0.250382
0.377836
1.59127
0.810437
-1.62178
0.648334
-0.879928
0.387737
-1.41715
-1.1871
0.576691
0.458033
-1.46951
-1.33558
1.486
-1.93352
0.18479
0.424477
0.176585
0.851671
-0.198724
-1.88335
-1.0384
-0.602492
-0.086962
-0.156226
-0.185566
0.797764
-0.784079
0.00405583
-0.490813
-0.0554307
-0.449006
-0.371434
-0.432653
1.39237
0.00108463
-2.22486
1.54164
-0.759317
-1.13366
-0.929577
0.0403942
-0.38233
-1.16819
0.226399
0.540718
-0.0633695
-1.85932
-1.99649
-0.584896
-0.537636
0.0393598
1.52889
0.396597
-2.29043
0.0376399
0.899134
-0.408237
-0.619502
-1.39901
-0.653003
0.976042
-0.0751532
0.102917
0.0468603
-0.596525
-1.82756
0.770482
-0.0768289
1.51392
-1.66556
1.04385
0.295545
-0.183487
-1.51956
2.10936
-1.09449
1.59704
-1.73465
-0.051591
-1.14503
0.331811
2.06724
0.35815
0.434109
0.0881725
-1.00105
-0.901093
0.621934
-2.7533
2.15727
-1.54376
0.624948
0.166148
0.684949
1.67821
0.508334
0.505271
0.507708
-0.108516
0.545401
-0.809019
1.30479
1.10184
-0.578491
2.03596
-0.185184
-0.683509
0.524113
0.186579
1.01883
-0.181332
-1.88618
0.356771
-1.53076
0.401446
0.0571762
0.794373
-0.0619663
0.371886
0.552768
-0.0453908
-0.63151
1.11012
0.829142
0.800041
-1.2488
-0.420693
-0.472279
0.770457
0.290892
-0.810427
0.459865
-0.58166
1.51566
-0.482499
-2.26152
-1.06303
-0.600412
0.536375
0.88225
-2.04518
0.273657
-0.746612
0.672346
-1.27186
0.799493
1.36497
0.889064
-0.354931
0.302243
-2.22068
1.03644
2.17196
1.45726
1.36964
0.638613
1.39228
0.817234
-0.00829757
-0.538077
-1.48075
-1.95217
-1.80834
0.289974
1.64345
1.56653
-0.500648
0.795716
-0.55816
0.109222
-0.548107
-0.0384446
-0.228117
-0.349518
-0.765087
0.696296
-0.77534
0.0207053
0.862642
-0.583236
0.312638
-1.09598
-0.287432
-1.08252
0.0720114
-0.350522
-2.82598
1.9321
-0.853393
-0.602605
2.64007
1.13041
-2.37088
-1.07825
-1.85393
-1.36479
-0.594737
-1.43099
-1.35769
1.43001
0.852188
1.72756
0.112856
-0.60787
2.04704
1.07528
-0.0552452
-1.13531
-0.527414
-0.907189
0.434932
-1.21874
1.49803
0.110069
0.237694
0.446048
0.4265
0.809285
-0.74038
-0.723717
-0.897209
-0.465997
0.717595
-1.63858
-1.20635
-1.57642
-0.499572
0.630759
0.587395
2.08768
0.908108
0.612259
0.0105393
1.93744
0.0632882
1.9059
-0.961344
0.315257
-1.93646
0.63899
0.656949
1.1091
0.403565
-0.559961
-1.60756
-2.96783
-0.513105
1.013
0.934383
1.01545
-0.34571
-0.0169739
0.80598
0.427302
-1.55015
2.16454
-0.339658
-1.12706
0.434478
-0.264682
1.39054
-0.115701
0.37667
1.20962
-0.90357
0.343393
0.178651
0.776575
0.64468
0.526782
0.807623
-1.134
0.0371936
-2.23051
1.07355
-0.909119
1.5236
-0.445607
-1.68569
-0.124292
0.798814
-0.324519
0.558711
-0.632819
-0.0149984
0.190413
0.113026
1.12616
0.186632
-2.26136
0.632553
-1.66016
0.552714
1.06729
-0.341312
0.805343
0.831422
1.01505
-0.47567
-0.444259
0.342537
-0.114487
-0.432069
-0.305161
-0.808411
-1.09924
2.38946
-1.33863
-0.0720894
0.132645
-0.942084
-0.773454
0.643658
0.568621
1.28037
0.914342
-1.34573
-0.832398
0.00659771
-0.483773
-1.07135
-1.17662
-1.00037
0.821825
-0.176433
0.654822
-0.942517
0.805687
0.25005
1.31901
-0.852642
-1.49736
-0.548611
-0.581894
0.848115
-1.24209
0.73523
0.953863
0.394095
-0.621141
0.0770153
-0.776674
-0.77429
-1.33223
0.774905
-1.19561
-0.64835
-2.05365
-0.246355
0.880772
1.18423
0.263609
-0.742647
-0.0797471
-0.996459
1.56415
-0.613779
-0.0878158
-0.640481
-0.0829521
-0.537955
-0.0531141
-0.616158
-1.05463
0.948604
0.766737
-1.83615
1.07024
-1.19634
-0.176509
-1.46852
0.886588
0.0691603
-1.1018
1.0664
-0.830588
-0.651675
0.200129
-1.21971
0.176764
-1.30742
1.53366
-1.00366
0.820203
-0.0357837
-1.25481
0.197142
1.11404
0.0613337
0.73733
0.859159
1.91307
0.882504
0.178589
0.0453818
-2.56027
0.370892
-0.4003
-0.900762
1.91549
1.70728
-0.0446076
0.157676
0.138433
1.34578
1.80211
0.492681
-0.216008
3.51522
1.21136
-0.149265
-0.947574
0.27284
0.995647
-0.445005
1.72566
-0.719203
0.532846
1.02701
0.136624
0.207068
-0.740407
2.07476
-0.383291
0.695541
-0.364279
0.0951816
0.796993
-0.194333
-3.09515
1.18206
0.12886
1.78606
-0.756697
0.300522
-0.0157938
-1.62325
-0.486521
1.09615
-0.263156
0.500876
-0.446651
-0.520349
-0.673344
0.987011
-0.490444
-0.0980458
0.94712
0.910756
-0.356846
-0.0761978
0.425193
0.722997
-1.23809
-0.110612
1.12065
0.497693
0.906923
-2.74221
-0.409836
0.343142
0.170734
-0.453102
1.52614
0.616176
2.67534
-0.464045
0.544857
-0.505907
1.4692
-0.50536
-0.465477
0.0619857
0.944673
0.104989
0.675789
0.114536
-0.747879
1.55888
-0.0836325
0.485622
0.660457
-0.267373
0.852233
-1.09371
1.45775
0.305116
0.661806
-0.862979
0.882474
1.4122
-0.00726796
-1.67866
1.04051
-0.334875
0.147994
0.097651
1.90115
0.223746
-0.140408
-0.526168
-0.149001
-0.0743099
0.142221
-0.159209
0.496585
-0.542094
0.103643
1.26722
1.04631
-0.198048
0.865829
0.237857
0.0381445
0.132049
1.39339
-1.27613
-2.53845
0.894257
1.02445
0.419661
1.11208
0.954571
-0.633587
-0.346946
0.221228
-0.700219
0.483956
2.76116
-0.893779
0.229197
0.635816
-0.3456
0.662135
-0.88451
0.0606867
-0.190164
-1.16344
0.285564
-0.953673
-1.87381
0.411709
-0.170245
1.11146
0.0816873
-0.744497
1.82364
1.31524
-0.416547
0.210887
0.833944
-1.4523
-1.00053
0.118098
0.809858
-1.07258
-0.102563
1.67717
0.108944
1.48754
0.2454
0.643605
-0.119513
-1.66447
-0.136947
-1.07497
0.158221
2.29567
1.20977
1.78271
-0.424631
1.28283
1.57385
-1.03993
0.187188
0.199112
1.64015
-0.635462
-1.39445
0.268763
-0.0451732
-0.718527
1.26389
-0.40709
0.259715
-1.01383
1.18887
-1.67981
-0.677106
0.000913736
-0.432284
1.04606
-0.351619
-1.61315
-1.20744
-1.13294
1.71404
0.744637
-1.12328
0.706033
-2.32677
-0.0206534
0.187993
0.333026
0.16141
0.669705
-1.28491
1.13732
0.66473
-0.950443
1.04305
0.607181
-0.922071
0.952563
-1.58131
-0.419167
-0.633011
-2.11245
-1.32924
-0.554378
-0.347648
-2.20331
-1.04678
-1.29451
-0.449061
-0.695773
-1.87704
1.09386
1.23001
0.562478
-0.815592
0.661506
0.119174
-0.970967
-1.267
0.657184
-0.276296
-0.144468
-1.41038
-0.748026
-0.341628
0.0841247
-2.05371
-2.34684
-1.21821
-1.58575
-1.87232
-2.3025
0.666719
0.375667
0.324745
1.46444
1.37856
0.547379
0.847089
-0.12702
2.26256
-0.694185
1.01025
0.759532
0.176447
1.75785
-0.236437
1.18135
-1.61421
0.113063
0.148692
0.82105
-0.191064
-1.05131
1.36466
-0.852337
-0.0315947
-1.04428
-0.843729
-0.769504
-0.800605
-3.06378
0.906337
0.461041
0.206672
1.14178
0.0888174
-1.54156
-1.59751
0.261138
-0.366104
0.493245
1.37298
-0.021962
1.24614
0.782878
-0.913856
-0.728242
0.856883
0.381498
1.55049
-0.647041
-0.644156
-0.471856
-0.536641
-0.372159
-0.595451
-1.16566
0.593921
1.36388
1.16108
0.59903
1.77386
0.400573
1.70549
0.925721
0.542889
1.8545
-2.15856
-0.281007
0.949639
-0.863255
-0.109129
-0.781443
-0.0705239
0.518513
0.644345
0.996379
0.384494
0.12452
-0.916604
-1.25217
-0.778587
0.895654
-1.62256
0.537112
-1.45234
-1.08101
0.593041
0.219554
-0.145615
-0.313179
1.09592
-0.506738
-1.51423
1.34357
-0.954974
0.91848
-0.314099
-0.505001
0.0767579
0.535489
0.758192
-0.335948
0.611131
-0.486028
-0.389591
-0.71544
-1.16011
-0.133219
0.732969
-1.7914
-0.474584
-0.872624
0.447727
0.748993
0.660664
0.470068
-0.294116
1.91352
-0.438675
-0.0746174
-0.650268
0.526754
0.0884055
1.45722
1.08322
-0.828218
0.581182
0.0607021
-1.90462
0.200685
0.0467317
0.976594
-0.980836
-0.116151
-0.105066
-1.59292
-0.249702
-1.80459
0.428965
0.425797
-0.0664405
0.845723
0.54255
-0.300146
0.482217
0.391521
-0.391989
1.12811
-1.28027
0.423594
0.0740119
-2.17386
0.742812
0.11753
0.31967
1.03497
1.09985
1.0299
0.819484
0.12968
1.73088
0.769867
-0.8639
0.225763
-0.628343
1.68433
0.308905
0.598276
-1.11707
-0.72501
-2.0126
-0.62053
-0.930792
-2.38766
1.40685
0.652005
-0.539524
-0.526158
-1.08209
0.0483288
0.290741
0.885033
0.128039
1.39679
0.0923548
0.615438
-0.288782
0.332913
1.43943
0.619361
1.26582
1.83316
-0.655557
1.31262
0.200052
0.789676
1.57878
0.611454
-0.454706
0.723537
1.42933
0.383798
0.292176
-0.48205
1.76411
-0.188596
-1.52001
0.290668
1.75142
0.255827
-0.245175
1.90089
0.32045
0.631565
1.04925
-0.107017
1.42601
2.12094
0.67999
-0.219435
1.45609
0.232905
-0.872353
2.27948
0.28504
-0.165497
1.49453
0.206594
0.714378
0.88344
0.566942
1.90465
-0.438609
0.90809
0.0912289
-1.25423
0.203591
-1.2268
-0.232981
1.41559
0.010666
1.75684
0.300342
1.64841
-0.721217
0.483602
0.48753
0.34519
0.831654
0.0782338
-0.347118
-0.31565
0.590527
0.442816
0.906753
1.26744
-0.283865
1.47671
1.46024
0.598998
0.565637
0.793761
-1.35621
-0.709827
-0.0392693
-0.699717
1.26714
-0.924559
-1.07923
-1.18017
-0.834416
0.833226
0.58686
-1.28847
1.19512
1.51917
-1.76114
0.292098
-1.22569
-1.07131
1.33146
-0.680778
0.108529
0.918954
0.580316
0.808934
-1.46053
-0.912058
-1.84288
1.10415
0.584396
-0.442983
0.106057
0.548307
1.19666
-0.584352
0.952963
-0.545255
0.216856
0.259747
0.618142
0.877132
-3.3488
-0.00162737
1.22894
-1.06604
1.47389
-1.07044
-0.659487
0.985965
0.387129
0.672757
0.468619
2.05725
-0.846671
-0.792564
-0.686052
-1.45555
0.945331
-0.171401
0.977665
0.0209742
-1.48803
1.88311
-0.360279
0.535059
0.27586
-0.816936
-0.950245
-0.388981
0.809501
-0.335248
0.821687
-0.485758
1.49977
0.831276
-0.403022
-0.665732
-1.3277
-0.707544
-2.45007
-1.00693
-0.141359
-2.0628
-0.162037
0.581366
-0.38097
-1.20405
2.33725
0.409275
0.382419
-0.262623
0.405563
0.0184073
-0.299321
-0.691324
0.142095
1.1446
-1.15748
-1.25684
-0.799451
-1.30598
0.16685
-1.9982
-0.855653
0.27208
-1.19937
-1.04217
-0.136964
1.41809
1.71181
0.500175
0.025744
-0.750702
1.54028
-0.364991
-0.269721
0.452555
-0.158889
-2.18522
-0.376196
-0.229009
2.1516
-0.573024
0.259037
-1.32995
0.702924
0.165578
0.295979
-0.128919
0.697907
-1.66493
0.382631
-0.822822
1.12686
-0.65983
1.28506
-1.33819
-0.493099
-1.17926
-0.213132
0.0716352
1.14737
-2.06993
0.246311
-2.65027
-1.32358
-0.13692
-0.387529
1.18218
-0.861773
0.403302
1.0626
1.79525
-2.40542
-0.337158
-0.93356
-0.469821
0.883484
0.419281
-1.41933
-0.195017
0.195035
0.242215
0.529051
-0.514687
0.168263
0.35984
-2.01224
0.1812
-0.0342316
0.248741
-0.469336
0.503757
-1.69394
-0.865587
0.046473
1.45021
-0.435049
-2.04389
0.537904
-0.726501
-0.174152
-0.709834
-0.29957
1.74461
-1.63486
-0.881847
-1.04392
0.858458
-0.402417
-0.660483
-0.310964
0.479164
-0.61471
0.710623
0.567648
-0.970006
-0.512266
-1.45455
-0.282959
0.260478
0.862542
-1.49296
0.0699342
0.606728
1.22258
1.2195
-0.233048
1.62693
1.72657
-1.91439
0.0228995
2.00405
0.641259
-0.762607
1.26031
-1.00542
-0.742451
0.807647
-1.6203
0.270611
0.795089
-1.08674
1.57684
-0.742892
-0.0150949
2.69837
-1.79425
-1.10194
1.80209
-0.335606
0.183377
-0.677729
1.45216
-0.620929
0.935184
1.38408
1.47816
-0.158961
0.460418
0.294158
-0.984943
0.62043
0.338325
0.339186
1.0963
0.210449
0.0175258
-0.346713
0.14971
-1.65484
-0.540245
-0.0531769
0.11124
0.509424
2.20671
-1.74462
-0.801651
-0.580585
0.409947
-1.74607
1.61717
0.64776
1.47658
1.05507
-0.033519
-0.167972
-1.32166
-1.00072
-0.48123
0.2741
-0.393207
-0.224803
-1.72459
-0.350846
-0.905391
-2.06994
-0.170512
0.741709
1.40402
-0.244617
-0.59119
2.23035
-1.172
-0.172086
1.33141
0.282765
-1.04734
0.488852
-0.060019
0.754785
-1.19398
-2.64569
1.25142
-0.973123
1.61598
1.14649
0.678663
-0.571689
-0.887339
0.707498
1.35702
0.971409
-1.75389
0.313501
-0.478821
1.47655
-1.44011
-0.289631
-0.153157
1.99985
-1.10391
-0.385292
0.157794
-0.858747
0.627789
1.00704
-0.147159
1.38952
-0.969839
-0.632552
-1.40253
0.778153
-0.66268
0.489298
1.45236
-0.584692
-2.38446
-1.14023
-0.0938798
2.06147
1.67689
-0.967379
0.254649
-1.10345
-0.918791
1.38539
0.37439
0.0301656
-1.18316
2.42487
-0.49118
-0.794575
0.907213
-0.672196
-1.64448
-0.419383
0.870908
1.82879
0.0960092
1.46602
-2.08902
-0.357119
-1.12631
1.35265
2.1461
0.245515
0.0665483
1.24624
-1.44135
-0.134184
1.56841
-0.0323678
-0.504404
-0.194486
0.555058
1.1395
0.830147
0.63665
-1.09089
-0.465197
1.72698
-0.4307
0.750303
-1.00399
-0.668583
-1.70813
-0.219911
0.695732
-0.626365
-0.543718
-0.323375
-0.77128
-0.334313
-0.0192124
-0.995079
-0.999237
-0.270435
1.98229
0.0993151
-0.0141194
-2.05354
1.36103
-0.188662
-1.51847
0.768602
1.34533
0.165747
-0.627922
-0.91229
-0.631012
0.915236
1.28718
0.528651
-2.26067
1.2815
-1.09899
-0.330932
0.28226
-1.79482
0.409086
0.745116
1.12156
0.901986
-0.0363065
1.03136
1.72849
0.158135
-0.489564
-1.3896
1.76559
-2.1935
0.747539
0.593411
1.12509
0.675069
-0.580438
0.792505
-1.29976
0.895409
-1.26109
0.0749152
0.834891
-1.0048
0.171455
-0.95381
-0.304333
-0.698797
-0.725757
-0.769005
-0.184382
-0.96649
0.530469
0.853763
0.724328
0.602159
-1.09987
-1.00244
1.00881
-0.148464
-2.538
-0.48419
-2.3736
-1.52746
0.0492505
-0.599145
0.754794
0.539398
-0.838422
0.795672
0.723353
-0.525913
0.668255
-0.628226
-2.05985
-1.10658
0.576767
-0.00700216
-0.961856
-0.497263
-0.238494
-1.24875
-0.37333
-0.813857
-0.202333
0.019373
1.36888
0.723673
-0.260289
0.760251
-0.155786
1.3109
-0.0579833
-0.681601
-0.44916
-0.410211
-1.01291
0.663857
1.16899
-0.158016
0.845644
-0.0548859
0.254277
-0.760333
-0.671063
0.119002
-1.01399
-1.34476
-0.824751
-0.46469
0.33535
-1.96454
0.643716
0.200048
-0.0148887
-0.37142
-1.33459
0.0234658
0.392204
-0.969858
0.191454
1.78862
-0.261365
0.663087
1.23843
2.05215
-0.416107
2.7384
-0.0447092
0.392454
0.878867
-1.20016
-0.227613
-1.81751
-0.765578
-0.125215
0.0495073
-0.814597
-2.41895
-0.0590562
0.341883
2.02693
1.02775
-0.595924
0.12785
-0.51403
0.51107
0.158506
-0.495704
0.287055
-1.68547
0.600898
0.0411522
1.46462
1.02816
0.361791
2.44119
-0.491447
1.20856
-0.272659
-0.437288
-0.970772
-0.130281
-1.55817
-1.23248
-0.448508
1.09562
-1.06718
-0.693132
0.367207
0.552109
-0.654737
0.866529
0.490351
-0.845353
-0.0892679
-1.48571
1.21053
0.110026
-1.08689
-0.544915
0.503466
-0.701712
-0.216241
0.942049
0.956612
-0.525439
-0.470289
-0.332095
-0.821385
0.360327
0.141065
-1.73356
-0.332384
0.274138
1.68394
-1.15112
-0.660242
-0.676176
-0.205525
0.548058
-1.4966
-0.256619
-0.214845
0.242947
-0.910969
1.21126
-1.06048
1.1844
0.24842
1.47641
0.58009
0.275823
0.586682
-0.0498955
-0.301757
-1.75435
-0.0896473
-0.0786686
1.17154
-1.63063
-0.880549
0.138841
-0.779725
0.864132
-0.632692
1.16398
0.470324
0.505557
-0.313147
1.27023
-1.24608
-0.935913
-1.83716
0.177118
-0.518537
0.6372
1.87341
-0.0138822
0.758699
-0.535167
-0.0850064
-1.27614
0.773019
-0.227219
-0.0833993
-1.79426
-1.06638
-0.402135
0.656144
1.23769
-0.158107
-1.42011
-0.385485
0.026212
1.50619
0.00135488
-0.403724
1.94367
1.17314
-0.935027
-1.43413
0.490823
-0.778971
-0.679003
0.220971
0.298771
0.154382
0.76675
0.459254
0.745207
-0.276861
-1.05521
0.554394
0.850395
0.303717
0.175448
-0.122052
0.326021
-1.19861
0.346566
1.49219
0.1449
-1.0831
-0.0160531
-0.249918
-0.543515
-0.510149
0.143631
-0.586259
-1.46165
0.680686
-0.417624
-0.53597
-0.728721
0.0865798
-1.4323
-2.16638
-0.0620354
0.183543
0.835364
0.917448
0.758901
-0.0867927
0.769237
0.457715
-0.207913
-1.43797
-0.623718
1.96795
0.525624
-0.874924
0.726853
0.288368
0.130116
1.23681
1.42629
1.58277
-1.10061
-0.152965
-0.77389
-0.898208
0.094502
1.85912
1.79453
1.74638
-0.227757
0.0805849
2.54972
-0.0998907
-0.946693
0.341135
-0.170879
0.894892
0.731315
0.416689
-0.426536
0.926809
-1.09415
-0.957468
0.41472
0.595523
0.253635
-0.120147
-0.376864
-2.17012
-1.06792
0.680361
1.47328
2.8135
-2.14173
-1.7219
1.54932
-0.0875236
0.116966
-0.654068
1.67453
-1.57636
-0.0701187
1.04397
-0.168188
0.0381001
0.231286
1.3194
0.961548
1.12794
-1.14598
0.382627
0.690045
-0.454042
0.0340755
1.5355
1.77887
-0.540886
-0.381196
-0.775197
-0.279195
0.558865
0.24083
-0.0827058
-2.50657
-1.12368
-0.231317
-0.162292
1.61921
-0.791155
1.23061
-0.749957
2.40139
1.15159
0.184608
0.0785801
-0.0707866
-1.40357
1.38222
1.09897
0.833949
-2.0308
-0.0469435
0.481988
-0.336514
-1.06886
0.103615
0.175322
0.896159
0.259572
0.382803
1.19011
1.21619
0.467736
-0.177392
0.843658
-0.0722859
2.55399
0.0213968
1.15425
0.12743
-1.54705
1.22991
-1.05858
-0.932771
-0.940042
0.144193
-0.359156
-0.465015
-0.70693
-0.415299
-0.311079
-0.705408
-2.12186
0.383881
-0.947438
0.0570478
1.45042
-0.5604
1.1149
0.103069
0.724645
1.84132
-2.35751
-0.254758
-0.0146724
0.45262
0.446936
-0.27644
0.968865
-1.89856
0.668843
0.387118
0.439144
1.2114
-0.356076
-0.629603
0.0892899
1.61967
0.417233
1.35516
0.132659
0.608189
0.690743
0.307537
0.324342
1.09641
0.044295
-0.032818
-0.917188
1.80668
-0.0212104
-0.453478
-0.0960077
-0.0852963
-0.961109
0.972774
0.45017
-0.253366
0.0536926
1.70067
1.11151
1.46912
0.0663243
0.218005
0.098089
0.404756
0.747528
0.00187627
2.5368
-1.47686
-1.13912
-0.450509
0.49823
-0.167316
-1.2861
0.633536
-0.283099
-0.333457
0.77961
-1.1794
0.0571422
-0.150876
-1.14184
