-0.676003
-0.055245
-0.384038
-1.02526
-0.933306
-0.94405
1.66853
-1.46406
-1.56919
0.510042
1.12309
-1.93653
0.542702
0.164532
1.66506
-1.62315
1.05714
-0.357776
-0.967377
-0.855954
0.868408
-0.0946714
1.18876
0.264569
-0.485224
1.047
-0.0430208
0.252038
0.724603
2.28676
0.171343
-0.369384
-0.917072
0.846774
1.29841
0.615593
-0.572979
-0.337035
0.204616
-1.11646
-1.27932
0.906074
0.0732261
0.0801149
0.84174
0.823869
0.198669
-0.618136
-0.73998
0.134244
-0.0879768
1.56042
-0.781217
-0.0707688
-0.63702
-0.483667
-1.35791
-1.56573
-0.00517014
-2.57039
0.659577
1.26832
-1.58917
-0.450966
-0.334819
-0.328597
1.0444
-1.84188
-1.59677
1.10903
-0.939626
0.0403946
-0.75643
-1.10728
-0.607057
1.33539
-0.137404
-0.519927
-0.940428
-0.461968
1.15184
0.664121
1.70347
-0.0463641
-0.166966
-1.16833
0.494177
0.477395
-2.29095
-1.30081
0.264265
-0.971966
-0.626633
-0.08076
0.064503
0.756657
-0.742684
1.03762
-1.20859
0.713512
0.733952
-0.692538
-0.412859
-0.134625
-0.669529
1.46792
-0.471392
-0.319931
2.32705
-0.18507
1.80418
-0.44293
0.00766469
0.758807
-0.775655
1.37458
-0.251258
0.690879
0.235982
1.20857
-0.862323
0.33359
0.185404
0.844637
0.37046
0.146055
-0.302568
-0.0444237
-1.20724
-0.13696
-0.95993
0.780106
-0.810961
-1.17541
1.81983
2.19953
-0.5933
-0.18392
0.168792
0.317896
0.299599
1.90875
0.630787
1.6408
0.871687
-0.952271
-0.632553
-0.732752
-0.292942
-0.276027
0.257863
0.0916872
1.46336
-0.780615
0.999411
-0.0477685
-0.297222
0.855449
1.05805
1.55205
-1.18967
0.376203
-0.946495
-1.27475
2.90995
-1.70282
-0.327239
0.98173
-0.113361
0.623995
-0.691699
-0.375297
0.564357
-0.65503
-1.38935
0.235729
0.473724
1.03414
-0.298093
-0.237225
-0.237932
0.0544644
-0.346697
-0.300326
0.924116
-0.852365
-0.563198
-0.725248
-0.488663
0.122721
2.12724
1.0424
-0.368037
1.07216
1.69931
-0.070103
0.477835
0.539595
-1.95001
1.9571
-0.507552
-0.54792
0.933996
0.463977
0.0117867
0.752553
-0.215645
1.64266
-0.925359
-0.432952
0.163589
0.263374
-0.421168
-1.01983
-1.14558
0.204703
0.548589
0.505413
1.25359
1.83727
1.32205
1.15036
2.5967
0.80643
1.44158
0.699224
0.264358
-0.457545
0.500339
1.0609
-0.77914
-0.395512
-0.823041
0.346979
-0.525013
0.423463
0.383476
1.75933
-0.86307
-0.0988603
-0.474076
-1.1688
1.24856
-0.482621
-0.252076
0.0314943
1.02935
1.25327
1.71967
-0.0928274
-0.161856
0.71735
0.835471
-0.90155
0.00574046
-1.25444
-0.877554
-1.09897
-0.403561
0.434268
-0.712919
-0.716926
0.125544
-0.601727
-0.332358
1.37968
0.161204
-1.35691
0.589938
-0.797524
-1.07111
-0.0228139
0.211284
-1.02257
-0.718695
-1.0698
-0.276182
0.334109
0.171045
0.636114
-0.145123
-0.444625
0.488467
-1.25134
0.548097
-0.658364
1.66901
-1.07796
-0.0285054
1.7049
0.509596
2.51852
2.14848
1.64539
-0.124222
-1.91505
-0.833352
-0.250365
0.0654035
0.436492
-1.40281
0.992825
-1.2767
2.11605
-0.86213
-0.926688
-1.18294
3.24594
-2.12472
-0.783278
0.70892
1.74196
2.14482
-0.296052
-0.0870292
0.417625
2.03751
0.448663
0.441257
0.735936
0.689266
0.56944
-1.05944
-1.53352
-1.08466
-1.71998
-0.460356
0.0570387
-0.154077
-0.515602
-1.99715
1.74016
-0.609802
-0.535177
-0.479826
-1.16054
0.693631
1.51203
1.18245
1.75573
0.289422
0.24575
-0.555214
-0.138309
-0.442957
-0.542346
1.43719
-0.635177
-1.05441
-0.450296
-1.68531
-0.975714
-0.474203
0.509183
-1.21336
-1.84845
0.490781
1.37417
0.0771502
0.0878169
-1.16654
0.828959
0.249384
1.89882
1.06662
0.756748
0.614497
-0.266845
-0.0969695
0.245467
1.91778
0.427735
0.571571
0.392808
0.619437
-0.176517
0.785472
-0.265371
-2.01075
0.251401
-1.33528
-0.884622
-1.05154
0.393694
0.672788
-0.360674
-0.0658689
-0.342279
-0.610448
0.648495
0.293131
-0.881553
1.73924
-0.501447
0.0334127
0.219054
-1.52789
1.48846
-0.594566
-0.500897
0.616146
-0.721295
0.0457165
0.372288
-1.44216
-0.501539
-0.55887
-0.996246
-2.15329
-0.519738
-1.132
1.81303
-0.372217
2.01277
-0.823286
1.56571
-0.00412403
0.782711
-1.16503
-0.691245
0.463669
-0.730302
-2.315
-0.602512
-0.222641
0.758109
0.405295
2.82433
0.937152
-0.704155
-0.447782
-0.320885
-1.03305
0.179348
-1.0558
0.388202
-0.321766
0.204577
-0.699
-1.63009
1.17681
0.678496
-0.685215
1.37494
0.667957
-1.39423
-0.331266
-0.272459
0.90187
-0.0917334
-0.544496
-0.333616
2.26309
-0.10456
1.26015
1.74344
0.700141
2.56825
2.26747
-1.0203
-0.610225
-0.546575
-0.573845
-0.196807
1.91533
0.031898
0.0966479
1.1278
1.09544
-0.552073
0.586007
0.118078
2.92826
-0.146151
-0.503407
0.754777
-0.0931101
-1.02804
-1.3321
-0.737958
-0.561513
-0.35456
0.786074
0.631882
0.757837
2.41049
2.27335
2.84905
1.02178
0.269127
0.729389
0.471345
-0.691728
-0.0358435
-0.704976
0.262426
0.618858
-0.273821
-0.274594
-0.769198
0.738945
-0.65981
-0.554198
1.41627
-0.884575
0.690945
-1.66913
-0.692417
-0.941453
0.519978
-0.575387
0.855947
0.787867
1.87111
1.70646
2.6944
2.38342
0.397411
1.12435
0.645318
-0.9789
0.791985
0.631349
0.736479
-0.48854
0.362942
0.169154
1.56182
0.693087
-0.0542798
-0.242378
1.12985
-0.56729
2.87403
-0.832056
-1.1047
0.239552
-0.632309
-0.973261
0.492925
-0.211166
-0.159739
-0.658287
0.00372854
0.298003
1.47131
0.0448337
-1.07117
1.04077
-1.173
-0.881219
0.313708
-0.788685
0.675182
0.304549
0.222529
0.483746
-0.89693
0.690207
-1.57422
1.1285
1.10206
0.413137
0.0795692
-1.62312
0.73695
-1.59357
-0.0739845
-0.629021
0.366689
1.92379
1.2775
0.539917
0.181744
1.67958
1.28572
0.749575
-0.351045
1.97611
-0.608419
0.963967
-0.126511
1.38095
0.905819
1.73061
0.0452687
-0.137264
-0.31672
1.08883
0.442822
1.41629
-0.233209
0.0969218
-0.408064
1.14838
-1.39494
0.539161
-0.943659
-0.78721
-1.68056
1.72406
0.477495
-0.111822
-0.130319
1.52887
0.719474
-1.29697
1.15327
-0.0946304
0.166743
-0.740079
-0.130936
1.321
1.09214
-0.789358
0.384353
0.782238
-0.91905
0.319872
0.654647
-1.47358
-2.30186
-0.980965
0.829134
0.549495
-0.272603
1.15063
0.516355
-1.68105
-0.185684
2.37362
-0.505199
0.328511
0.746638
0.327764
-0.567199
0.811182
-1.1729
0.166319
0.745343
0.100436
0.46497
2.8937
-0.174284
0.0626011
1.53126
0.399223
0.0822955
0.179675
-0.891948
-0.501999
-1.07959
-1.53198
0.619597
-0.300878
-0.525385
1.12487
0.726733
-0.380485
0.768209
0.308244
-0.574683
-0.316249
2.07995
1.61844
1.48646
0.60522
0.934833
-1.83285
0.656895
0.804934
0.0100719
-0.0478435
-1.62753
-0.371451
-0.0823775
0.68951
-0.0696209
-0.0503558
-0.563808
-0.880256
-0.21518
-0.270809
0.392213
0.0849412
-1.23168
0.321156
0.892914
0.888417
-0.396433
0.167826
1.08632
-0.37529
0.147183
-2.10099
1.45915
0.469346
-0.479391
-0.0677136
-0.0868474
-0.442814
-0.465716
0.83472
-0.527281
-0.0709998
0.424126
0.612615
0.546072
0.687319
-0.275051
-1.29586
1.02828
-1.424
-0.371068
0.187029
-0.15275
0.717931
1.98389
1.15727
0.225474
0.193429
0.0511239
-0.507131
0.00654789
-0.744262
-0.202639
-1.46863
1.13107
0.274683
1.30519
0.165746
-1.35168
1.0024
-1.23473
-0.39789
1.61284
-0.492154
-0.881026
0.262789
-0.336505
0.75241
0.685179
0.640163
-1.06208
0.395117
1.02452
0.48811
-2.60263
1.5418
0.369453
0.473993
-2.91397
-0.160643
-0.0676937
0.987046
-1.22374
-0.416992
0.695799
0.72928
0.34682
-0.618863
1.06243
1.74765
0.0557787
-0.125233
0.0884876
-0.705257
-0.223464
0.815245
-1.82373
0.4118
0.677532
-0.397452
0.0990739
1.3284
0.75579
1.0393
0.529122
1.27929
-1.13366
-0.980001
0.827177
-1.04981
0.884141
0.649803
0.242224
-1.04549
-1.2653
0.468205
0.0251347
0.0537829
-0.0371945
-0.215367
-0.850566
0.697038
0.0846392
0.662875
1.58794
1.41846
-1.28751
1.62013
-1.56336
-1.15463
0.455215
1.1664
0.897111
-0.325895
-0.588391
1.68114
-1.18011
-1.01163
-2.01386
-0.0570866
-0.541416
-0.175914
0.877797
2.33502
0.560703
-0.331464
0.447373
0.277926
-1.26948
0.675757
1.21104
0.178831
0.713743
-0.17134
1.52051
-0.846023
0.205838
-0.31218
1.18975
-0.690473
0.724837
-0.73348
-0.620793
0.590411
0.381337
1.55184
-1.05439
0.870949
0.860306
1.8508
-0.0960157
-2.47313
1.19073
-0.38202
1.74761
-1.53159
1.00202
0.109683
0.455649
-0.789124
0.675899
0.859274
0.597816
-0.767502
0.290351
-0.0729229
-0.668634
-0.880796
1.48107
-0.308733
-1.07015
-0.70768
-0.177786
0.405363
-0.00679241
1.00618
-1.04956
0.531179
-0.451029
0.37144
-0.76891
-1.13882
-1.31558
-0.826205
0.271549
-0.105878
1.60832
0.173522
-0.384598
-0.459004
0.608968
-1.13323
0.293
0.781826
0.425809
-0.279729
0.449859
0.539743
0.457146
0.949526
-0.288728
-0.484391
-0.587212
0.679346
-0.751363
0.16646
1.30858
1.94272
0.139539
-0.218615
1.57472
-0.274808
-0.83644
-0.0576041
0.804942
0.757592
0.160504
-0.852324
0.357863
-0.55576
0.83371
-0.192027
0.663023
1.49261
0.969047
0.545864
2.06701
0.0464147
0.0821353
0.175087
0.716021
-0.522331
-2.92979
-0.292242
1.2844
1.01009
1.14405
-0.62737
0.891805
0.266064
-0.595145
0.368288
0.0163977
-0.30874
0.291776
0.636084
0.343116
0.0035485
-0.0809534
1.1219
1.00035
0.155009
-0.000962135
0.482022
1.17336
-0.0732615
1.05909
0.635804
0.0674711
1.09043
-0.314734
-0.929114
-1.02068
0.415174
0.0978756
-1.51971
0.0232473
0.485591
-0.0722443
0.835981
0.334984
-0.653633
0.955013
-1.14861
1.20462
0.549506
0.276208
0.319344
-0.0826616
1.30332
-0.0565615
0.157724
0.618899
-0.572911
0.577328
-1.46222
2.07982
1.34995
0.444656
-0.853288
-1.14291
0.553822
0.772934
1.54968
0.157538
-0.39031
-0.544924
0.693278
0.368803
2.06984
0.61924
1.31768
-0.278296
1.41349
1.45234
-0.456024
0.301639
0.387723
0.113338
0.487254
-0.0309852
-0.227042
0.290119
-0.454685
-0.493547
-0.128202
-0.733909
-0.143646
-0.0914644
0.222883
0.906549
-2.02334
0.290575
-0.11492
-0.0595555
-0.0667658
-0.971225
-0.215551
-0.512687
0.867916
0.341283
-0.701248
-1.68394
-0.386071
-0.878308
-1.8099
-0.802601
0.205838
-2.06132
-1.08959
0.867253
-0.853515
0.593546
-0.0537348
1.60565
0.959259
0.9712
1.76134
0.480959
0.547636
0.58813
0.751355
-0.535466
0.0320027
-0.72218
-0.20426
-0.880392
-0.238903
-1.16985
-0.776072
-0.455495
-1.09363
-0.715785
-0.930615
-1.7013
-1.41755
-0.54236
0.713637
-1.33568
-0.337692
1.136
-0.723727
0.878847
0.14871
0.0984257
0.917895
-1.82542
0.29288
0.727652
-0.87475
0.0955233
-0.482962
0.203381
-0.553166
-0.387109
0.574095
-0.859005
-0.00453387
0.174979
0.129965
-0.559465
0.344797
0.217096
-0.610121
0.647442
-0.336507
-1.84881
-1.28674
2.54431
0.952142
0.755227
0.0364676
-0.700213
-1.44346
-0.962411
-2.89709
-1.26783
-0.758898
-1.46731
-0.939251
-0.0890527
-0.736321
1.1268
0.35994
-0.414044
-0.542491
-0.656809
1.12932
-1.13662
-0.993247
0.555991
-0.144618
-0.492157
-1.01935
-0.0958569
0.491738
-0.623252
-1.80198
0.254941
0.898421
-0.212962
-1.4121
0.425535
0.501758
1.8428
0.521944
1.10158
-0.773594
-0.82494
1.63495
-1.04657
1.12449
0.296881
-0.399281
0.821198
0.298565
0.405269
-0.920343
-1.16477
-0.109057
-0.910865
0.181794
1.0749
-2.57551
-0.565787
0.681381
-0.61624
0.115178
-0.770151
1.1392
-0.398491
1.50365
-1.19856
-0.602207
-1.39785
2.13092
-1.44419
0.317793
-0.215122
0.676637
-0.0112865
-1.03858
-0.503986
1.03125
-0.349777
-0.020003
-0.420201
-1.01557
-0.080599
-1.09526
0.283282
-1.18892
0.853398
0.546389
-1.45235
-0.975294
-1.28108
-0.056847
0.0709142
-0.654702
-0.228276
0.951286
2.01434
-1.44853
-0.656927
-0.0364164
0.590044
-0.640585
0.411742
-0.350533
-0.676373
-0.44492
1.70431
-0.780797
-0.28995
-0.0579178
-0.736677
0.700438
1.82854
-0.0360195
0.690954
0.10352
0.81625
-0.402446
0.842541
-1.30826
-0.431112
-1.64613
-1.40426
-1.03727
0.218625
0.281011
-0.219947
-0.109943
0.0720954
0.37248
-1.00521
0.144777
-0.191554
0.284934
-1.09811
-0.485089
-1.00084
0.154042
0.625476
-0.846281
1.09821
0.361832
-1.07185
0.676592
-0.0826003
0.971256
-0.109345
-1.02403
-2.03239
-0.57142
-0.44913
-2.71603
-0.00182765
1.14243
0.620301
0.504675
-0.34903
0.148382
-0.454797
1.41454
-2.34339
-0.602484
0.287254
1.29311
0.246334
0.659488
1.39038
-0.573618
-0.924407
0.692799
-1.61935
0.542012
-0.163056
1.26667
-1.0832
1.23362
-1.10471
-1.85227
-0.927944
-1.74653
-2.10524
-0.910262
-1.24901
-0.803338
0.474261
0.362864
-0.618055
-1.8014
1.71242
-0.66693
1.12415
-0.637454
0.574437
-0.926453
-0.409688
0.860603
1.24535
-0.831677
1.89699
1.16557
-0.261895
-0.544034
-0.154676
-0.371628
-0.273983
-1.46346
-0.896267
-3.01795
-2.69327
-4.72541
-1.62162
-3.17191
-2.88883
-0.313797
-0.140889
-0.958342
0.597477
-0.0728947
-0.45469
-0.509613
1.39081
0.762509
0.784936
1.15289
-2.03459
-1.1179
-0.570778
-0.113283
-0.410919
-1.02044
-0.147468
0.305115
-0.894919
-2.6532
0.0710898
-1.50796
-2.98876
-0.976301
-2.65653
-2.54577
-1.75815
-0.563805
0.119088
0.515466
-0.894608
1.16079
-0.902556
1.94833
0.80524
-0.719695
0.25066
1.00726
-1.18199
-2.07834
0.675816
0.963721
1.17623
-1.30703
0.125516
-0.603675
0.731618
0.82602
-1.64039
1.19507
-0.346278
-1.12407
-0.284093
1.20542
0.522548
0.736244
-0.279709
1.07661
0.39791
-0.0372147
-0.0163252
-0.594028
-0.295475
-0.0110826
0.396844
0.185515
-0.75173
0.0894408
-0.702293
-0.670825
-0.223591
1.78946
-1.20753
-0.327002
-2.168
-0.555883
-0.0398601
-0.101777
-0.581755
1.14021
0.852506
-0.331871
0.369146
1.40474
0.775775
1.92609
-0.802823
1.55747
-1.6171
0.331539
-0.0107217
0.031534
-0.453353
-2.55124
0.345542
-1.47149
-0.0355352
-0.74324
1.1749
-1.69903
0.246573
1.35505
-0.547257
1.02462
0.795315
-1.21544
0.666725
0.109648
1.40149
-0.0961237
0.938038
0.479768
-0.194436
0.569002
0.357802
1.01933
0.178597
-0.0714443
1.0989
-0.137235
1.15056
0.726956
0.860393
1.04672
-1.10662
-1.2245
-1.14261
0.552798
0.651168
0.779903
0.231184
1.35158
0.171303
-0.168344
1.64891
1.38736
0.281005
0.885011
-0.709091
0.211459
0.066646
0.102997
1.09562
0.253933
0.851286
-0.0575898
-0.730865
-2.32775
1.43823
2.23667
-0.211711
0.80886
-0.20748
0.21828
0.541758
0.38692
0.667186
2.31775
0.752175
0.551443
0.713182
0.0984621
0.305632
1.20313
-0.84781
1.78453
-0.145398
-0.310213
1.24257
0.217198
-1.19547
0.0109704
0.45838
-0.961648
0.157865
-0.677834
-2.26507
1.04471
0.094842
0.31308
0.823397
1.4295
-0.268844
1.13973
-2.63503
1.91711
0.242754
-1.80492
0.522042
0.210753
0.851398
1.50238
0.237084
0.115968
0.73488
1.5159
-0.2476
-0.364312
-0.407612
-0.280849
-0.432909
0.766806
-0.524464
0.777335
-1.80597
-0.944253
-0.894208
-0.0588963
-0.656016
0.208829
-0.0566803
2.346
0.282431
-1.1796
-0.846772
-0.32444
0.296398
0.0669935
2.24799
0.832662
0.637627
-0.581496
-0.205828
-0.455323
1.0363
-1.33021
-0.621499
0.426161
0.940749
0.319039
1.04587
0.30626
0.115076
-1.05378
0.818647
0.385121
-0.0699384
-0.212835
-0.73964
-1.93086
0.709546
0.417739
-1.03948
0.0840865
0.700216
0.41667
0.144207
-0.239726
0.98357
-0.245369
0.165412
-0.958796
0.468407
0.0433469
0.455305
-0.383951
0.950755
1.13145
0.752814
0.454916
0.800189
0.604617
0.677968
-0.407143
-0.360052
-0.296728
0.159719
0.499706
0.852413
1.029
-0.58056
-0.776846
-0.23998
-0.391242
-1.87661
0.0640527
-0.785546
0.483858
-0.339459
0.375041
1.53413
0.349552
0.217464
-0.0881217
2.46353
-0.916192
-0.293668
0.54357
-0.00311452
0.519361
1.94186
0.34378
1.62559
-1.74812
1.34202
-0.75434
0.879236
-1.13428
0.115658
0.927771
-0.326769
-2.21793
0.212282
0.49137
-0.85412
0.487029
0.0236218
0.517839
0.434583
1.23775
-2.07439
0.591933
0.408758
-0.647921
0.186695
0.273318
0.0971572
0.548904
1.46279
0.41924
0.96432
-0.691457
0.011678
0.754583
-0.0242264
-1.24777
0.77548
-0.527585
1.45021
0.469018
1.26009
-0.500177
-0.591091
-0.411445
1.00204
-1.99103
0.0609135
-0.236169
-0.968251
-1.76898
-1.26002
-0.471005
0.605956
-1.04542
0.68044
-0.456057
0.382621
0.88219
1.7975
0.311332
-0.366973
1.61185
-0.665528
-0.583417
1.23721
-1.82827
0.505974
1.93696
0.448239
0.0336361
0.365202
1.08001
2.82367
0.652718
0.0920127
0.650081
0.596172
0.460167
1.56821
-0.538019
-0.173872
1.56873
-0.186275
0.91851
0.171112
-0.835401
-0.738861
0.38207
-0.813643
2.25161
0.495392
1.92971
-0.413149
0.33752
-1.54545
-0.405992
-1.04268
-0.150458
1.53363
0.311247
0.359119
0.335761
-0.611202
-0.653584
-0.29917
0.00779187
-1.52252
0.239595
0.219271
-1.64851
-0.0575273
1.39328
-0.604542
0.789973
-0.760015
-0.591488
-0.534162
0.0521084
-0.484977
-0.990348
0.577674
-0.164517
2.16956
-0.764353
0.676547
-1.08656
-0.514119
0.0771241
1.22161
0.84457
-0.924064
0.0387051
-0.513127
-1.1886
-0.945016
1.42364
-1.78089
0.212429
0.114081
-0.621383
1.42007
1.7033
1.21425
0.197783
0.0879875
1.12642
-1.02508
0.75454
0.512768
-0.644136
-0.382205
0.294449
-1.07594
-1.10196
2.11355
-1.22986
0.486811
2.9784
-0.377994
-1.00584
-0.257291
-0.535579
-1.31152
0.38485
0.562826
0.121529
0.491005
-2.0686
-0.321006
2.14694
-0.0483273
-2.49499
1.74132
-1.27139
-0.772134
0.406904
0.149557
0.227255
-0.605226
0.324978
0.862903
0.293551
0.480794
0.898786
0.428445
0.513317
-0.128495
-0.683591
-0.412147
0.744076
0.84907
0.146622
0.709036
-0.861107
0.573679
0.134896
-1.1712
-1.02795
-0.955296
-0.221951
-0.777019
2.64816
-1.05775
0.312129
-0.174654
-1.45994
0.554841
0.346227
-1.30975
2.04543
0.272748
-0.347587
0.34944
0.926673
0.525851
-0.733497
-0.999053
-1.10209
-1.31404
1.31795
1.38251
-1.05205
0.859692
-0.94081
-0.137617
-0.107423
0.672826
-0.305971
-0.633393
-2.05463
-0.655854
-1.34127
-0.425579
0.270821
-0.139111
1.05814
-0.158628
0.681436
0.377587
0.698906
0.547944
1.66507
0.875451
0.0894901
-0.106466
0.232113
0.312387
1.9874
-0.917536
1.08755
-0.973049
-0.781448
1.81091
-0.33649
0.368614
-1.0908
-1.26677
0.643619
1.4827
-0.925623
0.185939
-0.583444
0.841229
0.411369
0.0260257
-0.043593
1.27515
0.164515
0.0755819
0.411992
-0.235015
0.92699
-1.59537
-0.298143
1.25097
1.18309
-0.949163
0.332282
-0.345353
-0.392522
0.449274
-0.213931
-0.605876
0.969535
-1.5551
0.763118
-0.916884
0.919195
-0.335222
-0.489541
0.0229942
-0.842871
-3.17776
2.56391
0.651283
-1.50001
0.474818
0.666504
0.225135
0.751904
-0.894464
0.997005
1.87037
-0.364531
0.821398
0.0732764
-0.101707
0.742417
-2.25662
-0.800468
-0.114394
-0.0567816
-2.54384
-0.254139
-0.530455
1.34623
0.567623
0.470412
-1.39755
0.763798
0.311111
0.0836115
-0.0682263
0.769597
1.9343
-0.430567
0.488569
0.518348
0.0431733
0.782054
0.677457
-0.00414438
-0.880737
1.00762
0.959918
0.65486
0.827063
1.43559
0.32905
-0.127065
-0.530205
0.387474
-1.82939
-0.544013
1.15845
-0.741197
0.023364
1.26823
-0.339501
-0.295443
1.52235
0.672195
0.476902
-0.851641
1.5326
0.180163
0.420082
-1.8656
-0.821893
2.43495
0.070472
1.05441
-0.877893
0.200216
-0.590063
0.098729
0.854069
1.51326
0.750424
-0.349923
0.00635145
0.40802
1.8263
-1.71952
0.799183
-0.343383
0.805008
0.506861
-0.362103
1.52448
-0.826169
0.643999
0.945637
1.27091
-0.564328
0.651602
-0.913217
-0.738524
-0.0176278
-1.1518
-0.291804
-0.0984884
0.865395
-1.54795
0.204917
0.446313
-1.04333
-0.584454
1.0061
-1.13277
-0.630001
-0.121272
-1.13177
0.163703
0.556465
-0.908703
-1.94445
-1.68276
-0.2534
0.330828
-0.292886
0.0133549
-0.613097
0.173974
0.247863
1.38585
-0.747188
-0.576287
1.5731
-0.575599
0.46371
-0.465548
0.446095
1.52573
0.0443998
-1.78753
-0.0754787
-0.866251
-1.14016
-0.79249
-0.967215
-0.310563
1.60575
-0.987494
-0.970453
0.62076
0.184154
0.620531
0.677977
-0.0962688
-0.158815
0.0234219
-0.0802762
-1.54428
-0.2403
-0.727899
-1.73736
1.42137
-0.697141
-0.255631
0.954611
0.148215
-1.01929
0.516534
1.4271
-0.886242
-0.131327
-0.450201
0.697629
0.95825
0.754244
2.34669
-0.915865
0.46938
0.638635
-0.865302
-1.01007
-0.222401
0.89727
-1.49059
-0.728351
1.23767
-0.173679
0.429974
-0.282569
-0.896906
1.72022
-1.0042
0.175715
-0.82504
-0.277572
0.598677
-0.156753
1.65163
-0.261754
-0.682822
-0.899822
0.477357
0.303275
-0.45724
0.139291
1.54151
0.465451
2.51608
0.446195
-0.0650112
-1.16242
-0.614055
1.82955
-1.82222
0.679743
-0.0337586
-1.60582
0.651209
2.82345
0.0797018
1.15368
-0.946333
-2.14753
1.09121
1.15209
-0.190332
-1.5804
1.0094
0.215733
-0.0412499
1.56394
-1.77197
0.599213
0.525422
-0.685651
0.73226
-0.784349
0.341137
1.01082
-0.449688
-1.58619
-0.235887
-0.964865
-1.48749
1.84539
0.884284
-0.857414
-0.40874
-0.436192
-0.985317
0.100465
-0.144935
0.170839
0.37645
1.02214
-0.355836
0.0129716
0.193228
-0.18668
1.39445
0.904352
-0.0121245
0.0925125
-0.749822
1.13915
-0.103438
-1.01314
-0.11154
0.13401
-2.57139
1.34927
0.231139
-2.06172
0.808361
0.442978
-1.67546
-0.373449
-0.570879
-0.780536
0.450519
-0.324605
-1.14816
-0.931446
0.264608
-0.392963
0.577732
-0.0268118
-0.147029
-0.420129
1.45926
1.64628
0.205549
-1.1686
2.21139
-0.0989273
0.296004
0.957473
-0.31067
-0.0577401
-0.970393
1.79854
-0.64153
0.428686
-1.2487
-0.193831
-1.43737
-0.220384
0.164522
0.546531
0.928646
0.320995
-0.395496
0.010252
-0.645966
-1.06192
1.97706
-0.517048
0.462149
-1.33387
1.79971
1.58727
1.33724
0.603303
-1.1406
-0.752111
-1.20291
0.385838
0.503105
-1.45301
1.21968
0.960842
-1.6162
-0.330806
-0.355992
-0.288623
-1.35724
-0.799253
-0.84335
0.265494
-1.20403
0.995564
1.01893
-2.0286
0.747299
-1.01008
-0.0187156
-0.153604
0.349473
0.266722
0.787619
-0.697761
1.33005
1.63834
-0.67194
0.49108
0.97471
1.73841
0.353047
-0.996437
-0.0633286
-0.561908
1.65365
-0.527823
-0.665678
0.235996
1.19697
0.855563
-0.964087
-0.833541
0.304374
-0.326815
-0.473925
-0.692981
-0.918635
-0.294757
-2.02534
0.478352
-0.571204
-0.998358
-0.480109
-0.279119
0.872309
0.169331
0.749004
-0.0855324
0.666649
1.97346
-1.83687
0.83242
-0.921474
0.188198
0.967154
0.291047
0.578096
-1.13937
-0.856118
-1.0941
-0.612728
-2.1103
-0.561249
-0.479728
-0.172226
0.433584
1.58765
-0.688486
-1.25494
-1.0259
0.591363
-1.262
1.99725
-1.084
-1.07372
-1.02345
0.525812
-1.37998
0.900765
-1.09467
0.0484955
-1.41081
0.987286
-2.77525
-2.88487
-0.622758
-0.121167
-0.229005
-1.72876
-0.490888
-0.65062
-1.12267
-1.22551
-1.11675
0.191461
0.615494
0.987581
0.200376
0.610494
0.243605
-2.14497
0.890629
1.54312
-0.703365
-0.0920294
-1.4755
-0.536905
-0.785318
-1.67038
-0.0709294
-0.390559
-0.152217
0.525795
0.360438
0.510625
0.570697
0.166504
-0.540814
-0.617361
-1.73671
0.108863
0.260491
1.31394
-1.54831
0.972454
-1.80651
0.181809
0.0873605
0.694558
0.539601
1.84514
0.776001
-0.541563
0.0630646
0.562533
-0.153432
-1.06045
2.38447
0.547323
0.936586
-0.621785
0.972534
1.17214
1.01942
-1.26141
0.078203
1.29491
0.273477
-1.38416
-0.345892
-0.626238
1.94852
1.1395
1.62486
1.0056
-1.25364
0.524743
-0.243644
-0.479807
0.616603
0.406181
1.53707
1.4747
-1.77146
0.612087
1.2907
0.42631
-3.24592
0.426629
1.15913
0.204853
0.0437078
-0.698755
0.131105
0.739751
-1.34799
-0.398621
0.22401
1.59852
1.74941
1.00097
0.335832
0.0329705
-0.673519
-1.20227
-2.05098
-0.395699
-1.30631
0.0535804
0.590587
0.705607
0.554602
0.426222
1.13293
0.418717
0.212209
-0.422234
-0.194493
0.68693
-0.39765
1.37608
0.67452
-0.232933
0.0374363
0.744563
0.426354
0.149979
-0.977085
0.697213
-0.759833
-0.476044
0.0527192
-0.907542
-2.00823
-1.02051
-0.559286
0.60392
-0.190553
0.459821
-0.327766
1.63622
-0.594053
0.16321
0.759896
0.308663
0.953728
0.558391
-0.589334
-0.712759
-1.1155
-0.648288
-1.71098
0.743146
-0.424753
0.367121
0.974199
-0.471594
0.448805
-1.41711
0.782014
-1.04355
-2.30613
0.99741
-1.45438
0.449841
-1.38328
1.28225
-0.287009
-1.8144
-0.074224
-0.480821
-1.08226
1.85305
0.496983
1.49494
-1.81899
-1.62928
0.366816
-1.26697
0.391539
-1.82189
-0.185508
0.669545
1.94502
-0.0886001
-1.12605
-0.34935
-0.703453
0.626074
-0.907304
-0.145603
-0.923768
-0.667579
1.07994
-0.567478
0.641365
-1.01811
0.314145
0.131825
-0.71564
-0.918647
0.404898
0.139881
-0.22928
0.670736
-1.64834
-1.76954
-2.03137
-0.712188
0.330758
-1.62132
-0.75115
-0.606622
-0.949075
-0.0187243
0.676824
-1.41933
-0.911187
0.0473412
-0.778163
0.00974813
0.0586614
0.92313
-1.72312
-1.7219
-0.378464
-0.205737
-1.62714
-0.694697
0.495749
0.429261
0.883139
1.34963
1.49528
1.01389
-1.15216
-0.700279
-0.0568484
-0.475475
2.12734
-1.48848
-0.179854
-0.186172
-1.15227
1.25037
0.56147
1.05195
-1.29093
-0.687711
-0.592877
-1.09377
0.0547477
0.551458
-0.610571
0.562762
0.324845
0.690516
1.10109
0.471677
0.0114099
-2.02107
-0.0231427
-1.0753
0.195167
0.361042
-0.129852
-0.985473
-0.164563
0.481894
-1.4135
1.3371
-0.0532903
0.560692
0.540916
-1.25399
-0.271954
0.511331
-1.33489
0.842943
0.0838271
2.11251
0.635787
-0.495682
2.34164
0.614489
-0.0941148
-0.0530894
2.52837
0.00312837
1.31359
-0.821152
-0.279946
-0.591387
-0.71305
1.33817
0.98243
-1.62094
0.771102
-0.303873
0.502704
0.216735
-0.776353
-0.35242
0.082038
1.80472
-1.19516
-1.33271
0.101053
0.504342
0.181797
1.90316
-0.137652
0.273164
0.321435
1.36355
-0.430742
0.817759
0.317724
0.743478
1.2087
-1.30745
1.19943
0.949532
-0.897797
0.755196
1.40773
1.99551
-0.789614
-1.11929
0.334118
-0.387981
-1.48586
0.462992
-1.03489
-0.407918
0.220473
0.379085
0.524982
1.08758
0.698332
0.590531
0.280433
-1.34629
0.441791
-0.443894
-0.509634
-0.67095
-0.284474
-0.210862
1.92627
1.47303
0.737292
2.32891
-0.708588
1.21986
-1.06406
1.01134
-0.842935
0.36665
-0.153315
-2.75483
-2.02327
-0.0693619
-0.53693
0.0056316
2.86869
-1.11571
1.00997
-0.807809
1.69169
-1.2013
1.61873
-0.907729
0.714954
0.42187
-1.48189
-1.47676
0.627154
0.482527
-0.0100921
0.160967
-0.0340288
-0.19986
0.793068
-0.933723
0.490649
-0.52341
-1.58573
0.83847
0.708479
0.986851
1.63144
-0.559454
-0.625689
1.48717
-1.93131
0.738213
1.69201
-0.701384
1.81085
-1.18454
-0.857786
-1.50524
-1.48142
-0.991096
-0.257538
1.20223
-0.608844
0.0654281
0.0872681
-0.750575
-0.32307
0.664262
0.799808
-0.655429
-0.399
-0.699499
0.38002
1.03138
1.46229
-0.662012
0.270861
0.295861
-0.149837
-0.263689
0.369514
0.110159
-0.130179
0.780745
0.281019
-1.51179
-0.268026
-2.48806
-0.37271
-0.0366865
0.954897
0.176519
-1.25564
0.6964
-0.789715
-1.07892
-0.676054
0.176261
-0.406003
-0.547217
0.858519
-1.67748
-0.56453
-0.616967
-1.2908
1.3432
0.489497
0.420403
-0.851942
-1.49373
-0.2096
1.26924
-0.94819
0.161065
-1.6487
1.09455
-1.86266
-0.933126
0.0289308
0.191909
0.115352
1.52574
0.238541
-0.267428
-0.387923
0.627005
-0.0677058
-0.495479
-0.0296414
-0.368159
-0.561448
-1.08267
-0.718818
-0.99112
0.173966
0.289631
-1.26104
1.84389
-0.589896
-0.282679
-0.985116
-1.43577
-1.25451
-0.71424
-0.0232179
1.09531
-0.557324
-0.243632
-0.184235
-0.221262
1.79316
2.88972
-0.88639
-0.260748
0.419014
0.0742158
-0.368903
-0.102885
-0.437178
0.441236
-1.21545
-0.531617
0.420452
-0.328506
-0.576066
1.30012
1.25055
-1.07736
-1.02048
-0.622578
-1.63044
-0.508594
-0.570727
0.674908
0.0181148
0.0416702
1.32904
0.174054
0.412037
-0.486603
0.900398
-0.267413
-0.764401
-1.01678
1.11028
0.80241
-0.021697
0.443042
0.0833541
2.02025
0.371289
0.714353
-0.00829186
-2.74226
-0.917279
-1.19193
-1.19342
0.472739
-0.600774
-0.0611773
0.943128
1.36283
0.929918
-2.51272
1.13823
-0.515117
-1.34989
-0.813835
1.27279
1.54492
-1.74659
-0.549263
-0.519424
0.81673
-0.447879
-1.57357
-0.569752
-1.05096
0.194265
-0.252044
-0.101881
-2.42033
-0.587236
-2.0869
-0.960618
-0.574305
-0.101984
1.54524
-0.809428
0.903
-0.51662
-1.21407
0.450357
-0.370245
0.115051
-0.153139
-0.666565
-0.403907
-2.8773
1.38977
0.564151
1.0071
1.14419
1.92219
0.330398
-0.386522
-0.846837
-1.60402
-1.64135
-1.00552
-2.75406
-0.536762
-1.01679
-1.02238
0.967668
-0.513535
0.209059
1.85084
1.00626
0.128152
-0.473878
-0.637927
0.58162
-0.443002
-0.803074
0.251877
-1.44634
1.56142
1.19027
1.13238
-1.36782
1.10867
1.19956
0.771006
0.585898
-0.479844
-0.904047
-1.01805
-0.520427
-0.488499
-0.902444
1.04853
-0.197203
2.14085
0.366123
0.019081
-0.0650086
-0.686603
-0.329678
-1.80382
-0.165212
-0.889562
-0.879417
-1.43279
-0.256116
0.857
-1.67825
0.0141646
-0.182131
-0.950034
0.440482
1.59706
-0.710895
0.482199
-0.631272
-0.0273977
-2.37533
-0.422432
-0.105859
-0.149425
0.033783
-1.17454
0.982993
-0.422078
0.304706
0.69151
-0.555604
-1.14625
-1.19226
0.418254
-2.5699
-1.26825
-1.35587
-1.77806
-0.132322
-0.0522924
-1.36124
1.25337
-0.480248
1.48278
0.532401
0.517408
0.485662
0.132827
1.00103
-0.138904
0.521825
0.132122
-0.827501
0.316131
-1.81844
0.598991
0.0857749
-0.794345
-0.406561
-0.959745
-2.01251
-1.50673
-0.707592
-1.19215
-1.66929
0.721671
-0.922307
-1.28086
0.195931
-0.212334
0.403959
-0.24647
1.9725
0.443651
1.36923
0.0987945
0.617319
-0.0273393
-0.637683
-0.5127
-0.220054
0.384199
0.202623
-0.833814
-0.892527
-1.35539
-1.70949
0.604246
-2.4501
0.495573
1.07041
-0.969812
0.210451
1.28435
-0.429692
0.118385
1.49752
0.100713
0.394846
-0.2267
-0.114984
-0.216277
0.509086
-0.724139
1.2665
-0.801806
1.24191
-0.528116
-1.89634
0.715068
0.415377
-1.24448
1.10669
-0.0541757
0.0791805
-0.444096
0.0506365
-1.80515
-0.899703
0.220414
-0.477061
1.14738
1.46971
0.1749
0.93091
0.744429
-1.60308
1.00532
-1.77748
0.532116
-1.09034
2.25907
-0.658093
0.481916
0.0571744
-0.683701
-0.855762
-0.558453
0.558392
1.59191
-0.0497641
-0.470248
0.469478
0.11619
-1.17772
-0.471823
-0.289342
-0.573935
0.170822
-0.315288
0.464049
-1.1612
0.863653
0.0536747
1.06964
0.174958
1.90234
-2.20589
0.728728
0.0507801
-1.93729
0.874632
0.741224
0.0791591
0.563598
0.212827
-0.190227
-0.716953
-2.20628
0.426121
-0.0228533
-0.158279
1.61941
-1.90932
0.626373
-1.13855
1.29528
0.897518
0.660321
-0.982047
1.26112
1.11145
0.0966542
0.801975
-1.64719
-0.14516
0.0341605
0.0175593
-2.36547
0.894888
-0.180022
0.677328
0.175826
0.688382
0.636435
-0.767456
1.34959
-1.15178
-1.78031
-0.145698
-0.481109
1.40282
1.45216
-0.881552
-0.26538
-0.393379
0.707652
0.407441
1.10346
-0.485908
0.569179
1.15194
-1.62167
-1.51908
0.360285
-1.18082
-1.3872
0.855825
0.885373
1.01421
-2.1967
-0.826436
-1.6207
0.102199
0.571189
-0.271921
0.348728
0.920329
-0.192035
-0.108307
0.0617631
-0.941902
0.711671
-0.409161
0.992303
0.771323
-1.51172
-0.0290671
-1.18485
0.343294
-1.10677
-1.57147
-0.867711
0.182134
0.537731
0.166533
-2.20866
-0.0303027
0.779918
-0.332477
0.262248
-0.255367
-1.71343
-0.938848
-0.303859
0.347858
-1.74941
-1.66993
1.21701
0.509758
0.387858
-1.5499
-2.56921
0.666858
-0.284709
-0.172224
1.31871
-1.08833
-2.56574
0.292045
-0.0105182
0.391916
-0.495048
-0.881128
0.797104
0.856841
-0.301706
0.269278
0.903235
0.104099
0.652772
-0.0919265
-1.23357
-1.24048
1.06062
1.5862
0.856968
-1.13129
-0.574172
-1.23275
-0.0351783
0.696225
-0.155181
-0.982482
0.370763
-0.253865
0.989443
-0.177352
-1.12911
-1.29415
-1.68653
-2.17784
-0.285331
0.223074
0.240279
0.0888374
-0.868335
-0.471482
-0.76863
0.497673
0.735146
-0.38384
-1.89381
-0.238552
-0.944724
-0.811898
-0.542367
-0.338725
-0.329717
-3.03064
-0.565887
0.370384
-0.72336
0.539832
-0.220484
-0.569639
-0.279526
0.21422
-0.866618
-1.2413
-0.256184
0.0468133
0.195158
0.80979
-0.29565
-1.39726
0.550999
1.31527
1.39753
0.432597
1.10529
0.509581
-0.867806
0.924855
-1.53291
0.897544
-0.589643
-0.240788
0.541658
-0.246291
-0.976525
-0.778927
0.693082
-0.551723
2.18956
-0.196695
0.409123
-1.47803
-0.105467
1.13826
-1.72605
-0.0224425
-0.180906
-1.51412
0.830968
-0.280148
0.420324
0.0439044
-0.698386
-0.24874
0.889725
-0.965098
-0.467606
1.17398
0.341015
-1.25007
1.57302
0.51479
-0.328766
1.93129
-0.60695
1.17273
-0.840024
0.906539
-0.403601
-1.89111
-1.25111
0.163855
0.646643
0.368487
-1.82107
-1.41349
1.06261
0.120278
0.456697
-0.187912
0.534158
-0.997995
0.916392
1.29763
1.56716
-1.20972
0.221191
0.658559
-1.1409
1.86606
-0.690761
-0.547582
0.893938
0.441031
-0.249162
1.73274
-0.141471
1.08191
-0.0958861
0.267635
-0.750852
0.407637
0.655661
-0.216946
-1.03929
0.480439
1.39342
0.602561
1.58488
0.75919
0.35239
-1.11347
1.19085
0.191732
-0.334318
1.85905
-1.56294
-1.31859
0.752372
1.9886
-0.613913
-0.568046
0.173162
-0.0814211
-0.979261
-0.566137
-0.4028
1.27169
0.606298
1.02704
-0.440689
-0.207209
0.718931
0.242737
0.544363
0.845436
-0.139545
-1.94437
0.0282422
1.59358
-2.61236
-1.44002
-0.258093
-0.357592
0.120912
-0.753274
1.27099
-0.492135
1.26977
0.0529617
-0.644781
-0.13968
0.114186
-0.958422
-0.92866
0.000964091
-1.77448
-1.87203
-0.453424
-2.29309
-0.633192
1.20772
0.451838
0.524048
0.569504
0.41911
0.381733
-0.310016
-0.105314
-0.265159
0.820108
-1.8805
-1.28301
1.56865
-2.07153
1.50644
1.10146
-1.03094
0.0911884
-1.3203
0.429044
-0.743239
-0.99823
-3.0087
-1.41089
0.115048
-0.503871
-0.85947
-0.70734
0.35244
1.05335
-0.880535
-0.185557
0.855065
-0.667073
0.426977
-0.327496
-0.475027
0.606164
0.298648
-0.637948
-0.242022
0.997051
-1.02256
-0.367321
0.0209954
0.837388
0.928005
-0.804131
-0.136892
-0.569784
-0.983505
-1.58177
-1.38532
-2.16752
0.780145
1.10712
1.9475
-0.878196
0.388423
0.364935
0.102953
1.43853
-1.07558
1.08155
0.233492
0.504306
-1.96923
-1.60751
0.636745
0.211316
-0.990101
0.261464
-0.509949
-0.254627
-0.839982
0.601591
-1.07151
2.08789
-1.14458
-0.567325
0.170983
-1.53385
0.753756
0.807048
0.721775
0.627124
0.900438
0.0418705
0.927244
-1.22844
-0.310453
-0.0352655
0.0371647
1.1785
0.304568
0.822001
0.878685
-0.560115
-0.751659
0.370178
-0.307834
-1.0895
-0.734286
-0.406959
-0.0308674
-2.2905
0.524751
-0.0538859
1.1257
-0.358549
-1.45253
-1.70138
0.287875
-1.5236
-0.959154
-0.00204592
1.24537
0.786015
-0.607123
-0.260783
1.19219
-1.5036
-0.70657
0.490838
0.270121
0.626866
1.09815
-1.5238
-0.547674
0.491084
-0.275003
-0.561251
2.10136
-0.458257
0.118491
1.359
-1.43014
0.112368
-0.178443
0.0378059
1.16576
0.535679
-1.64648
0.508303
2.32848
-0.775215
0.697861
1.13964
-0.744621
-1.83642
-0.766181
-0.652184
-2.25571
1.03161
-0.432879
1.85067
-0.467806
1.04336
-2.38207
-0.757065
-1.26546
-0.571992
-0.577014
-0.673583
-0.116496
1.77551
-0.390076
-0.643867
-0.851851
0.147724
-0.588747
1.19714
0.270469
-0.0166925
1.7415
1.95733
0.497343
-0.421855
1.21915
0.980173
0.950465
-1.07092
1.3081
-1.04713
0.00159448
-0.873618
-0.286697
-0.444437
-0.321753
0.587674
1.46792
0.205193
-0.63553
0.25612
-1.54958
-0.545327
0.0185825
-1.67511
-1.67702
2.22458
0.426124
-1.38812
-1.28141
-1.39041
-1.01483
-0.625611
-2.0805
-1.49612
0.932885
-1.18571
0.982341
0.543168
-0.0402549
-1.28489
-1.86527
-0.783698
-0.588359
-0.784494
-0.51592
-0.249529
-0.945132
-0.25434
0.479816
-1.27264
-0.0040053
0.0196103
-0.505197
-0.690259
-0.37049
-2.19113
0.138662
0.512277
0.0687317
1.51378
0.6305
-1.03913
1.85821
-1.94641
-0.454455
1.07238
1.44869
-1.24152
-0.140283
0.513636
-1.68033
0.0659074
-0.251954
0.616644
1.44262
-0.672126
-0.249974
-0.858426
0.571635
-0.110807
1.35291
-0.718097
-1.98649
-0.651635
0.656753
-0.275822
0.446043
0.313658
1.601
-0.50228
1.24753
0.090507
-0.492542
1.04042
0.408817
-1.65677
-1.87372
1.74065
-0.0812971
0.724956
1.91285
-0.771743
1.07056
-2.00682
-1.32224
-1.18435
-1.72889
-1.26721
-0.622385
1.21087
-1.86645
-0.861603
-2.06362
0.120413
-1.41031
1.53994
0.389701
-0.653762
-0.813798
0.0133134
-1.18873
-2.6857
-0.516479
0.0104142
0.937258
-1.69269
0.682537
0.603723
-1.56669
1.26524
0.186174
-1.30082
-0.688466
-0.432746
0.340193
-0.686795
1.15706
-1.16762
-1.35802
1.07923
-0.0276331
0.0309579
1.00954
-0.106839
-0.347357
0.875003
-0.163108
-0.0373328
-0.762715
1.29272
-0.329059
0.505971
-1.0114
-0.967699
-0.360777
0.507201
-0.0546559
0.884036
0.5946
-0.446242
0.8466
-1.49591
-1.77223
0.124695
1.09884
-0.202755
-0.45796
0.450916
0.0759827
-0.120822
0.522209
1.70481
0.256761
0.596169
0.164272
-1.44516
-0.758539
-0.886297
0.00164075
0.408381
1.43964
0.99734
1.27798
0.574158
0.12943
-1.61438
-0.86404
-0.612351
0.681666
-0.246896
-0.628274
-0.0729916
-1.25272
0.0774537
0.129338
-0.816806
1.0607
0.624359
-0.123008
1.31774
-0.5769
0.501449
1.24186
0.12964
-0.182376
-1.67822
-0.0683367
-0.993146
1.42865
-0.188245
-1.4052
-2.16667
1.62739
0.572257
2.39447
-0.915053
-0.487834
-1.47011
-0.422122
-0.931281
0.452273
1.96206
-1.18117
0.741582
1.66634
-1.09164
-0.146364
1.50576
0.870462
0.210106
-0.290389
0.473438
-1.38983
-0.2811
-0.515061
0.452555
0.518502
-1.03108
-0.191195
-0.652802
0.969007
-0.268842
0.347153
-0.889342
0.56431
-0.0303056
-0.366165
0.380179
-1.60156
0.0759932
-2.13807
0.37846
0.87094
0.346577
-0.411539
0.551613
-0.27019
1.9654
0.370411
-0.813142
-0.549245
-0.172035
1.46227
1.21544
-1.92097
0.456292
1.14828
-1.75771
-1.96568
-0.0787088
1.77986
0.839579
0.40797
-0.560333
-0.651444
-0.0418516
0.0320173
0.152047
0.184279
0.113536
0.815139
-1.09394
-0.0624285
-0.181128
-1.5535
-1.35779
0.0340549
0.341002
-0.412428
0.540967
0.101786
-0.101405
0.603852
2.48468
-0.817659
0.210601
-0.201713
0.369337
-2.85112
0.144521
-0.856443
0.498271
1.68289
-0.240384
1.3483
-0.284236
-1.18668
-0.800412
0.521075
-0.0548048
1.11925
0.0566399
-1.03641
1.55526
-1.50251
0.838383
-0.33278
0.743866
1.21911
-0.192569
-0.722617
-0.18358
0.718157
-0.840272
0.208684
0.611524
-0.482174
0.401835
-0.920233
-1.49805
-3.27382
1.01121
0.278182
0.635278
1.79
-0.261491
-0.96052
-0.281223
0.77953
0.173068
1.16591
-0.224625
0.192151
-0.218713
-1.34482
0.637962
0.254607
0.249448
-0.641235
1.2571
-0.126765
0.601854
0.468963
-0.0800245
-0.694306
0.44235
-0.604594
1.01265
0.482474
1.35412
0.395268
0.470304
0.344209
-0.927262
1.22289
-0.096185
1.489
-0.699222
-0.661179
-0.364354
-0.197244
-1.14771
-0.72176
-0.314868
1.4285
-0.203537
-0.355697
2.03486
-1.06219
-1.83981
-0.514712
0.394954
-1.36736
-0.218227
2.40993
-1.30129
1.03402
0.26506
0.757684
-0.6622
-0.224171
-0.119449
1.19427
0.68443
-0.273281
0.597306
0.170458
-0.457582
2.94147
-0.168909
-1.81409
-0.515345
-0.0168684
0.159166
0.4066
-0.0995324
0.669233
-0.116622
0.167928
-0.775902
-1.55407
-0.913544
-0.387997
-0.902662
0.937577
-0.456454
-1.4957
-1.12135
2.68718
-1.04053
0.157101
-0.543479
-0.978074
-0.631278
-0.214366
-0.206086
-0.39335
0.310031
-0.502467
1.3847
0.203763
-0.218879
-2.1798
-0.687925
-0.589627
0.591483
0.416033
0.412166
-0.25751
1.49261
0.0472593
-0.333908
-0.188739
-1.56368
-0.0974037
0.559833
-0.572663
1.37668
-1.90601
-1.88679
-0.572071
0.501517
-2.9913
-0.777901
-0.276499
0.916869
0.469887
-0.415181
0.00811587
0.51786
0.20892
0.948795
-0.042773
-0.842574
-0.304476
0.22617
0.380891
0.610014
-0.657699
-0.47261
0.418391
-0.639564
-0.839366
-2.16291
1.13858
0.199155
0.874913
0.883889
-0.559785
0.00481849
-0.445844
-1.62877
0.0508628
-1.26781
-1.4652
-1.25353
0.1626
-1.05695
0.202273
-1.00769
0.232166
-1.92521
-1.09807
-0.490879
0.418782
-0.0653648
0.477534
0.510628
0.0648602
-2.30106
-0.224583
-0.811481
-0.803857
0.962004
-0.0796604
-0.299132
-0.610925
-1.2149
-1.40763
0.441509
-1.20557
0.0905546
-1.37661
-0.375072
0.705537
-0.189992
-1.00243
-0.371673
-1.13304
0.133205
0.0953004
0.227648
-0.0493417
-0.285318
-0.0770892
0.286809
-0.315152
0.512141
-0.539075
1.53598
-0.726991
0.585207
-2.74054
-0.410874
-0.479428
0.301498
0.873627
-1.86489
0.656672
0.0781564
0.0158439
-0.507615
-1.50757
0.649117
0.570086
-1.38591
-0.381851
0.695949
-1.59939
-0.568692
0.639107
-1.75552
0.559977
-1.67375
-0.258449
-0.748059
-1.37478
-0.08336
-0.227346
-0.380127
0.896818
1.71783
-1.337
-0.600048
1.9806
-1.21794
-0.279343
0.71412
-0.299216
-0.501966
0.120463
1.65609
-1.3812
0.0510282
-1.51757
0.552916
-0.975488
-0.328983
-0.975768
1.1943
1.12031
-0.669205
0.44454
1.09771
-1.40925
0.804431
-0.87434
-0.144506
1.06741
-0.858001
-0.162636
0.242636
-1.06124
-0.532715
-0.584937
0.506025
1.70429
1.22551
0.518895
0.341727
0.489819
-0.851563
-0.205915
0.678896
1.19388
0.525141
1.135
-0.974562
0.911182
1.25823
1.56998
-1.01666
1.97516
-0.417443
0.749062
-0.9895
0.323381
0.408366
-1.11005
-0.409165
0.85115
1.48991
-0.748615
0.603173
-0.861282
0.567246
-1.0629
-2.05061
1.48899
1.24557
-0.255652
0.0344024
-0.160879
-2.01845
-0.416984
0.289501
1.34089
1.51501
1.37096
-0.882963
-0.0269547
-0.397955
0.797011
-0.198454
-0.194886
1.12015
-0.408872
0.0249991
-0.653125
-1.4475
-0.887041
-0.272294
-0.46942
-2.80991
-0.0353556
0.391599
-0.226063
-1.53035
-0.146677
1.22826
-1.32223
1.54879
0.252542
0.223403
0.456559
1.02321
0.568863
0.104476
-1.17355
-0.113587
-0.636788
-1.64487
-0.704086
-1.69845
0.773217
-0.37322
-0.671434
-0.274413
-0.92673
0.653857
-0.4543
0.363307
0.908864
-0.887606
0.710916
-0.768461
-0.695973
-0.806401
-0.399084
1.00961
-1.23996
-1.12667
-1.11704
0.409198
0.203263
-0.522007
-1.62419
-1.34638
-1.37582
-1.7107
-1.85708
-2.34313
-0.0737693
0.736362
1.70235
0.0625205
-0.492215
0.379276
0.927892
0.917291
-1.2745
1.2626
1.15425
-1.13526
-0.252579
-0.455965
-1.33042
-1.24662
-1.61075
-0.153859
0.409249
-0.655743
-0.710205
0.669711
0.0359418
-0.0866014
-2.1816
-0.326852
-0.823945
1.06145
-0.50192
-0.561842
-0.551617
-0.220003
-0.880591
0.126501
1.93085
-0.320398
-0.216047
-2.02605
0.0135592
-1.14507
0.215855
-0.574841
-0.225398
-1.25569
-0.62209
-0.551707
-0.0280341
-1.47031
-0.135092
0.0136534
-0.0522377
-1.79737
-0.860455
-1.2262
0.590339
0.101116
-2.16791
-1.00091
1.26131
-0.0326445
2.16167
-0.343541
-0.182087
-1.29134
0.367316
-2.75506
-0.088037
0.24442
-0.573575
-0.0561708
-1.22135
-0.487311
0.318007
-0.132517
-0.456077
1.01776
-0.0133315
-0.932237
-1.11571
-2.53682
-0.952772
0.566901
0.0516039
-2.24534
0.90063
0.529915
1.24857
-0.330164
-0.726479
-1.21723
-0.398199
-1.1342
0.740919
-0.719578
-0.239818
1.33552
-0.585031
0.842593
1.49542
0.406187
1.30243
0.683948
0.391524
-0.447809
-0.720425
0.148595
-1.87196
-1.70739
-0.978275
-2.04282
-0.192701
-1.29845
-0.0833632
0.0156342
-0.68711
0.0848213
-0.942025
-2.18682
-1.35819
-0.594881
0.167109
-0.176695
0.267962
0.906505
-1.36089
0.630315
0.421459
-1.05169
2.02179
1.27031
0.614678
1.00758
-0.666992
-1.64672
-1.37273
-0.181904
1.46143
-0.0507629
0.842271
-1.09725
-1.64967
0.492007
0.630904
0.734862
0.554612
-0.741474
0.254413
-0.336108
-0.45915
-0.294023
-0.477472
-0.479314
-0.153112
0.658338
1.60194
0.770517
0.298499
0.743085
1.52232
-1.25079
-0.157997
-1.27139
0.85774
-1.42024
0.487766
0.516994
-1.15441
1.21449
1.19041
0.366658
-0.184415
-0.31168
0.0176512
2.93316
0.979809
2.07605
-0.875939
-1.21847
-1.10897
1.55819
1.55731
-0.313189
1.33048
-0.990184
0.733631
1.42608
0.232871
0.469185
-0.806541
0.684539
-1.59483
0.458043
-0.510066
0.574753
1.61822
0.498266
-0.548197
-0.0162251
1.1545
0.432105
0.109889
0.249594
-0.498476
-0.327822
-0.113621
-0.495576
1.38934
1.11745
-0.239889
-0.855498
0.631231
0.66722
1.05411
1.21247
-0.328534
0.695187
1.57377
-1.24363
0.835777
0.583933
-0.563759
0.242187
-0.363288
0.445355
0.292841
1.04829
1.16492
-0.511584
1.48714
0.967605
-1.50231
-0.213893
-0.764404
-0.704831
0.964019
1.03992
-0.811801
1.12084
0.979877
-0.29459
0.712417
-0.899823
-0.301468
-0.127034
-1.27001
1.45077
1.51969
0.0974105
0.358486
1.10994
0.415389
0.122241
0.78263
-0.168849
1.83789
0.112101
-0.713026
0.413041
0.212123
0.249801
-1.01315
-0.076502
-0.0609494
1.4998
1.44616
-0.634783
-0.416679
1.20371
-1.6491
-0.774643
1.06542
1.02911
1.18861
0.0153016
-1.87072
1.07825
0.529519
-0.695078
2.03011
0.0800943
0.54368
-0.956588
1.20612
0.818137
0.648961
1.54037
-0.111497
1.70208
-0.0350164
-0.0551178
0.0644329
0.00236781
-1.29753
-0.934078
-1.23304
0.550133
-1.43171
0.719779
-2.08594
-0.0260644
1.55666
1.45521
1.0969
-0.517836
-0.65294
0.954404
0.653944
-1.77826
0.0809754
0.349782
-1.32368
1.58998
0.723335
-0.835986
-0.468004
-2.17109
1.17006
1.67081
-0.578079
-0.270472
0.297151
-0.449776
-0.671312
0.0747732
-0.770688
0.112889
0.0521762
-0.0774391
-1.63372
-0.0244159
0.972355
-0.881168
-0.339674
1.09924
0.522104
1.20469
0.489473
0.538135
0.733321
-0.444939
-0.714565
-1.12516
0.806667
1.89448
-1.23417
-1.5534
-1.89346
0.229154
-0.464
0.618662
-0.720943
-0.221417
-0.651626
0.0750849
-1.45671
-1.01687
0.157616
-1.4771
0.395416
0.458012
-1.32794
-0.0606101
0.909272
0.344479
-0.422669
0.211378
0.293655
-0.258951
-2.07849
1.28919
0.36494
-1.78882
0.505218
1.30505
1.53511
-0.0632119
0.531587
-0.126374
0.358979
0.834034
2.01801
-0.411624
-0.927004
-0.162752
-0.355728
-1.48575
0.588708
-0.635265
-0.145537
0.24165
0.171308
1.2637
0.13331
0.207337
1.36367
-0.449876
0.40557
0.265966
-0.512948
0.199472
-0.0526713
0.0279974
0.650612
0.0204324
0.0259897
-0.378552
-0.916177
-1.23841
0.282516
0.546285
-0.0739952
-0.233728
0.963867
-0.0369972
2.16938
-0.0447498
0.0775908
1.17112
-1.6427
0.442331
-1.00348
0.416802
1.78988
-1.31126
-1.13361
0.49673
-0.201568
-0.380492
0.794302
-0.633037
-0.0806825
-1.33239
-0.720456
1.43871
0.5873
-1.63177
-0.0258427
0.567356
0.895791
0.612592
-0.21045
1.25682
1.45409
0.311665
-0.842931
-1.55452
0.27865
0.00611079
0.305913
-1.31825
0.579431
-0.358037
0.31254
-1.55585
-0.0239658
-1.16264
0.471989
-0.51339
0.786109
0.209505
0.190044
-0.410846
0.0559286
0.216034
0.233075
1.32692
0.881334
-0.829139
-1.96689
-0.0528451
0.660797
-0.640639
-0.221342
0.602913
0.529556
-1.13568
-0.806044
-0.290677
-0.36238
-0.683874
0.72966
-1.53366
0.64592
0.43985
-0.0212359
1.59505
1.23766
1.90586
-0.975712
-0.372262
0.233902
-0.9234
-0.727854
-0.721134
-1.4323
-0.523291
-0.0541029
0.543319
1.96711
-0.891895
-0.0882426
0.0591045
0.821712
0.7901
0.548026
-0.00152507
-0.103932
-1.04447
-0.522199
-0.609967
-0.256512
0.54783
-2.7703
-1.16207
-1.25646
0.0911837
0.117265
-0.337891
-0.187895
1.28334
0.459135
1.24231
-0.507117
0.234211
-1.07731
1.07674
-0.314679
0.772896
-0.341678
-0.255921
1.75228
0.89943
1.70204
-0.0645702
-0.747584
0.874684
-0.484492
0.0733924
0.105673
-1.39488
-1.15378
0.238122
0.240613
0.573374
0.925175
0.928508
-0.839466
0.848083
-0.176236
1.23575
1.24475
0.148952
-0.00453236
0.563058
0.270747
-1.44408
1.93184
-1.57913
-0.450258
0.0546519
-1.70106
2.07845
0.246716
0.0919682
0.669326
1.82939
-1.60023
0.0129466
-0.480746
0.711378
0.567988
-0.111759
1.64607
0.603375
0.994897
2.30367
0.595336
0.644649
0.925142
-0.0230201
2.24988
0.292851
0.783283
0.791295
-0.156311
0.393458
-0.0133782
0.486304
-0.84859
0.918285
-0.730504
-0.619866
1.30718
-0.779818
0.605798
-0.415557
0.274938
1.39712
0.200158
0.0917358
0.108987
0.133641
-0.356458
0.523561
0.389474
-0.405822
-0.688668
1.63228
0.0484335
0.692579
0.52447
0.576299
0.263082
0.402504
-1.30099
0.444081
0.314437
0.994203
-1.77859
-0.577027
-0.526046
-0.310561
-0.0146795
-0.453445
-0.347451
-0.61483
0.582007
1.48896
-0.815216
-0.597028
0.540881
0.0687152
1.01259
0.698339
0.204595
-0.199891
0.387286
-0.46342
0.439155
1.08805
0.205034
-0.420794
-0.297048
0.75445
-1.95724
-0.854095
0.298989
-0.416626
-0.147692
-0.139773
-0.176341
-0.499591
-1.04165
0.848639
0.965125
-0.158208
-0.272521
0.0869225
0.295625
0.0685498
0.00396164
0.755888
-0.395617
0.804092
-0.0728529
-0.82418
-0.307664
-0.38053
-0.503675
0.760841
-0.713359
-0.458545
0.474427
-0.0702334
-0.153279
1.51446
2.71478
-1.46775
0.478514
-1.33373
1.57401
-0.721626
0.418219
0.141333
1.20316
0.475513
0.0201394
-0.140312
-0.0610391
0.17838
0.230978
-1.86803
0.437152
0.228717
-0.53433
-0.100852
0.818981
-0.833683
-0.637398
-1.7003
0.856863
0.507603
1.30725
0.262407
-2.07408
0.426493
0.595058
-0.198441
1.017
-0.838788
0.423213
-0.274374
-0.132603
-2.377
-1.28941
-0.482948
-1.34996
-0.961529
0.772872
0.673572
-1.27126
0.0143476
0.345042
0.785773
-0.495634
1.68346
-0.961461
1.25927
-3.02401
0.0495794
-1.73316
1.84376
0.321398
0.30702
0.253329
0.94912
-0.138737
-1.28446
1.22251
-0.137451
-0.375081
-0.552137
-0.198057
-1.53891
0.467769
-0.41297
1.48578
-0.227046
-0.970116
-0.631706
0.0370062
-0.129599
1.1661
0.676908
1.67877
1.55031
0.328963
-1.25753
-0.425192
-0.116886
0.230405
0.299078
-0.193958
1.11738
0.731971
-0.961327
-1.85174
-1.81955
-1.93371
0.527035
-1.18723
-0.309263
-1.72024
0.859936
-0.0422707
1.54868
1.12872
0.572575
-0.193244
0.186973
-0.806471
-0.628221
1.25122
1.15019
-0.2535
0.275063
-0.810372
0.713192
1.43539
-1.12624
0.312041
-0.00324806
-0.431005
1.95296
-0.140841
-0.731951
0.0895183
-0.542585
0.0905986
-1.61165
-0.506869
1.21088
0.586121
-0.449067
0.32668
-1.44261
0.227758
-0.0771134
-0.812731
1.033
0.299484
-0.216219
-0.815154
1.5729
0.296697
1.70052
-1.90802
0.624347
-0.585578
0.906949
-0.62706
-2.7298
-0.539505
-0.329384
0.629369
-0.572634
-0.861831
0.436829
-0.43523
0.572833
0.78647
-0.21967
0.141873
0.491245
0.624855
-1.89153
-0.765367
-2.17725
-0.30678
0.359515
-0.0474054
0.558134
0.188831
-0.961832
-1.43133
-1.03636
0.501044
-1.30614
1.99375
-3.86404
-0.421841
-0.771845
-0.719477
-0.969226
-0.459222
-0.450832
0.551034
0.568522
1.78401
0.379837
-0.409144
-1.55478
-0.926489
0.0660849
0.626236
-0.0537852
0.442342
-1.7211
0.178838
0.454794
1.19777
-0.320318
-0.457238
-0.356857
-0.526239
0.819074
2.09459
-2.3281
1.53568
-0.918524
0.871931
0.00163234
0.226746
0.312427
0.161964
0.66881
1.27365
-1.44259
0.19501
-0.142684
-0.477242
-0.44676
-1.12918
1.15074
-1.53829
0.456285
0.0859482
-0.474623
-0.797526
-0.288389
-0.673517
-0.483226
-0.125072
0.101191
-0.319934
0.32317
-0.173411
0.122802
-1.02221
0.274516
-0.412301
0.347378
0.654136
0.332383
0.424951
-1.1272
-0.596673
0.363212
-2.2872
-0.301671
-0.154361
0.66203
0.981561
0.190386
-0.243073
0.829313
-1.42672
-0.318331
0.86111
1.67048
0.364143
0.62194
0.0583075
-1.07319
-0.949591
-0.0151767
1.76349
1.49769
-0.51875
0.329417
0.19877
0.523053
0.749488
-1.45186
-0.77607
-0.650476
1.54007
0.708544
0.554375
-1.67938
2.57343
0.913365
2.28048
-0.186466
-2.22625
-1.46697
-1.10461
1.22794
-0.265347
1.26464
2.14142
0.490521
-0.924555
0.417932
-1.31338
1.78074
1.12229
1.39055
-0.0768952
0.0886438
-1.02796
1.21378
0.643843
1.22329
1.02903
-0.220649
-0.0217534
0.279281
1.74279
-0.466857
1.03958
0.100339
1.96648
-0.533312
-1.42565
1.76858
0.36355
1.15032
1.12048
-0.245856
0.1836
0.525379
0.846643
-0.667037
0.179562
-0.43577
0.866981
0.713215
0.0277286
-1.21542
-0.0369992
-1.23392
0.329708
0.515752
0.938033
0.521137
-0.116722
0.0139366
0.1309
-0.655745
0.778931
2.09765
0.238944
0.554512
1.03226
0.363728
0.8478
1.11547
1.82822
-0.56738
0.391857
-0.159541
0.260248
-0.353993
-0.243081
0.47423
0.472756
0.428448
0.535274
-0.208357
1.01687
-0.0363714
1.02304
-0.0756987
0.75321
-0.159697
-0.347086
-0.757206
2.38277
0.50828
-0.033758
-0.206495
-1.62234
-0.566592
-1.70783
2.15265
1.22287
0.40007
-0.362882
1.2132
-0.0530022
0.555884
0.729161
-0.136158
1.55485
0.804235
0.583572
0.202059
-0.879248
0.0376075
-0.127797
0.356374
-0.178222
0.999188
-0.769559
0.479516
1.14165
-1.0147
0.580049
0.934452
-0.3749
2.2487
1.15862
-1.16674
0.354571
-0.0718282
-0.85648
1.29585
-1.11879
-0.691095
0.817708
0.647374
-0.793971
-0.54019
-0.0528437
1.4935
0.661051
1.59188
-1.37389
0.111155
-1.47986
1.01823
-0.107815
-1.25514
0.801602
0.713249
0.445828
0.0910967
-0.352394
1.85435
-0.259986
1.35523
-1.15144
0.0128538
0.10164
0.594911
-0.227674
0.546847
-0.156668
0.607102
0.301294
1.18464
0.481597
0.523242
-0.0435729
-0.645198
-0.78196
-0.391991
1.6482
-1.3684
0.169284
0.350067
-0.34867
-1.08552
0.793107
-0.721178
0.203753
-0.202368
0.905282
-0.714814
-0.348567
2.60437
0.56743
0.765235
0.347261
-0.308963
0.482125
2.34483
0.28217
1.44367
0.154764
0.557269
0.0345605
0.238269
-0.0691369
-0.726204
0.999631
-0.59376
-1.09713
0.0102606
1.71146
0.619888
1.24277
-0.554659
1.06344
-0.240728
-1.13292
0.922843
-0.882018
0.947376
-1.55101
-1.2266
0.834476
0.536545
1.28052
-0.0908126
-0.221986
-0.704816
-0.162557
1.20535
-0.321632
0.0291362
0.879668
0.752217
-0.0400864
-0.496546
1.46929
-1.56323
-0.844521
1.71085
-2.25099
1.49692
-0.747715
1.32267
0.0130587
0.434476
-1.35818
1.01667
-1.33921
-0.864347
-1.48745
1.12607
-0.744528
0.944353
2.76012
-0.802126
0.972838
1.20574
-0.168914
-0.573273
0.231107
-0.111145
-0.0899083
-1.97346
2.65777
-0.0166276
-0.171712
-0.195325
-0.110144
-1.08239
-1.43272
0.740346
0.0654029
-1.08628
-0.692946
-0.361598
-1.60966
0.105543
0.73034
1.30183
-0.198655
0.667405
-0.360154
-1.64998
0.11559
-0.336336
-1.91196
-1.88448
-1.4798
-0.013467
0.349184
0.512046
0.162517
-1.20419
0.90124
-0.535823
-1.46843
2.27583
0.87261
-1.0851
-0.908593
1.19823
0.434645
-1.162
0.636767
1.07293
0.246512
-1.58276
-0.472118
0.738744
1.1949
-0.551197
-0.861764
-0.284375
-0.21724
1.15099
-0.92332
0.197035
-2.66419
0.606783
0.0410475
-3.48589
0.562402
2.41464
0.379177
-0.448425
0.971937
-1.45936
-0.502841
1.00578
0.0768159
-0.625836
0.741649
0.252569
0.599596
-1.4084
-1.53875
-0.24388
1.17035
0.326094
-0.634955
0.0556205
0.621459
0.461816
-1.57848
0.17012
1.49546
1.42731
-1.71161
-0.346947
0.586543
1.21049
0.846164
-0.688698
-0.298982
-0.813037
0.893916
-0.538116
-1.83039
0.0824141
-0.379821
1.0619
0.494226
-0.671663
0.886177
1.25652
0.888883
0.416379
0.033187
-1.18368
1.79795
0.695035
-0.626327
1.25742
-0.627284
0.828707
0.164697
-0.164947
0.504847
1.51972
0.680356
-0.334131
0.207126
-1.10333
1.18879
-0.342631
0.223816
0.213361
-1.48281
0.723205
-0.021399
-2.46978
0.352821
0.281128
-0.196171
-0.0510206
0.387847
-0.0978027
-1.28772
-0.169012
0.775566
0.591384
-0.378399
0.407192
-0.441642
0.34999
-0.904343
0.284564
0.970334
-0.646091
-1.5424
1.27878
0.0234674
2.11008
-1.64413
-0.909194
0.954861
0.356077
0.352479
-1.36067
-0.104092
0.334993
-0.114684
0.651623
-0.779907
1.62256
0.310725
0.473478
-0.109735
0.112646
-0.0183529
-0.991541
0.00694707
-1.63546
0.316537
-0.756503
1.39742
0.0813869
-0.264548
0.0407073
-0.860102
-0.0338615
0.587421
0.759355
-1.08962
-1.7163
0.577319
0.31903
0.721171
-0.254025
1.82464
0.143989
0.180987
1.09974
0.238802
-0.865813
-0.368952
-0.633428
-0.0994181
-0.499385
-2.76329
-0.385855
-0.422776
-1.10034
0.0192036
-1.55536
-0.496705
-0.49844
-0.7829
-0.262066
1.1748
-0.05071
-1.21102
-0.159291
-0.900158
0.114168
0.619816
0.0125505
0.0695356
0.394204
-0.203481
-0.631468
0.816059
1.29023
-0.754083
0.529147
-0.462411
-0.334423
-1.22629
-2.13302
-0.129611
-2.2142
1.73461
-0.329057
-1.01738
-0.507317
-0.00622692
0.779432
-0.953225
0.213229
0.763083
-0.436981
-0.61915
-0.34712
-0.859672
-0.316484
-0.710223
0.567885
1.33034
0.32174
-0.316099
-0.459993
-0.102547
-0.550064
-0.0324707
-0.66446
-0.956943
-2.4978
0.1258
-1.87148
0.848414
-0.580682
-0.111999
2.46651
-1.30076
-0.0234864
0.166252
0.847895
-3.00052
0.652551
0.510864
-1.88308
1.34107
-0.566801
0.755411
-0.00235366
0.441984
1.71295
0.626367
-0.204778
-0.303394
-1.60409
-0.136485
-0.418931
-1.42824
-0.529847
-0.334563
0.267655
0.630099
0.0823738
0.435382
0.313512
0.268102
-0.643618
-2.90835
-0.689824
-0.393062
-0.51669
-0.607625
-0.579219
0.407523
-2.55058
-0.200877
0.245001
-0.615564
-0.682215
0.822207
-0.184196
1.27793
1.01998
-0.0887514
1.0227
-0.926487
-3.40425
-0.735809
-1.41697
0.411294
0.466485
-0.792829
-0.0747852
-0.817187
-0.947828
-0.27746
-0.343006
-0.76981
-1.37552
-0.557079
-0.328525
-0.750567
-0.99899
-0.711836
-1.71355
-0.170377
-0.131056
0.476043
0.947085
0.447846
0.5387
0.722512
0.560057
-0.267654
-0.358586
-1.0899
-1.72274
-1.30484
0.248111
-1.27938
-0.211874
-2.0503
-0.815541
-0.0763001
-2.0259
-1.17072
0.695574
-1.42397
-0.748892
-0.110531
0.250297
-1.64434
-2.61456
-1.19714
0.0960254
-0.770915
-0.512769
-0.0557576
-0.855524
0.482274
-0.941409
1.00166
0.608701
0.321695
0.62975
0.187127
-0.201046
0.329054
-1.63479
-2.10493
-1.06407
1.54603
0.954643
-0.235517
0.173604
-0.018055
-0.230533
-0.324024
-0.127836
-0.834292
-0.291392
-1.27695
0.173916
-0.438159
-0.269603
-0.8862
1.27546
2.12174
0.710659
2.85866
0.623366
-0.509002
-0.176768
-1.55151
-1.73674
0.65089
1.23414
1.92746
-0.370771
0.039238
1.12849
0.0289624
0.734206
0.177848
0.865123
-0.0336168
-0.798416
-0.943741
-0.802929
-1.21521
-0.754987
-1.03463
0.416932
0.65173
0.152199
-1.19325
-1.23742
2.36616
-0.288803
1.44906
-0.238177
0.921366
-0.308409
0.0330438
-0.701368
1.3572
1.62771
-0.0361469
0.918726
0.111449
0.610901
-0.123947
-0.77756
0.330279
-1.36715
0.188157
-0.828495
1.002
0.74463
-0.425129
-1.71289
1.18143
-1.21728
1.32809
0.655612
1.12722
-0.150769
0.852692
0.225408
-0.49404
-0.791183
-0.356872
-0.806169
1.02348
0.866452
1.258
-0.145217
1.46117
-0.0929538
0.757603
0.157843
-2.01055
0.441146
-0.73923
-1.62851
-0.517355
-1.49468
0.0954027
-0.181338
1.08585
-0.482435
1.60211
0.340448
1.10613
0.331403
0.146364
0.202273
0.361608
-0.258433
-0.104799
0.770145
0.413564
-0.488498
0.614362
1.69473
0.275389
0.877344
0.372926
0.0148824
1.06895
-0.226941
-0.129493
0.00953261
0.934336
1.29295
1.01751
0.542745
1.62358
0.791633
-0.263504
-0.64882
0.499548
-0.341134
-0.436094
0.346731
0.288115
1.11117
-1.51559
-0.0648691
-0.707604
1.10544
-0.124513
1.10902
0.0905659
0.619655
1.90575
0.24977
0.656582
-0.458896
-0.245593
0.466598
-0.0298048
0.694726
0.791697
0.931845
-1.70669
0.938158
-0.703178
-0.38596
1.8514
0.249726
0.206988
0.107184
0.162215
-0.176177
0.0184744
1.25411
0.46473
-0.141758
0.268566
0.0923031
0.645589
0.418994
-0.431613
0.819381
2.3473
-1.52629
-0.273539
-0.0914466
-0.0592506
0.312042
0.313387
0.275518
0.267642
0.678808
1.64591
-0.163294
0.203627
-0.0374918
0.680594
0.111333
1.16818
-0.709243
-1.2396
-1.35307
0.181267
0.939517
-0.0265846
-0.4917
0.153376
-0.21957
2.95025
-0.481566
-0.0660711
-0.633351
-0.550296
-0.191223
0.083976
-1.11963
-0.648409
0.160117
0.743602
-0.978722
-1.14262
0.471169
-0.447631
-0.220404
-0.275825
-0.216177
-2.6129
1.08547
1.09583
1.50247
-0.766611
0.417527
0.178547
0.483645
-0.399871
0.184508
-0.0634436
1.05918
1.62532
-0.163228
-1.04607
-0.0391722
-0.00870954
-0.353856
0.536947
0.486241
0.632412
0.687507
1.97808
-0.0378376
0.786832
-0.354359
0.618984
0.85745
-1.43974
2.4051
0.6955
0.40524
-0.972429
-0.182893
-1.1077
-0.373727
0.861858
-0.129359
-0.166522
0.635717
-0.34813
0.95553
0.642731
-0.0224898
0.273471
-0.281006
-0.644584
-0.783817
1.68716
0.861723
-0.366815
0.922069
-1.07743
-1.09524
-0.378732
0.574735
-1.70823
-0.482555
-1.70693
0.481809
-1.35588
1.60474
0.200793
1.6622
0.327341
0.12165
1.37991
0.647851
0.299525
-0.29965
-0.753319
-1.37627
-0.106531
0.499235
0.377843
-0.0176398
0.348527
0.0647369
0.849472
-0.583935
0.33653
1.62651
1.84792
-0.902405
-1.06394
-0.305993
0.364221
-0.416694
-1.22928
-0.882038
0.176825
0.185262
-0.975696
0.338202
-0.661201
1.02875
-1.24487
0.733601
0.830671
-0.637098
0.142698
-1.81945
-1.72064
-1.25235
-0.443006
1.81751
1.82046
-0.147773
-1.01506
0.225718
0.964872
1.9528
-0.0830297
-0.114886
-2.14131
-0.0745245
0.535509
0.33215
-0.205565
0.532571
1.56157
-0.655185
0.612898
-1.09197
-0.283313
0.883346
-0.84399
0.222737
-1.56067
0.00111425
-0.534792
-0.127177
0.693343
0.161424
1.05739
-1.61256
-0.0226629
2.56522
1.39726
1.15092
-1.21408
-0.188841
-0.575829
-0.348701
0.117436
-1.38423
1.12222
-0.928756
1.05067
-0.758838
0.0481482
-0.204426
1.39771
-1.06281
-0.0923222
1.45243
-1.65091
1.22636
1.97343
-1.33122
0.832503
-0.0763762
1.47979
-1.59
-0.174546
-0.434936
-0.0993688
-1.24566
-0.746417
-0.454278
-0.485199
1.99484
-0.216944
1.48849
-1.52401
-0.464764
0.756691
0.252405
-0.0732396
0.10396
0.490755
-1.51599
0.102697
0.161598
0.165563
-0.0489553
0.206126
-0.461927
0.65658
-0.322109
1.28263
0.0163724
-0.389627
1.6883
-0.258964
-0.286236
-0.0348669
-0.540159
-0.99793
-1.52049
-0.850654
0.251656
0.479168
-1.71711
0.542888
-1.22466
-0.909133
0.325633
-0.442595
0.542569
1.32649
1.29466
-2.60097
0.676131
1.38055
-0.782752
1.01891
0.42592
-0.113801
-0.867369
1.66037
-0.585468
0.039543
0.482188
-1.74615
-0.91964
-0.253849
0.531493
0.41678
-0.216882
-1.05452
1.52626
-0.42269
0.936217
0.13984
0.989414
0.308605
1.21236
1.03619
1.77638
1.36572
-0.208779
0.441769
-0.515209
0.800468
-0.739456
-2.19013
-0.345756
1.12151
0.118918
-1.123
-1.42429
-0.33923
0.562581
-0.190622
-1.7017
0.634166
-0.625408
-0.622406
0.709795
1.11635
0.359556
0.556946
2.01512
1.28254
-0.615092
2.41499
0.626023
0.713225
-0.291634
2.06748
-0.310232
-0.373658
-0.903756
1.52416
-0.517572
-1.01647
0.867875
-1.00587
-0.0870027
0.172611
-0.118062
-1.217
1.19775
1.82514
0.858493
-0.873221
0.22793
2.24966
1.59861
1.35086
3.01244
2.55457
0.872365
3.14872
2.50604
2.7535
2.18623
0.26058
1.90061
0.255999
1.01499
-1.07696
0.926286
1.14981
0.241182
0.395336
-0.723557
0.713803
0.938942
0.473513
-0.829563
-0.307971
0.179238
0.476487
-0.474641
-0.439608
-0.682789
0.789749
-0.51675
0.75778
0.576125
0.665743
0.578306
1.06547
-0.309923
0.642619
-0.56115
-0.905689
0.194427
-0.843914
-0.055435
-1.17014
-0.38834
1.62143
0.257389
0.570072
0.413026
0.00266656
1.5101
0.612796
0.309593
-1.77901
-0.7848
0.897484
0.991352
-0.0710126
0.9232
-1.32769
0.568083
0.11083
-0.591478
0.243989
0.184716
0.369797
0.256237
-0.0465057
0.498622
-0.491302
-0.416362
0.633381
-0.951304
-0.587646
1.13365
-0.538719
0.417098
-0.482042
2.07962
-0.287711
-1.21849
0.354113
0.394146
0.463688
0.434713
-0.146678
-0.627101
0.240167
0.892371
-1.03937
0.313581
0.0679967
-0.326291
-0.407985
0.835295
-0.688886
-0.224286
0.571129
-0.955083
0.589738
-0.0291784
0.519638
0.19652
0.435964
-0.123931
0.198968
0.776354
-1.65423
1.35757
0.500351
-0.587408
-0.640131
0.429708
0.0709203
0.357777
0.194995
-1.51974
0.885323
-0.208172
0.121759
0.119468
-0.0151379
0.991879
-0.0115924
-0.825649
0.848992
-0.937038
1.59976
0.246428
-0.199394
-1.06313
-0.530956
-0.7366
-0.394554
-0.506099
-1.51364
-0.844869
-0.826838
1.10945
-0.962638
0.17358
-0.857045
-0.654846
0.76776
-0.104401
0.194883
-0.0543848
-0.0360702
0.433027
-0.952552
0.215231
-0.38505
0.330636
0.33383
-0.864767
0.668574
0.764136
0.143082
0.304718
-1.25465
0.078019
-1.23719
0.43588
-0.668564
0.767845
0.598577
0.501209
1.1346
0.216897
0.0266331
-0.920409
-0.72406
-0.320006
0.0969568
-0.00039463
-0.466089
0.0289494
0.513223
-1.11042
1.01705
1.33956
-1.59236
0.0728244
2.97641
1.2222
2.03319
1.18825
0.295332
0.230817
1.58482
-2.52305
-1.26209
-0.341968
-0.553989
-0.280541
-0.675088
-1.05185
0.829671
0.452987
-0.734961
0.712422
0.309438
-0.104823
0.424552
-0.58613
-0.191814
-0.502847
-0.101907
-0.955585
1.12676
0.716812
1.35337
1.69083
-0.529606
-0.558667
-0.109413
0.965428
-1.00173
-0.333203
-0.108992
-1.50857
-0.272157
-2.40609
-0.659894
-0.813626
-0.436756
-0.00819967
-0.730481
0.594143
-0.105531
-1.58034
-0.220573
-0.783607
0.0347819
-0.960475
-0.461423
-1.14912
-1.95211
-0.255039
-2.0684
0.922525
-2.26218
-0.840365
1.1724
-1.14404
0.37342
0.289598
-0.384526
-0.384274
-0.806968
0.0819128
-0.231502
0.0325736
0.613663
-0.00318929
0.107703
0.454511
-0.914061
-0.0312334
-0.310261
-0.675202
-1.42948
-1.28079
-1.18824
-1.34617
-1.31406
-0.789646
0.237232
-0.0666445
-0.109763
-0.541571
1.387
0.720776
1.59362
-0.901501
0.502198
-0.579319
0.866699
0.94697
-0.182921
0.575323
-1.20146
1.39447
-0.396052
0.392708
-0.456567
-0.702541
-1.2814
-0.277738
-1.16041
0.290134
-2.19784
-0.956843
-0.681232
-0.448836
0.559218
0.168769
1.60614
2.20629
-0.984141
0.462903
0.343609
-0.101175
-0.648319
1.27734
0.506132
-0.34984
0.676564
-0.248993
0.809982
0.305242
0.234854
-0.584828
-1.18804
-0.0095584
-1.02544
-0.373624
0.14874
-1.83521
0.481174
1.57582
2.21383
-0.257852
-1.17423
-0.244523
1.31007
-0.954836
1.15088
0.745479
1.08641
-0.316502
-2.40255
-0.587413
0.645058
-0.953486
0.574436
0.358336
0.729334
0.326734
-0.493584
-0.738405
-0.124927
0.0563309
-0.100636
-1.13811
-1.63957
0.57374
0.994119
-0.551766
-0.821852
1.4398
-0.10039
1.16799
1.24524
1.05962
0.463709
-1.51066
-1.26396
-1.3199
-0.808996
0.386996
-2.46002
0.421904
-0.230434
1.33348
-0.159711
-0.565172
-0.263857
0.594584
-0.310444
-1.90194
-1.15031
-0.945578
0.752518
0.642732
0.753092
-0.043696
-0.0366717
0.708949
1.78394
0.892366
-1.65681
-2.81171
0.280702
0.324081
-1.89146
-0.924985
-1.34234
0.929348
1.30162
-1.14168
-0.545772
-0.588134
0.353601
0.245162
-1.268
-1.22962
-1.12857
-0.896029
-0.0871013
1.92295
-1.00841
0.185712
-0.433671
0.864019
0.0736994
-0.119161
-0.00370298
0.123484
2.46139
0.0316902
1.44686
3.05877
-1.01858
-1.30382
1.44799
-0.214007
0.697843
-0.604948
0.314324
-0.269104
-0.526896
-0.985445
-0.539488
-0.755769
0.242569
0.0315523
1.25745
-0.384388
1.92085
0.892457
0.228218
-0.165583
2.13214
-0.562564
0.284613
-1.20774
1.50138
-0.996712
1.04344
0.995609
0.15877
-0.638097
0.430144
0.958554
1.25148
0.405951
-0.226057
0.935327
0.426384
1.15806
0.389284
0.274501
0.276218
0.735438
0.923775
0.371522
1.13823
0.755845
1.53494
2.41863
1.29322
-0.293262
0.902475
-0.142496
-0.912186
0.288537
-1.02842
0.302194
1.46688
0.850156
1.87797
0.357891
2.17022
-1.50143
0.676539
1.78014
1.20752
2.04285
1.13176
1.14415
1.2797
1.07341
0.371793
0.637944
1.19703
1.19771
0.415015
1.08668
-0.43556
2.7541
1.59038
0.349224
-0.434203
0.170912
1.01427
0.269864
0.640688
0.454036
1.23897
0.465181
0.142715
1.50522
0.488142
0.642011
-0.321788
0.320467
0.584231
-0.513375
0.47321
-0.649144
0.310897
0.221321
-0.341364
0.0431269
0.209042
0.053718
1.47586
0.313361
1.19485
-0.0954185
-0.292798
1.21701
-1.24441
1.11719
-1.37906
0.748972
2.32563
0.930421
0.413826
-0.863649
0.244801
0.347646
0.864272
0.125195
-0.594903
0.261544
-0.812756
-0.321179
0.145676
-0.23414
0.0433099
1.13168
0.888693
0.862393
2.01296
1.53407
-0.482013
0.855142
2.0267
-1.64653
0.479133
-1.0478
-0.698393
-0.685884
-0.647458
1.46194
0.979008
-0.663312
0.703392
0.626358
0.126538
-0.310964
0.795536
-0.0437642
1.06188
0.182634
0.191816
-0.432071
-1.04302
-0.271423
-1.71546
0.0604
-0.707672
-0.328016
0.839943
0.300981
0.933059
-1.39066
1.15619
-0.684562
1.30999
-1.23639
-1.57627
1.25633
0.787179
-0.03643
0.667232
1.31579
0.198213
-0.287196
0.667449
1.09238
-0.948418
1.75268
-0.589627
0.607845
0.16135
-0.183049
-1.27211
-0.485159
-1.47651
0.92014
-1.34642
1.30602
-2.40715
-1.26974
0.247983
-0.33771
-1.62426
0.295389
1.4904
0.13802
-0.106656
-0.859603
0.442642
-0.611496
-0.115448
1.4235
0.971058
-0.488917
-0.438014
0.651787
0.0467775
-0.0315327
0.00588408
1.02042
0.451214
-0.439709
-0.219952
-1.50666
1.33007
0.0257023
-0.377236
-0.150767
-2.38583
-0.896521
-2.06089
0.658562
0.98272
-0.488583
-0.611561
-1.18987
-0.451802
-0.517728
0.149173
-0.896126
-0.339471
0.0563009
-0.136553
0.369535
-1.74898
0.628241
0.566238
-0.404053
-1.26676
1.62388
-0.262671
-1.04535
-0.00789747
0.0290663
-0.689245
0.0816712
0.854382
0.625541
1.44834
-0.720373
1.64001
-0.501648
1.1344
-0.101505
-1.05043
-1.80707
-0.369219
0.362465
0.0117629
-0.19388
-1.15708
-0.097833
-0.930046
0.272967
0.45608
0.4313
0.109501
-0.54169
-0.307468
-1.33737
-0.570159
-0.860595
0.746572
1.97352
0.36465
-0.903078
-0.6181
0.271362
0.425952
0.888677
0.617666
-0.0410896
-0.172834
-0.950603
1.8005
-0.241834
-0.779409
0.00183765
-0.253712
-0.0987702
-0.347772
-1.28849
-1.67578
-0.4725
0.139861
0.592759
-0.525038
0.362206
0.226781
-2.26446
-0.220845
0.436592
0.062649
0.659423
1.20773
-0.0548994
0.522423
0.131491
-0.989417
-0.593332
-1.1351
1.96187
-0.440983
0.0843925
-0.281375
1.1445
0.229367
-0.859518
2.15437
-0.650005
-0.930183
-0.593275
-1.82237
0.256236
0.656113
-0.122627
0.872291
-0.487674
1.25362
-0.791832
1.07819
0.261855
1.47982
-0.0611248
-0.949044
1.41087
1.23496
-0.038517
0.597937
-0.489581
-0.490904
-2.64244
0.383002
0.99811
-0.968636
-2.43773
0.941554
-0.236814
-0.903885
-1.0462
0.434182
-1.89839
0.691512
-0.943836
1.43242
-0.81159
-1.38118
0.746284
-0.320244
1.27297
-1.73661
0.373101
0.497059
1.01029
-0.648819
-1.73148
-0.074957
0.0683677
0.457733
-1.40741
1.09114
-1.12031
0.456653
0.825435
-0.0242009
0.465987
-1.01511
0.164098
-1.21842
2.05939
-0.466511
-0.110694
-1.94427
1.63371
-2.14697
-0.788309
-1.8664
1.59789
-0.493942
-0.805996
0.32042
-1.14515
2.01877
-1.13914
2.15834
1.24132
0.393938
0.578409
0.0891943
0.144262
0.838614
0.461528
-0.0465991
-1.15622
-0.130744
-2.11432
0.417909
-2.03649
-1.37149
-0.473151
0.702043
-0.543086
0.916072
0.332831
-0.0108259
-0.644488
-0.940439
0.490795
2.25409
0.832904
0.630849
-0.745621
1.2401
-0.644143
0.372109
-0.448565
-0.804636
0.87028
0.0964004
-0.0571307
-0.946696
-1.35035
-0.716687
0.135505
0.377901
0.484075
-1.8156
0.561584
-0.0202353
0.987901
0.858011
-1.22422
-0.597309
1.28614
1.04747
-0.189846
-0.227568
-0.218067
0.0597861
0.621117
0.309943
0.178726
-0.551748
-0.000377597
1.29944
-0.419519
-0.323984
0.455862
-0.150241
0.496207
-1.02543
-1.49251
-1.65109
-1.49129
-1.4357
-0.293549
-1.70491
-0.267359
1.21359
0.0813085
-1.34169
-0.522309
-1.39926
0.680665
0.267128
0.322184
1.23705
-0.29353
-0.0271842
-0.417604
-0.546589
0.382321
-0.479148
0.366764
-0.292327
-0.428951
-0.867928
-0.0816469
-1.42607
-0.760967
-1.88735
0.655397
-0.351836
-1.45243
0.886328
-0.351168
-0.286146
0.311396
-0.952875
-0.278546
0.102509
-0.785235
0.574474
0.288327
1.55686
-0.157785
-0.424684
1.10372
-0.903498
-0.575162
-0.451791
1.17241
-0.254731
0.189584
-0.225434
-0.22387
0.428873
-0.471903
1.1277
-0.0775783
-0.952129
-0.499229
-0.887316
2.11747
-0.546386
0.642921
-1.17243
-0.819369
-0.395704
0.197962
-0.14292
-0.538314
0.92904
0.275529
0.384286
-1.3206
-0.757027
-1.61955
-2.06695
0.0547406
2.08127
2.35826
2.35931
2.7775
1.72382
0.321952
3.58322
0.189258
-0.532536
-1.03801
-1.36082
1.0122
-2.39252
-1.07858
1.06485
2.6439
0.589827
-0.686589
0.644083
-0.497719
-0.399698
-0.694379
-1.93156
-1.72769
0.776697
-0.861638
-0.119568
0.812346
1.84437
0.398511
0.698961
2.06612
2.55133
2.41519
1.12222
2.57036
-1.03491
0.170386
0.118993
-0.482
0.487071
0.95482
0.597401
-0.41936
-1.01642
-1.54697
-1.53539
1.55458
-0.0805543
-2.03458
-0.516756
-0.798171
-0.564341
0.0203207
0.619794
-0.730661
-0.443228
0.766375
0.360898
1.43003
0.380507
1.47965
2.85999
-0.182037
1.16113
-0.882251
0.13181
-0.436866
1.37273
-0.767364
-1.06245
0.984223
0.109906
-0.128726
0.487265
-0.410134
-0.511551
-0.807952
0.116155
-0.197932
0.549823
-1.06657
-0.0973788
-0.847109
2.37598
0.633652
0.191868
1.49489
0.349122
0.173657
-0.618009
-0.132559
-1.23485
-0.86574
0.0103354
-0.0514483
-0.575925
0.472247
-1.28294
1.62678
-0.86591
-0.534215
0.13986
-0.448036
-0.393318
0.201874
-0.867785
0.285317
-0.347858
-1.25872
0.634376
0.462173
1.38754
0.0176235
0.41912
1.62534
-0.857051
-1.757
1.44875
-0.277044
-0.851875
-0.43807
-0.486766
0.179823
1.07444
-0.246787
-0.882779
-3.12765
0.887736
0.334368
1.16422
0.382381
-0.798716
-0.327602
-0.491531
0.664427
-0.201467
-1.03709
-0.297547
0.825447
0.162502
0.924598
0.571683
0.143703
0.658965
2.18584
-0.871012
0.0427586
-0.545943
-2.10687
-2.063
0.26411
-1.25718
0.388017
0.0974604
-0.673352
-0.605134
-0.0433524
1.1228
1.03179
1.98227
1.57333
-0.0981537
-1.17667
0.346786
1.32254
-0.382723
1.61951
0.446392
1.09025
0.947589
-0.590029
0.624703
0.127519
1.06941
-0.264679
-1.32513
-0.303879
1.14892
-0.184895
-0.238199
0.683631
0.0608205
0.573497
0.709196
0.856085
1.01342
-1.76028
-0.413113
-0.0894968
0.105041
0.626085
1.49182
-0.594455
-0.20498
0.439713
0.203626
-1.69208
0.731925
1.10248
0.233803
-0.584457
0.713845
-0.0528959
-0.47118
0.607035
-0.731316
0.42828
-0.935078
0.680284
-0.399349
-1.68661
-1.95171
-0.108849
-0.647609
0.701664
-0.60531
0.773843
1.12186
2.15246
-0.735684
0.861847
-0.0561513
-0.268042
-0.665602
1.66453
0.826897
0.326874
-0.460746
-0.488225
-1.08689
-0.91103
1.05199
-0.952316
0.320456
0.876015
0.237405
1.65045
-1.47252
0.352508
-1.31419
0.965414
1.27092
-0.49147
-0.28343
-1.1187
0.199092
-0.867896
0.445141
-0.257787
0.678191
0.316131
0.688698
0.701637
0.403615
0.218159
1.31742
-0.263337
0.80004
0.13868
1.28327
-0.359128
-0.47687
-0.292656
0.288599
-0.614582
-0.0599054
-0.954973
-1.07471
-0.891834
0.374993
-0.0720817
0.897182
0.186934
-0.716863
-0.535469
1.80813
0.431761
-0.750433
0.205991
-0.03973
-1.51466
-0.519485
-0.954396
-0.368569
0.958647
0.825832
-0.932346
-0.227315
1.68412
-0.551421
-1.40331
1.26288
0.171709
0.93347
-1.19615
0.532742
0.408489
0.421944
-1.58538
0.0551095
-0.194504
-0.705562
-0.499026
-0.407508
-1.25822
0.531795
-0.725466
0.779461
1.33789
-0.570778
0.427798
-0.559378
0.381591
0.239341
1.27982
-0.842461
-0.108478
1.555
0.156883
-0.224036
-0.12978
-1.9677
-0.464644
1.84235
1.31995
-1.07583
0.057112
0.139502
0.729816
-0.233077
0.726929
-0.597329
-0.86141
-0.722322
-0.776366
-0.713574
-1.30333
0.835119
0.226707
0.107945
-0.688851
-1.28611
-0.40651
-0.327784
-1.14963
-0.47082
2.19626
-1.53101
-0.63226
0.534305
0.799265
-0.384204
-0.659114
-0.661527
-0.252195
-0.380028
-0.811647
0.397882
-0.836078
-0.0852389
-0.300602
-2.25885
-0.32022
-1.06162
-0.433327
1.22922
-0.989478
1.18124
1.36659
-1.18316
2.17938
-0.295376
-0.967649
-0.690611
1.49329
-1.84072
0.571589
-0.789666
0.628117
-0.97673
-0.567117
-0.125601
-0.188195
0.704863
-0.328842
0.593954
-0.894475
0.739127
-0.192554
0.290875
-0.69087
-0.333562
1.04344
-1.51407
-0.263978
0.215324
-1.25984
-0.611761
-0.415126
-0.986955
-0.283627
0.206447
-0.295291
-0.50975
0.0416682
-1.41844
1.27367
0.230318
-0.901584
-0.254236
-0.405778
1.60802
1.51919
-1.13881
0.965416
-0.277518
-1.01467
0.0965636
-0.529651
-1.6463
0.191359
0.111615
-0.0584308
-0.494079
-0.191706
-0.92947
1.08387
0.288278
0.725375
0.802642
0.337847
-0.114934
0.591992
-1.75802
0.167218
-1.20835
1.3483
1.14537
2.00947
-0.589204
1.50408
-0.460839
0.316066
0.418662
-0.929737
0.597109
-2.64438
-0.610301
-0.203746
-0.724006
-1.18437
-1.00974
1.22265
0.162681
1.21136
-0.124164
0.352788
-0.0558594
1.5918
1.91349
-0.639334
1.64948
0.341151
1.15555
0.399449
1.44311
-0.97904
0.689322
1.21961
1.00375
0.225911
-1.23637
-0.00260468
-0.288454
0.29461
-0.280341
-0.22809
0.67573
0.927993
1.08791
-0.136523
-1.18092
1.00448
-1.77094
-1.45867
0.668142
0.788561
-0.0510992
0.584291
0.550972
-2.16129
-0.577148
0.129369
0.232182
-0.0614386
0.742975
-0.351418
2.35004
0.20261
0.538678
1.57566
-0.186946
0.598071
0.312732
0.0112944
1.89737
-0.319267
0.0197326
-0.36304
-1.56377
0.33357
0.197265
1.01689
-0.319787
-0.0596461
-0.42972
0.0214386
-0.0839229
0.401693
0.805698
-1.40987
-1.06396
-0.0566214
-0.0572611
2.01842
1.44745
0.0249764
-1.68876
-1.90601
-0.205897
-0.670114
2.15076
-0.110855
0.162236
-0.543463
-1.13812
1.67865
0.0346308
0.448496
-1.16867
-0.746985
0.922391
-0.187273
-0.097087
-0.114476
-1.76596
-0.166497
-0.464783
1.01661
1.95731
0.0936592
1.03939
0.175356
-0.057086
-0.377118
-0.246345
-0.0894109
0.00471795
-3.12668
-0.0246105
-0.680386
-1.56876
3.01612
-1.53583
1.20873
-1.07869
-0.326784
-0.993736
-0.511055
-0.312059
0.7436
0.638725
-2.31415
-0.346305
-0.517838
0.195499
0.505282
-0.713177
-0.901388
-0.797119
-2.57174
1.02642
-0.266651
0.381559
1.15745
0.738961
0.691598
-0.438769
1.56852
-0.594072
2.29235
-0.00296522
1.13994
-1.75348
0.90409
-0.487922
-0.407297
0.108668
-0.271798
0.438088
0.604977
0.37213
-0.276058
-1.21158
-0.556763
2.03958
0.334428
-0.425157
2.21707
-1.54742
-0.280333
1.73558
2.59041
0.639527
0.768856
0.447747
0.0388987
-1.41037
0.948743
-0.746728
-1.05558
0.951384
0.809027
1.80929
1.52365
0.644793
-0.712196
-0.31318
-0.653164
1.64238
-0.288352
1.06199
0.327135
-0.75428
0.294754
2.15345
1.87398
1.07089
-0.351826
-0.874686
-1.41879
0.365588
0.146001
-1.56853
-0.0928943
-0.892234
-0.792803
-0.26057
-1.17378
1.22918
0.718638
-0.335489
0.667885
-1.01497
0.035711
1.02671
-2.07003
-0.271716
-1.09067
0.385824
1.05388
0.0640197
-0.227784
0.0776543
1.48812
1.51847
0.680873
1.6952
0.0259163
-1.1125
-1.42177
0.603457
-0.494494
-0.464117
-0.640228
0.318968
-0.325579
0.329651
2.64543
-0.425936
2.57942
-1.76081
-1.24679
0.553184
1.03435
1.08238
2.50599
0.193589
-0.375003
2.38102
0.545742
0.82257
-1.48612
-0.0129057
1.33276
-0.684081
-1.28364
0.493044
-0.0701515
-0.422421
-1.07877
1.03371
-0.0826558
-0.252884
-1.2409
-2.52117
-0.849666
0.0638282
-0.311641
-1.81419
0.0296537
-0.554237
1.41929
0.327022
-0.272878
-1.16129
-1.12704
0.232109
0.842413
-1.48138
-0.589691
-1.22555
-0.112988
0.231692
-0.702398
-0.0989182
-1.32497
0.287345
-0.585131
-1.20569
-1.22608
-1.51231
-1.22656
-0.321996
-1.20929
-1.28956
-1.61957
-0.90077
0.467124
-0.0764569
0.290255
2.17823
-0.686405
0.796382
-1.07882
-0.38341
0.716024
-1.23476
-1.61916
0.387173
-0.30463
-1.23412
-0.302592
0.189782
0.225256
-0.486285
-1.24961
-1.33247
-1.03517
-2.07441
-1.04482
-1.71309
-2.11168
-0.660233
-2.02169
-1.24438
-0.151186
0.432805
-0.194983
-0.097621
0.825403
-0.717484
-0.273731
0.878009
-0.857429
-0.152428
-0.517153
-1.85146
0.333482
0.229886
-0.0157036
-1.73159
-0.0371469
0.84985
-0.245952
-2.56882
-0.816698
-1.97517
-1.30159
-2.32126
-1.7419
-0.375225
-0.496918
-1.84441
-0.282719
-0.991388
0.799045
1.9954
1.02296
0.763824
-2.05664
-1.34503
1.16901
0.61947
-0.703522
-0.794772
-0.066734
-1.12602
0.382818
1.02083
0.234109
1.84276
1.99701
-1.80765
-0.833667
-1.88027
-0.870061
-0.0625906
-1.78647
-0.639845
-0.752511
-1.42185
-1.30616
0.406024
0.961135
-0.261654
0.301897
-0.11469
1.08871
-0.131663
1.06543
-1.50207
0.599631
0.213406
-0.466865
-1.02811
-0.239063
-1.45
0.840359
-0.287055
0.714601
0.819768
-0.761031
-1.43383
-0.543565
-1.26583
-0.602161
-1.44807
1.65715
-0.564114
-0.944867
-0.947502
-1.43352
0.94152
-0.57076
0.9539
-1.09378
0.672135
-0.123926
-0.102432
-0.722611
1.66756
0.401828
0.0387132
0.0236633
0.836996
-0.597253
1.40883
-0.227422
0.405553
-0.0462343
-0.02189
0.719945
0.0243814
0.157026
0.183274
1.47554
1.28904
1.81936
-0.173438
-1.43882
0.780649
-0.148951
0.30395
-1.08245
0.539373
-0.655344
0.994479
-0.814926
-1.36976
-1.32796
0.995157
0.439524
-0.361988
0.149601
0.156138
0.621672
0.593311
-0.453326
-0.741748
-0.699745
0.0877891
0.465741
-0.0240606
0.0277995
-0.349243
2.1513
-0.107784
-0.512472
1.24858
-0.48922
-1.4763
-0.959792
0.650938
-0.57517
0.662065
-0.367731
-0.188172
0.939652
0.864745
-1.22824
0.0660954
0.137963
-0.0232886
0.288429
-0.0688367
0.542874
0.78428
0.64628
-1.32439
0.738534
0.218757
2.14418
-0.823186
0.305662
-0.715907
0.955851
-0.165762
-0.550025
0.552988
-0.475148
-2.67577
-0.558337
0.612074
-0.325723
-0.338865
-1.81625
0.190981
-0.167139
0.199554
-0.217603
0.281153
0.634933
-1.30071
-1.12774
0.957028
-0.407918
-0.230864
0.0916291
0.172219
-0.27428
-0.309405
-0.273133
1.0272
-0.134885
-1.31659
1.02496
-1.02959
-0.248349
1.17445
-1.14998
0.830202
1.13984
0.105007
0.573201
0.105199
0.719061
-1.62764
0.755264
1.38019
-0.27291
-0.639142
-0.13364
-0.802206
0.0155926
0.810527
-0.127398
-0.580292
-1.24211
0.177479
-0.196668
-0.667797
-0.584372
0.851469
-0.0871254
0.124884
1.08033
0.753655
1.01813
-0.76631
-0.456752
1.23426
-0.399084
-1.12226
-0.399619
-0.524425
-0.960377
0.589582
0.609036
-1.8551
-0.199007
-0.411673
0.780727
-1.62308
1.09386
-0.620872
2.30704
-0.23496
-2.04515
-1.40378
0.775978
-0.768759
-0.688869
-0.0535541
-0.971453
-2.26536
-1.3918
-0.686924
0.384836
0.295
2.1719
0.233796
2.25833
1.3093
1.25259
0.134007
1.34301
0.321295
0.727353
-0.445706
0.673655
1.74205
-0.736853
0.0408758
-0.516446
0.597589
-0.0643784
1.87849
-0.0830913
-1.25338
-1.55341
-0.995049
0.965024
-0.634739
-0.550194
-0.553109
-0.17351
1.03658
-0.778801
0.988841
0.482235
2.10286
0.944211
0.258912
0.1922
0.920469
-0.163908
0.530657
0.74416
-0.9424
3.10256
-0.488863
0.012449
0.878305
0.163144
-0.0256722
-0.39079
0.181345
-0.495232
-1.32491
1.23158
-1.71666
-0.83044
0.68899
0.349677
-0.717499
1.8916
0.108023
1.6073
0.115275
-0.0129874
2.272
-0.0169407
0.871017
1.56286
-0.0843689
0.5062
-0.869008
0.463671
-1.34902
-0.00837711
1.62556
1.02002
-0.159386
-0.485891
0.773743
0.331843
0.260309
0.450672
-0.372654
1.07411
-1.91951
-0.491473
-0.0271999
0.556292
-0.0868034
1.54276
1.0388
0.980166
0.818137
-0.154753
0.00128289
0.831737
-0.209888
0.602608
-1.01377
-0.730363
0.183995
-0.47238
1.35257
-0.594252
-0.158366
0.411115
2.34145
1.13702
0.42991
-0.704391
-1.09691
1.38993
0.610424
-0.619779
-0.00998933
-0.518218
0.556889
-0.238845
-0.286698
0.737055
-0.447069
0.983867
-0.607525
1.42855
0.76526
0.83002
0.305198
-1.54471
0.288693
-1.22345
2.05034
-0.373516
0.348101
-2.51643
-0.118743
-0.813226
0.427601
0.295464
-1.75239
1.3131
0.659818
-1.184
-2.25613
-0.708076
-1.36931
-1.68728
-1.7764
-1.33776
0.0427975
-0.966961
-1.26989
-1.35431
-1.25605
-1.13862
-0.777623
0.799804
-0.310083
-0.917428
-0.202695
-1.22964
-0.425581
-1.83087
-0.558993
-0.477947
-1.96761
-1.40633
-0.571392
-1.07809
0.115639
0.426598
-0.952393
0.634984
0.372071
0.183679
-0.142459
-1.39671
0.775149
-0.862733
-0.650842
-0.596645
-1.05429
-2.28972
0.257666
-0.568594
-0.0747231
0.536634
-0.785715
0.0334505
-0.583689
-0.0757871
0.318044
-1.10951
-0.290384
-1.00045
1.49901
-1.52969
-0.170057
-1.35114
-0.815664
0.0012859
0.377933
-1.17284
-1.43079
0.0660795
-0.384387
-1.84538
-0.244387
0.404731
1.24027
-0.190646
0.493445
1.14118
0.179754
1.47847
0.449628
1.18316
-0.216591
1.53842
-0.653481
-0.994497
1.35348
-0.42587
0.684693
1.24985
-0.466604
1.5492
-0.811646
1.51682
-0.191229
-0.0189287
1.1563
0.949481
0.407754
1.17267
-0.927732
1.51568
-1.31424
-1.03
-0.0568959
0.223801
1.96383
0.947009
0.379609
0.568337
-0.947043
0.509934
-0.150225
-0.684812
-0.792713
0.210025
-0.878443
-1.15924
0.0651531
0.815851
1.31702
-1.07428
0.778266
-1.35673
0.64957
-1.6339
0.0206734
-1.17569
-0.11964
0.606592
-1.6527
0.162444
0.360677
0.436913
-0.487002
1.03036
0.677849
-0.880036
-2.10802
0.74229
-0.194994
-0.563576
0.098103
0.228617
-0.292043
-1.18182
-0.954869
-0.0569363
2.13736
-1.25159
0.725541
-1.65065
0.923759
1.1345
1.8392
-1.20756
0.674321
-1.11038
-0.211898
-1.06055
0.798421
0.104531
0.995171
0.777483
0.0828938
0.840379
-0.0473027
-1.09002
2.28418
-2.01037
1.28251
-0.239722
0.549645
-0.0835408
-0.0295687
-0.611284
0.7377
0.624188
-0.639159
-0.453151
0.523191
-1.69279
-1.23457
-0.0287401
-2.0801
-0.481355
0.57685
-1.5381
0.299409
0.716356
-0.295963
1.46154
0.56963
-0.972949
0.381091
-0.103805
2.30502
-1.42244
-0.635238
0.995114
0.396981
2.10308
1.61876
-1.39334
-1.41305
1.266
0.364809
-2.28784
-1.13204
0.0873536
1.96016
-1.08447
2.21997
-0.37648
2.30999
-2.04195
-2.06285
0.164709
0.556183
-0.390906
-1.58624
1.54343
0.165309
-1.02681
-0.909283
1.36728
1.85649
-0.978031
0.138473
-0.622121
-0.0816777
-0.558373
0.554359
0.773169
0.0862989
0.294636
-1.3147
0.616022
-0.680734
0.422141
-1.56908
-1.50326
-1.85056
-0.596602
0.879154
-1.19068
-0.485214
1.99486
-0.813322
-0.830776
1.40793
-2.25275
1.23855
-1.48503
-0.909541
1.13262
1.25381
0.76847
-0.613654
2.02985
-2.39027
-1.78968
-0.0899806
-0.549353
0.0364259
-3.37585
0.842838
0.435175
0.484749
1.32398
-1.14107
0.314011
1.03093
-0.0102584
-0.146023
-0.428761
-0.00690897
1.14646
-0.352673
0.541993
0.516874
0.508736
0.461165
0.117746
-2.22408
0.29687
-0.97786
0.4122
-0.423479
-0.293445
-0.313276
0.531328
1.45782
0.486496
-0.202542
-1.16829
0.406118
-0.219853
-2.08279
0.58643
0.445055
0.417816
0.722364
-0.300531
2.12915
0.521222
0.499197
0.228694
-1.07089
-0.159223
-1.53233
-0.07969
-0.910518
1.27591
-1.84617
-0.235886
0.24034
0.806012
-0.23482
0.383384
-0.512239
-0.570733
1.34996
1.42682
-1.24312
0.545202
-0.351235
-1.03901
0.692669
-0.180108
0.409991
2.42188
0.509202
-0.669996
0.448438
1.29845
0.404861
-3.43935
-0.430031
-0.94965
-1.14182
-1.60561
-0.130346
-0.316539
0.191462
-0.147826
-0.879505
-0.318515
-0.650711
-1.19949
-0.437863
-0.150014
0.724113
-1.507
1.36484
-0.413311
-0.276761
0.435485
-0.970139
0.413291
-0.152468
-0.248912
-0.361257
1.13804
2.30904
0.556368
0.293851
-1.20896
-1.32903
0.676426
-1.19145
-0.79944
-1.36506
-0.816522
-0.195036
0.834372
-0.898395
0.395016
0.0338259
-0.152666
-1.20589
0.205287
-0.0395746
-0.551767
-0.906349
0.0109071
0.691618
-0.67053
2.38471
2.41272
0.0180262
-0.48899
-1.73155
-1.41531
-1.47854
-1.01584
-1.12537
-0.223928
-0.973331
-0.481757
0.0316992
-0.0394386
-1.2011
0.232274
0.193233
0.155068
-1.51659
-0.169087
-0.750135
1.38927
-0.0912283
-0.0647312
-0.128645
-0.029227
-0.526709
1.70486
0.974083
-0.357534
-1.48848
1.08241
-1.15008
-0.949282
0.43939
-1.03037
-0.332957
-1.3834
-0.159558
0.525901
0.438333
1.06948
-0.367923
-0.326003
0.322796
-1.54842
-0.36065
-1.24385
-1.55383
-1.40842
0.407565
-0.996343
-0.457382
-0.7466
-0.715376
0.619766
1.03038
1.38352
0.61986
-0.371177
-0.624934
-1.61207
-1.35828
-1.77267
-0.707426
-0.329575
0.356166
1.04782
-0.235471
0.608753
0.654539
-0.383029
0.679423
-1.54299
0.534651
-0.78598
-0.299739
-1.8731
-1.75505
0.282408
-1.3362
-0.174019
-1.17006
-1.60887
0.176847
0.219517
0.827144
-0.42755
-0.284658
-1.0787
0.12767
-1.27508
-0.335996
0.202328
0.833334
-0.263521
1.02565
0.578488
-0.0465041
0.27868
0.497906
2.0289
2.87887
0.124862
-0.916429
-0.258663
-0.472048
0.106928
0.429626
0.563447
-1.47887
-1.0806
-0.265815
1.68444
-1.33224
-1.6257
-0.432749
-1.89343
-0.650999
1.74515
-0.47048
2.05281
1.25373
0.883049
0.679018
-0.0196062
0.506899
0.0576208
0.169815
2.9694
1.26644
1.31593
0.36496
-0.130206
-0.610245
0.0124562
-0.134394
0.239782
-2.02793
-1.13157
-0.317386
0.0210374
0.0929529
1.8445
2.07897
-0.876678
0.0975277
-0.0882416
-1.43994
-1.14101
0.530121
0.138135
0.041471
0.748641
1.28803
1.44905
2.02652
0.846518
0.293075
0.569978
0.247228
0.688142
-0.303255
-0.806547
-0.312932
-0.437948
-0.427045
-0.960888
0.366958
0.237123
1.60831
0.367603
-0.0372154
-0.950652
0.0690182
0.698565
1.05904
0.992827
1.28177
0.73719
1.10403
0.756532
0.794314
-0.570837
1.34304
2.47656
0.898274
-0.0551059
0.461492
-0.599433
-0.374922
-0.0983139
-0.503378
-0.15862
-0.815447
-1.97206
-0.417194
-1.14144
1.57923
0.332648
-0.274493
0.274683
-1.09404
0.252898
-0.627607
-0.126364
0.0251919
0.0860782
0.805029
-0.0997534
0.320928
0.679949
0.977455
1.3884
0.600568
-0.534263
0.235192
-0.671374
-0.423643
-0.373531
-1.30591
-3.45782
0.544674
0.0983093
1.09989
-0.998834
0.866675
-0.0762385
-0.900859
-0.443573
-1.30577
0.192481
1.39953
0.765284
-0.614707
0.210172
0.21502
0.528663
0.726951
0.551615
2.22382
2.21726
0.458365
0.959656
0.629569
1.61508
-0.409221
-0.492091
-0.36348
-0.00865796
-0.23266
0.0485363
-0.184962
1.33607
-0.91651
-1.65823
0.620995
-0.453057
-1.46701
-0.729394
0.581265
-0.189697
-0.214823
-0.0480301
0.639231
-0.0485276
1.12315
0.415966
1.96648
0.53396
-0.55886
-0.10579
0.0475968
0.634891
-0.250039
-0.817124
-0.0854294
-0.114774
-0.665775
0.181931
0.683674
0.701284
0.314015
-0.144226
0.634365
0.20034
-0.578617
-1.44817
-0.14047
0.622527
1.24245
0.0730691
-1.45038
-0.237895
-0.491709
-1.43819
0.321399
-0.160521
0.228701
0.934915
-0.898096
-0.930858
-0.130387
0.620246
-1.27069
-1.01273
0.150071
-0.473281
-0.0559508
0.803338
-0.368393
1.42604
-1.31776
-1.77301
0.649058
-0.356015
-0.503093
0.225945
0.633615
-0.526795
0.252
-0.330098
-0.790839
-1.60597
-0.490573
-0.0826734
-1.10131
-0.476551
0.148581
-1.13047
-0.0818473
0.777261
-0.994485
1.28204
0.903317
-0.490665
-0.617544
-0.643256
-0.610812
0.0536785
1.00124
-1.79694
0.17888
-1.41685
0.39685
1.72612
-0.865752
0.187107
0.340266
-0.217565
0.393007
-1.19644
0.687733
-0.401976
-1.3719
-0.277199
-0.0522208
0.683618
-1.2099
-0.158265
0.336492
0.572442
0.617411
0.312035
0.403319
2.72979
0.817773
1.13458
-0.140714
1.16214
1.48493
0.524552
0.970805
-0.981148
-0.359107
-0.118543
-0.232763
-0.293245
0.760639
-0.754942
-0.98766
-0.503767
1.12367
0.59322
0.697938
0.427966
0.600875
0.0563755
0.970106
0.857619
-0.308311
-0.123284
-0.715723
-0.904989
-0.0952466
1.82213
0.206778
-1.08828
-1.41548
1.19112
-1.3272
-0.652981
-0.0373795
-0.379577
0.993375
0.742431
-0.523502
0.60179
0.972803
-0.168698
-0.219158
-0.420291
-0.184829
-0.174355
-0.352655
0.724852
2.88632
0.45618
0.670449
0.826477
0.62856
-0.514814
-1.07667
-0.309313
1.14269
-0.32269
-2.47293
-0.0124698
-1.33904
-0.726091
0.1944
-0.407488
-0.356962
-0.285758
0.601249
0.220719
0.146622
0.607871
-0.248641
-0.541924
-0.380663
-0.992169
0.31964
0.739727
-1.08331
0.937504
0.680549
1.60358
-1.02599
0.363409
-0.129383
0.213355
-0.200261
-0.505336
-1.11112
0.870742
-0.940579
2.02355
-1.14341
-0.454369
1.20727
0.228099
-1.49808
-0.96631
-1.10395
1.3287
-1.1932
0.432049
0.213451
0.288186
-0.403937
0.0863502
0.988199
0.784601
-1.38083
-0.173179
1.1046
0.781708
1.16562
-0.152739
-0.27405
0.95202
-1.27348
-0.582424
-0.959878
0.729677
0.593613
0.687483
-0.0867265
-0.221642
-0.49543
0.275934
0.170495
-1.03598
-0.106688
-0.144145
0.0316951
0.973779
-0.375546
-0.944468
-0.117188
0.340799
1.11425
-0.170351
-1.10161
-0.643474
-0.958074
0.990802
-0.647173
-0.738545
0.941522
1.81726
-1.27251
1.06824
0.735268
-0.73168
0.360676
0.219306
-1.28803
-1.68048
0.578223
0.0676832
-0.173695
-0.937361
-0.529985
-0.796573
-0.748225
-1.07785
0.354084
0.705432
0.374085
0.269803
-0.53371
-0.311184
0.725277
0.690077
-0.569607
-1.73838
-0.775407
-0.0506487
-0.199472
-0.694318
-1.62418
1.31409
0.0584256
-0.777235
-0.990774
0.597174
1.18877
0.887447
-0.411355
-0.967015
1.17604
-1.7652
-0.594101
0.422123
0.475647
-0.920088
0.806187
1.5306
-0.768685
-0.97817
-1.4774
0.551686
-0.894324
-1.00483
0.0971885
0.801899
1.10539
0.178883
-1.06857
-1.23212
0.456131
0.347757
-3.15842
-0.762224
0.78264
2.55592
1.97202
-0.389323
-0.49096
-0.841707
1.24944
-1.15893
-0.48798
0.193072
-2.70486
-0.272714
-0.714198
-0.134935
0.782818
-0.0281065
1.03446
-1.94386
-0.547189
-0.0123504
0.870619
-0.157708
1.73109
-1.32398
-0.599076
0.635559
-1.3781
0.428821
1.34125
-0.270329
0.601427
-0.593991
-1.47721
-0.379898
-0.869872
0.358437
-0.292707
0.791241
0.904851
0.043333
-0.368695
-1.83168
0.191161
-0.101622
0.398648
1.02702
-0.0602096
1.97672
0.252228
-0.663928
-1.24069
0.296235
0.601796
-0.728653
-0.429956
0.0853665
0.887295
-0.0928692
-1.12465
0.221601
0.391897
-1.17577
-0.0931326
-0.767523
-0.282905
0.662597
0.448897
-0.441324
-1.13368
0.0313433
2.01538
-0.609504
-0.634029
0.766715
0.93224
-0.227922
1.50288
-0.0484268
-0.733404
0.745643
-0.268028
-1.54352
1.35818
-0.902031
-0.233986
-0.920312
0.597668
-1.2025
0.618479
-0.961072
-0.532751
-1.66964
-1.09734
0.0406472
-0.485102
0.0039223
-0.414071
-0.375445
-0.202846
-0.769519
0.946066
0.359532
-0.620973
-0.671439
-0.422164
1.64118
1.21835
-1.25959
1.05406
-1.79732
0.38388
0.231614
-0.835328
2.15413
0.523628
-0.387151
0.770927
0.493926
0.369224
-0.702561
-0.191965
-0.164673
-0.0194533
-1.31024
-2.32969
0.618198
-0.320698
0.484671
-0.548764
-0.0455051
-0.00647088
0.601576
0.799033
0.221807
1.51231
-0.0959546
1.41974
-1.46
1.34474
-0.238903
0.87515
0.95875
0.367856
1.22921
0.182966
0.318889
-0.912848
0.759425
0.448095
0.321027
1.06268
0.440791
1.25765
0.677896
-0.560821
-0.0222764
-0.848493
-0.553389
-1.679
-2.01751
1.25316
0.738844
-0.271549
0.260408
0.239807
0.0920719
0.702456
-0.278041
1.50411
-0.674594
-0.419313
-1.08407
0.604411
0.732427
0.00913956
0.296801
1.27504
0.305439
-2.02888
-0.629886
0.240381
1.22288
-0.634243
-0.327131
0.840808
0.115856
1.18436
0.952966
0.519384
-0.372269
1.76196
1.1438
1.00897
0.36307
0.499979
1.16655
-0.19435
-0.303731
1.97667
0.430014
0.914833
0.0579127
1.30587
1.15304
0.046314
0.14486
2.57268
1.1459
1.69201
0.0695207
1.65131
-0.828633
-0.723094
1.80557
0.305882
-1.08828
3.04167
1.62527
-0.53053
0.270596
0.51904
0.40729
-0.778541
-0.871162
-0.574432
0.662146
0.0869277
1.28941
0.331438
2.28653
1.01005
-0.131543
0.43621
1.04613
1.33372
0.749198
2.18182
1.64654
-1.40211
1.29226
-1.08586
-0.464346
1.8391
-0.113421
0.539797
-0.916586
-0.0419742
0.76376
0.41071
1.12835
1.11972
0.992725
0.0095748
0.672766
1.35217
1.24779
1.73421
-0.554331
-0.372081
0.459163
1.94931
-0.537069
0.76042
0.709456
1.58665
2.44708
2.0915
-0.178055
0.675817
1.46644
-1.51322
0.970292
0.323743
-1.37124
0.952383
-0.364374
-0.231991
0.799847
-0.606529
1.72914
0.919894
1.15724
1.02674
0.429515
-0.858652
1.16216
-0.280311
-0.239375
-0.534504
0.151596
-0.720089
-0.231017
1.38455
0.780992
0.706986
0.254375
-0.443885
-0.801579
-0.708515
0.0903744
1.02678
-0.928137
0.0545816
0.32784
0.950596
0.585401
0.855623
0.121365
1.44618
-1.81997
0.504054
-0.864288
-0.746653
-0.946547
0.23596
0.359712
0.0994981
-0.457087
0.0933401
1.64574
0.0679256
0.425965
-1.24465
0.495972
-0.146699
-0.608659
-0.594794
-1.13894
-0.110791
-0.422073
-0.823576
-0.359902
-1.08477
0.377864
-0.653888
-1.53267
0.301569
-1.51752
-0.770874
-1.2427
0.160822
0.748889
-0.77861
-0.204285
0.0996433
-0.975641
0.464675
0.129143
1.38058
-0.619493
0.0515123
-0.430408
-0.214524
-0.145391
-2.1697
-0.432963
0.303135
1.89904
-2.61241
-0.992837
-1.0339
-0.545578
0.0888395
-0.554424
-1.28148
0.0163191
-0.0525908
-0.508922
-0.933238
-0.861798
-0.641735
-0.0663975
-0.507516
0.232866
-0.881955
-0.346632
-1.17575
-0.795956
2.47411
0.853969
-1.09701
0.96389
0.460839
-0.97734
1.18058
-1.50199
-1.11161
-0.164245
-1.21311
-0.531888
1.04405
-0.0662161
-1.26141
-0.510634
-1.42626
-1.13278
-0.808257
-0.52095
0.223819
-0.959764
-0.932902
0.116467
1.14155
0.681308
1.8569
0.690872
-1.02851
0.641936
0.327537
-0.98134
0.170748
0.334814
-0.937279
1.82169
-1.61179
-0.776934
-0.65872
-0.480322
-1.25685
-0.733774
0.18698
-1.73234
-0.995613
-0.669545
-1.04308
-1.11027
-0.952912
-0.802289
0.424463
-1.13175
-1.1048
1.39758
-2.28369
-1.19419
0.894503
1.24079
0.688761
0.657177
0.445429
0.921053
-0.440533
1.69644
0.23499
-0.123218
-0.492107
-0.0969961
-1.51093
-0.480598
-0.543898
-0.573191
-0.591134
-1.3358
0.122243
0.242751
1.12483
0.145207
-1.00112
0.556706
0.607009
0.714549
0.00833035
0.609808
-0.525887
-0.142346
-1.75554
0.756064
-1.40694
1.59403
0.0292689
1.71133
-0.924505
0.263567
-0.50936
-0.0635959
-1.23964
1.03698
-0.50148
-0.964243
-1.38937
-0.477949
-0.0196666
-0.516821
-1.52709
0.493823
0.234248
-1.01933
0.831195
-1.27407
0.107858
0.0616259
-1.13889
2.00847
-1.19437
0.99956
-0.212338
0.977325
1.29485
-0.00559245
-0.814174
0.653127
1.53772
0.770656
1.24414
-1.36116
-0.236297
0.591069
-0.295887
-0.652664
-0.296937
-0.823547
-0.732661
0.110627
0.0941062
0.420777
0.569591
0.953853
1.06098
0.495797
-0.451402
-0.263285
-1.66655
0.029021
0.233052
-0.539617
-0.536323
-1.22082
0.582433
0.173091
0.0518293
-0.403911
0.641719
0.140534
0.223853
-0.12566
-1.1433
0.65641
-0.699866
1.10686
-0.627588
-0.338534
-0.783859
-1.08846
-0.747647
0.307128
1.7558
-0.630447
0.282169
-0.163769
1.56883
-1.23929
-1.17316
1.48669
-1.34785
0.373799
2.66066
0.487003
-0.514087
0.191681
0.205607
0.302508
1.1099
-0.741896
0.81154
0.475873
-1.37352
0.995577
0.399192
-0.47471
1.38792
0.185622
-1.1573
0.123393
0.900784
-0.24346
-0.243761
-0.552741
-0.746502
0.475924
0.421153
0.0181678
-0.406051
-0.0697312
1.08968
1.46839
1.50089
1.38885
0.474651
0.103612
1.48239
0.730277
-0.36624
0.546014
-0.280104
0.0437342
1.75045
-0.640238
0.320589
0.508257
-0.722921
0.148191
-1.68219
-0.923354
0.37067
0.683543
0.949002
-1.09304
-0.596152
-0.0656674
-0.872184
0.136485
0.578646
0.595326
-1.25794
-0.334099
0.205453
1.50396
0.134033
-0.321758
2.02907
0.456386
1.11229
0.380694
1.08178
-0.958456
0.411295
0.627468
-2.25633
-0.859498
-0.311187
-1.91367
-0.628591
0.889468
-0.513031
-0.319244
0.555678
0.293779
-0.0714521
-0.163051
-0.422532
-0.824261
0.262156
-0.936312
0.618644
1.03223
0.378873
1.00802
0.127896
0.653027
0.289524
0.496758
-0.903859
-0.567197
1.31954
-0.820731
1.45601
0.789449
-2.90013
1.60933
-1.30111
0.123041
-1.29129
1.54503
-1.79702
-1.88349
-2.03758
-1.43502
-1.62484
0.283907
-0.490774
-0.114076
-1.35241
0.719881
-1.59393
0.971255
-0.845917
0.594658
0.52571
0.467201
0.487829
-0.143153
0.600975
-1.94375
-0.784485
-0.824029
0.279483
0.0230044
-0.71959
-0.633273
-0.89209
0.980259
-0.991311
1.38883
-0.796348
-0.01348
0.499291
-0.181562
0.956887
-0.444152
-1.20274
0.416305
-0.52395
1.31357
-1.88191
0.993802
-0.438209
0.0551532
-1.56579
0.624213
-1.05662
0.176887
-0.871057
-0.659539
-1.1593
-1.83558
-1.25391
-0.305932
-1.01951
-1.24161
1.99267
1.20777
-0.30805
0.617042
-0.404313
1.60295
0.0165563
-2.20742
1.03245
-1.92879
0.81365
-0.116271
0.536242
-0.0686072
0.597993
-0.0334658
1.47241
-2.5606
1.30572
-0.935466
0.760969
0.120926
-0.21509
-0.808106
-0.610286
1.201
-0.471683
-0.942476
-1.04564
1.58445
-0.666808
-1.07883
-0.361968
-0.107506
2.55609
0.669581
0.296117
0.0302028
0.192045
-0.464925
-1.56983
-0.622327
-0.148374
-1.23557
0.139635
-1.29526
-0.297881
-2.21866
-0.50944
-0.720764
0.819972
0.116717
2.40188
-1.05997
-1.65856
-0.877855
-0.0446882
-0.699902
0.775047
-1.82346
1.00621
1.65986
0.128086
1.15784
0.524908
0.673684
0.11768
-1.73929
2.97324
0.649227
-0.490399
-0.960519
-0.911647
1.30943
-0.569862
-0.562329
-0.484242
-0.995358
1.17241
-0.258283
1.55523
0.434768
0.0126708
-0.349914
-0.107438
1.34481
-1.42531
-1.07144
-0.0952572
-0.821411
0.150801
-0.207033
-0.583071
0.555774
0.980362
-0.545371
1.13434
0.235775
0.256954
0.196088
0.300575
0.812876
0.835963
0.915651
0.410701
1.06974
-1.26286
-0.799961
-1.09166
0.159309
-0.392767
-0.337243
0.734198
-0.0737968
-0.636686
-0.00350608
-0.374344
1.56891
-0.0179579
-2.15117
0.3844
-1.42155
1.30098
-1.05354
0.531711
-0.146343
0.294375
1.04051
0.202306
0.436799
0.130367
-0.462207
-0.615681
1.36665
0.778157
-1.98883
0.670206
-1.83377
0.339049
0.706796
-0.431153
-0.0386579
-0.182664
-0.163746
-1.1775
-0.478547
0.462649
-0.610667
0.660175
-0.941221
-0.377091
0.72196
-0.338715
-0.758388
0.123634
-0.254261
0.155318
0.843129
0.553688
1.28816
0.588732
0.934086
0.478253
0.0906646
-0.430582
-1.43941
2.27622
0.743364
0.38974
1.43055
0.126886
0.696919
1.65705
-0.872277
-0.544578
0.327557
-1.39419
-0.201386
-0.291472
-1.38926
0.561195
0.876628
-1.45426
0.816998
-0.674792
0.496162
-0.386471
-1.05309
0.214549
-0.113256
0.70939
-0.291571
0.202791
-0.945255
0.0704394
0.894182
0.817571
-1.13594
-0.04863
-0.617426
0.152347
-0.392535
-0.137318
0.0257067
-1.03739
0.401493
0.413307
-0.655598
-0.144443
-0.435994
-0.586485
-0.0647847
-0.0208156
-0.404222
-0.276952
1.6225
1.51541
1.36287
0.0631566
-0.77053
-1.55809
-0.595368
-0.440975
-0.404272
0.565353
1.41017
-0.478354
-0.409838
0.693258
0.389446
-1.32376
0.199838
-0.548848
-1.21675
-0.0710056
-1.16482
0.425063
-0.0281173
-0.198361
-0.409943
0.265204
0.415758
-0.0760368
0.123198
-0.181742
1.27179
1.36467
-0.337832
-0.957323
-0.325923
0.480728
-0.475096
0.205943
-0.820707
0.571988
-0.123173
-0.189879
0.155692
-0.612754
-0.0820691
-0.390713
-0.394726
-0.296727
-0.014755
-1.54153
-0.118063
0.367379
-0.0569757
-0.106612
-0.423829
0.173951
-0.196824
-0.894201
0.485889
0.813044
1.05654
0.20039
-1.51768
1.0376
0.705253
-1.44628
-1.0823
-0.906456
-0.773723
-1.42576
0.673844
-0.19899
-0.680259
-0.746864
-0.786361
-0.43938
-0.545076
0.571285
-0.300329
0.0526581
-0.354592
0.407899
-0.458504
-0.22052
0.313918
0.681852
0.677101
-0.355023
0.588463
-1.17293
1.35121
0.379358
-1.00097
0.0117555
-0.191407
1.36186
-0.167468
0.154974
0.14109
-0.949258
-0.390996
0.340946
0.272189
0.877856
0.618918
0.0961323
0.561396
-0.572898
-0.349117
-0.382626
0.952485
1.00813
0.138321
0.577197
0.466318
1.438
-1.71754
0.950685
1.17696
2.52379
1.12609
0.214916
1.06509
0.0850732
-0.182462
1.15367
0.00394617
1.92414
1.15115
1.13072
2.23624
1.43855
3.45926
1.92558
0.41036
0.099387
0.67044
-1.6264
-0.136759
-0.413588
0.119025
-0.269348
-1.39925
0.445022
0.151011
0.341633
-1.0508
-0.468914
-0.495103
-0.627393
2.00943
1.00132
1.2611
2.29313
2.5075
1.97343
5.25626
3.323
2.61641
2.17711
2.08124
0.960724
0.435565
-0.176924
1.27271
1.10453
0.840173
-0.878298
0.300301
1.11185
-0.0424297
0.971528
-0.773892
-1.06982
0.27824
1.45014
-0.539427
0.884524
0.152382
-0.23275
2.47555
2.31328
2.57928
2.37011
0.661511
0.0301722
0.754105
-0.600193
0.207862
-0.0088006
0.857401
-0.520982
-0.436876
-0.340013
0.192743
1.06437
-0.554292
1.50378
0.900534
0.6245
1.41673
-1.23553
0.435564
-0.69624
-0.569644
-0.756775
0.704315
0.974641
0.936369
1.00325
0.556489
1.62219
0.184845
-0.797431
-0.0906521
-0.568638
-1.07497
0.540724
0.412991
-0.0986847
0.212068
-0.255419
1.16728
0.108099
0.905718
0.977855
0.156376
0.151435
-3.01894
-1.36936
0.602998
1.70182
-0.337521
1.32295
1.19641
1.56118
-0.499386
0.460948
0.794362
-1.73421
-0.227489
-0.116011
-1.24015
0.542026
-1.13471
0.57434
-0.727793
0.564707
-0.481441
0.499263
-0.635792
0.494164
-1.74281
1.4221
0.297833
-0.221148
-0.440706
-2.17715
-1.86244
0.138664
-0.256925
-1.33874
-0.845823
-0.678916
0.172689
-0.707795
-0.495004
1.1867
0.162457
0.176804
-0.0815123
-0.894036
-0.197046
-0.333934
1.08039
-1.51637
0.0221617
-0.215822
-0.500595
1.16698
0.415989
-0.428874
0.428625
-1.49854
-1.03704
0.521549
1.39817
-0.362907
-0.0353926
-1.28684
-0.137646
-0.649576
0.242392
-0.785655
0.0903277
-0.21957
-0.99107
0.0712173
-0.0599697
-0.990238
-0.524125
-0.396404
-1.01012
0.240114
-0.00824859
-1.79445
0.991721
0.235533
-1.27689
1.59323
-1.46279
-0.192303
-0.878915
0.262478
0.627457
0.161729
0.991595
-1.45469
0.528918
0.323236
-0.0424151
-0.751615
-0.721071
-0.300815
0.448343
0.0560398
0.626474
-0.67767
0.346984
-0.113557
-0.372035
-0.405589
-0.122187
1.62022
1.76435
-1.28328
0.94787
-1.14417
-0.384456
-1.86139
-1.21341
-0.664596
-0.066378
-0.310214
0.984147
-0.148557
-0.0442977
-1.21064
-0.9043
0.283571
-0.0126887
0.787533
-0.551609
0.367187
-0.537397
-0.488624
-0.469695
-0.74253
-0.778592
0.1422
-0.424163
-0.671022
-0.609167
0.195428
-0.471798
-0.122582
-0.241532
-0.579443
-1.24636
0.0108758
-0.439736
-0.831004
0.985097
-1.34473
0.0887898
-1.76301
-0.419158
-1.02905
0.0144456
-0.374594
-0.804598
0.055864
0.0524442
0.168287
0.141622
0.594949
0.328632
0.2236
0.720508
0.744069
-0.773902
0.265546
-0.227559
0.26861
-0.450642
-0.529873
-0.529125
1.09246
0.213862
0.894002
-1.09625
-0.703862
-0.545206
-2.31339
-1.32161
-0.453301
-0.21584
0.293013
0.177206
0.943207
-0.375061
-0.2694
-0.612865
0.0627583
0.869336
-0.140873
-0.829599
0.0358798
-0.377518
0.189248
0.718796
-1.09099
0.23685
0.876718
-0.420836
-0.31764
1.76955
-0.10928
-1.65332
1.3547
0.326076
0.336819
-1.00443
1.37189
-0.0245426
0.50226
-1.0228
-0.389324
-0.152447
0.440242
0.496627
0.510372
-0.151344
0.555233
0.636472
-0.0424835
-1.11532
-0.377257
0.203995
-0.742831
-0.714115
-0.435104
0.563705
0.440168
1.0343
0.317756
0.876488
1.53871
1.19275
-0.104525
0.495666
-0.488848
-2.13557
0.476729
-0.110379
1.61738
-1.18595
1.7594
-0.70589
0.548613
0.0413069
0.104256
0.939148
-0.583289
0.440371
-0.72942
-0.197569
1.027
0.246373
-1.17373
-0.987904
-0.261174
0.145036
-0.718576
-0.612683
0.238344
-0.108508
0.611858
-0.293842
-0.245285
0.8767
-0.609599
0.626334
0.250389
1.25255
-0.996217
0.706048
-0.726013
1.08293
-0.588164
0.456183
0.914545
1.66713
-0.90717
1.15533
0.677736
-0.698236
-0.416751
1.08473
-1.68151
0.604588
1.41558
-0.109133
